tree
version=v4
num_class=1
num_tree_per_iteration=1
label_index=0
max_feature_idx=17
objective=regression
feature_names=Archetype_Cluster count_pre_release_tracks max_single_peak_volume total_pre_release_auc terminal_velocity composite_peak_momentum expected_week1_carryover catalog_momentum_slope norm_terminal_velocity norm_total_auc hype_concentration peak_proximity_weeks cannibalization_ratio max_historical_week1_volume is_debut_studio_album historical_single_momentum momentum_growth_ratio momentum_baseline_interaction
feature_infos=-1:1:0:2:3 [1:11] [0.15493354000000001:75504.173984980007] [0.78020696234144538:586064.96816895751] [-4652.4197062240692:5950.1745318299018] [0.15375558970442357:73887.775385993606] [1.6920522683638949e-11:18428.69349494268] [-7229.7353489150037:10545.015679008571] [-0.45269721361380633:0.5] [0.5:20.953449511413364] [1.3173163562496917e-11:1] [0:25] [-0.61267983043558838:80289055.449041322] [0:845132.09538968001] none [0:41356.86829708] [0.010238691196256903:81388.518390553829] [0:27595414391.978519]
tree_sizes=1390 1549 1478 1562 1557 1392 1482 1579 1486 1655 1659 1574 1739 1556 1577 1574 1568 1745 1582 1738 1587 1745 1738 1739 1581 1673 1677 1579 1553 1675 1650 1578 1684 1509 1765 1669 1731 1675 1589 1677 1674 1644 1680 1676 1666 1583 1590 1699 1567 1583 1584 1756 1844 1764 1677

Tree=0
num_leaves=16
num_cat=0
split_feature=2 17 17 9 16 2 13 4 3 3 16 3 16 11 16
split_gain=119.447 26.7646 21.2959 6.22255 8.04599 4.42467 8.06656 4.22293 3.31272 3.28756 3.19468 2.31456 2.0985 1.44915 0.627591
threshold=4171.5580298800005 9496977.5528927576 214499512.02193192 12.110321316987681 1347.0604571551801 1760.3025559450002 23700.934490355005 -469.97464721058662 26345.197794446969 38857.859606527061 2566.6045492266999 12654.133846880772 1.3608155556958899 5.5000000000000009 506.48906238112733
decision_type=2 2 2 2 2 2 2 2 2 2 2 2 2 2 2
left_child=1 3 9 4 12 6 -3 -4 10 -2 13 -6 -1 -7 -14
right_child=2 5 7 -5 11 8 -8 -9 -10 -11 -12 -13 14 -15 -16
leaf_value=9.6285545087690156 9.6877722680732958 9.6158182523782134 9.733064559028902 9.6415378507127834 9.6479051475922226 9.6457230839140706 9.6529647334296378 9.6972469028719068 9.6429806878508106 9.6613618809590474 9.6792004685081903 9.6251727433658072 9.6029943226215284 9.6640361793836131 9.61426316910811
leaf_weight=20 20 22 27 35 23 21 39 22 29 33 20 20 48 20 59
leaf_count=20 20 22 27 35 23 21 39 22 29 33 20 20 48 20 59
internal_value=9.64737 9.63368 9.6948 9.62196 9.61802 9.64963 9.63936 9.7184 9.65666 9.67198 9.66321 9.63718 9.6117 9.65472 9.6088
internal_weight=458 356 102 205 170 151 61 49 90 53 61 43 127 41 107
internal_count=458 356 102 205 170 151 61 49 90 53 61 43 127 41 107
is_linear=0
shrinkage=1


Tree=1
num_leaves=17
num_cat=0
split_feature=2 17 17 7 7 6 4 13 2 4 4 3 2 9 4 3
split_gain=108.234 24.2265 19.293 19.0437 6.38573 4.73042 4.12613 3.78851 4.73301 3.59962 3.46492 3.32859 2.22232 2.66756 1.39847 1.02301
threshold=4171.5580298800005 9496977.5528927576 229495222.61316612 -181.42179648660644 327.00977530411024 55.285875971755324 -224.55520621101087 30817.445837855004 1845.440783405 -40.739933364254178 -607.82093926883078 38857.859606527061 704.42367613500016 4.8432799597658542 -13.51403501169222 4025.6619911333978
decision_type=2 2 2 2 2 2 2 2 2 2 2 2 2 2 2 2
left_child=1 3 11 -1 12 -3 -7 8 -8 -9 -4 -2 15 -14 -15 -5
right_child=2 5 10 4 -6 6 7 9 -10 -11 -12 -13 13 14 -16 -17
leaf_value=0.013627098133980201 0.039118448903217265 0.022537757071355982 0.084956529529198355 -0.04540549232959748 -0.0031594483838194888 0.013616139489141378 -0.034056347124278546 -0.0098528288794858844 -0.0038708551737756747 0.01938201341955435 0.051167508317874026 0.013312450053499026 -0.012907997618118922 -0.039140097584575415 -0.020552483458410611 -0.028339331762298293
leaf_weight=28 22 23 22 49 20 32 20 20 36 20 25 33 26 39 21 22
leaf_count=28 22 23 22 49 20 32 20 20 36 20 25 33 26 39 21 22
internal_value=0 -0.0130184 0.0451622 -0.0241724 -0.030223 0.00215097 -0.00161984 -0.00683806 -0.0151475 0.00475885 0.0685282 0.0242384 -0.0335972 -0.0273135 -0.03316 -0.0406539
internal_weight=458 356 102 205 177 151 128 96 56 40 47 55 157 86 60 71
internal_count=458 356 102 205 177 151 128 96 56 40 47 55 157 86 60 71
is_linear=0
shrinkage=0.05


Tree=2
num_leaves=16
num_cat=0
split_feature=2 2 17 7 7 1 13 9 16 4 8 9 13 9 8
split_gain=98.1042 21.9411 17.492 16.6255 15.5208 4.84501 4.44382 4.20707 3.54229 3.51315 3.01692 2.60843 2.10487 1.18631 0.359087
threshold=4171.5580298800005 2004.5959585950002 214499512.02193192 -181.42179648660644 507.13998032821422 1.5000000000000002 9168.8889112700017 7.5855328675783413 610.3019530959258 -469.97464721058662 -0.035260329300943555 6.1202309600232576 1302.4549603600003 7.4727153900401584 -0.035666764285024362
decision_type=2 2 2 2 2 2 2 2 2 2 2 2 2 2 2
left_child=1 3 11 5 6 -1 8 10 -5 -4 -3 -2 -10 -14 -8
right_child=2 7 9 4 -6 -7 14 -9 12 -11 -12 -13 13 -15 -16
leaf_value=0.0261392871574277 0.036397386336965223 0.0045547074830215991 0.077768012923853741 -0.042470648094807585 0.015648262898127239 -0.0078148331683838661 -0.021927371606940319 -0.005359985187578087 -0.015052356680460051 0.045096317762913909 0.027024742963413395 0.012800909662139877 -0.022666871684562901 -0.042366071709177708 -0.011680029022597498
leaf_weight=20 20 32 27 72 20 20 20 38 32 22 29 33 22 21 30
leaf_count=20 20 32 27 72 20 20 20 38 32 22 29 33 22 21 30
internal_value=3.70059e-06 -0.0123882 0.0430029 -0.020076 -0.0255249 0.00926374 -0.029788 0.00752008 -0.0342262 0.0643944 0.0155814 0.022307 -0.025791 -0.0331453 -0.0162266
internal_weight=458 356 102 257 217 40 197 99 147 49 61 53 75 43 50
internal_count=458 356 102 257 217 40 197 99 147 49 61 53 75 43 50
is_linear=0
shrinkage=0.05


Tree=3
num_leaves=17
num_cat=0
split_feature=2 2 13 7 13 3 16 11 16 7 2 11 9 4 7 9
split_gain=89.1813 29.2106 16.9065 13.9652 9.30675 7.92292 5.64211 4.29489 3.66653 3.56514 3.4499 2.64893 2.47052 2.28795 0.92129 0.250714
threshold=5889.1846914750013 2067.2459542500005 23700.934490355005 -237.68565767892767 19277.014054785006 17564.044669035011 610.3019530959258 7.5000000000000009 6.9713942603339616 103.889970033393 3848.3495165100003 13.500000000000002 4.8432799597658542 -607.82093926883078 96.445270017500235 9.5866646382164422
decision_type=2 2 2 2 2 2 2 2 2 2 2 2 2 2 2 2
left_child=1 2 3 -1 -2 8 14 -4 -3 10 -7 12 -8 -6 -5 -14
right_child=4 5 7 6 13 9 11 -9 -10 -11 -12 -13 15 -15 -16 -17
leaf_value=0.010495698365569116 0.027959399788544094 0.005328077817047458 -0.0048844825170402013 -0.041700805429783133 0.081754427779288527 -0.022289708887413148 -0.0094877664744853971 0.025005548309002607 0.032188342902343722 0.01346475375350565 0.0048529228419912137 -0.0060481124013089214 -0.035047111089601561 0.050065132538703351 -0.025713945680430964 -0.023007418617960955
leaf_weight=24 28 20 27 71 20 24 20 20 39 25 21 25 33 21 20 20
leaf_count=24 28 20 27 71 20 24 20 20 39 25 21 25 33 21 20 20
internal_value=1.12594e-05 -0.00930495 -0.0189385 -0.0249127 0.0519871 0.0100695 -0.0294669 0.00798648 0.0234071 -0.00127317 -0.00968431 -0.0206692 -0.0254595 0.0672209 -0.0385592 -0.0311066
internal_weight=458 389 260 213 69 129 189 47 59 70 45 98 73 41 91 53
internal_count=458 389 260 213 69 129 189 47 59 70 45 98 73 41 91 53
is_linear=0
shrinkage=0.05


Tree=4
num_leaves=17
num_cat=0
split_feature=2 2 7 7 17 1 13 9 7 6 16 16 13 10 9 4
split_gain=80.8508 26.4596 13.8295 13.457 9.81855 4.404 3.53667 3.35844 5.46884 2.82818 4.0316 2.82324 1.9067 1.43068 1.06484 0.990457
threshold=5889.1846914750013 2004.5959585950002 -181.42179648660644 507.13998032821422 278891020.22308695 1.5000000000000002 9168.8889112700017 7.5855328675783413 103.889970033393 1927.8883429890623 6.9713942603339616 610.3019530959258 1302.4549603600003 0.1632880458722426 7.3961638647616414 -607.82093926883078
decision_type=2 2 2 2 2 2 2 2 2 2 2 2 2 2 2 2
left_child=1 2 5 6 -2 -1 11 9 -9 10 -3 -4 -13 -8 -14 -6
right_child=4 7 3 -5 15 -7 13 8 -10 -11 -12 12 14 -15 -16 -17
leaf_value=0.024667592270388491 0.025078091824363019 0.005345867517124861 -0.03847302664938855 0.015162918383166905 0.076135050915181635 -0.0076956106917489137 -0.0040139147781190418 -0.01286149618900655 0.019586240522677101 0.00023644202429315317 0.032657200979507146 -0.013350118696125169 -0.020227501265365971 -0.021761232317245055 -0.038777328140061837 0.050161750884283152
leaf_weight=20 28 24 72 20 21 20 20 33 20 22 33 32 21 30 22 20
leaf_count=20 28 24 72 20 21 20 20 33 20 22 33 32 21 30 22 20
internal_value=1.97309e-05 -0.0088502 -0.0181784 -0.0231488 0.049509 0.00857101 -0.0271205 0.00927406 -0.000388515 0.0157429 0.0215343 -0.0310876 -0.0235189 -0.0149782 -0.0304974 0.0650802
internal_weight=458 389 257 217 69 40 197 132 53 79 57 147 75 50 43 41
internal_count=458 389 257 217 69 40 197 132 53 79 57 147 75 50 43 41
is_linear=0
shrinkage=0.05


Tree=5
num_leaves=15
num_cat=0
split_feature=2 7 17 17 7 9 2 2 4 3 7 2 16 6
split_gain=73.7438 17.5751 18.6942 13.3137 5.52319 4.6067 5.92661 4.5694 2.737 2.46007 1.84035 1.8608 1.37699 0.685598
threshold=4171.5580298800005 -392.82494823421467 11642362.09701704 214499512.02193192 405.97755682732122 12.110321316987681 2067.2459542500005 1650.0315421400003 -370.08186279707149 38857.859606527061 -101.91923575932165 2878.662865535 1347.0604571551801 26.060574577084999
decision_type=2 2 2 2 2 2 2 2 2 2 2 2 2 2
left_child=1 -1 5 9 7 6 12 -4 -5 -2 -9 -12 13 -3
right_child=3 2 4 8 -6 -7 -8 10 -10 -11 11 -13 -14 -15
leaf_value=0.025286219616931296 0.032848344556100313 -0.02453864298559524 -0.016654023902490735 0.066764966351290547 0.024728413920938261 -0.0058224391104543909 -0.00074727945384525131 -0.0072756573371589185 0.037661906353064947 0.010126620168277228 0.021435481384396556 0.00058963138454904166 -0.018624898788752033 -0.03543627127319917
leaf_weight=30 20 36 39 29 20 33 20 20 20 33 20 23 29 86
leaf_count=30 20 36 39 29 20 33 20 20 20 33 20 23 29 86
internal_value=2.87521e-05 -0.0107136 -0.014109 0.0373104 0.00133856 -0.0233331 -0.0266298 -0.00339469 0.055977 0.019243 0.0048673 0.0106658 -0.0299976 -0.0324869
internal_weight=458 356 326 102 122 204 171 102 49 53 63 43 151 122
internal_count=458 356 326 102 122 204 171 102 49 53 63 43 151 122
is_linear=0
shrinkage=0.05


Tree=6
num_leaves=16
num_cat=0
split_feature=2 17 7 17 7 2 7 9 6 9 9 2 16 6 4
split_gain=67.243 21.9643 14.4369 7.99866 4.80111 4.59063 4.31978 2.85822 3.06638 2.46823 2.24 3.57468 2.16687 0.828342 0.807723
threshold=5889.1846914750013 11642362.09701704 -360.57214721232117 278891020.22308695 203.72095377464345 1650.0315421400003 339.19582444910822 5.0959463132892084 1126.6306546641174 12.110321316987681 6.9604501526427116 1056.1523940700001 1914.8078352365626 26.060574577084999 -607.82093926883078
decision_type=2 2 2 2 2 2 2 2 2 2 2 2 2 2 2
left_child=1 2 -1 -2 5 -3 9 12 -9 10 11 13 -7 -4 -5
right_child=3 4 6 14 -6 7 -8 8 -10 -11 -12 -13 -14 -15 -16
leaf_value=0.021405247259840728 0.023065150878552737 -0.012986712203826757 -0.020552228240539202 0.069314821677451774 0.021367930549267361 0.0047608504927761502 -0.00099510383994682976 0.012759721849275674 -0.011868642605841161 -0.010570301329096159 -0.034980612133319176 -0.0096920787282288087 0.028403668126889638 -0.036275114998702084 0.045633206963539119
leaf_weight=20 28 39 22 21 37 20 22 22 27 29 62 39 20 30 20
leaf_count=20 28 39 22 21 37 20 22 22 27 29 62 39 20 30 20
internal_value=3.93342e-05 -0.00804887 -0.0182186 0.045173 0.00575373 0.00107084 -0.0222131 0.00736229 -0.000676968 -0.0247312 -0.0272967 -0.0216838 0.0171087 -0.0302308 0.0592434
internal_weight=458 389 224 69 165 128 204 89 49 182 153 91 40 52 41
internal_count=458 389 224 69 165 128 204 89 49 182 153 91 40 52 41
is_linear=0
shrinkage=0.05


Tree=7
num_leaves=17
num_cat=0
split_feature=2 7 13 17 2 4 16 11 9 4 9 7 11 4 8 7
split_gain=60.9711 14.7881 15.4079 10.9276 9.53094 5.88551 3.68516 2.68071 2.83463 2.29049 2.064 1.28239 0.698637 0.608974 0.502927 0.234892
threshold=4171.5580298800005 -392.82494823421467 21865.883839710004 214499512.02193192 2160.1210033650004 -37.739361396225654 610.3019530959258 13.500000000000002 4.8432799597658542 -370.08186279707149 6.1202309600232576 1.0000000180025095e-35 14.500000000000002 -123.97887339402162 -0.059524673853653363 5.1904934533927998
decision_type=2 2 2 2 2 2 2 2 2 2 2 2 2 2 2 2
left_child=1 -1 4 10 6 13 12 8 -8 -5 -2 -6 15 -4 -10 -3
right_child=3 2 5 9 11 -7 7 -9 14 -11 -12 -13 -14 -15 -16 -17
leaf_value=0.023296342185668409 0.030029605057622706 -0.037545181431553581 0.0010304662079683373 0.060735608602563544 -0.0058417467576348126 0.023655750610632825 -0.0051395689763806089 -0.0027974039309525064 -0.034654532173140483 0.034104415618237995 0.0091957673068870528 0.0097039018970515069 -0.021466939750782871 -0.010911607413242262 -0.021807897889779673 -0.026602362774179451
leaf_weight=30 20 43 20 29 35 31 21 27 21 20 33 20 26 20 35 27
leaf_count=30 20 43 20 29 35 31 21 27 21 20 33 20 26 20 35 27
internal_value=4.64948e-05 -0.00972044 -0.012836 0.033947 -0.018562 0.00763167 -0.0236087 -0.0167036 -0.0214174 0.0508652 0.0175607 -2.71597e-05 -0.0307883 -0.00493912 -0.0272366 -0.0338289
internal_weight=458 356 326 102 255 71 200 104 77 49 53 55 96 40 56 70
internal_count=458 356 326 102 255 71 200 104 77 49 53 55 96 40 56 70
is_linear=0
shrinkage=0.05


Tree=8
num_leaves=16
num_cat=0
split_feature=2 17 7 17 7 7 7 2 6 5 9 9 4 4 9
split_gain=55.8892 17.9335 12.1331 6.54482 4.2651 4.20329 4.17165 3.45463 1.80132 1.76749 1.78674 1.88731 0.662353 0.656002 0.429316
threshold=5889.1846914750013 11642362.09701704 -181.42179648660644 278891020.22308695 203.72095377464345 -276.29231132732122 339.19582444910822 1650.0315421400003 965.66620346198442 666.2446228260967 4.8432799597658542 10.870392514082271 -12.282481329038296 -607.82093926883078 6.9604501526427116
decision_type=2 2 2 2 2 2 2 2 2 2 2 2 2 2 2
left_child=1 2 -1 -2 5 -3 9 -7 -9 14 -11 12 -12 -5 -4
right_child=3 4 6 13 -6 7 -8 8 -10 10 11 -13 -14 -15 -16
leaf_value=0.012641591718570599 0.021148523729422997 0.016490970078448301 -0.024510534744004945 0.063107869591225274 0.019857773667103368 -0.017275623389081483 -0.00033800552680116633 0.01090297677088529 -0.0055917393438079778 -0.0082026129792774887 -0.03278487494111889 -0.0091529159642578586 -0.018497513069638188 0.041519139267149424 -0.03604062794925994
leaf_weight=30 28 31 36 21 37 33 22 31 33 30 35 20 20 20 31
leaf_count=30 28 31 36 21 37 33 22 31 33 30 35 20 20 20 31
internal_value=4.58027e-05 -0.00732707 -0.0165168 0.041194 0.00514284 0.000729581 -0.0210931 -0.00437342 0.00236579 -0.0237016 -0.0191528 -0.0233015 -0.0281018 0.0539351 -0.0303704
internal_weight=458 389 224 69 165 128 194 97 64 172 105 75 55 41 67
internal_count=458 389 224 69 165 128 194 97 64 172 105 75 55 41 67
is_linear=0
shrinkage=0.05


Tree=9
num_leaves=18
num_cat=0
split_feature=2 2 13 7 17 3 15 10 7 2 7 5 11 17 17 4 4
split_gain=50.6841 16.3565 9.86773 7.90324 5.93588 4.99725 4.05297 2.87353 2.80764 2.49522 2.37275 1.29625 2.31564 1.11435 0.722481 0.58418 0.241478
threshold=5889.1846914750013 2004.5959585950002 23700.934490355005 -237.68565767892767 278891020.22308695 17564.044669035011 191.69295416500003 0.26483132909054902 103.889970033393 3848.3495165100003 203.72095377464345 666.2446228260967 13.500000000000002 6771896.7682260023 2416627.8822811246 -607.82093926883078 -4.7762266426280204
decision_type=2 2 2 2 2 2 2 2 2 2 2 2 2 2 2 2 2
left_child=1 2 3 -1 -2 6 -3 -4 9 -7 11 16 13 14 -13 -6 -5
right_child=4 5 7 10 15 8 -8 -9 -10 -11 -12 12 -14 -15 -16 -17 -18
leaf_value=0.0077120045900344854 0.020127560085263747 0.028898656994370477 0.01866196366143413 -0.025491451684777674 0.060095904686234214 -0.019960915747284893 0.0027793354350225336 -0.0057664249860681594 0.011040419554165393 0.0031138573129746048 -0.0082596990979951004 -0.025324273895600748 -0.0055217966753179611 -0.035014087100597946 -0.011863250221067574 0.039542036737714496 -0.036027829891134948
leaf_weight=24 28 34 23 37 21 24 27 23 26 21 28 28 22 21 23 20 28
leaf_count=24 28 34 23 37 21 24 27 23 26 21 28 28 22 21 23 20 28
internal_value=4.55032e-05 -0.00697514 -0.0143107 -0.0188757 0.0392313 0.00726953 0.0176496 0.00647857 -0.00170037 -0.00925039 -0.0223375 -0.0247182 -0.0203309 -0.0246498 -0.0196947 0.0513689 -0.0305831
internal_weight=458 389 257 211 69 132 61 46 71 45 187 159 94 72 51 41 65
internal_count=458 389 257 211 69 132 61 46 71 45 187 159 94 72 51 41 65
is_linear=0
shrinkage=0.05


Tree=10
num_leaves=18
num_cat=0
split_feature=5 7 7 15 11 5 9 16 9 10 9 6 7 15 5 11 16
split_gain=43.0834 15.5714 12.5346 8.18219 6.59711 6.03725 3.66921 2.95076 2.68598 2.60775 1.65261 0.805858 0.460358 0.555284 0.409814 0.10123 0.609192
threshold=5327.5321476570443 -392.82494823421467 812.18176113125071 3603.3004451350002 4.5000000000000009 1844.628601647559 11.20710902754705 8520.5662742705899 5.0959463132892084 0.28586984100109164 2.877826813400425 979.68945108205673 55.518316110321351 537.85610660000009 2819.1346630248777 3.5000000000000004 936.95561083078996
decision_type=2 2 2 2 2 2 2 2 2 2 2 2 2 2 2 2 2
left_child=1 -1 3 5 -2 6 10 -6 14 11 -3 -10 13 15 -7 -12 -17
right_child=4 2 -4 -5 7 8 -8 -9 9 -11 12 -13 -14 -15 -16 16 -18
leaf_value=0.024698650003543921 0.014382177808068018 -0.012203109924448655 0.025378980933708828 0.016656196103854614 0.031372465687996613 -0.00053828652461313387 -0.0040346406784749801 0.059279068256410855 0.0026989978527569253 -0.023878495839458926 -0.037144577253964688 -0.010458663757080619 -0.018960209341973747 -0.018262659536807665 0.0089970145831731237 -0.03204392601283533 -0.01837183492046527
leaf_weight=34 32 31 22 21 28 21 30 21 22 26 20 22 32 20 21 34 21
leaf_count=34 32 31 22 21 28 21 30 21 22 26 20 22 32 20 21 34 21
internal_value=4.4725e-05 -0.00707149 -0.0102979 -0.0128298 0.0329092 -0.0149589 -0.0204261 0.0443788 -0.00563805 -0.0115942 -0.023462 -0.00385494 -0.0260543 -0.0281695 0.00421144 -0.0304704 -0.0273342
internal_weight=458 377 343 321 81 300 188 49 112 70 158 44 127 95 42 75 55
internal_count=458 377 343 321 81 300 188 49 112 70 158 44 127 95 42 75 55
is_linear=0
shrinkage=0.05


Tree=11
num_leaves=17
num_cat=0
split_feature=2 2 13 13 11 9 13 6 16 11 16 16 8 6 4 16
split_gain=42.1108 13.6237 9.5665 5.26171 3.08279 2.89329 2.8812 2.23973 2.07734 2.84668 2.17405 1.5563 1.13888 1.7614 0.67169 0.271211
threshold=5889.1846914750013 2067.2459542500005 23700.934490355005 29890.112571155001 7.5000000000000009 8.1281181590689773 321.13666610500007 1927.8883429890623 593.89909477026538 13.500000000000002 1.1622964370884328 6.9713942603339616 -0.078956349171626916 779.48401939259895 -112.05917008893651 361.80295179675414
decision_type=2 2 2 2 2 2 2 2 2 2 2 2 2 2 2 2
left_child=1 2 6 -2 -4 7 -1 11 10 12 -8 -3 -10 -14 -7 -12
right_child=3 5 4 -5 -6 14 8 -9 9 -11 15 -13 13 -15 -16 -17
leaf_value=0.00037105190478974861 0.020560306435184819 0.0065985709712661524 -0.0036118107442078846 0.049406907047248552 0.021698076611916934 0.002590722560205243 -0.011399171250329044 -0.0010073905958173175 -0.010555241215624848 -0.00016069409067443174 -0.034371421539567806 0.023277792451091302 -0.034055440515124547 -0.014489531170937323 -0.0095455855851911998 -0.022854312625916112
leaf_weight=20 34 25 27 35 20 21 23 23 31 27 37 38 23 30 22 22
leaf_count=20 34 25 27 35 20 21 23 23 31 27 37 38 23 30 22 22
internal_value=4.1679e-05 -0.00635674 -0.0129379 0.0357608 0.00728185 0.00686667 -0.0174361 0.012129 -0.0192996 -0.014498 -0.0254861 0.0169437 -0.0189915 -0.0235464 -0.00358074 -0.0306127
internal_weight=458 389 260 69 47 129 213 86 193 111 82 63 84 53 43 59
internal_count=458 389 260 69 47 129 213 86 193 111 82 63 84 53 43 59
is_linear=0
shrinkage=0.05


Tree=12
num_leaves=19
num_cat=0
split_feature=2 13 2 17 11 3 13 3 16 11 16 6 4 13 6 6 16 4
split_gain=38.2912 9.34187 8.34848 7.16232 4.29948 4.21285 2.63135 2.019 1.90389 2.27299 2.03139 1.79876 1.67312 1.55034 1.04648 0.442304 0.1539 0.139678
threshold=4171.5580298800005 23014.606169235005 2160.1210033650004 214499512.02193192 8.5000000000000018 13636.366060088769 321.13666610500007 38857.859606527061 553.73919176951415 13.500000000000002 1.1622964370884328 1474.4321241179864 -370.08186279707149 49200.244577865007 225.89426887117187 979.68945108205673 361.80295179675414 -57.369870195163053
decision_type=2 2 2 2 2 2 2 2 2 2 2 2 2 2 2 2 2 2
left_child=1 2 6 7 13 -4 -1 -2 10 14 -8 -7 -5 -3 -10 17 -12 -16
right_child=3 4 5 12 -6 11 8 -9 9 -11 16 -13 -14 -15 15 -17 -18 -19
leaf_value=0.00035338239611259532 0.0258546365549167 0.0074981836631894117 0.021059473933166137 0.048930020651469626 0.022872612738724929 0.0051381025454472935 -0.010852960686509809 0.0055289773675887026 -0.028044461504640905 -0.0015812899375644823 -0.032593105726947007 -0.015045905926305317 0.026533009097689676 -0.0099142482962745887 -0.013595128737035254 -0.019981365836411719 -0.022013667300343515 -0.0063340424684186769
leaf_weight=20 20 24 22 29 28 20 23 33 21 29 38 22 20 25 20 24 20 20
leaf_count=20 20 24 22 29 28 20 23 33 21 29 38 22 20 25 20 24 20 20
internal_value=3.5505e-05 -0.00770232 -0.0119561 0.0269032 0.00760243 0.00378788 -0.0166617 0.0136284 -0.0184253 -0.0139345 -0.0244377 -0.00542223 0.0406019 -0.00130632 -0.0180235 -0.0142776 -0.0294647 -0.0103296
internal_weight=458 356 279 102 77 64 215 53 195 114 81 42 49 49 85 64 58 40
internal_count=458 356 279 102 77 64 215 53 195 114 81 42 49 49 85 64 58 40
is_linear=0
shrinkage=0.05


Tree=13
num_leaves=17
num_cat=0
split_feature=2 7 13 2 6 13 15 4 16 13 13 13 8 16 8 8
split_gain=35.0184 11.6026 11.753 5.7346 6.05627 4.40136 3.99552 2.86646 2.54546 1.7988 1.349 1.96856 0.925102 0.736432 0.500729 1.10364
threshold=5889.1846914750013 -416.83404972410784 20748.127189120005 2160.1210033650004 935.9812352872184 29890.112571155001 3603.3004451350002 -10.840145741695478 610.3019530959258 47342.608271090001 1132.6318911250003 3161.8998659000003 -0.024366782895588048 3107.4683087538519 -0.067259659596825561 -0.01647859373830712
decision_type=2 2 2 2 2 2 2 2 2 2 2 2 2 2 2 2
left_child=1 -1 3 8 -5 -2 7 9 14 -4 -10 -12 -13 -6 -3 -16
right_child=5 2 6 4 13 -7 -8 -9 10 -11 11 12 -14 -15 15 -17
leaf_value=0.021237123811410533 0.018688810650791442 -0.032447516903990795 0.0037621582671999929 0.019202963856223509 -0.0047149364811472578 0.0450932440161705 0.026451402427185151 0.014388337616020673 -0.0030016096092520222 -0.016646014546806163 -0.024676433043753995 -0.015210350517715727 0 -0.017905076522535337 -0.013997805508206021 -0.027326963577186687
leaf_weight=35 34 20 20 23 23 35 20 25 30 21 34 20 20 23 36 39
leaf_count=35 34 20 20 23 23 35 20 25 30 21 34 20 20 23 36 39
internal_value=3.30558e-05 -0.00580075 -0.00854036 -0.0136959 -0.00117156 0.0326066 0.00744103 0.00129686 -0.0179859 -0.00671921 -0.0122838 -0.0158899 -0.00787973 -0.011657 -0.0239833 -0.0212631
internal_weight=458 389 354 268 69 69 86 66 199 41 104 74 40 46 95 75
internal_count=458 389 354 268 69 69 86 66 199 41 104 74 40 46 95 75
is_linear=0
shrinkage=0.05


Tree=14
num_leaves=17
num_cat=0
split_feature=17 7 7 17 4 15 5 4 6 9 16 6 9 7 10 10
split_gain=31.254 10.6787 7.54455 6.21118 4.3477 2.86315 3.21692 2.75185 2.62727 1.58173 1.7564 1.4995 1.1383 0.471202 0.153798 0.212451
threshold=67671648.378768012 -237.68565767892767 547.07867931160456 586680467.11158025 -62.095653649804014 1859.4717764950003 2819.1346630248777 -46.324793339498619 1212.8122257384878 11.114919903826666 1415.2815638834002 2816.3588414483252 2.6016767280783708 55.518316110321351 0.18172367082868415 0.50435759996826013
decision_type=2 2 2 2 2 2 2 2 2 2 2 2 2 2 2 2
left_child=1 4 5 7 -1 6 9 8 -2 10 12 -8 -3 14 -14 -16
right_child=3 2 -4 -5 -6 -7 11 -9 -10 -11 -12 -13 13 -15 15 -17
leaf_value=-0.0011330590128898622 -0.0046839590743184096 -0.012859123485783736 0.013881331814023165 0.038312350663583017 0.028727057055414968 0.0029732368391176514 0.0055679956523944502 0.024103094016839015 0.016574246811370055 -0.0084687392742812846 -0.009220029938845865 -0.012858003443550498 -0.034061068239808083 -0.017968183282624794 -0.020376904524643635 -0.030692626982927323
leaf_weight=24 27 26 25 36 23 21 22 37 29 35 30 20 24 26 33 20
leaf_count=24 27 26 25 36 23 21 22 37 29 35 30 20 24 26 33 20
internal_value=2.85974e-05 -0.00814068 -0.0118288 0.0208042 0.0136692 -0.0143933 -0.0159657 0.0136382 0.00633468 -0.0186765 -0.0208253 -0.00318498 -0.023394 -0.025856 -0.0281909 -0.0248585
internal_weight=458 329 282 129 47 257 236 93 56 194 159 42 129 103 77 53
internal_count=458 329 282 129 47 257 236 93 56 194 159 42 129 103 77 53
is_linear=0
shrinkage=0.05


Tree=15
num_leaves=17
num_cat=0
split_feature=2 7 7 17 13 1 9 2 6 15 9 2 9 17 2 6
split_gain=29.4042 9.91423 10.0057 6.92361 3.75131 3.64989 3.24256 2.52352 2.20374 1.8762 1.77392 1.72505 1.76507 0.757469 0.701359 0.572705
threshold=6215.1864405200004 -416.83404972410784 931.5459558317865 11642362.09701704 81349.136005435008 1.5000000000000002 12.110321316987681 1650.0315421400003 1126.6306546641174 387.71669502500009 7.1660804264636822 1056.1523940700001 4.8957120421037112 47091295.499883309 1079.3435957050003 26.060574577084999
decision_type=2 2 2 2 2 2 2 2 2 2 2 2 2 2 2 2
left_child=1 -1 3 6 5 -2 10 14 9 -9 11 15 -13 -10 -5 -3
right_child=4 2 -4 7 -6 -7 -8 8 13 -11 -12 12 -14 -15 -16 -17
leaf_value=0.019438686768801228 0.034926363009214402 -0.01316307806685843 0.024925437242808671 -0.0043125087519486748 0.048808670100711639 0.0063214848093364542 -0.0015562375918962061 0.019807519630457349 -0.010083972094580533 0.00039687707876929872 -0.025762030951942117 0.0028397514632282159 -0.016494585908949377 0.0023325472426685419 -0.018105307383507137 -0.024758169895366708
leaf_weight=36 24 26 21 20 20 22 34 25 26 25 60 23 22 21 20 33
leaf_count=36 24 26 21 20 20 22 34 25 26 25 60 23 22 21 20 33
internal_value=2.25725e-05 -0.00518619 -0.00773783 -0.00986835 0.0306498 0.0217777 -0.0158259 -0.00116965 0.00315677 0.0103983 -0.0187266 -0.0144134 -0.00665699 -0.00449898 -0.0116042 -0.0200363
internal_weight=458 392 356 335 66 46 198 137 97 50 164 104 45 47 40 59
internal_count=458 392 356 335 66 46 198 137 97 50 164 104 45 47 40 59
is_linear=0
shrinkage=0.05


Tree=16
num_leaves=17
num_cat=0
split_feature=13 3 16 3 4 11 4 11 13 7 3 16 3 4 7 6
split_gain=21.2667 8.62577 7.75208 8.298 3.60866 3.288 3.26925 3.26817 3.45157 3.16009 3.62353 1.22868 0.910527 1.21349 0.694313 0.163057
threshold=19277.014054785006 40926.214222594128 1750.3261708688863 12654.133846880772 -37.739361396225654 12.500000000000002 -224.55520621101087 4.5000000000000009 3982.2992618450003 -237.68565767892767 12248.558912511673 610.3019530959258 9013.1026809142422 -12.282481329038296 82.90434795875025 23.274220665828711
decision_type=2 2 2 2 2 2 2 2 2 2 2 2 2 2 2 2
left_child=2 4 9 -4 6 -6 -2 -5 -9 -1 11 14 13 -13 15 -11
right_child=1 -3 3 7 5 -7 -8 8 -10 10 -12 12 -14 -15 -16 -17
leaf_value=0.0054246455210853707 0.012438602130860092 0.036699936746766693 0.02477357361134085 -0.016799484004458305 0.0038931536156198254 0.030653237869533213 -0.011541589823861918 -0.01004703388972716 0.017922219705175272 -0.0303207167681484 0.0005685453353957697 0.00032711827196180821 -0.020871540450801456 -0.015525405763958892 -0.013044817698403047 -0.02117020990091319
leaf_weight=21 26 37 32 33 22 25 29 21 21 20 32 23 20 23 25 48
leaf_count=21 26 37 32 33 22 25 29 21 21 20 32 23 20 23 25 48
internal_value=2.64069e-05 0.0162908 -0.00707374 0.00383888 0.00855458 0.0185735 -9.65257e-05 -0.0052359 0.00391289 -0.0125972 -0.0146226 -0.0176956 -0.011986 -0.00765444 -0.0215238 -0.0243344
internal_weight=458 139 319 107 102 47 55 75 42 212 191 159 66 46 93 68
internal_count=458 139 319 107 102 47 55 75 42 212 191 159 66 46 93 68
is_linear=0
shrinkage=0.05


Tree=17
num_leaves=19
num_cat=0
split_feature=2 2 16 3 13 1 15 17 13 16 13 3 5 1 4 4 3 2
split_gain=24.86 8.13201 5.09288 3.36758 3.25092 3.29047 2.82078 2.4118 2.69357 1.78807 1.35535 1.34034 1.54382 1.07422 0.490244 0.960768 0.444295 0.166873
threshold=6215.1864405200004 2004.5959585950002 0.32967422349209047 17564.044669035011 81349.136005435008 1.5000000000000002 155.37221903000002 16719793.114595609 346.72899219500005 666.13849931743789 4276.9491115750016 4474.443903094023 914.3392261661844 1.5000000000000002 -8.4663044314937874 -83.017221317319056 1534.0202382030272 681.62935990000017
decision_type=2 2 2 2 2 2 2 2 2 2 2 2 2 2 2 2 2 2
left_child=1 2 -1 6 5 -2 -3 8 -4 -9 -5 16 -13 -12 15 -14 -10 -18
right_child=4 3 7 10 -6 -7 -8 9 11 -11 13 12 14 -15 -16 -17 17 -19
leaf_value=0.013054595624350691 0.032403805441409347 0.023424348258293537 0.0018009063536706179 -0.012146186653686608 0.045087855632106461 0.0052852305413588234 0.0017207625604652125 -0.011432480797881173 -0.015970913119348031 0.0089451778216541496 -0.0054550695302896203 -0.00065487882743279146 -0.0093905822082382198 0.0086890491821492721 -0.0082085183061744015 -0.024148859813576565 -0.030343348333104092 -0.019444583050737329
leaf_weight=21 24 33 22 22 20 22 28 20 34 21 23 23 22 29 21 31 21 21
leaf_count=21 24 33 22 22 20 22 28 20 34 21 23 23 22 29 21 31 21 21
internal_value=2.43656e-05 -0.00476416 -0.00997688 0.00512292 0.0281866 0.0199288 0.0137311 -0.0120938 -0.0144028 -0.000911623 -0.00199483 -0.0164906 -0.0122454 0.00235377 -0.0157245 -0.0184027 -0.0216145 -0.0255892
internal_weight=458 392 257 135 66 46 61 236 195 41 74 173 97 52 74 53 76 42
internal_count=458 392 257 135 66 46 61 236 195 41 74 173 97 52 74 53 76 42
is_linear=0
shrinkage=0.05


Tree=18
num_leaves=17
num_cat=0
split_feature=17 7 7 11 4 5 3 15 5 9 9 15 16 9 10 5
split_gain=21.7977 8.00996 5.9486 5.2593 4.03623 3.37101 4.01816 2.31281 2.24138 1.21497 1.32143 1.16421 0.992126 0.670364 0.41504 0.0405107
threshold=67671648.378768012 -237.68565767892767 547.07867931160456 14.500000000000002 -65.700774422739428 5864.2761529299523 86122.850386606806 1859.4717764950003 2819.1346630248777 11.114919903826666 2.877826813400425 387.71669502500009 1019.0241870242066 6.7196975803869554 0.23094492819351245 602.88052712626779
decision_type=2 2 2 2 2 2 2 2 2 2 2 2 2 2 2 2
left_child=1 4 7 5 -1 11 -7 8 9 10 -3 -2 15 -14 -10 -12
right_child=3 2 -4 -5 -6 6 -8 -9 14 -11 12 -13 13 -15 -16 -17
leaf_value=-0.0027250911993905902 0.012170956515791743 -0.0081305061852926346 0.012818256632353251 0.040540440259944827 0.026015727757662539 0.032980147789348845 0.0059644519620471528 0.0032991958392614667 0.0020006108621046658 -0.0070027597553821083 -0.020089367246144407 -0.0027134735684376209 -0.0069518761897459621 -0.019828727261527727 -0.0076226469181963942 -0.02663223139396528
leaf_weight=23 21 32 25 20 24 31 26 21 20 35 41 31 24 22 22 40
leaf_count=23 21 32 25 20 24 31 26 21 20 35 41 31 24 22 22 40
internal_value=2.24083e-05 -0.00679818 -0.00999431 0.0173745 0.0120831 0.0127485 0.0210587 -0.0122739 -0.0136888 -0.0159535 -0.0178365 0.00331943 -0.0201604 -0.0135076 -0.00298391 -0.0236668
internal_weight=458 329 282 129 47 109 57 257 236 194 159 52 127 46 42 81
internal_count=458 329 282 129 47 109 57 257 236 194 159 52 127 46 42 81
is_linear=0
shrinkage=0.05


Tree=19
num_leaves=19
num_cat=0
split_feature=2 7 7 13 4 13 9 2 6 9 9 5 6 4 16 6 9 7
split_gain=20.8268 7.562 8.08245 4.97455 3.69188 2.78897 2.54742 2.51244 2.54743 1.3877 1.61061 1.61587 1.46241 0.99071 0.507439 0.384572 0.2822 0.133298
threshold=6215.1864405200004 -416.83404972410784 931.5459558317865 28500.278684645004 -27.430739246580632 81349.136005435008 6.6241722197754909 2340.6823660250006 965.66620346198442 12.110321316987681 7.3961638647616414 846.31344224277393 570.76582426756624 -123.97887339402162 3107.4683087538519 197.94576453658112 9.0432329570979046 5.1904934533927998
decision_type=2 2 2 2 2 2 2 2 2 2 2 2 2 2 2 2 2 2
left_child=1 -1 3 7 13 6 -2 9 -9 10 11 17 -13 -5 -10 -12 -17 -3
right_child=5 2 -4 4 -6 -7 -8 8 14 -11 15 12 -14 -15 -16 16 -18 -19
leaf_value=0.017142889922535098 0.030140884596368541 -0.021504165622135325 0.022759977426718585 0.0023668838877763071 0.019066481602098798 0.041455296714391021 0.0061959015607833861 0.011629491178762346 -0.0033844762716604311 -0.004034385646409646 -0.028872329696365023 -1.0073349590246041e-06 -0.015899370794262117 -0.01291414044620026 -0.014477578382939102 -0.023134157987577578 -0.012528795617928898 -0.01336117288732732
leaf_weight=36 22 30 21 20 24 20 24 20 22 31 22 38 23 20 23 20 21 21
leaf_count=36 22 30 21 20 24 20 24 20 22 31 22 38 23 20 23 20 21 21
internal_value=2.39124e-05 -0.00435807 -0.00658826 -0.00850515 0.00392569 0.0258015 0.0181519 -0.0114629 -0.00274372 -0.0141634 -0.0158961 -0.0120106 -0.00623587 -0.0052803 -0.00935445 -0.0224299 -0.0182488 -0.0185687
internal_weight=458 392 356 335 64 66 46 271 65 206 175 112 61 40 45 63 41 51
internal_count=458 392 356 335 64 66 46 271 65 206 175 112 61 40 45 63 41 51
is_linear=0
shrinkage=0.05


Tree=20
num_leaves=17
num_cat=0
split_feature=2 7 7 15 17 2 9 8 4 16 8 4 9 7 10 10
split_gain=18.9042 5.76621 6.34231 4.15508 3.60022 2.72645 2.19575 1.731 1.70202 1.13505 1.1114 1.30432 0.388583 0.238194 0.162282 0.206131
threshold=4171.5580298800005 -392.82494823421467 547.07867931160456 2449.6699111700004 214499512.02193192 2067.2459542500005 11.20710902754705 -0.045843686165782542 -370.08186279707149 1415.2815638834002 -0.019506084926728718 -233.20887584116002 2.877826813400425 55.518316110321351 0.18172367082868415 0.49046384914911811
decision_type=2 2 2 2 2 2 2 2 2 2 2 2 2 2 2 2
left_child=1 -1 3 5 7 6 9 -2 -6 12 11 -7 -3 14 -14 -16
right_child=4 2 -4 -5 8 10 -8 -9 -10 -11 -12 -13 13 -15 15 -17
leaf_value=0.015179849238164964 -0.0019050996963466918 -0.012049182532676337 0.014150630925451558 0.0087442466284015346 0.03652694835265477 0.0017700692674233803 -0.0022575565396041118 0.016341188804191702 0.015738211686589891 -0.0076715680868673034 0.0061230554819727938 -0.015412147262376615 -0.026261961872378989 -0.013959409768621509 -0.015216823276635764 -0.024063408839560693
leaf_weight=30 20 28 30 27 29 20 33 33 20 33 23 22 29 25 36 20
leaf_count=30 20 28 30 27 29 20 33 33 20 33 23 22 29 25 36 20
internal_value=2.06085e-05 -0.00541301 -0.00736398 -0.00960165 0.018902 -0.0114871 -0.0143228 0.00945543 0.0286262 -0.0165954 -0.00242962 -0.00726298 -0.0186229 -0.0201275 -0.0217002 -0.0188308
internal_weight=458 356 326 296 102 269 204 53 49 171 65 42 138 110 85 56
internal_count=458 356 326 296 102 269 204 53 49 171 65 42 138 110 85 56
is_linear=0
shrinkage=0.05


Tree=21
num_leaves=19
num_cat=0
split_feature=2 7 7 13 4 13 1 2 6 12 9 7 13 4 6 2 6 6
split_gain=17.3176 6.22458 6.89359 4.22276 3.3291 2.45379 2.80045 2.01678 2.34188 1.33234 1.89094 1.05758 1.26449 0.878202 0.441888 0.334554 0.890263 0.484414
threshold=6215.1864405200004 -416.83404972410784 931.5459558317865 28500.278684645004 -27.430739246580632 81349.136005435008 1.5000000000000002 2340.6823660250006 965.66620346198442 -0.10888834859978241 12.110321316987681 -52.605424892142629 6292.6564564500013 -123.97887339402162 2742.8107846014113 681.62935990000017 238.63429255597364 73.688304287824948
decision_type=2 2 2 2 2 2 2 2 2 2 2 2 2 2 2 2 2 2
left_child=1 -1 3 7 13 6 -2 9 -9 -3 11 -11 15 -5 -10 17 -17 -13
right_child=5 2 -4 4 -6 -7 -8 8 14 10 -12 12 -14 -15 -16 16 -18 -19
leaf_value=0.015526927088362142 0.02784933024942875 -0.0252910232827777 0.021097848737104376 0.0021295522951654028 0.018056517182104291 0.038187329904841527 0.0029561530912052027 0.01110678964782329 -0.0040373676126966114 -0.021671577638343854 0.00060801104925173744 -0.023679535999738925 -0.0021203859295928851 -0.012248035630299933 -0.014500671238416718 -0.0019541896249921551 -0.015673154780969902 -0.011271542581203192
leaf_weight=36 24 20 21 20 24 20 22 20 25 33 27 20 31 20 20 20 33 22
leaf_count=36 24 20 21 20 24 20 22 20 25 33 27 20 31 20 20 20 33 22
internal_value=1.80288e-05 -0.0039768 -0.00600106 -0.00777242 0.00367577 0.0235248 0.0163665 -0.010498 -0.00267035 -0.0129189 -0.0114337 -0.0135008 -0.0111677 -0.00506069 -0.00901056 -0.014015 -0.0107208 -0.0177097
internal_weight=458 392 356 335 64 66 46 271 65 206 186 159 126 40 45 95 53 42
internal_count=458 392 356 335 64 66 46 271 65 206 186 159 126 40 45 95 53 42
is_linear=0
shrinkage=0.05


Tree=22
num_leaves=19
num_cat=0
split_feature=2 7 7 15 17 16 6 17 9 9 9 2 9 7 6 9 2 4
split_gain=15.7117 5.63761 6.25283 3.84245 2.42694 2.32456 2.75818 2.16855 1.75785 1.05407 1.33632 0.99199 1.37 0.633204 0.488413 0.464356 0.313591 0.280746
threshold=6215.1864405200004 -416.83404972410784 931.5459558317865 3603.3004451350002 11642362.09701704 1844.628601647559 1400.2046004912061 691679912.72154307 6.6241722197754909 11.495648924739786 7.4727153900401584 1056.1523940700001 4.8957120421037112 -3.404132028392707 30.014338912783234 8.6071987897039381 1484.5855985400003 -14.647672135981916
decision_type=2 2 2 2 2 2 2 2 2 2 2 2 2 2 2 2 2 2
left_child=1 -1 3 4 9 15 -7 8 -2 10 11 13 -13 -3 -15 16 -6 -12
right_child=7 2 -4 -5 5 6 -8 -9 -10 -11 17 12 -14 14 -16 -17 -18 -19
leaf_value=0.014771562700940148 0.024703412675722083 -0.022165749012714342 0.020090905597264119 0.012311824220030207 -0.01692705408448265 0.016042200216540584 -0.0067330353348874139 0.034463032118231061 0.003920432547615333 -0.0041331945693221048 -0.023932179547846318 0.0038070341118145732 -0.01302583911184532 -0.0044140258075838741 -0.015941583508448234 -0.00242194942597832 -0.0074499066016421867 -0.014010126875205475
leaf_weight=36 21 20 21 22 20 26 25 24 21 36 33 23 23 21 20 20 25 21
leaf_count=36 21 20 21 22 20 26 25 24 21 36 33 23 23 21 20 20 25 21
internal_value=1.65904e-05 -0.003788 -0.00571494 -0.00740248 -0.00883887 -0.00300809 0.00486693 0.0224075 0.014761 -0.0122144 -0.0139539 -0.0104501 -0.00460109 -0.0146349 -0.0104019 -0.00924283 -0.0120471 -0.0204894
internal_weight=458 392 356 335 313 116 51 66 42 197 161 107 46 61 41 65 45 54
internal_count=458 392 356 335 313 116 51 66 42 197 161 107 46 61 41 65 45 54
is_linear=0
shrinkage=0.05


Tree=23
num_leaves=19
num_cat=0
split_feature=2 7 7 13 4 13 1 2 6 9 9 16 7 13 6 16 6 4
split_gain=14.255 5.10708 5.67259 3.61695 3.0276 2.06652 2.53386 1.64357 2.01677 0.90098 1.32818 1.3512 1.6939 0.808824 0.751492 0.449142 0.435411 0.24801
threshold=6215.1864405200004 -416.83404972410784 931.5459558317865 28500.278684645004 -27.430739246580632 81349.136005435008 1.5000000000000002 2340.6823660250006 965.66620346198442 12.110321316987681 7.4727153900401584 1415.2815638834002 55.518316110321351 72420.310616275019 36.62348517189772 3107.4683087538519 197.94576453658112 -42.384171301234282
decision_type=2 2 2 2 2 2 2 2 2 2 2 2 2 2 2 2 2 2
left_child=1 -1 3 7 13 6 -2 9 -9 10 11 12 14 -5 -3 -10 -12 -18
right_child=5 2 -4 4 -6 -7 -8 8 15 -11 16 -13 -14 -15 -16 -17 17 -19
leaf_value=0.01405294635849124 0.025681373047828679 -0.0085116628589837449 0.01913202181797136 0.0021010597194323229 0.01725346216391772 0.034800508896864597 0.0020454223745543024 0.010280457160302573 -0.0027833574362423111 -0.0035393365325580815 -0.025803779898719355 0.0011506883176448553 -0.0020783528182655572 -0.011690251093712592 -0.021026114462098729 -0.013195193794866403 -0.01947322717025167 -0.0097663307686646789
leaf_weight=36 24 22 21 20 24 20 22 20 22 31 21 22 29 20 41 23 20 20
leaf_count=36 24 22 21 20 24 20 22 20 22 31 21 22 29 20 41 23 20 20
internal_value=1.34685e-05 -0.00360994 -0.00544444 -0.0070523 0.0035379 0.0213416 0.0147676 -0.0095755 -0.00249716 -0.0117619 -0.0131617 -0.00973695 -0.0123787 -0.00478959 -0.0169354 -0.00838482 -0.0192212 -0.0150983
internal_weight=458 392 356 335 64 66 46 271 65 206 175 114 92 40 63 45 61 40
internal_count=458 392 356 335 64 66 46 271 65 206 175 114 92 40 63 45 61 40
is_linear=0
shrinkage=0.05


Tree=24
num_leaves=17
num_cat=0
split_feature=2 16 2 17 7 7 16 2 8 8 4 6 9 10 10 7
split_gain=13.0476 4.16971 3.91806 2.54719 2.2586 2.06894 1.74802 1.672 1.64908 1.61194 1.50873 1.40361 1.23602 0.192361 0.543417 0.100723
threshold=4171.5580298800005 0.32064675687909988 2067.2459542500005 214499512.02193192 339.19582444910822 -237.68565767892767 610.3019530959258 797.55386725000005 -0.045843686165782542 -0.023795540089761421 -370.08186279707149 935.9812352872184 4.8432799597658542 0.15333167815361382 0.27290168853065416 8.6273401248214885
decision_type=2 2 2 2 2 2 2 2 2 2 2 2 2 2 2 2
left_child=1 -1 4 8 5 -3 13 -8 -2 11 -5 -4 -9 -7 -15 -14
right_child=3 2 9 10 -6 6 7 12 -10 -11 -12 -13 15 14 -16 -17
leaf_value=0.017089835398253941 -0.0033030373656323976 0.00073017486399321854 0.0053185352017836914 0.031233905525257191 0.0050125831842422483 -0.022608343983689945 0.0039373719368291935 -0.0010001059528440238 0.014479433100889711 0.010391712171956898 0.012010711044782685 -0.010203462481498719 -0.018235736108354987 -0.0078765607832676984 -0.018714194040866973 -0.011040093282936142
leaf_weight=20 20 32 27 29 24 26 22 21 33 39 20 29 30 21 45 20
leaf_count=20 20 32 27 29 24 26 22 21 33 39 20 29 30 21 45 20
internal_value=1.26458e-05 -0.00449965 -0.00584647 0.0157008 -0.00923035 -0.0108443 -0.0128664 -0.00780418 0.00773957 0.00269254 0.0238848 -0.00266991 -0.011516 -0.017791 -0.0155095 -0.0157284
internal_weight=458 356 336 102 241 217 185 93 53 95 49 56 71 92 66 50
internal_count=458 356 336 102 241 217 185 93 53 95 49 56 71 92 66 50
is_linear=0
shrinkage=0.05


Tree=25
num_leaves=18
num_cat=0
split_feature=2 7 7 13 4 13 1 2 6 12 9 7 13 11 11 13 6
split_gain=11.8382 4.37552 4.94144 3.12561 2.70336 1.82118 2.28122 1.29229 1.78801 1.22977 1.49325 0.877162 0.988362 0.780352 1.02757 0.755617 0.396423
threshold=6215.1864405200004 -416.83404972410784 931.5459558317865 28500.278684645004 -27.430739246580632 81349.136005435008 1.5000000000000002 2340.6823660250006 965.66620346198442 -0.10888834859978241 12.110321316987681 -52.605424892142629 6292.6564564500013 2.5000000000000004 9.5000000000000018 72420.310616275019 2742.8107846014113
decision_type=2 2 2 2 2 2 2 2 2 2 2 2 2 2 2 2 2
left_child=1 -1 3 7 15 6 -2 9 -9 -3 11 -11 13 -13 -15 -5 -10
right_child=5 2 -4 4 -6 -7 -8 8 16 10 -12 12 -14 14 -16 -17 -18
leaf_value=0.013057942637619941 0.023639773485902699 -0.022580866607881729 0.017946480721743274 0.0021385313261132635 0.016314101845212283 0.032067938933060286 0.0012490866981122806 0.0094887681429584817 -0.0033895255560771778 -0.018611340800108497 0.0013009319407865406 -0.020494632107161345 -0.0011142128985375166 -0.0025559990007329634 -0.014485924217849971 -0.011186260010692338 -0.013267579004168513
leaf_weight=36 24 20 21 20 24 20 22 20 25 33 27 20 31 36 39 20 20
leaf_count=36 24 20 21 20 24 20 22 20 25 33 27 20 31 36 39 20 20
internal_value=1.28003e-05 -0.00328823 -0.00498717 -0.00648881 0.00335154 0.01945 0.013292 -0.00883489 -0.00253762 -0.0107759 -0.00936583 -0.0112052 -0.00909489 -0.0116083 -0.00893433 -0.00451225 -0.00808145
internal_weight=458 392 356 335 64 66 46 271 65 206 186 159 126 95 75 40 45
internal_count=458 392 356 335 64 66 46 271 65 206 186 159 126 95 75 40 45
is_linear=0
shrinkage=0.05


Tree=26
num_leaves=18
num_cat=0
split_feature=5 7 15 7 11 4 5 4 11 7 7 11 6 10 12 12 5
split_gain=9.88785 4.82999 4.9545 2.97028 2.87844 1.96895 1.47855 1.38982 1.65892 2.64987 1.42437 1.31606 1.15684 0.625853 0.87932 1.36709 0.581041
threshold=5864.2761529299523 -392.82494823421467 3603.3004451350002 547.07867931160456 4.5000000000000009 182.20126289676116 10074.44382269231 -162.37569480771029 13.500000000000002 -24.546584681785699 20.692596926607333 4.5000000000000009 26.060574577084999 0.58572368459789725 -0.063986798289359686 0.054490093176477968 1085.2155484281441
decision_type=2 2 2 2 2 2 2 2 2 2 2 2 2 2 2 2 2
left_child=1 -1 3 5 -2 7 -6 11 12 -10 -11 -3 -9 14 -14 16 -16
right_child=4 2 -4 -5 6 -7 -8 8 9 10 -12 -13 13 -15 15 -17 -18
leaf_value=0.014178955836428538 0.0037645391772190731 -0.0083109611932720463 0.015515709856990726 0.0082126466209689799 0.012581203189634144 0.0051367818519473078 0.032109513557343566 -0.0026726248399132776 0.010174260345243274 -0.020906770676374437 -0.0031368825744305336 0.0072535526633939959 -0.023621747947874527 -0.023896374705433848 -0.00069672453782654244 -0.019598287600965707 -0.011411183283735929
leaf_weight=35 29 34 26 29 20 24 26 20 20 20 27 21 20 24 27 31 25
leaf_count=35 29 34 26 29 20 24 26 20 20 20 27 21 20 24 27 31 25
internal_value=1.26524e-05 -0.00323774 -0.00503935 -0.00675745 0.0165013 -0.00827904 0.0241737 -0.0095091 -0.0113309 -0.00460611 -0.0110807 -0.00225546 -0.0143104 -0.0160688 -0.0139846 -0.0113493 -0.00606036
internal_weight=458 383 348 322 75 293 46 269 214 67 47 55 147 127 103 83 52
internal_count=458 383 348 322 75 293 46 269 214 67 47 55 147 127 103 83 52
is_linear=0
shrinkage=0.05


Tree=27
num_leaves=17
num_cat=0
split_feature=2 16 11 16 3 7 7 4 2 3 9 9 16 3 5 4
split_gain=9.97826 3.6785 2.7189 4.05327 3.07047 2.66405 2.23194 1.9042 1.18595 1.31791 1.27546 0.942473 2.09861 0.580929 0.946353 0.373135
threshold=3693.4290505800004 0.32064675687909988 4.5000000000000009 8520.5662742705899 20057.601693901124 -375.80597146678582 547.07867931160456 -152.51070952518316 2067.2459542500005 21924.187463014739 11.114919903826666 6.6241722197754909 1415.2815638834002 1534.0202382030272 846.31344224277393 -14.647672135981916
decision_type=2 2 2 2 2 2 2 2 2 2 2 2 2 2 2 2
left_child=1 -1 4 7 -2 -3 8 -4 10 -10 11 12 13 -7 -15 -13
right_child=2 5 3 -5 -6 6 -8 -9 9 -11 -12 15 -14 14 -16 -17
leaf_value=0.015863104722506943 0.01799812332327877 0.0081937936368969202 0.020422767175671958 0.036672966261817645 -0.0067284210793103197 -0.0061382644413219348 0.0061997605381267414 0.00065750472385574287 0.0042447390385410367 -0.011020570748175185 -0.0013289202744407314 -0.021063588532486133 0.0051853089007948133 -0.023303168704733257 -0.009488317153397173 -0.01178828401118517
leaf_weight=20 20 30 23 21 30 30 27 26 33 23 34 34 20 23 35 29
leaf_count=20 20 30 23 21 30 30 27 26 33 23 34 34 20 23 35 29
internal_value=1.08951e-05 -0.00437783 0.0123478 0.0186578 0.00322313 -0.00571225 -0.00720144 0.010258 -0.00862523 -0.00202057 -0.0103866 -0.0121403 -0.00905734 -0.0123724 -0.0153535 -0.017123
internal_weight=458 338 120 70 50 318 288 49 261 56 205 171 108 88 58 63
internal_count=458 338 120 70 50 318 288 49 261 56 205 171 108 88 58 63
is_linear=0
shrinkage=0.05


Tree=28
num_leaves=17
num_cat=0
split_feature=2 13 2 3 15 11 13 13 6 5 3 2 5 5 2 3
split_gain=9.10059 3.04639 2.96631 2.61576 2.32934 2.15487 1.62082 1.487 1.2653 1.67644 0.791552 1.44377 1.22627 0.64468 0.443603 0.374565
threshold=2276.1357739350001 23700.934490355005 6215.1864405200004 15659.75787632713 155.37221903000002 8.5000000000000018 29890.112571155001 346.72899219500005 2742.8107846014113 3473.4796951469757 4474.443903094023 1206.3108191450003 1779.5455985140952 846.31344224277393 479.24925344500008 8252.0292251269602
decision_type=2 2 2 2 2 2 2 2 2 2 2 2 2 2 2 2
left_child=1 7 3 4 -2 -3 -4 -1 9 -5 13 15 -13 14 -9 -12
right_child=2 5 6 8 -6 -7 -8 10 -10 -11 11 12 -14 -15 -16 -17
leaf_value=0.0034086343397696814 0.022098358922771049 -0.0033928978325979361 0.0082745796430743115 -0.0081024002106013637 0 0.01702055814167993 0.024556815908423492 -0.011461811967194082 -0.011698314944515006 0.010163084147176867 -0.0051632357275229884 -0.021680604013735838 -0.0062447633666710724 -0.005111087968661672 -0.021367489376238419 0.0025634190154572327
leaf_weight=23 27 30 32 21 21 21 34 34 23 28 31 22 35 20 27 29
leaf_count=23 27 30 32 21 21 21 34 34 23 28 31 22 35 20 27 29
internal_value=1.30278e-05 -0.00579668 0.00852124 0.00372663 0.0126573 0.00508216 0.0169784 -0.00834128 -0.00225045 0.00222953 -0.00974157 -0.00692192 -0.0125597 -0.0136193 -0.0162009 -0.00136592
internal_weight=458 272 186 120 48 51 66 221 72 49 198 117 57 81 61 60
internal_count=458 272 186 120 48 51 66 221 72 49 198 117 57 81 61 60
is_linear=0
shrinkage=0.05


Tree=29
num_leaves=18
num_cat=0
split_feature=17 11 6 3 5 4 8 5 3 13 13 3 15 13 11 11 6
split_gain=8.0159 3.83632 2.84662 2.78314 5.99871 2.06033 1.80048 1.14145 2.46779 1.81048 2.60811 1.80271 2.25842 1.25936 0.570305 0.314976 0.285494
threshold=67671648.378768012 14.500000000000002 727.1246149243201 86122.850386606806 4474.2509457935203 -283.7414016992031 -0.17232033607551392 139.17309721389594 3629.4732660045165 871.99064817500005 2815.5832347300006 14826.883790329028 1.0000000180025095e-35 5291.8719921050006 5.5000000000000009 11.500000000000002 140.7295822313591
decision_type=2 2 2 2 2 2 2 2 2 2 2 2 2 2 2 2 2
left_child=5 2 -2 4 -4 -1 -7 -8 15 -10 14 12 -12 -13 -11 16 -9
right_child=1 -3 3 -5 -6 6 7 8 9 10 11 13 -14 -15 -16 -17 -18
leaf_value=0.0083416372314095502 -0.0059375650447327649 0.030219281583669641 -0.00067665302505095809 -0.0014567450130427327 0.033026328688487414 -0.019582846041414002 0.006896442054283052 -0.0048684481522915041 0.011686163523367474 -0.0054711282625794413 0.013943489000789431 0.0027240767621475714 -0.0053664694043807689 -0.012556923581869342 -0.016715749427144017 -0.017845018604011449 -0.013662165991216899
leaf_weight=29 31 20 23 26 29 20 20 21 20 21 37 22 24 31 34 26 24
leaf_count=29 31 20 23 26 29 20 20 21 20 21 37 22 24 31 34 26 24
internal_value=1.0232e-05 0.0105371 0.00663833 0.0117116 0.0182934 -0.00412159 -0.00536669 -0.00426738 -0.00516843 -0.0021236 -0.00384643 0.000448027 0.00630147 -0.00618829 -0.012686 -0.0130622 -0.00986217
internal_weight=458 129 109 78 52 329 300 280 260 189 169 114 61 53 55 71 45
internal_count=458 129 109 78 52 329 300 280 260 189 169 114 61 53 55 71 45
is_linear=0
shrinkage=0.05


Tree=30
num_leaves=18
num_cat=0
split_feature=2 16 2 3 15 7 16 11 2 3 2 6 9 3 3 6 10
split_gain=7.65161 2.82336 2.58532 3.82895 2.80289 1.72602 1.58991 1.52644 1.15846 1.09844 1.80868 1.33326 1.07708 0.84683 1.07925 0.995577 0.561926
threshold=2276.1357739350001 0.32967422349209047 9841.3961027200021 13636.366060088769 3937.5321296800007 339.19582444910822 2184.4843582121393 4.5000000000000009 3693.4290505800004 3629.4732660045165 727.90004103000012 935.9812352872184 6.1635228829731856 1534.0202382030272 812.97280822710093 86.798005975701344 0.16772383244634406
decision_type=2 2 2 2 2 2 2 2 2 2 2 2 2 2 2 2 2
left_child=1 -1 3 6 7 9 -2 -5 -9 13 -11 12 -12 14 -3 -15 -14
right_child=2 5 -4 4 -6 -7 -8 8 -10 10 11 -13 16 15 -16 -17 -18
leaf_value=0.011419445088679862 0.0055893755642076335 -0.01561839505719642 0.019712610665608098 -0.014040949590770263 0.015917420947392073 0.0053253348515583917 0.025087729901648488 -0.0075078503411539184 0.0064542365932103371 0.0055108380932360895 0.0018813149625701562 -0.017180739802218254 -0.015335170782130697 -0.024821733608841899 0 -0.0085400194319940753 -0.003694663781983157
leaf_weight=22 20 20 36 27 20 25 25 26 32 29 34 30 22 23 24 20 23
leaf_count=22 20 20 36 27 20 25 25 26 32 29 34 30 22 23 24 20 23
internal_value=7.29092e-06 -0.00531896 0.00780974 0.00480831 -0.000411348 -0.00685148 0.0168404 -0.00445196 8.94551e-05 -0.00824416 -0.00534398 -0.00830125 -0.00469419 -0.0126746 -0.00734014 -0.0177287 -0.00970393
internal_weight=458 272 186 150 105 250 45 85 58 225 138 109 79 87 44 43 45
internal_count=458 272 186 150 105 250 45 85 58 225 138 109 79 87 44 43 45
is_linear=0
shrinkage=0.05


Tree=31
num_leaves=17
num_cat=0
split_feature=17 7 11 11 6 3 5 7 9 9 9 5 7 7 3 10
split_gain=6.58414 3.44996 4.0754 3.44405 2.49554 2.53606 5.25828 2.29754 1.16227 4.39409 1.38528 1.889 1.62805 0.502333 0.880421 0.202921
threshold=67671648.378768012 -181.42179648660644 6.5000000000000009 14.500000000000002 727.1246149243201 86122.850386606806 4474.2509457935203 547.07867931160456 12.692662544718731 11.059255389376476 7.4727153900401584 1423.7411620723672 39.690672794392917 39.690672794392917 1534.0202382030272 0.23984556449573
decision_type=2 2 2 2 2 2 2 2 2 2 2 2 2 2 2 2
left_child=1 2 -1 4 -2 6 -6 8 9 10 11 13 -13 14 -3 -12
right_child=3 7 -4 -5 5 -7 -8 -9 -10 -11 15 12 -14 -15 -16 -17
leaf_value=-0.0032150428090244529 -0.0059083631147223061 -0.0053658920863707514 0.023703101074080107 0.02818916838172646 -0.00084251306951046003 -0.0019383897963497375 0.030692729433998464 0.0080236216176014698 -0.016779218424231777 0.015530146857102715 -0.010994067825376989 0.0093529784475122734 -0.008641583298643429 -0.0037030420017739141 -0.017862244411504694 -0.018567843242219231
leaf_weight=35 31 28 22 20 23 26 29 25 30 20 31 30 20 26 34 28
leaf_count=35 31 28 22 20 23 26 29 25 30 20 31 30 20 26 34 28
internal_value=5.60157e-06 -0.00373806 0.00731775 0.00954715 0.00585598 0.0106104 0.0168974 -0.00609153 -0.00756695 -0.0061993 -0.00849788 -0.00562808 0.00202881 -0.0100087 -0.0124728 -0.0149213
internal_weight=458 329 57 129 109 78 52 272 247 217 197 138 50 88 62 59
internal_count=458 329 57 129 109 78 52 272 247 217 197 138 50 88 62 59
is_linear=0
shrinkage=0.05


Tree=32
num_leaves=18
num_cat=0
split_feature=17 7 4 11 8 7 16 4 15 4 9 8 13 8 7 10 16
split_gain=5.96297 3.16954 3.27619 3.12545 2.11862 2.00762 1.70661 1.18768 1.01035 0.97544 1.47274 1.24748 1.00964 0.61679 0.534609 0.385818 0.53203
threshold=67671648.378768012 -237.68565767892767 -62.095653649804014 14.500000000000002 -0.12447838803049506 547.07867931160456 5531.979927051153 -27.430739246580632 1859.4717764950003 -98.624308484544457 4.9708915685149249 -0.056775912980739592 577.83068189000016 0.074459593074384614 145.25483171482151 0.079756615481267459 1087.9449256662856
decision_type=2 2 2 2 2 2 2 2 2 2 2 2 2 2 2 2 2
left_child=1 2 -1 4 -2 8 7 -6 9 10 -3 -11 -13 14 15 -14 -17
right_child=3 5 -4 -5 6 -7 -8 -9 -10 11 -12 12 13 -15 -16 16 -18
leaf_value=-0.0044228334307670593 -0.0068994821364489886 0.006825154061751583 0.021417406957286101 0.026846827179903079 -0.00050148280156281551 0.0076378705510153216 0.020436598840355875 0.013901391645724124 0.0033103099105541 -0.019602185452157368 -0.0088489006214908204 0.002122997140342539 -0.0027201703783463348 -0.0021908216033544804 -0.018737224129339061 -0.00698973708273843 -0.017184806059425076
leaf_weight=24 25 25 23 20 39 25 24 21 21 27 34 21 21 26 20 39 23
leaf_count=24 25 25 23 20 39 25 24 21 21 27 34 21 21 26 20 39 23
internal_value=4.4145e-06 -0.00355775 0.00830098 0.00908525 0.00556636 -0.00557422 0.00937278 0.00460281 -0.00690344 -0.00784352 -0.00212096 -0.00970032 -0.00776686 -0.00941925 -0.0111572 -0.00906986 -0.0110639
internal_weight=458 329 47 129 109 282 84 60 257 236 59 177 150 129 103 83 62
internal_count=458 329 47 129 109 282 84 60 257 236 59 177 150 129 103 83 62
is_linear=0
shrinkage=0.05


Tree=33
num_leaves=16
num_cat=0
split_feature=2 13 8 4 8 6 10 12 13 8 10 17 17 7 17
split_gain=5.97079 2.32917 2.22425 2.128 5.28586 2.30022 1.62262 1.21828 1.33184 3.63919 1.21544 0.981347 0.783686 0.624896 1.01009
threshold=2276.1357739350001 23700.934490355005 0.10094605142258457 -283.7414016992031 -0.12447838803049506 935.9812352872184 0.27026427476954124 -0.10888834859978241 816.86098707000008 -0.022355710014134091 0.26483132909054902 2416627.8822811246 1022441.2847213497 31.410505382143096 6771896.7682260023
decision_type=2 2 2 2 2 2 2 2 2 2 2 2 2 2 2
left_child=1 7 3 4 -2 -5 -7 -1 9 -9 -3 12 -10 14 -13
right_child=2 10 -4 5 -6 6 -8 8 11 -11 -12 13 -14 -15 -16
leaf_value=-0.018552815899962473 -0.0041996708628721539 0.011932927297478144 0.019444850623607637 0.0084132777450558471 0.023229487163607232 -0.017175520641418796 0.00050278461272163053 0.013895995420990168 -0.0057607574015855791 -0.013834625366365629 -0.0031725607895758002 -0.00096406049012476888 -0.017698322706855837 0.00068265451325310613 -0.014279544099137701
leaf_weight=20 31 27 29 38 38 23 27 26 27 20 24 30 35 35 28
leaf_count=20 31 27 29 38 38 23 27 26 27 20 24 30 35 35 28
internal_value=4.12853e-06 -0.00469961 0.0068978 0.00444015 0.0109509 -0.000674345 -0.00770852 -0.00692704 -0.00565937 0.00169499 0.004804 -0.00787088 -0.012753 -0.00446188 -0.00761004
internal_weight=458 272 186 157 69 88 50 221 201 46 51 155 62 93 58
internal_count=458 272 186 157 69 88 50 221 201 46 51 155 62 93 58
is_linear=0
shrinkage=0.05


Tree=34
num_leaves=19
num_cat=0
split_feature=2 16 16 10 8 4 17 10 3 4 7 2 8 2 17 16 17 6
split_gain=5.42836 2.59326 1.88067 2.60654 1.71144 2.00043 1.58064 1.53392 1.79087 1.31132 1.20157 1.67135 1.00761 0.975084 0.936899 0.596741 0.406536 0.102347
threshold=4171.5580298800005 0.32064675687909988 666.13849931743789 0.074627959761224855 0.056548928600242777 -224.55520621101087 6771896.7682260023 0.1632880458722426 86122.850386606806 -1.899544010340757 -144.5616805892854 2160.1210033650004 -0.035475636026870018 5625.7649293900004 13939572.095573822 361.80295179675414 1329255.7780525591 105.42666980701701
decision_type=2 2 2 2 2 2 2 2 2 2 2 2 2 2 2 2 2 2
left_child=1 -1 9 -4 5 -5 12 -2 13 10 -3 15 -7 -9 -8 17 -11 -12
right_child=7 2 3 4 -6 6 14 8 -10 16 11 -13 -14 -15 -16 -17 -18 -19
leaf_value=0.014108133257499765 0.020768254496730296 0.0061221205443143844 0.014245238629026484 0.0048593792515910332 0.0096304783306044098 -0.0094973549850541975 -0.023979516721197539 0.003628245783038437 -0.0040567714748559174 -0.018674507717248694 -0.018318897861809957 0.0036054777081769248 0.0040003787468259151 0.017937288233560736 -0.0077568139384190243 -0.004108186951109572 -0.0086108236463740481 -0.010827275654807202
leaf_weight=20 25 20 25 35 22 28 20 23 26 28 20 25 25 28 20 22 24 22
leaf_count=20 25 20 25 35 22 28 20 23 26 28 20 25 25 28 20 22 24 22
internal_value=3.77893e-07 -0.00290624 -0.0039727 -0.000346941 -0.00289032 -0.00513906 -0.00896677 0.0101233 0.00638111 -0.0078564 -0.00459914 -0.00710522 -0.00308173 0.0117742 -0.0163771 -0.0113571 -0.0143742 -0.0148541
internal_weight=458 356 336 175 150 128 93 102 77 161 109 89 53 51 40 64 52 42
internal_count=458 356 336 175 150 128 93 102 77 161 109 89 53 51 40 64 52 42
is_linear=0
shrinkage=0.05


Tree=35
num_leaves=18
num_cat=0
split_feature=2 7 7 15 17 9 4 9 10 6 2 15 6 1 17 9 7
split_gain=4.94961 2.60613 2.83681 1.5487 1.20752 1.30272 1.02764 1.1049 1.35829 0.907636 1.26826 1.67381 0.432154 0.400744 0.351704 0.358313 0.211335
threshold=6215.1864405200004 931.5459558317865 -416.83404972410784 3603.3004451350002 691679912.72154307 6.6241722197754909 259.82861935388121 11.114919903826666 0.18366214885640123 961.16882180812661 1484.5855985400003 367.68176969000007 461.79095226898761 1.5000000000000002 1022441.2847213497 4.1395102111592017 8.6273401248214885
decision_type=2 2 2 2 2 2 2 2 2 2 2 2 2 2 2 2 2
left_child=1 2 -1 6 5 -2 7 9 -9 10 12 -12 13 14 -4 -16 -11
right_child=4 -3 3 -5 -6 -7 -8 8 -10 16 11 -13 -14 -15 15 -17 -18
leaf_value=0.0099892374148239978 0.015533165484666826 0.014561825773932719 -0.0032153361531034592 0.007906678160247595 0.021446850243210795 -0.0016178034110502764 0.0051441572021160807 -0.0077102344880501444 0.0072120599232373718 -0.017872441212832931 0.0059371877899393449 -0.011230787299573422 -0.0019574585388710893 -0.014829572628886026 -0.014816801016405227 -0.0049526778775422524 -0.0091509123057836577
leaf_weight=36 21 21 30 22 24 21 20 29 30 24 39 21 21 35 24 20 20
leaf_count=36 21 21 30 22 24 21 20 29 30 24 39 21 21 35 24 20 20
internal_value=0 -0.00213102 -0.00312594 -0.00457575 0.0125718 0.00700321 -0.00549142 -0.00624943 -4.5553e-05 -0.00778553 -0.00618126 -7.52428e-05 -0.00893916 -0.0102088 -0.00778802 -0.0106539 -0.0143107
internal_weight=458 392 371 335 66 42 313 293 59 234 190 60 130 109 74 44 44
internal_count=458 392 371 335 66 42 313 293 59 234 190 60 130 109 74 44 44
is_linear=0
shrinkage=0.05


Tree=36
num_leaves=19
num_cat=0
split_feature=2 8 11 7 7 16 6 12 7 11 13 17 13 17 8 11 9 17
split_gain=4.5326 1.98123 3.95364 4.42675 3.91651 1.9531 1.5388 1.38818 1.57579 1.17648 3.80993 1.19639 0.915213 0.761884 0.6277 0.44831 0.414491 0.212568
threshold=2276.1357739350001 0.10094605142258457 4.5000000000000009 -196.44119947982099 103.889970033393 0.32967422349209047 1927.8883429890623 -0.13298353471991056 339.19582444910822 6.5000000000000009 816.86098707000008 1841849.0621512912 8726.1737315700029 16719793.114595609 -0.019506084926728718 10.500000000000002 4.7493457692612466 483069.50617951254
decision_type=2 2 2 2 2 2 2 2 2 2 2 2 2 2 2 2 2 2
left_child=5 2 6 -4 12 -1 -2 -7 9 11 -11 17 -5 14 15 -12 -13 -9
right_child=1 -3 3 4 -6 7 -8 8 -10 10 13 16 -14 -15 -16 -17 -18 -19
leaf_value=0.0098086330864537996 0.003212645474983298 0.017839704548396795 0.028936223397436352 0.0013935180726860252 0.015827860071046935 -0.017788663563274205 -0.013388964727520944 -0.01991845540702343 0.0081763519897409109 0.016689317456700586 -0.0068265032546506038 0 -0.012825689444628856 0.0015275815154679798 -0.0028309475657130991 -0.018431674373291792 -0.0086226346542866063 -0.010838985543536106
leaf_weight=22 22 29 22 20 36 20 34 21 22 21 20 28 23 21 27 20 28 22
leaf_count=22 22 29 22 20 36 20 34 21 22 21 20 28 23 21 27 20 28 22
internal_value=0 0.00600577 0.00368917 0.00958442 0.00383848 -0.00409884 -0.00683724 -0.00537682 -0.00420355 -0.00556974 -0.00189924 -0.00950159 -0.00621711 -0.00652901 -0.00911306 -0.0130591 -0.00443257 -0.0157387
internal_weight=458 186 157 101 79 272 56 250 230 208 109 99 43 88 67 40 56 43
internal_count=458 186 157 101 79 272 56 250 230 208 109 99 43 88 67 40 56 43
is_linear=0
shrinkage=0.05


Tree=37
num_leaves=18
num_cat=0
split_feature=2 16 16 10 8 4 13 10 9 4 13 2 13 3 4 6 17
split_gain=4.25071 2.13929 1.61972 2.09412 1.46961 1.77876 1.50579 1.39622 1.50124 1.25573 1.70637 1.18673 0.89631 0.608028 0.365708 0.228931 0.117137
threshold=4048.4985821250007 0.32064675687909988 666.13849931743789 0.074627959761224855 0.056548928600242777 -224.55520621101087 1132.6318911250003 0.1632880458722426 5.0959463132892084 -1.899544010340757 871.99064817500005 2160.1210033650004 11482.490114890001 7583.4341134577562 -0.00024760997981086963 331.61217745392588 6771896.7682260023
decision_type=2 2 2 2 2 2 2 2 2 2 2 2 2 2 2 2 2
left_child=1 -1 9 -4 5 -5 -7 -2 -9 10 -3 15 -10 -8 -11 -12 -15
right_child=7 2 3 4 -6 6 13 8 12 14 11 -13 -14 16 -16 -17 -18
leaf_value=0.012821843123861724 0.018720926788670045 0.0083746017244729128 0.013156511113932358 0.0050186120806527991 0.0091194380390579293 0.0033276723392985084 -0.0035805693996094519 0.015144374654270138 -0.0062952241172584203 -0.018814974046595722 -0.013587055696713691 0.0014052094519138338 0.0063762474581599247 -0.0099111710412597143 -0.0090910109529892605 -0.0063132866036146873 -0.01690577896893956
leaf_weight=20 26 21 24 34 22 21 20 25 25 22 37 27 29 21 29 24 31
leaf_count=20 26 21 24 34 22 21 20 25 25 22 37 27 29 21 29 24 31
internal_value=0 -0.0026228 -0.00360099 -0.000210934 -0.00247077 -0.00457314 -0.00814908 0.00879085 0.00526707 -0.00721135 -0.00405048 -0.00713252 0.00041112 -0.0115647 -0.013663 -0.0109539 -0.0144157
internal_weight=458 353 333 173 149 127 93 105 79 160 109 88 54 72 51 61 52
internal_count=458 353 333 173 149 127 93 105 79 160 109 88 54 72 51 61 52
is_linear=0
shrinkage=0.05


Tree=38
num_leaves=17
num_cat=0
split_feature=7 13 11 6 7 8 4 4 10 13 15 8 7 8 9 8
split_gain=3.74518 2.61674 2.75422 2.40432 1.78978 6.41186 2.24931 1.30324 1.25155 1.35097 1.11793 0.894892 1.25989 1.13934 0.704599 0.73821
threshold=931.5459558317865 28500.278684645004 13.500000000000002 663.50083311169999 -237.68565767892767 -0.12447838803049506 166.76376497491344 -98.624308484544457 0.48747197428509204 577.83068189000016 1967.7821011900003 -0.021867285819513124 31.410505382143096 -0.038388487183603354 4.8432799597658542 -0.059524673853653363
decision_type=2 2 2 2 2 2 2 2 2 2 2 2 2 2 2 2
left_child=1 4 3 -3 5 -1 7 14 9 -9 -5 13 -13 -11 -6 -16
right_child=-2 2 -4 10 6 -7 -8 8 -10 11 -12 12 -14 -15 15 -17
leaf_value=-0.016622206590005333 0.016508607416617454 -0.0079959427353900846 0.021885240968494188 0.00054268374674670079 0.0053229791005807263 0.018692307238551704 0.0092139348492026336 0.0047069694527557921 -0.019438521254062657 -0.0061880045524594605 0.016268449383974076 -0.010909292500245533 0.0025026663971948436 -0.020465154172231756 -0.010010774057092412 0.0018589890631847085
leaf_weight=20 31 36 20 22 27 32 24 20 24 31 24 37 31 29 27 23
leaf_count=20 31 36 20 22 27 32 24 20 24 31 24 37 31 29 27 23
internal_value=0 -0.00122462 0.00570809 0.00148606 -0.00342659 0.00495811 -0.00505419 -0.00648079 -0.00889338 -0.00703082 0.00902538 -0.00892588 -0.0047749 -0.013393 -0.000982596 -0.00452325
internal_weight=458 427 102 82 325 52 273 249 172 148 46 128 68 60 77 50
internal_count=458 427 102 82 325 52 273 249 172 148 46 128 68 60 77 50
is_linear=0
shrinkage=0.05


Tree=39
num_leaves=18
num_cat=0
split_feature=2 7 7 12 13 4 13 1 4 10 16 8 10 2 10 3 5
split_gain=3.61404 1.99684 2.26973 1.11031 1.03028 2.50336 0.938726 1.67355 0.741747 0.885788 0.93637 1.63422 1.00345 0.675909 0.302385 0.198603 0.164614
threshold=6215.1864405200004 931.5459558317865 -416.83404972410784 -0.045083939766929031 28500.278684645004 -27.430739246580632 81349.136005435008 1.5000000000000002 -273.74313025697739 0.48747197428509204 666.13849931743789 -0.019506084926728718 0.10565791362328598 479.24925344500008 0.90115151967420992 11663.095428746137 1271.0222266667704
decision_type=2 2 2 2 2 2 2 2 2 2 2 2 2 2 2 2 2
left_child=1 2 -1 16 8 -6 7 -2 -5 10 12 15 -10 -14 -11 -12 -4
right_child=6 -3 3 4 5 -7 -8 -9 9 14 11 -13 13 -15 -16 -17 -18
leaf_value=0.0090355350731595157 0.015307590860128404 0.012788035895421424 -0.014438030997534164 0.0046283158553498127 -0.0046069074355948132 0.01655018070882017 0.019702927895954681 -0.0033293756000373678 -0.014196050084647142 -0.016016815682365137 -0.0024109100580215455 0.0078378515635640963 0.0039452306790785357 -0.0075264228067050383 -0.0064771084402772518 -0.0094292132621226123 -0.0074174801684145286
leaf_weight=36 24 21 22 20 37 21 20 22 31 21 24 38 21 29 21 22 28
leaf_count=36 24 21 22 20 37 21 20 22 31 21 24 38 21 29 21 22 28
internal_value=0 -0.00181908 -0.0026915 -0.00398974 -0.00273906 0.00311935 0.0107444 0.00640668 -0.00426496 -0.00516637 -0.00343217 0.000218018 -0.00723501 -0.0026274 -0.0116248 -0.00600308 -0.0108271
internal_weight=458 392 371 335 285 58 66 46 227 207 165 84 81 50 42 46 50
internal_count=458 392 371 335 285 58 66 46 227 207 165 84 81 50 42 46 50
is_linear=0
shrinkage=0.05


Tree=40
num_leaves=18
num_cat=0
split_feature=7 7 10 8 4 8 4 7 16 11 17 13 8 10 10 10 8
split_gain=3.13694 2.20718 6.83731 2.81186 2.52233 2.14408 1.58273 0.632181 0.745843 1.19049 1.28363 0.597998 0.387241 0.347952 0.336531 0.231404 0.846207
threshold=931.5459558317865 -181.42179648660644 0.1495463857212799 -0.12447838803049506 430.33300109792032 -0.058046288633565979 -273.74313025697739 203.72095377464345 610.3019530959258 12.500000000000002 5626929.2395659918 23700.934490355005 -0.037350564401793303 0.35244036881996349 0.18896329527106934 0.17970686964789648 -0.054538651655987418
decision_type=2 2 2 2 2 2 2 2 2 2 2 2 2 2 2 2 2
left_child=1 2 -1 -4 6 -5 13 8 11 10 12 15 -10 -3 -9 -8 -17
right_child=-2 4 3 5 -6 -7 7 14 9 -11 -12 -13 -14 -15 -16 16 -18
leaf_value=0.030031884439628231 0.015110073147807272 0.0092412738963252011 -0.013265062907049733 0.018009742237627507 0.01368850380803148 -0.0036144819885492322 -0.015121843323835897 -0.0043496630273082036 0.003693563203180573 0.0043135668187769078 -0.013325108809629456 -0.0028417001825211379 -0.0055507621338421647 0.00010609212253863611 0.0043957442841069264 -0.016324719466184353 -0.0029249835660060245
leaf_weight=21 31 20 30 20 20 24 35 21 22 32 39 28 21 23 21 21 29
leaf_count=21 31 20 30 20 20 24 35 21 22 32 39 28 21 23 21 21 29
internal_value=0 -0.00111939 0.00554507 -0.00164499 -0.00305233 0.00628539 -0.00418174 -0.00561295 -0.00665136 -0.00367671 -0.00686951 -0.0095499 -0.000731018 0.00458211 0 -0.0116428 -0.00886065
internal_weight=458 427 95 74 332 44 312 269 227 114 82 113 43 43 42 85 50
internal_count=458 427 95 74 332 44 312 269 227 114 82 113 43 43 42 85 50
is_linear=0
shrinkage=0.05


Tree=41
num_leaves=18
num_cat=0
split_feature=2 8 11 16 6 9 7 10 4 16 13 6 9 8 6 13 13
split_gain=3.00493 1.62244 3.05252 4.59744 1.5826 1.55478 2.25874 1.85702 1.4487 1.09812 1.04942 1.411 0.787519 0.773173 0.375473 0.743711 0.725474
threshold=2004.5959585950002 0.10094605142258457 4.5000000000000009 5531.979927051153 1927.8883429890623 10.356251325776386 -40.812108641427464 0.18366214885640123 -283.7414016992031 1415.2815638834002 670.23675566500015 26.060574577084999 6.7196975803869554 -0.00115638956156812 286.91701010493472 4817.1290422600005 2815.5832347300006
decision_type=2 2 2 2 2 2 2 2 2 2 2 2 2 2 2 2 2
left_child=5 2 4 8 -2 9 -7 -8 -4 10 -1 13 -10 -12 15 -13 -16
right_child=1 -3 3 -5 -6 6 7 -9 12 -11 11 14 -14 -15 16 -17 -18
leaf_value=-0.0179420632598075 0.003189393538236618 0.015146139170373642 0.012840877687153611 0.0264074582785368 -0.013138869065377449 0.015359316769366464 -0.014429495883551205 0.0065437406314803022 0.0041379415664461348 0.0016969314580544447 0.0079952355587612038 -0.0054348241141997274 -0.0066270798792106081 -0.0052271776202888719 -0.01229872793636539 -0.018640258233249187 0
leaf_weight=21 24 30 22 24 35 23 20 20 30 38 22 23 36 20 21 24 25
leaf_count=21 24 30 22 24 35 23 20 20 30 38 22 23 36 20 21 24 25
internal_value=5.80982e-07 0.00457855 0.00261824 0.00746549 -0.00647107 -0.00356434 0.00317223 -0.00391709 0.00200466 -0.00578268 -0.00763569 -0.00587557 -0.00167053 0.00160743 -0.00928933 -0.01253 -0.00567564
internal_weight=458 201 171 112 59 257 63 40 88 194 156 135 66 42 93 47 46
internal_count=458 201 171 112 59 257 63 40 88 194 156 135 66 42 93 47 46
is_linear=0
shrinkage=0.05


Tree=42
num_leaves=18
num_cat=0
split_feature=2 16 3 13 13 4 11 3 4 4 3 10 6 4 16 11 2
split_gain=2.74389 1.83041 1.33396 2.47886 1.99238 1.2973 1.26308 1.3872 1.17188 1.16218 0.944148 1.20658 0.818493 0.676672 0.588844 0.428714 0.238509
threshold=4048.4985821250007 0.32064675687909988 1943.9961937977255 768.26765682500013 2815.5832347300006 -0.0061934997129944394 12.500000000000002 86122.850386606806 -607.82093926883078 -224.55520621101087 4644.0860194563311 0.11138565500747029 75.257560304591493 -1.899544010340757 970.88442946669386 5.5000000000000009 1124.0394650450003
decision_type=2 2 2 2 2 2 2 2 2 2 2 2 2 2 2 2 2
left_child=1 -1 12 -4 15 9 7 8 -2 -6 -11 -12 13 -3 -13 -5 -17
right_child=6 2 3 4 5 -7 -8 -9 -10 10 11 14 -14 -15 -16 16 -18
leaf_value=0.012182838180590246 0.017228503107376721 0.0017424612208491279 0.014271112486072211 -0.0048326268320846742 0.0059609202689984275 0.0088554794702898065 0.017532001843918926 -0.0052579928769005673 0.0024102018494158981 -0.01390497875315222 0.0070719093263149268 -0.0013455050453277573 -0.016388403218812669 -0.010712940723381262 -0.011477641926181538 -0.0083385997023635913 -0.017340285525258098
leaf_weight=20 22 20 22 32 33 33 22 26 35 21 24 34 25 21 26 22 20
leaf_count=20 22 20 22 32 33 33 22 26 35 21 24 34 25 21 26 22 20
internal_value=9.21735e-07 -0.00210133 -0.00300811 -0.00139746 -0.00287705 7.35859e-05 0.0070688 0.0040602 0.00841419 -0.00203906 -0.00463303 -0.0021199 -0.00933122 -0.00462126 -0.00593425 -0.00967214 -0.013045
internal_weight=458 353 333 267 245 171 105 83 57 138 105 84 66 41 60 74 42
internal_count=458 353 333 267 245 171 105 83 57 138 105 84 66 41 60 74 42
is_linear=0
shrinkage=0.05


Tree=43
num_leaves=18
num_cat=0
split_feature=7 2 3 11 4 2 11 6 4 12 11 13 7 4 5 2 3
split_gain=2.67378 1.8878 1.74429 1.9957 3.62062 1.57666 3.23202 1.21873 0.69481 0.6475 0.600578 0.724363 0.711977 0.586446 0.525582 1.05261 0.926302
threshold=931.5459558317865 2276.1357739350001 13636.366060088769 4.5000000000000009 -283.7414016992031 423.78916744000009 6.5000000000000009 864.37772588507698 -258.22761915001348 -0.063986798289359686 4.5000000000000009 1132.6318911250003 -1.0000000180025095e-35 -77.033384816199728 1721.0450894850612 1206.3108191450003 4644.0860194563311
decision_type=2 2 2 2 2 2 2 2 2 2 2 2 2 2 2 2 2
left_child=1 5 7 -4 -5 6 -1 -3 -7 -10 12 -12 -11 -6 15 16 -13
right_child=-2 2 3 4 13 8 -8 -9 9 10 11 14 -14 -15 -16 -17 -18
leaf_value=-0.011074604901739143 0.013952104512427468 0.0025641518281329244 -0.0090976281203329571 0.017165211420506241 0.0015559053938421939 0.0026727567545392298 0.013484628445961898 0.020094072394581008 -0.014519647645841663 -0.01633482023239291 0.0048808614841916349 -0.010006965909463665 -0.0043536256840161517 -0.0086898753446127703 0.0014651487805795943 -0.01671799937884013 0.003682604324258864
leaf_weight=21 31 20 39 33 26 21 33 21 23 23 21 23 31 27 21 20 24
leaf_count=21 31 20 39 33 26 21 33 21 23 23 21 23 31 27 21 20 24
internal_value=7.57016e-08 -0.00103138 0.00310971 0.000106389 0.00439437 -0.00368609 0.0038152 0.0119266 -0.00567592 -0.0066545 -0.00543244 -0.00317789 -0.00975185 -0.00363532 -0.00519041 -0.00734088 -0.00298129
internal_weight=458 427 166 125 86 261 54 41 207 186 163 109 54 53 88 67 47
internal_count=458 427 166 125 86 261 54 41 207 186 163 109 54 53 88 67 47
is_linear=0
shrinkage=0.05


Tree=44
num_leaves=18
num_cat=0
split_feature=2 16 16 10 8 8 6 3 3 3 3 6 5 17 13 17 3
split_gain=2.35083 1.71578 1.48459 1.52262 1.11725 1.10368 1.06182 1.54679 1.57376 2.51231 1.4254 0.794592 0.597385 0.574956 0.370422 0.369418 0.320641
threshold=6215.1864405200004 0.32064675687909988 666.13849931743789 0.074627959761224855 -0.031209382827638448 -0.056775912980739592 197.94576453658112 17564.044669035011 6591.995541232809 9263.3664518354944 11863.937241249701 5525.5007374848183 3897.2748159607877 3331783.9708879576 4336.8304534450008 31086690.042767886 1534.0202382030272
decision_type=2 2 2 2 2 2 2 2 2 2 2 2 2 2 2 2 2
left_child=1 -1 4 -4 5 14 -5 8 -8 -10 -11 -2 -9 16 -3 -15 -6
right_child=11 2 3 6 13 -7 7 12 9 10 -12 -13 -14 15 -16 -17 -18
leaf_value=0.012073701445690612 0.013762178841926574 -0.011477653180204689 0.011981126522072234 -0.010527801099419594 -0.008300835397094487 0.0049732537356180113 -0.0055806732971083236 -0.01092777003967685 0.02123435484170914 -0.0078462270207025793 0.010127839534120128 0.0025084803311619906 -0.00037644134568316599 -0.00018110387365926394 -0.0026965539690314067 -0.0098221849153439216 -0.0182953051040354
leaf_weight=21 35 20 25 24 21 36 26 28 24 21 21 31 27 21 35 20 22
leaf_count=21 35 20 25 24 21 36 26 28 24 21 21 31 27 21 35 20 22
internal_value=0 -0.00146537 -0.00227557 0.000691598 -0.00561225 -0.00167496 -0.00098991 0.000594125 0.00457394 0.00867245 0.00105106 0.00866731 -0.00593653 -0.00974895 -0.0061269 -0.005125 -0.0138275
internal_weight=458 392 371 196 175 91 171 147 92 66 42 66 55 84 55 41 43
internal_count=458 392 371 196 175 91 171 147 92 66 42 66 55 84 55 41 43
is_linear=0
shrinkage=0.05


Tree=45
num_leaves=17
num_cat=0
split_feature=7 7 11 4 6 4 8 9 9 7 13 13 5 7 6 8
split_gain=2.37182 1.65782 5.8122 1.91059 1.79084 1.01514 0.897507 0.832615 2.18732 0.828308 1.04052 0.791167 0.734435 0.647645 0.937866 0.553482
threshold=931.5459558317865 -181.42179648660644 6.5000000000000009 430.33300109792032 537.82869770409786 -98.624308484544457 -0.059524673853653363 10.356251325776386 12.692662544718731 28.314625115893154 9168.8889112700017 8726.1737315700029 879.30930348378695 145.25483171482151 1927.8883429890623 -0.17232033607551392
decision_type=2 2 2 2 2 2 2 2 2 2 2 2 2 2 2 2
left_child=1 2 4 5 -1 13 -7 9 -9 11 -11 12 -8 14 15 -3
right_child=-2 3 -4 -5 -6 6 7 8 -10 10 -12 -13 -14 -15 -16 -17
leaf_value=-0.016026928702538665 0.013137155881267973 -0.0038348532435686696 0.020718700316631134 0.011911368976746288 0.0016841345950961114 -0.014212523941640501 -0.011209254631841626 0.011193157680056715 -0.0084095208930472544 -0.0075908360325006976 0.005353598761613722 -0.017212101254039085 0.0011751600288386857 0.0081196648695252161 -0.0096154311440885074 0.0062093356675045064
leaf_weight=21 31 22 35 20 39 26 26 26 29 35 26 25 20 21 24 32
leaf_count=21 31 22 35 20 39 26 26 26 29 35 26 25 20 21 24 32
internal_value=0 -0.000974952 0.0047984 -0.00265143 -0.00459389 -0.00363599 -0.00557485 -0.00427808 0.000802315 -0.00642262 -0.00199553 -0.0100762 -0.0058079 0.000499533 -0.00156556 0.00203103
internal_weight=458 427 95 332 60 312 213 187 55 132 61 71 46 99 78 54
internal_count=458 427 95 332 60 312 213 187 55 132 61 71 46 99 78 54
is_linear=0
shrinkage=0.05


Tree=46
num_leaves=17
num_cat=0
split_feature=7 8 7 11 3 10 5 8 10 10 6 1 8 8 7 6
split_gain=2.14775 1.55927 1.61625 5.75476 2.06617 1.29372 1.18402 0.789717 0.9549 1.28416 1.03909 1.1888 1.02813 0.820692 1.12966 0.260094
threshold=931.5459558317865 0.23696220640356311 -181.42179648660644 4.5000000000000009 11663.095428746137 0.1639988396694502 8398.5377826246677 0.015858039072629192 0.18172367082868415 0.2446628625553888 663.50083311169999 1.5000000000000002 -0.059524673853653363 -0.020988589092861946 23.640347192500162 267.25599460534369
decision_type=2 2 2 2 2 2 2 2 2 2 2 2 2 2 2 2
left_child=1 2 3 4 -1 -5 7 8 13 -10 11 -11 -12 15 -15 -4
right_child=-2 -3 6 5 -6 -7 -8 -9 9 10 12 -13 -14 14 -16 -17
leaf_value=0.00087726555317640313 0.012500824895105326 0.011166949990391733 -0.0070231369526489928 0.025392904952168466 -0.020376226575601671 0.0082505958490073691 0.0074433062338958621 -0.010890252969227732 0.0079844266454935746 -0.00067280909328749699 -0.0049814245311543348 -0.014846368748373513 0.0091720952287029766 -0.0097022560989904801 0.0035418265267755048 -0.015793846922266919
leaf_weight=24 31 24 22 20 20 29 22 39 33 32 24 28 25 30 32 23
leaf_count=24 31 24 22 20 20 29 22 39 33 32 24 28 25 30 32 23
internal_value=0 -0.000928161 -0.0016867 0.00404042 -0.00891042 0.0157154 -0.00342838 -0.00429904 -0.00320725 -0.000470895 -0.00312553 -0.00750406 0.00217878 -0.00675439 -0.00283952 -0.0118605
internal_weight=458 427 403 93 44 49 310 288 249 142 109 60 49 107 62 45
internal_count=458 427 403 93 44 49 310 288 249 142 109 60 49 107 62 45
is_linear=0
shrinkage=0.05


Tree=47
num_leaves=19
num_cat=0
split_feature=2 16 4 2 3 8 16 10 7 2 9 4 9 10 10 5 9 8
split_gain=1.98627 1.40306 1.24274 2.24114 1.68466 1.39105 1.14453 1.12615 2.19059 1.03896 1.06063 0.956535 0.727524 0.670471 0.495837 0.395073 0.199381 0.189815
threshold=4048.4985821250007 0.32064675687909988 -1192.8638842090129 9841.3961027200021 28823.252080725095 -0.012786935055953054 80.766078529826515 0.58572368459789725 -360.57214721232117 479.24925344500008 7.9828155309457944 -80.464355578098491 1.7090267908563581 0.26247563454340966 0.1269503619657282 1387.1735656562844 11.114919903826666 -0.035475636026870018
decision_type=2 2 2 2 2 2 2 2 2 2 2 2 2 2 2 2 2 2
left_child=1 -1 -2 4 -4 -6 11 8 -8 -10 15 -3 -9 16 -13 -11 -12 -16
right_child=2 6 3 -5 5 -7 7 12 9 10 13 14 -14 -15 17 -17 -18 -19
leaf_value=0.01070919539025497 -0.004549440575594252 0 0.014634589041498575 0.021731051204260443 0.0065444326507193701 -0.011605398803949358 0.016395667252086462 0 0.0093257159282538037 -0.0018988666320974763 -0.0065296452971441406 -0.0035513964068630468 -0.012193065052231153 -0.013663343389829 -0.0084177367084405635 0.0052605804480994368 0 -0.016406710165794251
leaf_weight=20 21 33 21 23 20 20 20 20 21 36 20 22 29 23 21 38 24 26
leaf_count=20 21 33 21 23 20 20 20 20 21 36 20 22 29 23 21 38 24 26
internal_value=0 -0.00179139 0.00601074 0.00873207 0.00347872 -0.00247025 -0.00258696 -0.000606009 0.00119024 -0.000745366 -0.00233564 -0.00697524 -0.00726817 -0.00686125 -0.0102836 0.00173206 -0.00296988 -0.0131911
internal_weight=458 353 105 84 61 40 333 231 182 162 141 102 49 67 69 74 44 47
internal_count=458 353 105 84 61 40 333 231 182 162 141 102 49 67 69 74 44 47
is_linear=0
shrinkage=0.05


Tree=48
num_leaves=17
num_cat=0
split_feature=7 2 3 11 4 2 11 6 4 6 10 12 2 3 9 4
split_gain=1.90689 1.32794 1.56885 1.50208 2.93223 1.35731 2.53713 1.04293 0.622488 0.508426 0.66407 0.716109 0.578734 1.10805 1.02247 0.50129
threshold=931.5459558317865 2276.1357739350001 13636.366060088769 4.5000000000000009 -283.7414016992031 423.78916744000009 6.5000000000000009 864.37772588507698 -258.22761915001348 26.060574577084999 0.58572368459789725 -0.063986798289359686 1149.8274684250002 7404.1092561820506 6.9604501526427116 -77.033384816199728
decision_type=2 2 2 2 2 2 2 2 2 2 2 2 2 2 2 2
left_child=1 5 7 -4 -5 6 -1 -3 -7 -10 11 -11 13 -13 -14 -6
right_child=-2 2 3 4 15 8 -8 -9 9 10 -12 12 14 -15 -16 -17
leaf_value=-0.0093309267627244667 0.011779859913767725 0.0022831485331768083 -0.008227159839123489 0.014978285459253719 0.001055257349378533 0.0029411083459854126 0.012419674843549729 0.018515838146294383 -8.8744114207870824e-05 -0.014013633078256614 -0.014387543953877563 -0.0063416187673368879 0 0.0072185128558151157 -0.014504226342989849 -0.0084035445363926046
leaf_weight=21 31 20 39 33 26 21 33 21 33 20 26 33 23 26 25 27
leaf_count=21 31 20 39 33 26 21 33 21 33 20 26 33 23 26 25 27
internal_value=0 -0.00087375 0.00259678 -0.000171682 0.00347649 -0.00310163 0.00385434 0.0109594 -0.00495008 -0.00587872 -0.00708639 -0.00545187 -0.00369031 -0.00026192 -0.00771098 -0.00373717
internal_weight=458 427 166 125 86 261 54 41 207 186 153 127 107 59 48 53
internal_count=458 427 166 125 86 261 54 41 207 186 153 127 107 59 48 53
is_linear=0
shrinkage=0.05


Tree=49
num_leaves=17
num_cat=0
split_feature=13 11 6 16 3 11 2 8 7 2 4 7 13 3 8 16
split_gain=1.79861 2.09246 1.72 1.53896 3.24496 1.78292 1.86756 1.39492 1.06087 0.733942 1.59665 0.628718 0.57199 0.727397 0.552574 0.478867
threshold=28500.278684645004 12.500000000000002 663.50083311169999 1415.2815638834002 12654.133846880772 4.5000000000000009 3693.4290505800004 -0.035260329300943555 -1.0000000180025095e-35 479.24925344500008 -1.899544010340757 67.99423196217866 11358.994262310001 8252.0292251269602 -0.013828729987040824 630.01712387882969
decision_type=2 2 2 2 2 2 2 2 2 2 2 2 2 2 2 2
left_child=3 2 -2 9 7 -6 -7 -5 -4 10 -1 12 13 15 -13 -11
right_child=1 -3 8 4 5 6 -8 -9 -10 11 -12 14 -14 -15 -16 -17
leaf_value=0.0075010981473743049 -0.0075563813444665257 0.016064932165723859 -0.00096071798921279299 0.0045369795399407544 -0.011657145264455014 -0.0066467288805654758 0.011744465794680374 0.022953104852210911 0.013474119961195227 -0.0038655427995730528 -0.0089520488876419588 -0.0065603512674570087 -0.015981495967981492 -7.1241360518240157e-05 0.0031528584951800958 -0.014512308026481022
leaf_weight=33 33 32 22 23 35 26 27 20 27 21 25 29 21 30 27 27
leaf_count=33 33 32 22 23 35 26 27 20 27 21 25 29 21 30 27 27
internal_value=0 0.00542091 0.0010634 -0.00179944 0.00242901 -0.00303679 0.00267377 0.0135432 0.00700358 -0.00442259 0.00029295 -0.00620973 -0.00860188 -0.00637462 -0.00181632 -0.0101303
internal_weight=458 114 82 344 131 88 53 43 49 213 58 155 99 78 56 48
internal_count=458 114 82 344 131 88 53 43 49 213 58 155 99 78 56 48
is_linear=0
shrinkage=0.05


Tree=50
num_leaves=17
num_cat=0
split_feature=7 8 7 11 7 9 9 13 13 9 4 6 11 7 6 7
split_gain=1.6701 1.31085 1.32441 4.89295 1.69427 0.912533 3.14168 0.690989 1.1718 0.641121 0.702488 0.857655 0.375876 0.369679 0.268994 0.226701
threshold=931.5459558317865 0.23696220640356311 -181.42179648660644 6.5000000000000009 -574.89191435321254 10.445958291327255 12.692662544718731 72118.279141200022 28500.278684645004 7.4727153900401584 -74.315433728147084 570.76582426756624 4.5000000000000009 31.410505382143096 238.63429255597364 16.762073267500082
decision_type=2 2 2 2 2 2 2 2 2 2 2 2 2 2 2 2
left_child=1 2 3 4 -1 7 -7 8 9 10 11 -4 -12 -14 -11 -8
right_child=-2 -3 5 -5 -6 6 15 -9 -10 14 12 -13 13 -15 -16 -17
leaf_value=-0.015797827509434328 0.011022188737988473 0.010268275451101365 0.0078922014533040624 0.018192795485051143 0.0014323106445875522 0.01223849882950654 -0.011497402070533663 -0.013015730314174384 0.0054022007118910559 -0.014311023893850772 -0.010875711090931739 -0.005476670732552355 -0.0077080267846584326 0.00048908059710058677 -0.0064275043810138842 -0.0035270744724118191
leaf_weight=22 31 24 25 35 36 36 20 22 29 21 26 21 24 28 36 22
leaf_count=22 31 24 25 35 36 36 20 22 29 21 26 21 24 28 36 22
internal_value=0 -0.000819761 -0.00151625 0.00366581 -0.0051755 -0.00309373 0.00152223 -0.00466698 -0.00371111 -0.00522039 -0.00309961 0.00169597 -0.00597673 -0.00327391 -0.00961483 -0.00761786
internal_weight=458 427 403 93 58 310 78 232 210 181 124 46 78 52 57 42
internal_count=458 427 403 93 58 310 78 232 210 181 124 46 78 52 57 42
is_linear=0
shrinkage=0.05


Tree=51
num_leaves=19
num_cat=0
split_feature=13 16 9 8 15 9 9 9 13 8 2 4 4 9 15 8 17 13
split_gain=1.57278 1.52863 1.56794 1.41722 1.47496 1.27982 3.55692 2.12456 1.38206 1.34166 1.03071 0.689927 1.9429 1.23909 0.629773 0.59164 0.548975 0.480353
threshold=19277.014054785006 4070.2126572591974 9.8726996228921742 -0.17232033607551392 1.0000000180025095e-35 12.692662544718731 11.059255389376476 7.5855328675783413 2815.5832347300006 -0.0063911430989419217 1589.4581242050001 -3.2966243737066132 -63.169699418529085 4.1738218347572271 449.01254602500006 -0.22260467128422148 16422065.734009776 4375.3187117200005
decision_type=2 2 2 2 2 2 2 2 2 2 2 2 2 2 2 2 2 2
left_child=3 2 11 15 5 6 7 8 9 -5 -10 12 13 -2 -6 -1 -16 -9
right_child=1 -3 -4 4 14 -7 -8 17 10 -11 -12 -13 -14 -15 16 -17 -18 -19
leaf_value=-0.0040183131362904198 -0.0060250521125271919 0.016561869789253583 0.0145046349739035 0.0058343683619951382 -0.014465346892719114 -0.0070728222438058751 0.021957255513830622 -0.0034403433552565609 0.0017819378015828198 -0.01051463640887629 0.016304325242677043 0.0056369810539387893 -0.016048797072754022 0.0096873294948958445 0.0013535539984703066 -0.016555617686715866 -0.0095199999922797804 -0.013379346157113711
leaf_weight=21 23 21 20 28 20 36 21 36 22 21 30 30 20 25 24 20 20 20
leaf_count=21 23 21 20 28 20 36 21 36 22 21 30 30 20 25 24 20 20 20
internal_value=0 0.00442107 0.00209738 -0.00193289 -0.000618114 0.00136 0.00312343 0.000449585 0.00479699 -0.00114251 0.0104041 -0.000505142 -0.00332979 0.00208713 -0.00722851 -0.0105017 -0.00357958 -0.00725016
internal_weight=458 139 118 319 278 214 178 157 101 49 52 98 68 48 64 41 44 56
internal_count=458 139 118 319 278 214 178 157 101 49 52 98 68 48 64 41 44 56
is_linear=0
shrinkage=0.05


Tree=52
num_leaves=20
num_cat=0
split_feature=2 16 4 2 3 3 13 13 16 2 2 16 16 6 4 4 4 11 4
split_gain=1.46688 1.16755 1.06685 1.85179 1.46375 0.979302 2.07192 1.42151 0.988118 0.83962 1.27401 0.726988 0.710441 0.621367 0.610544 0.439499 0.397941 0.37849 0.215334
threshold=4048.4985821250007 0.32064675687909988 -1192.8638842090129 9841.3961027200021 28823.252080725095 1943.9961937977255 768.26765682500013 2815.5832347300006 2.8541406871435471 3008.5683471500001 2198.2615887250004 1.2371455848049193 769.69871378282789 75.257560304591493 -1.899544010340757 -31.061465294328642 -57.369870195163053 5.5000000000000009 -31.061465294328642
decision_type=2 2 2 2 2 2 2 2 2 2 2 2 2 2 2 2 2 2 2
left_child=1 -1 -2 4 -4 13 -7 17 11 10 12 -9 -10 14 -3 -14 -6 -8 -19
right_child=2 5 3 -5 16 6 7 8 9 -11 -12 -13 15 -15 -16 -17 -18 18 -20
leaf_value=0.0098546032119719781 -0.0046096389893103724 0.0024363119567611387 0.013316016258163888 0.019500492985825988 0.0021366433364649615 0.013432837896372963 -0.0034994406140211858 -0.00053531429264694461 0.0093432162702083588 -0.0045430326860012677 0.015383176850458688 -0.012625002687176071 0.0026256989128887655 -0.013832227039652376 -0.0093924505161968163 -0.0067210669135269914 -0.0075013571764741618 -0.014942353319546041 -0.0065884619905740363
leaf_weight=20 21 20 21 23 20 22 32 33 20 28 22 20 26 25 21 22 20 21 21
leaf_count=20 21 20 21 23 20 22 32 33 20 28 22 20 26 25 21 22 20 21 21
internal_value=0 -0.00154551 0.00515937 0.00768594 0.00290796 -0.00227263 -0.000891597 -0.00224757 0.000239862 0.00281161 0.00517945 -0.00533937 0.00163068 -0.0076882 -0.00358265 -0.00160593 -0.00262583 -0.00798879 -0.011132
internal_weight=458 353 105 84 61 333 267 245 171 118 90 53 68 66 41 48 40 74 42
internal_count=458 353 105 84 61 333 267 245 171 118 90 53 68 66 41 48 40 74 42
is_linear=0
shrinkage=0.05


Tree=53
num_leaves=19
num_cat=0
split_feature=7 7 10 11 3 4 9 9 9 13 13 7 11 9 7 10 10 5
split_gain=1.42965 1.0373 4.18947 1.58225 1.7624 1.2948 0.711967 1.80688 0.849682 0.51484 0.731672 0.529516 0.700575 0.590191 0.416921 0.410111 0.195917 0.194113
threshold=931.5459558317865 -181.42179648660644 0.1495463857212799 4.5000000000000009 11663.095428746137 430.33300109792032 10.445958291327255 12.692662544718731 1.6271739042906384 72118.279141200022 28500.278684645004 -52.605424892142629 4.5000000000000009 7.4727153900401584 16.762073267500082 0.069209267486970275 0.24996314154196123 1246.992270639935
decision_type=2 2 2 2 2 2 2 2 2 2 2 2 2 2 2 2 2 2
left_child=1 2 -1 4 -4 6 8 -8 -3 10 11 -10 17 15 -9 -14 -17 -13
right_child=-2 5 3 -5 -6 -7 7 14 9 -11 -12 12 13 -15 -16 16 -18 -19
leaf_value=0.022976289553229105 0.010193012622185053 0.0050435002101585271 0.0011856459837406876 0.0068241187695774353 -0.018424166760274346 0.0098877336865379716 0.0094994120294642128 -0.010744497760065967 -0.01229436764419079 -0.012450847310297518 0.0040150653866484112 -0.013203947016630661 -0.0039551608774949006 -0.0068574934369191919 -0.00048856474797834054 0.0071854510801759629 0.00016715261069211092 -0.0053015596135741194
leaf_weight=21 31 21 24 30 20 20 35 20 24 22 22 21 26 38 21 21 21 20
leaf_count=21 31 21 24 30 20 20 35 20 24 22 22 21 26 38 21 21 21 20
internal_value=0 -0.000763367 0.00379958 -0.00180958 -0.00782814 -0.00209153 -0.00290455 0.00124151 -0.00426042 -0.00521146 -0.00430055 -0.00541659 -0.00418442 -0.00193901 -0.00574721 0.000796637 0.00387808 -0.00968618
internal_weight=458 427 95 74 44 332 312 76 236 215 193 171 147 106 41 68 42 41
internal_count=458 427 95 74 44 332 312 76 236 215 193 171 147 106 41 68 42 41
is_linear=0
shrinkage=0.05


Tree=54
num_leaves=18
num_cat=0
split_feature=17 12 17 2 17 11 8 2 9 17 10 3 8 3 1 6 10
split_gain=1.30053 0.909027 0.772825 2.0854 1.57041 2.54274 3.3596 1.43602 1.33237 0.922889 0.986661 1.68985 1.16633 0.687036 0.450469 0.449149 0.368096
threshold=586680467.11158025 -0.13730193852363309 3331783.9708879576 727.90004103000012 1022441.2847213497 3.5000000000000004 -0.030313032622037259 1484.5855985400003 12.257440463746493 203645879.94280067 0.26775540157683436 10378.582630062094 -0.033177779095631549 4474.443903094023 1.5000000000000002 155.84981717532801 0.44005037867679014
decision_type=2 2 2 2 2 2 2 2 2 2 2 2 2 2 2 2 2
left_child=1 -1 4 -4 5 -3 -7 15 9 10 12 13 -9 -12 -6 -5 -13
right_child=-2 2 3 7 14 6 -8 8 -10 -11 11 16 -14 -15 -16 -17 -18
leaf_value=-0.0090323114814236782 0.008987879578930302 -0.010001803219939272 0.015835692250858183 -0.013359531633212188 -0.013654312725148858 0.022425770309308302 -0.0035584912421526733 0.0022700077191823058 -0.0090191313542891307 -0.0048869700578075869 0.0017123409671088059 -0.00055692339817491868 0.017092188698550066 0.014801101590223287 -0.0042331288129623451 -0.0029448853986552702 -0.0097932938876606184
leaf_weight=30 36 29 22 20 30 22 26 26 23 26 20 25 29 22 27 25 20
leaf_count=30 36 29 22 20 30 22 26 26 23 26 20 25 29 22 27 25 20
internal_value=0 -0.000787603 -0.00012253 0.00146331 -0.00320113 0.00140589 0.00846354 4.12517e-05 0.00196299 0.00354055 0.00514197 0.0017187 0.0103403 0.00886941 -0.00942778 -0.00787211 -0.00489433
internal_weight=458 422 392 258 134 77 48 236 191 168 142 87 55 42 57 45 45
internal_count=458 422 392 258 134 77 48 236 191 168 142 87 55 42 57 45 45
is_linear=0
shrinkage=0.05


end of trees

feature_importances:
catalog_momentum_slope=113
max_single_peak_volume=99
terminal_velocity=86
norm_total_auc=80
max_historical_week1_volume=78
momentum_growth_ratio=66
expected_week1_carryover=65
total_pre_release_auc=57
norm_terminal_velocity=52
peak_proximity_weeks=52
momentum_baseline_interaction=50
hype_concentration=44
composite_peak_momentum=29
historical_single_momentum=21
count_pre_release_tracks=12
cannibalization_ratio=10

parameters:
[boosting: gbdt]
[objective: regression]
[metric: rmse]
[tree_learner: serial]
[device_type: cpu]
[data_sample_strategy: bagging]
[data: ]
[valid: ]
[num_iterations: 55]
[learning_rate: 0.05]
[num_leaves: 31]
[num_threads: 8]
[seed: 42]
[deterministic: 0]
[force_col_wise: 0]
[force_row_wise: 0]
[histogram_pool_size: -1]
[max_depth: -1]
[min_data_in_leaf: 20]
[min_sum_hessian_in_leaf: 0.001]
[bagging_fraction: 0.8]
[pos_bagging_fraction: 1]
[neg_bagging_fraction: 1]
[bagging_freq: 0]
[bagging_seed: 400]
[bagging_by_query: 0]
[feature_fraction: 0.8]
[feature_fraction_bynode: 1]
[feature_fraction_seed: 30056]
[extra_trees: 0]
[extra_seed: 12879]
[early_stopping_round: 0]
[early_stopping_min_delta: 0]
[first_metric_only: 0]
[max_delta_step: 0]
[lambda_l1: 0.1]
[lambda_l2: 1]
[linear_lambda: 0]
[min_gain_to_split: 0]
[drop_rate: 0.1]
[max_drop: 50]
[skip_drop: 0.5]
[xgboost_dart_mode: 0]
[uniform_drop: 0]
[drop_seed: 17869]
[top_rate: 0.2]
[other_rate: 0.1]
[min_data_per_group: 100]
[max_cat_threshold: 32]
[cat_l2: 10]
[cat_smooth: 10]
[max_cat_to_onehot: 4]
[top_k: 20]
[monotone_constraints: ]
[monotone_constraints_method: basic]
[monotone_penalty: 0]
[feature_contri: ]
[forcedsplits_filename: ]
[refit_decay_rate: 0.9]
[cegb_tradeoff: 1]
[cegb_penalty_split: 0]
[cegb_penalty_feature_lazy: ]
[cegb_penalty_feature_coupled: ]
[path_smooth: 0]
[interaction_constraints: ]
[verbosity: -1]
[saved_feature_importance_type: 0]
[use_quantized_grad: 0]
[num_grad_quant_bins: 4]
[quant_train_renew_leaf: 0]
[stochastic_rounding: 1]
[linear_tree: 0]
[max_bin: 255]
[max_bin_by_feature: ]
[min_data_in_bin: 3]
[bin_construct_sample_cnt: 200000]
[data_random_seed: 175]
[is_enable_sparse: 1]
[enable_bundle: 1]
[use_missing: 1]
[zero_as_missing: 0]
[feature_pre_filter: 1]
[pre_partition: 0]
[two_round: 0]
[header: 0]
[label_column: ]
[weight_column: ]
[group_column: ]
[ignore_column: ]
[categorical_feature: 0]
[forcedbins_filename: ]
[precise_float_parser: 0]
[parser_config_file: ]
[objective_seed: 16083]
[num_class: 1]
[is_unbalance: 0]
[scale_pos_weight: 1]
[sigmoid: 1]
[boost_from_average: 1]
[reg_sqrt: 0]
[alpha: 0.9]
[fair_c: 1]
[poisson_max_delta_step: 0.7]
[tweedie_variance_power: 1.5]
[lambdarank_truncation_level: 30]
[lambdarank_norm: 1]
[label_gain: ]
[lambdarank_position_bias_regularization: 0]
[eval_at: ]
[multi_error_top_k: 1]
[auc_mu_weights: ]
[num_machines: 1]
[local_listen_port: 12400]
[time_out: 120]
[machine_list_filename: ]
[machines: ]
[gpu_platform_id: -1]
[gpu_device_id: -1]
[gpu_use_dp: 0]
[num_gpu: 1]

end of parameters

pandas_categorical:[[0, 1, 2, 3]]
