tree
version=v4
num_class=1
num_tree_per_iteration=1
label_index=0
max_feature_idx=17
objective=binary sigmoid:1
feature_names=Archetype_Cluster count_pre_release_tracks max_single_peak_volume total_pre_release_auc terminal_velocity composite_peak_momentum expected_week1_carryover catalog_momentum_slope norm_terminal_velocity norm_total_auc hype_concentration peak_proximity_weeks cannibalization_ratio max_historical_week1_volume is_debut_studio_album historical_single_momentum momentum_growth_ratio momentum_baseline_interaction
feature_infos=-1:1:0:2:3 [1:11] [0.00026666999999999999:75504.173984980007] [0.00013262239526756796:586064.96816895751] [-4652.4197062240692:5950.1745318299018] [0.00026524479053513593:73887.775385993606] [0:18428.69349494268] [-25881.217526931992:10545.015679008571] [-0.47892888201910438:0.5] [0.5:23.167834042040159] [0:1] [0:25] [-1:781410949.77239323] [0:845132.09538968001] [0:1] [0:41356.86829708] [0.00026524479053513593:81388.518390553829] [0:27595414391.978519]
tree_sizes=1986 2223 2212 2408 2315 2418 2115 2233 2640 2641 2105 2724 2327 2853 2822 2960 3059 2950 2839 2739 2632 2641 3043 3029 2912 2748 2748 2638 2716 3068 2948 2965 2965 3038 2649 2859 2823 2961 2739 3165 3269 3256 2951 2843 3371 3270 3372 3277 3056 3354 2749 3395 2976 3372 3175 3077 2852 3215 2863 3277 3370 2966 3396 3291 3393 3198 3098 3381 3075 3234 3154 3353 3381 3257 3388 3359 3286 3371 3291 3395 3396 3367 3378 2841 3368 3392 3393

Tree=0
num_leaves=19
num_cat=0
split_feature=2 2 3 7 7 9 2 13 2 12 1 17 10 13 17 7 2 2
split_gain=1976.46 125.263 63.158 34.2724 27.7155 29.7556 24.7891 23.2523 14.0414 12.1099 12.0607 8.505 7.35671 5.65734 17.6397 2.85092 0.785236 0.474252
threshold=375.05793323000006 666.14541110500011 383.59156708226527 77.117135019392833 -36.561342056785655 4.3089848448141712 1926.5204771100002 5638.7468735150005 246.58555849500002 0.071754536196827132 1.5000000000000002 55502.549176287932 0.18303690306374235 2417.3595248300003 444542.8047085107 5.5585428298214845 121.09616453500001 268.44202196000009
decision_type=2 2 2 2 2 2 2 2 2 2 2 2 2 2 2 2 2 2
left_child=2 9 7 4 -4 8 -3 16 -6 13 11 15 -13 14 -2 -7 -1 -12
right_child=1 6 3 -5 5 10 -8 -9 -10 -11 17 12 -14 -15 -16 -17 -18 -19
leaf_value=-1.1646921249014772 -0.99483348682479189 -0.94677266602660037 -1.0530385181763064 -1.0156983813833416 -1.1110798211356423 -1.1583713248126881 -0.90604555355517347 -1.0809499510057721 -1.0231193309216309 -1.0725881922825675 -1.163098980683319 -1.0670100787233585 -1.1327407290350822 -0.97976752332514949 -1.0907249647244479 -1.1107223804112289 -1.131819835837921 -1.131819835837921
leaf_weight=121.125 12.562500000000002 105 14.249999999999998 8.4374999999999982 8.6250000000000018 9.3750000000000018 120.75 8.6249999999999982 7.8749999999999991 9.3749999999999982 31.875 10.312500000000002 5.8124999999999991 16.3125 7.8749999999999991 5.8124999999999991 5.6249999999999991 5.6249999999999991
leaf_count=646 37 252 54 27 40 50 224 36 26 38 170 41 29 45 34 27 28 28
internal_value=-1.03208 -0.939675 -1.13552 -1.10682 -1.11534 -1.12622 -0.924213 -1.15815 -1.06747 -1.01755 -1.14062 -1.11664 -1.0916 -1.00471 -1.02946 -1.14232 -1.16354 -1.15952
internal_weight=515.25 271.875 243.375 108 99.5625 85.3125 225.75 135.375 16.5 46.125 68.8125 31.3125 16.125 36.75 20.4375 15.1875 126.75 37.5
internal_count=1832 630 1202 492 465 411 476 710 66 154 345 147 70 116 71 77 674 198
is_linear=0
shrinkage=1


Tree=1
num_leaves=20
num_cat=0
split_feature=5 2 7 5 7 9 5 17 7 7 1 13 13 10 9 13 13 7 4
split_gain=1661.53 66.115 59.4899 46.2556 28.3203 22.5893 19.7116 11.1076 11.0477 13.1524 10.9499 9.54887 9.03469 9.01348 7.66232 5.51605 0.75416 0.825628 0.202285
threshold=443.68112194953125 651.20846873000016 -65.819737422856932 264.70471206570295 200.79988963875039 4.4693262630730262 1754.4252239754148 48671.599446487853 64.641394955893006 -5.7786193123212337 1.5000000000000002 2214.8253341750001 988.75802000500005 0.25654926903175795 16.088455284427528 3305.9707445800004 1043.4709867750003 20.951788801429252 4.2117325015827296
decision_type=2 2 2 2 2 2 2 2 2 2 2 2 2 2 2 2 2 2 2
left_child=2 8 -1 4 7 -5 18 14 9 -2 12 -11 -9 -7 16 -14 17 -4 -3
right_child=1 6 3 5 -6 13 -8 10 -10 11 -12 -13 15 -15 -16 -17 -18 -19 -20
leaf_value=0.065899810656187927 0.093281103553407518 0.13447281739146863 -0.065098270795193675 0.061507746964507996 0.052400136106726052 0.0073659617110236955 0.16519734370683314 0.026975844186666806 0.12789333168233416 -0.010633246753135817 -0.061946878228488503 0.063588208385647924 -0.058701077770278991 -0.058443292626959867 -0.012093101447717003 -0.0071936274467951219 -0.031660928267039881 -0.032034831537683814 0.097006384002309029
leaf_weight=12.980744421482084 15.194976225495337 79.518995612859726 125.11780568957329 13.393399909138678 5.7708581387996665 11.927373424172403 152.92051085829735 9.2951885610818881 9.2847846895456296 8.2108402848243731 17.003364622592926 7.441898137331008 8.4941983520984667 7.8318434804677954 8.648554787039755 12.787751972675322 5.4693533331155768 5.5062930285930625 14.708987981081007
leaf_count=44 44 177 689 45 20 51 266 38 22 37 93 24 46 42 41 58 28 28 39
internal_value=0.0611355 0.142443 -0.0346762 -0.0406029 -0.0497215 0.0135968 0.152283 -0.0530669 0.0794969 0.0612147 -0.0308567 0.0260536 -0.0119955 -0.0200364 -0.0600718 -0.0296879 -0.0629739 -0.0639965 0.129757
internal_weight=531.508 287.281 244.227 231.246 198.093 33.1526 247.148 192.323 40.1325 30.8477 47.5805 15.6527 30.5771 19.7592 144.742 21.282 136.093 130.624 94.228
internal_count=1832 609 1223 1179 1041 138 482 1021 127 105 235 61 142 93 786 104 745 717 216
is_linear=0
shrinkage=0.05


Tree=2
num_leaves=20
num_cat=0
split_feature=5 3 2 1 13 5 9 17 9 17 5 6 13 10 6 9 17 3 4
split_gain=1401.14 61.3407 50.6283 41.8588 21.595 15.0882 17.5187 14.4114 14.1983 20.0692 11.0853 13.7161 8.34222 3.51657 3.48565 4.88241 3.02754 1.4334 0.838202
threshold=443.68112194953125 369.52871768574693 651.20846873000016 1.5000000000000002 5638.7468735150005 1964.5004558571475 10.560393810372702 1418052.8345969266 14.264319297866875 48671.599446487853 345.35810496000005 23.804091913824035 867.55985517000011 0.37865042732248633 191.03160483176524 14.185666714119817 14119.937982906436 4255.0682572592077 10.859004922843551
decision_type=2 2 2 2 2 2 2 2 2 2 2 2 2 2 2 2 2 2 2
left_child=1 4 12 8 18 6 -4 14 9 16 11 -11 -2 -13 15 -5 -3 -14 -1
right_child=2 3 5 7 -6 -7 -8 -9 -10 10 -12 13 17 -15 -16 -17 -18 -19 -20
leaf_value=-0.064136475256849998 0.036945027438630665 -0.01254632266073828 0.12786368542621768 -0.063255047317818794 0.01648398635287163 0.14846893093592964 0.067888537334944932 0.028301198633152658 0.071173455362813623 0.045917725985511325 0.075250041108172863 -0.041879962927341703 0.067195568786355825 0.0062497468632326907 -0.010722995793732724 -0.0094613143441332117 -0.05723954496292083 0.10774535677219509 -0.031012555761113881
leaf_weight=112.71796700358391 13.804836094379423 8.7560183107852954 95.320435538887978 32.421115085482597 8.719317898154257 148.47927443683147 18.747915625572205 5.9168951362371436 10.281595930457113 14.071226730942728 8.8347141593694669 7.8909862041473371 14.802319377660753 5.9444277286529541 5.6969342827796927 5.5299434810876837 7.5574606657028189 12.90214382112026 5.3996483087539664
leaf_count=641 50 42 192 181 36 238 52 23 34 51 27 40 45 25 27 26 42 32 28
internal_value=0.0566847 -0.0336247 0.127784 -0.00665508 -0.0573522 0.136065 0.118725 -0.0406782 0.020111 0.00898936 0.0293616 0.0125605 0.0733181 -0.0218365 -0.0505655 -0.0559891 -0.0356501 0.0893498 -0.0629373
internal_weight=543.795 239.738 304.057 112.901 126.837 262.548 114.068 49.5649 63.3364 53.0548 36.7414 27.9066 41.5093 13.8354 43.648 37.9511 16.3135 27.7045 118.118
internal_count=1832 1223 609 518 705 482 244 257 261 227 143 116 127 65 234 207 84 77 669
is_linear=0
shrinkage=0.05


Tree=3
num_leaves=22
num_cat=0
split_feature=5 7 5 2 7 9 11 7 7 13 17 1 15 9 6 9 3 17 7 13 7
split_gain=1200.6 78.4288 42.8925 40.9566 26.1186 23.6326 15.7776 10.8903 26.9149 12.1462 9.6529 9.85467 13.296 9.06196 8.43246 7.09106 5.23032 3.09984 0.993094 0.837057 0.908476
threshold=443.68112194953125 -126.47984888607361 264.70471206570295 1052.7480702050002 200.79988963875039 4.4693262630730262 9.5000000000000018 64.641394955893006 -5.7786193123212337 272.58139975000006 48671.599446487853 1.5000000000000002 9.3196143700000018 6.2972727999155591 321.63418294281081 16.088455284427528 487.955732595646 6352845.1045660181 -160.12607883482102 1043.4709867750003 20.951788801429252
decision_type=2 2 2 2 2 2 2 2 2 2 2 2 2 2 2 2 2 2 2 2 2
left_child=1 -1 4 7 10 -4 -7 8 9 -2 15 12 16 -10 -15 19 -12 -5 -11 20 -3
right_child=3 2 5 17 -6 6 -8 -9 13 18 11 -13 -14 14 -16 -17 -18 -19 -20 -21 -22
leaf_value=0.1065185760101844 -0.03411881234247291 -0.063278159424366459 0.057973582849332253 0.10676203161349418 0.049165372410553958 -0.060180067350275937 0.023354424065660288 0.12050960674063341 0.075111636668291043 0.13440548142812167 -0.017265973047230813 -0.060548513410428856 -0.059332029094403688 -0.010777404140136769 0.047718546304643547 -0.011857639328782456 0.02984338670379277 0.13374788220995962 0.093410582421462718 -0.029274888875185895 -0.029692156281750644
leaf_weight=8.7654432803392393 1.0469610393047322 117.68557886779308 14.776456475257872 42.974725976586342 5.907434180378913 11.30601215362549 9.5839435309171659 23.294133603572845 13.656472221016882 12.274980425834654 9.7594669312238747 16.816993668675423 9.5288646519184095 10.073220476508142 13.315332666039465 8.6089402288198453 11.996847316622732 173.55758467316628 27.341130465269089 5.2254641354084006 5.2688467651605597
leaf_count=22 5 693 47 86 20 62 38 45 36 20 48 97 52 40 41 41 47 271 65 28 28
internal_value=0.0529245 -0.0326076 -0.0384591 0.116206 -0.0478331 0.011488 -0.0223114 0.0878811 0.0766298 0.104691 -0.051207 -0.0306788 -0.0130896 0.0437544 0.022911 -0.0581145 0.00866121 0.12893 0.109232 -0.0610667 -0.0621304
internal_weight=552.765 235.23 226.465 317.535 190.798 35.6664 20.89 101.002 77.7081 40.6631 184.891 48.1022 31.2852 37.045 23.3886 136.789 21.7563 216.532 39.6161 128.18 122.954
internal_count=1832 1223 1201 609 1054 147 100 252 207 90 1034 244 147 117 81 790 95 357 85 749 721
is_linear=0
shrinkage=0.05


Tree=4
num_leaves=21
num_cat=0
split_feature=5 17 2 9 12 4 13 5 11 5 9 15 10 5 13 2 4 9 4 12
split_gain=1042.38 44.1221 36.2623 24.3596 20.2018 14.0665 11.5432 11.119 12.2753 10.4283 12.6473 10.1138 10.9981 9.557 6.62773 4.73387 2.91582 0.754792 0.638525 0.0898687
threshold=443.68112194953125 96916.462978909738 651.20846873000016 14.185666714119817 1.0000000180025095e-35 -0.54588513812907224 1952.6006065250001 334.23569544813762 16.500000000000004 1964.5004558571475 10.560393810372702 9.3196143700000018 0.85550795804297175 157.93095209292343 867.55985517000011 148.03268003500003 -0.15208815400857861 10.461212794351857 17.573171024399844 5.3315569264148612
decision_type=2 2 2 2 2 2 2 2 2 2 2 2 2 2 2 2 2 2 2 2
left_child=1 3 14 6 7 -5 15 8 11 10 18 12 13 -3 -2 -1 -17 -16 -4 -6
right_child=2 4 9 5 19 -7 -8 -9 -10 -11 -12 -13 -14 -15 17 16 -18 -19 -20 -21
leaf_value=-0.06007169003750118 0.030572313178635263 0.016913816053639754 0.11093403073363839 0.052849506356314871 -0.057801779760509556 -0.031095420685850302 0.015992485160641955 0.047709987460324427 0.051164681984650164 0.12346165319572762 0.057469472138972605 -0.048915770791933995 0.055005255178870505 -0.057709248692087135 0.061413369995867328 -0.011636031976445081 -0.055267340717056634 0.095132993511118008 0.079405358626489592 -0.029566338612894288
leaf_weight=117.11289182305336 14.437214449048041 8.7100220620632189 87.388812109827995 8.2146621048450488 9.199708625674246 9.8732538819313032 5.2337321490049353 16.135946899652481 8.2726776301860792 161.15736526250839 19.769390910863876 11.851076841354368 6.8491995036602011 6.7500741928815833 19.58609072864056 11.483157530426981 5.7515606880187979 10.04949578642845 15.740644112229345 5.243804693222045
leaf_count=707 50 37 157 29 53 52 23 54 28 238 52 63 24 36 55 57 32 22 35 28
internal_value=0.0497109 -0.0316474 0.106845 -0.0464492 0.00044494 0.00753785 -0.0534846 0.0137168 0 0.113534 0.0995831 -0.0135064 0.00638071 -0.0168904 0.0620637 -0.0563263 -0.0287032 0.0757431 0.106979 -0.0504528
internal_weight=558.811 230.682 328.129 157.669 73.0125 18.0879 139.581 58.569 42.4331 284.056 122.899 34.1604 22.3093 15.4601 44.0728 134.348 17.2347 29.6356 103.129 14.4435
internal_count=1832 1223 609 900 323 81 819 242 188 482 244 160 97 73 127 796 89 77 192 81
is_linear=0
shrinkage=0.05


Tree=5
num_leaves=22
num_cat=0
split_feature=5 7 2 7 17 8 1 1 3 3 16 17 7 9 17 7 9 17 13 7 11
split_gain=914.764 74.7179 47.8601 33.6109 22.4897 14.371 11.5926 10.1554 9.28969 13.3265 10.8868 9.15755 6.90552 6.70523 6.10771 5.43966 6.57382 3.94463 0.846033 1.00019 0.456507
threshold=379.12417175019158 -126.47984888607361 666.14541110500011 267.61680610550019 48671.599446487853 0.21440459095457318 1.5000000000000002 2.5000000000000004 369.52871768574693 647.82033589577441 185.76827046726436 4739925.4089924777 60.056636504821491 16.088455284427528 1369161.9989806728 -5.5149110749999961 8.6109127799856235 333017.37637461995 1043.4709867750003 20.951788801429252 12.500000000000002
decision_type=2 2 2 2 2 2 2 2 2 2 2 2 2 2 2 2 2 2 2 2 2
left_child=1 -1 7 4 13 6 8 14 -6 -10 -11 12 15 18 17 -4 -17 -2 19 -3 -8
right_child=2 3 11 -5 5 -7 20 -9 9 10 -12 -13 -14 -15 -16 16 -18 -19 -20 -21 -22
leaf_value=0.099539249651237866 0.065828696688575508 -0.061751825647865216 0.090134891918507251 0.068069554648888739 -0.04722641019198523 0.047448414817789823 -0.060349852364207326 0.016755648293033658 0.049473215119678997 0.012461504452261019 -0.059879042880803868 0.11115462133578446 0.11469589080544362 -0.011352190948803652 0.086949954165844681 0.070772895889306769 0.015424406437959219 0.02218401518316078 -0.027733601796279102 -0.027478112810463737 -0.02900593951650246
leaf_weight=9.0312089771032316 11.424782961606981 111.00608460605145 24.924929797649384 6.0107357650995246 11.418858617544172 6.0559421032667151 18.36708061397076 14.888534083962439 9.6679074615240115 11.101362943649294 8.2245090603828412 220.3228952139616 18.49166102707386 8.5429272949695569 20.746733099222183 15.326290085911753 9.4023679345846158 12.345049321651457 5.0656818449497214 5.0438945889472953 5.1602952778339377
leaf_count=21 32 700 48 18 63 22 109 53 33 47 43 338 28 41 48 33 29 42 28 28 28
internal_value=0.0468956 -0.034152 0.0968844 -0.0405001 -0.0441165 -0.0207472 -0.0279144 0.0544003 -0.0109936 0.00420828 -0.0195098 0.105398 0.0853748 -0.0564388 0.0662359 0.0723078 0.05134 0.0451741 -0.059459 -0.0605524 -0.0551419
internal_weight=562.57 214.696 347.873 205.665 199.655 69.996 63.94 59.4051 40.4126 28.9938 19.3259 288.468 68.1452 129.659 44.5166 49.6536 24.7287 23.7698 121.116 116.05 23.5274
internal_count=1832 1181 651 1160 1142 345 323 175 186 123 90 476 138 797 122 110 62 74 756 728 137
is_linear=0
shrinkage=0.05


Tree=6
num_leaves=19
num_cat=0
split_feature=5 7 3 7 9 2 7 7 5 9 16 9 6 17 2 9 11 10
split_gain=809.803 61.8601 39.3451 28.2876 27.7744 27.7582 13.2123 19.5822 13.0339 9.9335 9.8768 7.47021 5.55084 5.06117 4.96116 4.15289 0.954899 0.911329
threshold=443.68112194953125 -126.47984888607361 369.52871768574693 31.039923409821444 4.3089848448141712 872.39012681000008 64.641394955893006 -5.7786193123212337 264.70471206570295 9.3064525596197054 91.87731407335589 16.873800758983922 68.964611470184408 4739925.4089924777 328.96733597500003 7.4480267044502098 15.500000000000002 0.46022845114385286
decision_type=2 2 2 2 2 2 2 2 2 2 2 2 2 2 2 2 2 2
left_child=1 -1 12 4 8 6 7 -2 -4 -9 -5 14 -3 15 16 -7 17 -6
right_child=5 2 3 10 11 13 -8 9 -10 -11 -12 -13 -14 -15 -16 -17 -18 -19
leaf_value=0.088407510730860603 0.079168351020449446 -0.058572982143712642 -0.023876618218820336 0.072648731074637457 -0.06085199536551579 0.097372847472145876 0.09966492703151969 0.039725168332127268 0.054279549881314088 -0.020944511784667538 0.00065327133335033678 0.011234503209085235 -0.0025636255621470198 0.10510444919306548 -0.0082760056845438239 0.06149121112956335 -0.032130254269624063 -0.026007980798290267
leaf_weight=9.5942057222127897 29.765201449394226 105.54764227569103 7.9431917965412167 9.9813726246356982 34.210150733590126 27.493501052260399 20.957697123289108 20.189842045307163 12.547899082303045 9.0247017145156843 8.6961017251014692 5.5147989839315406 4.9083987325429908 209.11204627156258 7.8580448776483527 25.62978233397007 10.338058143854139 4.8120777308940879
leaf_count=22 65 676 41 30 213 46 37 58 37 36 38 23 24 309 36 58 56 27
internal_value=0.0444326 -0.0298566 -0.0356124 -0.0129466 -0.0254837 0.0925818 0.064999 0.0511412 0.0240491 0.0207452 0.0411189 -0.0418649 -0.0561743 0.100692 -0.0471737 0.0816098 -0.0529795 -0.0574373
internal_weight=564.125 221.952 212.358 101.902 83.2242 342.173 79.9374 58.9797 20.4911 29.2145 18.6775 62.7331 110.456 262.235 57.2183 53.1233 49.3603 39.0222
internal_count=1832 1223 1201 501 433 609 196 159 78 94 68 355 700 413 332 104 296 240
is_linear=0
shrinkage=0.05


Tree=7
num_leaves=20
num_cat=0
split_feature=17 3 17 16 16 1 13 15 9 7 10 6 4 7 7 8 17 17 13
split_gain=587.411 84.1675 50.5583 48.0985 29.5503 31.2466 21.0587 20.2693 18.8131 13.1276 12.6487 5.30779 5.22197 5.10573 9.35993 4.50786 4.03233 0.982796 0.538816
threshold=626183.87300789857 369.52871768574693 7138422.1800428135 509.34459641154427 362.99693519063686 1.5000000000000002 5638.7468735150005 311.63805671000006 10.509492357964852 33.510525474642996 0.48310117039159683 104.28054200939076 -11.468537075683898 29.126618462500037 -2.4411243958928552 0.03340646694709528 48671.599446487853 127354.02299489676 96.07464348500001
decision_type=2 2 2 2 2 2 2 2 2 2 2 2 2 2 2 2 2 2 2
left_child=1 6 3 7 5 8 17 9 10 11 16 -2 -6 14 -5 18 -3 -1 -7
right_child=2 4 -4 13 12 15 -8 -9 -10 -11 -12 -13 -14 -15 -16 -17 -18 -19 -20
leaf_value=-0.06046070148370461 -0.0097529749312378448 -0.05442898035244062 0.097360209210442084 0.085857542387560076 0.061898337937565807 -0.028270008158448618 0.037167522440370311 0.053668817591269048 0.059350233469326566 0.042784738629529126 0.039464675567599153 -0.06191075258402106 0.020782513533842969 0.099980846311360214 0.039238453836736686 -0.0010699719887559841 -0.0090335053612546762 -0.026014482031099906 -0.059600671293953245
leaf_weight=95.254209414124489 12.697560384869581 7.7735974639654222 218.88493038713932 30.012089252471924 19.999381750822067 5.2292670458555284 5.3004409968852988 19.62493684887886 15.766631081700323 7.1627749204635611 9.1965910047292692 7.7583557218313208 15.260970726609228 28.262127235531807 21.761642605066299 4.8068592101335517 12.945416554808615 4.8124981373548499 21.292231395840645
leaf_count=642 56 50 333 54 52 31 20 51 53 21 34 40 50 44 56 25 58 27 135
internal_value=0.042243 -0.0220493 0.0826259 0.0566867 0.00804106 -0.00931863 -0.0539324 0.0160711 0.0169014 -0.0114116 -0.00650509 -0.0317315 0.0453049 0.0801053 0.0674721 -0.0470468 -0.0280176 -0.0591273 -0.0548565
internal_weight=563.803 217.638 346.164 127.279 112.271 77.0106 105.367 47.2436 45.6822 27.6187 29.9156 20.4559 35.2604 80.0359 51.7737 31.3284 20.719 100.067 26.5215
internal_count=1832 1177 655 322 488 386 689 168 195 117 142 96 102 154 110 191 108 669 166
is_linear=0
shrinkage=0.05


Tree=8
num_leaves=24
num_cat=0
split_feature=5 7 2 7 4 17 1 5 12 1 7 4 13 11 17 4 7 7 7 4 13 7 11
split_gain=648.726 59.1304 35.9956 28.3304 25.056 11.4945 10.1312 9.49763 10.7288 7.25753 6.77105 9.63765 11.8145 6.02672 5.92942 11.9721 5.88361 4.31186 9.90547 6.40267 1.02062 0.92949 0.534063
threshold=379.12417175019158 -126.47984888607361 651.20846873000016 267.61680610550019 75.871871710319255 48671.599446487853 1.5000000000000002 1964.5004558571475 -0.36567243267844268 2.5000000000000004 -5.069831020857106 -0.20754464140804782 1463.9075122650004 11.500000000000002 1369161.9989806728 -11.468537075683898 28.29140333321466 60.056636504821491 -5.5149110749999961 -22.974170035423423 1094.4077439550003 6.2380535471428944 12.500000000000002
decision_type=2 2 2 2 2 2 2 2 2 2 2 2 2 2 2 2 2 2 2 2 2 2 2
left_child=1 -1 9 4 5 16 10 8 -4 14 -7 12 -12 -14 15 -2 20 18 -10 -20 21 -3 -8
right_child=2 3 7 -5 -6 6 22 -9 17 -11 11 -13 13 -15 -16 -17 -18 -19 19 -21 -22 -23 -24
leaf_value=0.082890861087486389 0.05823265506407363 -0.059875833556349581 -0.044061441739246157 0.059573031494390305 0.056438321622061575 -0.045723024516376151 -0.058555403128308349 0.096098756856083878 0.084068606690616998 0.012085642322452005 0.059524033438952552 -0.042792190674427973 -0.03924246582410245 0.022540946192591716 0.072989739682504273 -0.014769843434616407 0.00062976755489310666 0.093398107222046056 0.063227509899394838 0.020309556044604465 -0.022994353038523981 -0.03824039435509774 -0.026603478130400562
leaf_weight=9.7630806714296323 15.081900298595427 93.882805481553078 1.2067170441150654 6.3179346770048133 5.4669275879859915 9.5306506007909757 17.236125946044925 169.89499318599701 50.117099851369858 15.193004906177519 8.859376937150957 8.1983282864093798 7.5776984691619855 6.3212645947933197 20.974681109189987 7.9622758030891445 4.5213108807802191 39.734744668006897 25.356685310602188 15.536420643329619 4.537166252732276 14.285217449069021 4.9012983739376059
leaf_count=21 39 656 5 18 18 50 111 238 85 52 30 43 42 25 46 31 23 60 52 43 27 89 28
internal_value=0.0402292 -0.031552 0.0802592 -0.0378083 -0.0414571 -0.044756 -0.0266349 0.0873207 0.075343 0.0433262 -0.0110834 0.000521689 0.0174797 -0.0111808 0.0534897 0.0332355 -0.0540872 0.0768091 0.0685756 0.0479152 -0.0563125 -0.0574408 -0.0531528
internal_weight=562.458 201.399 361.059 191.636 185.318 179.851 62.6247 301.847 131.952 59.2119 40.4873 30.9567 22.7583 13.899 44.0189 23.0442 117.227 130.745 91.0102 40.8931 112.705 108.168 22.1374
internal_count=1832 1181 651 1160 1142 1124 329 483 245 168 190 140 97 67 116 70 795 240 180 95 772 745 139
is_linear=0
shrinkage=0.05


Tree=9
num_leaves=24
num_cat=0
split_feature=2 7 3 2 7 8 11 10 13 2 11 11 7 2 3 7 7 4 6 6 6 10 3
split_gain=576.945 54.5301 30.9619 28.5516 27.7102 12.0669 11.279 14.2539 9.36692 8.89596 6.9574 6.87051 5.99137 4.94527 3.86123 3.36087 11.8357 6.59374 2.4839 2.37076 1.18035 0.788364 0.393761
threshold=375.05793323000006 -126.47984888607361 383.59156708226527 651.20846873000016 267.61680610550019 -4.2219897924392963e-08 20.500000000000004 0.58114028440509891 7186.2575602550014 2055.6192047600002 11.500000000000002 13.500000000000002 3.6649721753571298 486.98311458000006 503.60711290932329 60.056636504821491 -17.818156233749974 -42.922172156311682 11.655834670705962 28.385819028851945 56.119835701877854 0.43906050182406148 6739.9748778542962
decision_type=2 2 2 2 2 2 2 2 2 2 2 2 2 2 2 2 2 2 2 2 2 2 2
left_child=1 -1 8 5 6 12 7 10 20 15 14 -12 13 -2 -4 16 -5 -18 -13 -20 -3 -16 -19
right_child=3 2 4 9 -6 -7 -8 -9 -10 -11 11 18 -14 -15 21 -17 17 22 19 -21 -22 -23 -24
leaf_value=0.074491762205046011 0.054178302379875677 -0.059295869321183151 -0.0094726488133395435 0.081798422824077024 0.081627068535878533 -0.0017562740271303086 0.037120785493190638 0.019496476430308208 0.0036050185146538332 0.092404312150643084 0.019601993869080153 -0.055758218603682942 0.07679455481853599 0.0072105314283930008 -0.060087873516534475 0.087036586809107683 0.06528783294017193 0.033851067258492497 0.0047047963629191693 -0.036011801633863263 -0.022752658990083621 -0.025657299147909332 0.017254712969572854
leaf_weight=11.156697198748587 13.219513967633249 89.783682137727737 5.9017228186130515 56.979479864239693 6.0778801739215842 12.148469254374502 6.6567841917276374 13.147923380136488 6.3392991423606864 151.79166108369827 8.5352199822664279 6.4727836698293713 17.41915237903595 10.276255592703817 28.052046969532967 44.182135909795761 23.437018990516663 13.316656470298769 6.3117655962705594 6.215527206659317 4.4280105829238883 4.630397453904151 12.816781476140021
leaf_count=24 35 650 34 93 13 43 25 52 29 210 40 38 36 33 182 67 45 33 31 32 26 26 35
internal_value=0.038449 -0.0285403 -0.0348899 0.0768124 -0.0136331 0.0415826 -0.0212905 -0.0266594 -0.0539644 0.082818 -0.0360658 -0.0157771 0.0543049 0.0349733 -0.049654 0.0725859 0.0657937 0.0460442 -0.0321055 -0.0162962 -0.0578878 -0.0562648 0.0268318
internal_weight=559.297 203.71 192.553 355.587 92.0021 53.0634 85.9242 79.2674 100.551 302.524 66.1195 27.5353 40.9149 23.4958 38.5842 150.732 106.55 49.5705 19.0001 12.5273 94.2117 32.6824 26.1334
internal_count=1832 1202 1178 630 473 147 460 435 705 483 383 141 104 68 242 273 206 113 101 63 676 208 68
is_linear=0
shrinkage=0.05


Tree=10
num_leaves=19
num_cat=0
split_feature=5 7 3 1 5 7 7 7 8 1 5 6 16 7 4 6 16 16
split_gain=528.25 44.7911 33.6254 23.6402 22.2599 16.813 11.2552 15.1651 10.8408 14.9098 9.30619 16.9992 16.1861 7.11977 6.10704 5.00659 4.73846 4.41287
threshold=443.68112194953125 -126.47984888607361 369.52871768574693 1.5000000000000002 1754.4252239754148 -5.069831020857106 60.056636504821491 -5.7786193123212337 -0.054059161733450926 1.5000000000000002 345.35810496000005 24.653013548413906 62.005562419857121 42.694644274643117 29.638771223120528 414.12080979262186 89.320851497291173 283.32034989656376
decision_type=2 2 2 2 2 2 2 2 2 2 2 2 2 2 2 2 2 2
left_child=1 -1 14 5 6 -4 7 15 -9 -10 11 12 -7 17 -3 -2 -13 -5
right_child=4 2 3 13 -6 10 -8 8 9 -11 -12 16 -14 -15 -16 -17 -18 -19
leaf_value=0.069840578950425947 0.078327078590673102 -0.055849307924321405 -0.046324097796460829 -0.058282297063347692 0.0863385847990219 0.077057755299041464 0.082016389293705805 0.058592610569468455 0.036771300748876155 -0.028991134339498261 0.064819673281435702 -0.055304060378097 -0.010977327600929931 0.011448683329299521 0.0039101700723101008 0.043371036103671448 -0.0035610221679214225 -0.015202266132711834
leaf_weight=10.401160240173338 42.23085717856884 92.100674733519554 10.149469345808027 26.397058621048927 185.87873835861683 11.6068671643734 44.687879875302315 21.068210333585739 22.806492015719414 12.532890260219572 9.0410578697919828 6.4134186953306225 8.3815427273511869 5.2837276160717002 4.1853557974100104 20.785110250115395 11.921296536922453 9.151310130953787
leaf_count=22 74 680 56 185 266 35 72 46 57 47 23 38 41 21 20 47 56 46
internal_value=0.0368397 -0.0267937 -0.032314 -0.0114983 0.074102 0.0090891 0.0597732 0.0507964 0.0309383 0.0131555 0.021779 0.0101077 0.0411404 -0.0401401 -0.0531868 0.0677329 -0.0238434 -0.0480483
internal_weight=555.023 205.033 194.632 98.3457 349.99 57.5137 164.111 119.424 56.4076 35.3394 47.3642 38.3231 19.9884 40.8321 96.286 63.016 18.3347 35.5484
internal_count=1832 1223 1201 501 609 249 343 271 150 104 193 170 76 252 700 121 94 231
is_linear=0
shrinkage=0.05


Tree=11
num_leaves=25
num_cat=0
split_feature=5 3 1 5 13 17 7 7 9 7 7 13 17 7 5 9 7 8 7 13 9 2 11 17
split_gain=478.207 41.8416 26.0619 21.4245 17.7353 10.3883 10.2701 13.6298 9.83978 8.84308 9.1302 8.01568 6.20887 9.66535 4.24364 6.13159 3.92031 3.30679 2.44987 3.18387 1.45909 1.23607 0.354267 0.779846
threshold=443.68112194953125 369.52871768574693 1.5000000000000002 1754.4252239754148 5638.7468735150005 1418052.8345969266 60.056636504821491 -5.7786193123212337 9.3064525596197054 31.039923409821444 0.26010830150000436 272.58139975000006 118119.99551296081 -3.0884865289285122 1047.580014739948 5.8912391859576383 -4.5170839783928569 0.060792376416997661 -160.12607883482102 3161.5235327200003 9.6212361758145324 148.03268003500003 2.5000000000000004 11868.566546182448
decision_type=2 2 2 2 2 2 2 2 2 2 2 2 2 2 2 2 2 2 2 2 2 2 2 2
left_child=1 4 9 6 21 17 7 11 14 10 12 -2 16 -14 15 -9 -3 22 -13 -20 -12 -1 -4 -24
right_child=3 2 5 -5 -6 -7 -8 8 -10 -11 20 18 13 -15 -16 -17 -18 -19 19 -21 -22 -23 23 -25
leaf_value=-0.058189783880434665 -0.039556403816053166 0.019176361086729092 -0.025393279677312666 0.082706827331862506 0.016674260065232354 0.022762033168532966 0.077922531572093195 0.046624578213549456 -0.0021137327526711378 0.051537895994538868 -0.0410027263549829 0.085335758142224202 0 0.06543801306788985 0.064206971700608503 -0.0029990163580918662 -0.026722998364157671 -0.0054936253313684399 0.037775961923905033 0.070027518957972046 -0.0051760548458427763 -0.020567739972496113 -0.025227527901622179 -0.058976446045288879
leaf_weight=82.308096401393414 1.1464823633432377 8.0426831096410769 4.7292011901736286 184.41797022521496 8.5387151986360532 6.0357104688882819 44.73454912006855 15.326931565999987 17.066631987690926 12.675432950258253 7.9061377942562086 18.86109547317028 10.240251049399376 11.270048856735229 14.63457131385803 9.5829942971467954 8.5318142473697645 5.2291178554296485 19.49276964366436 23.789247691631317 5.1632722616195679 4.1221545934677115 4.8688643127679851 21.089460499584675
leaf_count=645 5 34 29 266 36 23 72 36 56 38 45 28 41 31 27 31 46 29 46 42 26 24 32 144
internal_value=0.0353494 -0.0260404 -0.00425823 0.0706443 -0.0499534 -0.0344654 0.0566844 0.0481401 0.0293374 0.0157439 0.00596052 0.0641631 0.0183689 0.0355063 0.0427517 0.0279622 -0.00434225 -0.0445739 0.0667519 0.0567965 -0.0285781 -0.0567084 -0.0506918 -0.0540024
internal_weight=549.804 200.751 105.782 349.053 94.969 41.9524 164.635 119.901 56.6111 63.8296 51.1542 63.2896 38.0848 21.5103 39.5445 24.9099 16.5745 35.9166 62.1431 43.282 13.0694 86.4303 30.6875 25.9583
internal_count=1832 1223 518 609 705 257 343 271 150 261 223 121 152 72 94 67 80 234 116 88 71 669 205 176
is_linear=0
shrinkage=0.05


Tree=12
num_leaves=21
num_cat=0
split_feature=5 3 2 9 13 9 5 10 2 9 3 8 17 17 8 8 9 6 5 10
split_gain=435.461 32.1658 28.187 18.8619 17.0844 14.7596 11.3726 9.42921 8.43101 7.88626 6.79054 5.40163 4.5371 7.77293 4.01221 7.28771 5.49991 1.46904 1.39099 0.685677
threshold=379.12417175019158 369.52871768574693 651.20846873000016 14.185666714119817 5638.7468735150005 2.577558856668452 91.87731407335589 0.080508861855949562 2055.6192047600002 11.377825603641442 1152.8333257618654 -4.2219897924392963e-08 1369161.9989806728 444542.8047085107 -0.029769323509653466 -0.040367684282357562 4.6409642196103071 1031.3427692597054 146.65070889794887 0.39244486931515371
decision_type=2 2 2 2 2 2 2 2 2 2 2 2 2 2 2 2 2 2 2 2
left_child=1 4 11 5 18 -3 -5 10 9 17 -7 12 13 -2 15 16 -9 -4 -1 -18
right_child=2 3 8 6 -6 7 -8 14 -10 -11 -12 -13 -14 -15 -16 -17 19 -19 -20 -21
leaf_value=-0.057660992629764068 0.046254927364176295 0.040397003206867961 0.070527770985935351 0.071845087922910819 0.015813877070773603 -0.024208847702917473 -0.0072883968689030467 0.00033381842232019216 0.081641725683436195 0.031983210217292467 0.037436218661386078 0.0040062366218864562 0.058410278402858888 -0.0076409102739869051 -0.058123922801905092 0.011285468838712544 -0.056790473727280869 0.04810725609155795 -0.018070258310009562 -0.023108814935795918
leaf_weight=79.241916880011559 16.254031926393512 8.5182518959045392 108.94541817903519 9.626428574323656 8.6057523638010007 7.8656402900814992 7.4486825019121161 6.6192146167159036 147.89422622323036 21.572017297148705 7.9817726016044617 12.5889865309 21.993693262338638 10.286203041672705 15.181032106280325 9.1662520170211845 15.864951752126219 19.995519250631332 3.8333097994327536 4.4758437126874915
leaf_count=647 44 24 184 26 36 42 36 32 210 50 30 42 47 35 101 43 115 39 22 27
internal_value=0.0339653 -0.0283763 0.0659487 -0.00740852 -0.0492255 -0.0182126 0.0385546 -0.026204 0.0723334 0.0626756 0.00692193 0.034035 0.041485 0.025666 -0.0364679 -0.0259125 -0.0386897 0.0674864 -0.0561303 -0.0510435
internal_weight=543.959 184.429 359.53 92.7481 91.681 75.673 17.0751 67.1547 298.407 150.513 15.8474 61.1229 48.5339 26.5402 51.3073 36.1263 26.96 128.941 83.0752 20.3408
internal_count=1832 1181 651 476 705 414 62 390 483 273 72 168 126 79 318 217 174 223 669 142
is_linear=0
shrinkage=0.05


Tree=13
num_leaves=26
num_cat=0
split_feature=5 7 17 7 5 16 9 7 7 8 5 13 16 9 9 10 6 10 2 16 6 2 16 13 12
split_gain=396.395 38.9229 26.7109 24.0023 20.5596 11.3039 10.3234 9.75966 12.5252 9.43483 7.58139 7.23696 6.31092 6.09054 6.00874 5.70396 5.23395 5.0016 4.61515 5.32882 4.12284 3.85443 2.71056 1.60956 0.376573
threshold=443.68112194953125 -126.47984888607361 96916.462978909738 77.117135019392833 1754.4252239754148 1.5082624472076287 4.4693262630730262 60.056636504821491 -5.7786193123212337 -0.054059161733450926 334.23569544813762 272.58139975000006 170.80587827597626 18.707705013677664 9.3064525596197054 0.22391143270744607 178.96568620279479 0.85550795804297175 148.03268003500003 212.31252638952813 414.12080979262186 872.39012681000008 0.3309634604601473 1615.3792132300002 -0.024715439821404676
decision_type=2 2 2 2 2 2 2 2 2 2 2 2 2 2 2 2 2 2 2 2 2 2 2 2 2
left_child=1 -1 3 13 7 22 10 8 11 -10 17 -2 15 18 21 -8 -14 -7 23 -20 -13 -11 -4 -3 -6
right_child=4 2 5 -5 24 6 12 -9 9 14 -12 20 16 -15 -16 -17 -18 -19 19 -21 -22 -23 -24 -25 -26
leaf_value=0.064564924078563943 -0.039490994448988792 -0.057587052178986825 -0.009326305563493056 0.050528647835261856 0.062771095225148718 -0.02135838437823831 0.036246250709491556 0.071877364087358189 0.050774591399554085 0.0026367867233942303 0.065308642203276979 0.070512546637311602 -0.056591793699862572 0.0092714799552503328 -0.018922830957457011 -0.026724641196500844 0.00080332647737168736 0.034897314528809481 0.0011521093758241024 -0.054364763760822388 0.038584397924386352 0.042781151562722858 -0.057098718328596566 -0.017265981179869105 0.079343134225619394
leaf_weight=10.577645659446715 1.1433549672365177 87.798072442412376 5.2135353833436957 5.5087618306279174 32.792158216238022 6.9455249011516589 8.1158858388662356 44.417072027921677 21.330647557973862 12.324821174144747 8.7563389092683774 41.649276584386826 8.9362592846155149 3.8280919045209876 11.926592931151388 4.9517763853073111 6.2894638106226912 6.83133365213871 9.1532852277159709 6.8469131067395201 20.454811587929726 11.446187585592268 9.2084951251745206 3.9969247579574576 147.17830611765385
leaf_count=22 5 732 24 17 54 34 32 72 46 39 20 71 58 19 41 30 28 27 51 44 45 24 58 27 212
internal_value=0.0326687 -0.0246126 -0.0301358 -0.0443246 0.0647302 -0.00430464 0.0068626 0.0512199 0.0430202 0.0251915 0.0314773 0.0583757 -0.0129755 -0.0494572 0.00880137 0.0118255 -0.0339865 0.00667185 -0.0516548 -0.0241114 0.0608539 0.0231156 -0.0418778 -0.0560903 0.0767147
internal_weight=537.622 192.958 182.381 117.132 344.663 65.2486 50.8266 164.693 120.276 57.0282 22.5332 63.2474 28.2934 111.623 35.6976 13.0677 15.2257 13.7769 107.795 16.0002 62.1041 23.771 14.422 91.795 179.97
internal_count=1832 1223 1201 890 609 311 229 343 271 150 81 121 148 873 104 62 86 61 854 95 116 63 82 759 266
is_linear=0
shrinkage=0.05


Tree=14
num_leaves=26
num_cat=0
split_feature=5 3 5 9 9 10 3 17 16 12 4 3 6 6 3 9 6 12 6 3 3 12 9 3 3
split_gain=361.875 30.0316 25.0904 16.2539 16.9596 10.6043 9.57506 6.73384 8.76303 23.2976 5.96233 4.84782 4.21979 13.0807 3.53665 3.49898 2.43537 3.07431 1.45969 1.34271 2.72152 0.63001 0.560243 0.552421 5.29554
threshold=379.12417175019158 369.52871768574693 1603.93202658361 14.185666714119817 2.1185537597641271 0.080508861855949562 1526.0774952811548 18391803.97041681 586.49484565638272 0.010389470597303161 33.365543021905218 1152.8333257618654 62.975852797644912 94.812724837472004 1.2044508713388882 6.2972727999155591 90.146955832652552 0.035667748115723791 736.7672458879124 558.69762786057902 466.75407359811931 -0.15874591733172075 9.6836254675172118 20.159250638798497 14.37561123736757
decision_type=2 2 2 2 2 2 2 2 2 2 2 2 2 2 2 2 2 2 2 2 2 2 2 2 2
left_child=1 10 7 4 -3 11 -5 8 9 15 14 -6 19 -14 -1 -2 -10 18 -18 20 -7 -4 -15 24 -16
right_child=2 3 21 6 5 12 -8 -9 16 -11 -12 -13 13 22 23 -17 17 -19 -20 -21 -22 -23 -24 -25 -26
leaf_value=-0.0097090030281876179 0.05323765495850509 0.056418870309196657 0.049371415285366815 0.065417218305329761 -0.015319937542414497 -0.050760961943525577 -0.0070458851424899886 0.069621052510308187 0.068148596433837014 -0.033669632277968403 0.010546764973707322 0.035105502648856424 0.024696961879812171 -0.056466788503599132 -0.053602440454885741 0.023769600360034948 0.023868522466917595 0.06013024511704386 0.047864030447192701 -0.058151947328788728 0 0.074835009735208263 -0.02192998837323875 -0.057246508936362087 0.0068106845862889558
leaf_weight=5.7091962844133368 27.496473878622055 6.1737367212772361 11.713658675551413 9.9187386035919207 8.9964699372649211 4.7534288763999957 7.3256320506334296 27.411319389939308 22.291395992040634 12.226894110441206 3.6978334039449683 8.0949602127075178 9.4651050865650195 9.5447000786662084 13.594268620014192 21.144154712557793 23.324397012591362 22.233601480722427 12.814106807112692 17.830625213682652 4.6321316659450531 173.29209236800671 4.0558805689215651 58.294184990227222 4.3644734472036353
leaf_count=40 58 15 21 27 46 34 35 44 37 47 17 30 46 63 120 58 58 43 26 127 27 259 26 496 32
internal_value=0.0314873 -0.0268848 0.060595 -0.0066457 -0.0169776 -0.0245032 0.035661 0.0460581 0.041003 0.025831 -0.0479544 0.00890686 -0.0359094 -0.0186093 -0.0507494 0.0412655 0.0519339 0.044614 0.0335713 -0.0492149 -0.0277905 0.0735238 -0.0487173 -0.053592 -0.0390718
internal_weight=530.399 176.451 353.948 90.7914 73.547 67.3733 17.2444 168.942 141.531 60.8675 85.66 17.0914 50.2819 23.0657 81.9621 48.6406 80.6635 58.3721 36.1385 27.2162 9.38556 185.006 13.6006 76.2529 17.9587
internal_count=1832 1181 651 476 414 399 62 371 327 163 705 76 323 135 688 116 164 127 84 188 61 280 89 648 152
is_linear=0
shrinkage=0.05


Tree=15
num_leaves=27
num_cat=0
split_feature=5 7 13 5 7 1 10 7 16 7 7 12 13 5 9 5 9 13 9 9 7 13 8 4 13 12
split_gain=331.365 35.5075 24.3031 19.766 13.8469 11.4941 9.10813 9.20129 11.0373 9.07928 11.4487 8.88271 6.58511 6.55242 6.76238 6.39709 6.33501 6.06885 4.27562 3.55073 2.8477 2.97227 2.13213 1.82915 0.659026 0.497137
threshold=443.68112194953125 -227.13284756789244 287.28830486500004 1754.4252239754148 36.329746800000478 1.5000000000000002 0.047022658694064523 -5.069831020857106 1.5436716653998819 60.056636504821491 -5.7786193123212337 0.053109296866861715 272.58139975000006 345.35810496000005 6.5183055494866773 273.9251742961614 18.085542950538738 7592.9854466600009 8.6109127799856235 8.3464954859964013 -160.12607883482102 3161.5235327200003 -1.3298328793065394e-06 -0.65608351828939682 230.36660134500002 -0.024715439821404676
decision_type=2 2 2 2 2 2 2 2 2 2 2 2 2 2 2 2 2 2 2 2 2 2 2 2 2 2
left_child=1 -1 4 9 16 6 22 -8 -9 10 12 17 -2 14 23 -7 24 18 -12 -17 -14 -22 -4 -10 -3 -5
right_child=3 2 5 25 -6 15 7 8 13 -11 11 -13 20 -15 -16 19 -18 -19 -20 -21 21 -23 -24 -25 -26 -27
leaf_value=0.075083689116155844 -0.039269193696419 -0.056921520478600468 -0.055132624848274796 0.058100640717720031 0.022722106827044536 -0.055454668163846657 -0.026705231949070096 -0.025788763082464229 -0.020188781796780016 0.066641691195260297 0.02901336815475733 -0.01664290134829978 0.074548062437362492 0.073307133329733751 0.047581897587082062 0.015937092160229999 0.0071731158294283852 0.057516421540172349 -0.010699430349100592 -0.033680103969451869 0.029015858737902051 0.058840552409608643 -0.0089869629936934915 0.015732882323174682 -0.027692578704872486 0.074366940243620033
leaf_weight=7.7939733564853659 1.1400378644466389 71.715282306075096 5.8948835954070091 31.895042046904564 6.0378036275506011 15.912479862570764 11.129844710230826 8.2955992817878705 7.0337995812296832 43.807241305708885 22.831228792667392 11.188265502452849 18.490870118141174 8.0121129900217039 11.110328309237955 6.7989860475063306 3.9134501367807379 14.55166684091091 8.6429809480905515 5.6769134551286697 19.652879059314728 23.593196406960487 5.1218511387705785 5.2800691202282994 5.6492132917046538 142.08829171955585
leaf_count=14 5 636 37 54 26 127 59 49 39 72 56 38 28 16 45 30 19 27 29 32 46 42 25 27 42 212
internal_value=0.0303514 -0.0232675 -0.0280084 0.0597656 -0.0466852 -0.00957378 0.00253971 0.0116626 0.0229249 0.0466422 0.0388153 0.0218998 0.0535452 0.0363326 0.0209973 -0.0353358 -0.0521155 0.03153 0.0179604 -0.00709311 0.0559375 0.046362 -0.0366281 -0.00438558 -0.0552316 0.0717626
internal_weight=523.258 185.377 177.583 337.882 87.3157 90.2669 61.8785 50.8618 39.7319 163.898 120.091 57.2141 62.877 31.4363 23.4242 28.3884 81.2779 46.0259 31.4742 12.4759 61.7369 43.2461 11.0167 12.3139 77.3645 173.983
internal_count=1832 1223 1209 609 723 486 297 235 176 343 271 150 121 127 111 189 697 112 85 62 116 88 62 66 678 266
is_linear=0
shrinkage=0.05


Tree=16
num_leaves=28
num_cat=0
split_feature=5 13 5 13 1 5 4 13 13 13 2 11 16 13 17 17 8 11 16 10 12 10 2 10 12 5 10
split_gain=303.642 25.4585 19.5809 13.516 10.2349 9.08003 8.70564 8.11526 7.06168 6.37759 5.42306 5.28864 4.11494 4.09875 3.93281 3.91018 3.64675 3.63892 3.32549 4.97464 2.56899 2.33794 3.03068 1.89917 1.06757 0.963202 1.60036
threshold=443.68112194953125 287.28830486500004 1964.5004558571475 23993.554563540001 1.5000000000000002 119.06078886771319 103.23726667940855 1410.7226471200004 412.62995559000007 3829.7582430300004 651.20846873000016 12.500000000000002 20.189176122375727 498.56968146000003 1230.7686497085624 1418052.8345969266 -0.038089753824620397 8.5000000000000018 76.609532551236441 0.13295746598472655 -0.22491580903183728 0.19707528453726036 55.505096020000003 1.2073441984729188e-11 -0.024715439821404676 917.80657304898193 0.060814373899700812
decision_type=2 2 2 2 2 2 2 2 2 2 2 2 2 2 2 2 2 2 2 2 2 2 2 2 2 2 2
left_child=1 12 6 4 5 9 10 -7 -6 13 16 -9 -1 -3 21 -10 -2 -16 -19 -20 -12 -14 -23 -22 -4 26 -25
right_child=2 3 24 -5 8 7 -8 11 15 -11 20 -13 14 -15 17 -17 -18 18 19 -21 23 22 -24 25 -26 -27 -28
leaf_value=-0.055044867685812307 0.015733481261016116 0 0.055397626721578691 0.057171860111620315 0.01495212980329731 0.040473431106192566 0.0079557377120415673 -0.027449953926889745 -0.056772606528390314 0.011319695123204666 0.0089657109345516652 0.024676144696501701 0.017328837556886866 -0.05483745692410185 -0.055575624136797168 -0.0036847599365753426 0.045586921657143474 -0.049154009817313576 -0.032342908098301613 0.027445611355769495 -0.020762590382493479 -0.046314345262025831 0.0090554468683199246 0.064378840903033516 0.073973599582917063 0.060739950237335763 0.034866411189195208
leaf_weight=37.541647732257843 20.685019552707672 4.5015565082430866 29.001682922244072 7.1129589080810538 5.1624351814389255 17.711043775081635 14.774390101432799 10.790414914488794 17.844020523130897 8.844682112336157 3.6389865428209296 7.2599506229162207 5.0757125541567794 11.20125614851713 17.810879580676556 4.681116856634616 24.716937959194183 5.896426290273669 6.4816432371735555 5.4789711162447929 0.23707303404807945 4.5400426611304265 3.7362176924943924 9.3535472452640516 125.45518831908703 81.588611945509911 24.206102952361107
leaf_count=365 56 29 50 19 27 59 39 51 139 39 9 25 31 87 147 22 57 51 45 25 1 42 20 15 188 142 52
internal_value=0.0293111 -0.0226033 0.0575757 -0.00458295 -0.0102172 0.0013753 0.0457366 0.0173409 -0.0348101 -0.0214565 0.0490325 -0.00602732 -0.0420676 -0.0397896 -0.0311273 -0.0465782 0.0327257 -0.0396415 -0.0213791 -0.0045645 0.0548866 -0.00685689 -0.0224977 0.0562024 0.0708966 0.0565813 0.0448614
internal_weight=515.329 181.671 333.658 95.1094 87.9965 60.3089 179.201 35.7614 27.6876 24.5475 164.426 18.0504 86.5615 15.7028 49.0199 22.5251 45.402 35.6679 17.857 11.9606 119.024 13.352 8.27626 115.385 154.457 115.148 33.5597
internal_count=1832 1223 609 497 478 290 371 135 188 155 332 76 726 116 361 161 113 268 121 70 219 93 62 210 238 209 67
is_linear=0
shrinkage=0.05


Tree=17
num_leaves=27
num_cat=0
split_feature=2 7 3 2 7 9 10 8 13 6 4 12 2 12 6 9 9 3 6 7 13 17 9 7 10 6
split_gain=274.902 34.9122 23.803 21.3934 19.5828 13.9357 11.0865 8.55138 8.45322 7.96035 9.51919 5.88932 5.8821 6.09012 4.41822 3.10928 2.76729 2.79603 1.9506 1.64658 4.18636 9.39262 1.30207 0.716762 0.259357 0.108925
threshold=375.05793323000006 -126.47984888607361 383.59156708226527 872.39012681000008 267.61680610550019 4.2868027635863895 0.19499854692658961 0.0073868767147855794 7186.2575602550014 11.655834670705962 -2.5112387790768649 0.010389470597303161 2055.6192047600002 -0.15874591733172075 62.975852797644912 3.6773691755585047 1.3962100261161912 13636.366060088769 66.89179842955447 73.083915240714632 4409.4492932250005 492648.92515847023 2.1185537597641271 10.049444116607155 0.48310117039159683 25.459235745558626
decision_type=2 2 2 2 2 2 2 2 2 2 2 2 2 2 2 2 2 2 2 2 2 2 2 2 2 2
left_child=1 -1 8 7 5 15 9 11 18 -7 14 19 13 -5 25 -4 -15 22 -3 20 21 -2 -18 -24 -8 -11
right_child=3 2 4 12 -6 6 24 -9 -10 10 -12 -13 -14 16 -16 -17 17 -19 -20 -21 -22 -23 23 -25 -26 -27
leaf_value=0.057209684096898222 0.050477692591798975 -0.055790904740060668 0.00097908840658287623 0.0061852989368199026 0.067672927349766307 -0.05326767649468736 -0.057196958072236792 -0.002031567566818836 0.005543879051955628 -0.022396545665402761 0.038014247729526586 0.012013973559267451 0.070104114044623508 0.0027655510295505241 0.013165268793012747 0.040732439345027682 0.033249004019464609 0.036101412178584397 -0.0098587387671611477 0.063547594995249326 0.057003436586577375 -0.010345438589944876 0.054831693750069438 0.073596164297953098 -0.02888997799125775 -0.050243036179186268
leaf_weight=11.707359075546263 13.306602448225023 67.040472596883774 12.117651328444483 7.1984003931283942 6.3500248789787284 6.8569497168064109 21.403626471757892 14.250204339623449 6.1576031148433676 4.3806211277842504 10.754125840961933 16.561138331890106 134.54987023770809 2.7321452051401129 5.1518398821353921 7.6642857268452635 8.0272804200649244 20.117487847805023 3.1645391508936873 15.395960941910742 19.584747225046158 10.688766330480574 40.92255075275898 31.622195020318031 5.1812039092183104 4.8658628314733505
leaf_count=24 29 656 51 18 13 49 169 46 29 29 45 47 210 7 22 29 16 41 20 26 36 33 73 48 32 34
internal_value=0.028283 -0.0228325 -0.0289976 0.0546565 -0.0104725 -0.0176396 -0.0298003 0.0330614 -0.0490859 -0.00926805 0.00411391 0.0396871 0.0623785 0.0523929 -0.021706 0.0178405 0.0554712 0.0568109 -0.0539582 0.0470448 0.0398079 0.023854 0.0614144 0.0639686 -0.0531087 -0.0410117
internal_weight=507.754 172.796 161.089 334.957 84.7262 78.3762 58.5942 89.7874 76.3626 32.0094 25.1524 75.5372 245.17 110.62 14.3983 19.7819 103.422 100.69 70.205 58.9761 43.5801 23.9954 80.572 72.5447 26.5848 9.24648
internal_count=1832 1202 1178 630 473 460 380 217 705 179 130 171 413 203 85 80 185 178 676 124 98 62 137 121 201 63
is_linear=0
shrinkage=0.05


Tree=18
num_leaves=26
num_cat=0
split_feature=5 3 5 1 13 7 7 10 17 17 7 6 9 6 17 13 13 2 6 13 9 10 7 6 6
split_gain=256.639 31.5208 19.3913 18.8557 15.7783 9.83071 9.17435 9.38706 11.9929 8.3649 6.97766 6.73287 7.55387 6.95067 7.14422 6.12818 5.55905 4.34603 4.22329 3.13622 2.99436 2.75183 2.63871 7.39209 2.01681
threshold=443.68112194953125 369.52871768574693 1964.5004558571475 1.5000000000000002 21687.010438375004 127.70027878410794 -5.7786193123212337 0.33232807702540484 8854673.7798991669 1418052.8345969266 3.6649721753571298 94.812724837472004 12.81962905490108 62.975852797644912 48671.599446487853 272.58139975000006 1263.6938759700004 312.24659240000005 235.20883796315263 5638.7468735150005 14.185666714119817 0.71546818456753714 -160.12607883482102 433.91307437565985 79.09793670952233
decision_type=2 2 2 2 2 2 2 2 2 2 2 2 2 2 2 2 2 2 2 2 2 2 2 2 2
left_child=1 4 5 11 19 6 15 8 10 18 -8 12 13 14 -3 -2 -16 -13 20 24 -5 -9 -17 -24 -1
right_child=2 3 -4 9 -6 -7 7 21 -10 -11 -12 17 -14 -15 16 22 -18 -19 -20 -21 -22 -23 23 -25 -26
leaf_value=-0.055412394260210454 -0.039646708946293116 -0.037069083602040802 0.067217073359749524 -0.055991897462113284 0.052524555433393731 0.066749000152563617 -0.040427467757481565 0.058099645916679044 0.042958900591471429 0.02026670353409761 0.0078718541905607575 -0.040648722919614771 0.058985893834301244 0.055617526693830334 0.039385245746604895 0.067816296465841433 -0.006540947325359904 0.012579436625056964 0.0047816175875622369 -0.01059821498359656 -0.010890459599696589 0.024177235246645598 0.05671439846147644 0.013210223052984872 -0.0078359347967199618
leaf_weight=63.687291637063026 1.1471113562583912 7.8924266919493666 147.53840517997742 21.63422008603812 3.0795964896678916 33.320594921708107 10.747174724936487 16.729526355862621 15.373589858412741 5.995316930115222 19.566803827881813 7.2121384441852552 10.132018543779848 6.3087264820933333 11.242866158485414 20.969398066401482 13.423565573990343 6.3128984421491623 4.0141452625393859 5.4515357762575141 5.4081519842147818 13.592367067933081 29.907260492444038 15.864348053932188 2.933810129761695
leaf_count=652 5 58 238 185 9 53 40 31 30 23 54 42 27 19 36 33 57 22 20 27 29 32 54 39 17
internal_value=0.0273587 -0.0214038 0.0535948 -0.00280242 -0.0456244 0.0419124 0.0357058 0.0231564 0.00836158 -0.0306522 -0.00983617 0.0138453 0.0224269 0.0115308 0.00143659 0.0491438 0.0149162 -0.0163043 -0.0409634 -0.050548 -0.0478605 0.0443103 0.0513065 0.0423477 -0.0535381
internal_weight=499.485 174.729 324.757 99.5765 75.1522 177.218 143.898 76.0095 45.6876 37.0518 30.314 62.5246 48.9996 38.8676 32.5589 67.8881 24.6664 13.525 31.0565 72.0726 27.0424 30.3219 66.741 45.7716 66.6211
internal_count=1832 1223 609 518 705 371 318 187 124 257 94 261 197 170 151 131 93 64 234 696 214 63 126 93 669
is_linear=0
shrinkage=0.05


Tree=19
num_leaves=25
num_cat=0
split_feature=17 17 7 16 7 12 4 3 6 7 8 7 16 15 16 16 3 6 7 13 13 16 17 16
split_gain=195.557 52.4163 28.3478 26.5354 20.0074 13.482 8.09061 7.94074 6.17804 5.87144 4.79577 6.6242 3.81912 5.168 5.8708 8.76118 6.41201 3.27388 1.57394 2.32293 1.72213 0.972964 0.949795 1.32219
threshold=92756.981147777813 7138422.1800428135 -227.13284756789244 586.49484565638272 77.117135019392833 0.021244734422259583 -30.810733326505716 369.52871768574693 181.53157990705307 32.613477938928753 -0.067529959838153755 -2.4411243958928552 1.1378153659132577 109.79139056500001 362.99693519063686 270.13793278555488 679.23860350449002 114.25454980876664 16.17716139178572 148.35176036000004 1661.3036893500002 179.24035199180062 74264741.014955655 1.5082624472076287
decision_type=2 2 2 2 2 2 2 2 2 2 2 2 2 2 2 2 2 2 2 2 2 2 2 2
left_child=2 3 -1 5 6 7 -4 -2 -7 10 -5 -12 -9 14 15 16 -14 -16 20 -20 21 -8 23 -3
right_child=1 22 4 9 -6 8 18 12 -10 -11 11 -13 13 -15 17 -17 -18 -19 19 -21 -22 -23 -24 -25
leaf_value=0.073802557117949738 -0.026393327154476499 0.041262407971820042 0.021706060508409737 0.054104286664248172 0.047481346053641654 -0.051389535613673758 -0.053975370985788418 -0.0052949120264621586 0.0043873822082989445 0.06525147220573993 0.043293346737556471 0.0030402830077966318 0.050802221360999128 0.052657431524299039 0.051549041443362031 -0.041999951642946218 -0.0055665209261433098 0.014237266468723225 0.0021130880685410881 -0.046467621827368875 -0.008773580121398436 -0.028957634825474657 0.067915615034503857 0.059807088933106149
leaf_weight=4.9064732491970053 9.025409094989298 25.439958170056343 3.7274795845150939 21.554549470543861 5.3930640742182723 11.5111495628953 70.942280106246471 11.136389560997484 7.7306810915470114 25.383027032017708 20.265246838331223 20.543987631797791 7.8194178938865724 13.338409349322317 12.757995054125788 7.3955101668834677 11.065047428011892 12.940245464444159 4.5597050189971906 3.7418827936053276 3.1812313497066489 9.152819596230982 81.57330809533596 85.852968037128448
leaf_count=8 57 51 16 40 16 78 722 45 29 41 40 57 25 27 27 39 52 38 31 30 23 58 132 150
internal_value=0.0264841 0.042991 -0.033538 0.0242959 -0.0394915 0.00711764 -0.0449069 0.0156931 -0.0296237 0.0444295 0.0349796 0.0237063 0.0210027 0.025574 0.0176668 0.000669893 0.0189035 0.0341851 -0.0478774 -0.0218883 -0.0501184 -0.0515705 0.0614002 0.0560178
internal_weight=490.938 385.333 105.605 192.467 100.698 104.72 95.3054 85.4784 19.2418 87.7468 62.3638 40.8092 76.453 65.3166 51.9782 26.28 18.8845 25.6982 91.5779 8.30159 83.2763 80.0951 192.866 111.293
internal_count=1832 928 904 595 896 417 880 310 107 178 137 97 253 208 181 116 77 65 864 61 803 780 333 201
is_linear=0
shrinkage=0.05


Tree=20
num_leaves=24
num_cat=0
split_feature=5 3 5 1 13 4 6 5 4 3 13 2 9 9 3 9 9 13 16 9 9 12 8
split_gain=216.991 29.0113 19.3412 16.8394 15.3612 7.39812 6.74273 6.48063 8.18754 5.85593 5.89385 4.91907 8.38797 4.40158 5.07817 3.93778 3.05451 2.9224 2.239 2.15251 3.21813 1.61126 0.538114
threshold=443.68112194953125 369.52871768574693 1964.5004558571475 1.5000000000000002 23993.554563540001 103.23726667940855 191.03160483176524 51.938159024102127 -13.937530591551413 2017.0738836078169 643.8739498000001 651.20846873000016 10.560393810372702 10.400854989657168 3196.4313774444895 7.6126855069844757 6.5183055494866773 5638.7468735150005 154.38815980720622 5.0724984950897669 14.185666714119817 -0.024715439821404676 -0.21639141820026195
decision_type=2 2 2 2 2 2 2 2 2 2 2 2 2 2 2 2 2 2 2 2 2 2 2
left_child=1 4 5 7 17 11 19 -3 -9 10 15 13 22 14 -2 -10 -12 18 -1 -5 -21 -4 -13
right_child=2 3 21 6 -6 -7 -8 8 9 -11 16 12 -14 -15 -16 -17 -18 -19 -20 20 -22 -23 -24
leaf_value=-0.054811700533540279 0.032108016616174642 0.054561635345444753 0.047668836706479478 -0.0078638483296893311 0.053488955012869425 0.0037749343519463702 0.013438853945666063 0.039540711096623833 -0.039867933431541103 -0.042439473321622512 0.0057889073199973631 0.031777445747692298 0.017263939462202872 0.046024461129248295 -0.0089156722781856736 0.0083798363772106532 0.046594378529344969 -0.01115676786760305 -0.0050910494631634653 -0.05518626463229525 -0.0070315384049862333 0.067465779873377929 0.055426209900153338
leaf_weight=58.791903890669346 15.301612913608553 7.2849353030323973 26.704959765076637 5.2741555050015476 2.9745004922151557 14.621062144637106 6.75667381286621 13.223825626075266 8.1192906424403173 7.1532553881406775 12.273389995098116 8.383669584989546 20.943593710660934 17.024247244000435 13.128225967288015 7.0868558287620536 7.0284429639577857 5.5258540809154502 2.8097633123397818 18.660248011350635 4.9019569829106322 113.58662506937981 84.985417991876602
leaf_count=651 35 22 50 30 8 39 31 41 53 38 46 17 51 37 41 37 24 28 18 170 26 188 151
internal_value=0.0256445 -0.0201636 0.050083 -0.00240997 -0.04447 0.0384795 -0.0294202 0.0131955 0.00673737 -0.00424043 0.00450935 0.0415812 0.0472877 0.0264133 0.0133351 -0.0179439 0.022457 -0.0496055 -0.0527413 -0.0397439 -0.0460657 0.0640968 0.053715
internal_weight=482.544 167.865 314.679 97.763 70.102 174.388 35.593 62.17 54.8851 41.6612 34.508 159.767 114.313 45.4541 28.4298 15.2061 19.3018 67.1275 61.6017 28.8364 23.5622 140.292 93.3691
internal_count=1832 1223 609 518 705 371 257 261 239 198 160 332 219 113 76 90 70 697 669 226 196 238 168
is_linear=0
shrinkage=0.05


Tree=21
num_leaves=24
num_cat=0
split_feature=5 3 5 1 13 4 5 4 6 3 13 2 9 9 3 3 13 9 9 9 4 12 5
split_gain=199.685 27.6465 19.2566 15.5517 14.5543 6.81158 6.73405 7.51034 6.36965 5.34352 5.62675 4.67037 7.86845 3.98304 4.61693 3.78167 2.91253 2.7186 2.38194 3.17912 2.28336 1.63421 0.584844
threshold=443.68112194953125 369.52871768574693 1964.5004558571475 1.5000000000000002 23993.554563540001 103.23726667940855 48.351505566650303 -13.937530591551413 191.03160483176524 2017.0738836078169 643.8739498000001 651.20846873000016 10.560393810372702 10.400854989657168 3196.4313774444895 939.12329293722553 5638.7468735150005 6.5183055494866773 4.9494534498541229 14.185666714119817 17.573171024399844 -0.024715439821404676 917.80657304898193
decision_type=2 2 2 2 2 2 2 2 2 2 2 2 2 2 2 2 2 2 2 2 2 2 2
left_child=1 4 5 6 16 11 -3 -8 18 10 15 13 22 14 -2 -9 20 -12 -5 -20 -1 -4 -13
right_child=2 3 21 8 -6 -7 7 9 -10 -11 17 12 -14 -15 -16 -17 -18 -19 19 -21 -22 -23 -24
leaf_value=-0.054470666926438753 0.030609185563000841 0.055208809265698877 0.046229874417504591 -0.0051509252880159069 0.050851440046003588 0.0035988274550063253 0.037344211675046896 -0.039105709892441234 0.012788016260220584 -0.041308098377620978 0.0055118963528125375 0.040650052011447106 0.016458917597325182 0.043823314609606673 -0.0085111277354455849 0.0080912646588267439 -0.010735983703675886 0.043859945350160211 -0.054738804798514742 -0.006758376784457263 -0.0041119028105403238 0.06607104499929696 0.055871940171731242
leaf_weight=56.332116968929768 15.297384336590769 7.1201050654053679 26.203364849090576 4.9787923321127918 3.0229226797819129 14.61870503425598 13.356807313859461 8.3049838244914991 6.7953991517424575 7.0127074792981139 12.295380644500257 27.807618275284767 20.919107630848885 17.035239055752754 13.112554669380186 7.0106244757771483 5.4952994138002387 7.1523360311985007 18.199838578701023 4.8859164491295806 2.7451488748192778 110.28997860848904 64.25464241206646
leaf_count=651 35 20 50 28 8 39 41 58 31 38 46 55 51 37 41 34 28 24 172 26 18 188 113
internal_value=0.0248262 -0.0195531 0.0484438 -0.00230986 -0.0438583 0.0369042 0.0125723 0.00609155 -0.0286354 -0.00442322 0.00382464 0.0399043 0.0455136 0.0251716 0.0127078 -0.0180233 -0.0490762 0.021315 -0.0389324 -0.0454939 -0.0523213 0.0626623 0.0518141
internal_weight=474.247 164.708 309.539 97.1129 67.5955 173.045 62.2529 55.1328 34.8599 41.776 34.7633 158.427 112.981 45.4452 28.4099 15.3156 64.5726 19.4477 28.0645 23.0858 59.0773 136.493 92.0623
internal_count=1832 1223 609 518 705 371 261 241 257 200 162 332 219 113 76 92 697 70 226 198 669 238 168
is_linear=0
shrinkage=0.05


Tree=22
num_leaves=28
num_cat=0
split_feature=17 17 7 16 7 12 4 9 16 15 7 15 13 13 11 16 7 8 9 10 13 7 17 16 16 16 13
split_gain=152.489 46.1524 25.8969 21.3802 18.0693 11.5525 7.0548 6.6493 6.39102 18.3474 5.77478 5.11306 5.51495 12.8728 6.77586 6.06154 4.52822 4.88715 4.14479 3.38879 2.16297 2.13632 1.271 1.47406 1.12814 3.11735 0.535322
threshold=92756.981147777813 7138422.1800428135 -227.13284756789244 586.49484565638272 77.117135019392833 0.021244734422259583 -30.810733326505716 19.711905175306033 1.2756007862937087 957.34433122000007 32.613477938928753 109.79139056500001 988.75802000500005 3305.9707445800004 11.500000000000002 373.03261599978265 -2.4411243958928552 -0.031709423544294658 8.5474654364601435 0.28587973413942808 2110.5633715700005 33.510525474642996 74264741.014955655 1.5082624472076287 179.24035199180062 244.41326385086842 1298.9800825400002
decision_type=2 2 2 2 2 2 2 2 2 2 2 2 2 2 2 2 2 2 2 2 2 2 2 2 2 2 2
left_child=2 3 -1 5 6 8 -4 20 9 -2 16 12 19 15 -15 -14 26 -18 -7 -10 21 24 23 -3 -8 -26 -5
right_child=1 22 4 10 -6 18 7 -9 11 -11 -12 -13 13 14 -16 -17 17 -19 -20 -21 -22 -23 -24 -25 25 -27 -28
leaf_value=0.070779637219599095 -0.061813413330561257 0.036420916586519553 0.019337529925022762 0.029476347520241086 0.04481577719354915 -0.0035130445921653184 -0.05509010260627898 0.019103139341944339 0.011260643030020298 0.042709954516977677 0.060591831356716336 0.048172747934452809 -0.059599076926919473 -0.00069354430253136968 0.05564567671955481 0.0036430155391000045 0.031567429496251173 -0.0092710271268952402 -0.050877515420702693 0.050691098233450319 -0.002685104881909128 -0.0038588283775567557 0.063712178260456595 0.055116672477845935 0 -0.054815796579884168 0.049855849709487976
leaf_weight=4.912435606122016 8.2951473817229253 24.477907359600067 3.6641657203435889 13.489363521337507 5.380631059408187 9.0955273509025591 64.961486019194126 3.1233002692461005 12.172197140753271 6.6787235215306273 24.136123865842819 12.330426283180712 8.4174339994788152 11.122434422373773 8.9232669472694379 5.9192256182432166 16.372686684131626 11.782098114490507 9.3115069046616536 10.902300693094729 2.7625340297818175 2.7482126578688613 75.157156437635422 80.723292097449303 4.8758890777826291 4.5528202801942825 19.608581751585007
leaf_count=8 52 51 16 29 16 44 746 15 41 17 41 26 55 46 22 18 37 35 63 33 21 19 132 150 34 29 36
internal_value=0.0240465 0.0387027 -0.0314805 0.0211934 -0.0376923 0.00571048 -0.0433232 -0.0463454 0.0135835 -0.0151251 0.0395595 0.0199407 0.013076 7.67595e-05 0.0256005 -0.0346271 0.0303514 0.0145742 -0.0291178 0.0314303 -0.0491701 -0.0507151 0.0567627 0.0511976 -0.0523057 -0.0291994 0.0428047
internal_weight=465.897 368.915 96.9815 188.557 92.069 103.168 86.6884 83.0242 84.7612 14.9739 85.3889 69.7873 57.4569 34.3824 20.0457 14.3367 61.2527 28.1548 18.407 23.0745 79.9009 77.1384 180.358 105.201 74.3902 9.42871 33.0979
internal_count=1832 928 904 595 896 417 880 864 310 69 178 241 215 141 68 73 137 72 107 74 849 828 333 201 809 63 65
is_linear=0
shrinkage=0.05


Tree=23
num_leaves=28
num_cat=0
split_feature=5 3 5 13 1 17 4 5 4 3 17 9 2 9 9 3 9 3 8 13 4 12 2 10 8 4 4
split_gain=169.941 25.2927 19.2568 14.2519 13.9886 7.51223 6.1866 5.89868 6.65414 5.04001 5.1293 5.17324 4.33699 7.39912 3.96587 5.16996 3.63476 4.22007 3.36668 2.62538 2.5992 1.84874 0.86404 1.06736 0.622009 0.620462 1.86728
threshold=443.68112194953125 369.52871768574693 1964.5004558571475 28500.278684645004 1.5000000000000002 1418052.8345969266 103.23726667940855 48.351505566650303 -13.937530591551413 2017.0738836078169 48671.599446487853 10.334015693438188 651.20846873000016 10.560393810372702 6.5183055494866773 647.82033589577441 10.400854989657168 3196.4313774444895 0.060792376416997661 5638.7468735150005 29.638771223120528 -0.024715439821404676 60.664567980000008 0.50075368441047308 -0.21639141820026195 -105.99720322132917 -39.723801338167753
decision_type=2 2 2 2 2 2 2 2 2 2 2 2 2 2 2 2 2 2 2 2 2 2 2 2 2 2 2
left_child=1 3 6 19 7 18 12 -3 -9 10 11 -10 16 24 15 -12 17 -2 22 20 -1 -4 -6 -24 -14 -26 -27
right_child=2 4 21 -5 5 -7 -8 8 9 -11 14 -13 13 -15 -16 -17 -18 -19 -20 -21 -22 -23 23 -25 25 26 -28
leaf_value=-0.053909894178144097 0.028104938253949687 0.051714633135374749 0.04320209111565159 0.052368121179535682 -0.01411640411191948 0.020675297483643214 0.002233045559184966 0.035099726631568552 -0.049711448931945047 -0.04045965797001394 0.026192037431744586 0.01609779263137949 0.027143950463802292 0.014252656826159706 0.041986295350478382 -0.028670672462071868 0.040601752805116076 -0.0092792582761917122 0.00068699005795648527 -0.011890928196400729 0 0.063740353407760825 -0.055080049155635781 -0.015340354521563486 0.067612316197980596 0.032948454391951564 0.053672079899451879
leaf_weight=52.06153479963541 15.254960894584658 7.173493579030036 25.06859789788723 2.8910974115133277 3.3760058879852357 5.850880615413188 14.533365398645399 13.42866889387369 6.2963788583874685 6.8396431207656851 8.2566810548305529 4.2536790817975998 8.0341779589652997 20.746100693941116 8.5233261287212354 7.0030105188488951 16.961670234799385 13.116758704185484 4.4002758860588065 5.6224386841058722 2.4367360994219771 104.00964453816414 16.662378162145618 3.3404433950781813 11.069216132164 26.085785269737237 44.145931437611587
leaf_count=654 35 20 50 7 28 23 39 41 55 38 27 18 17 51 29 33 37 41 29 29 15 188 156 21 17 54 80
internal_value=0.0233153 -0.0184571 0.0454496 -0.0427759 -0.00206626 -0.0276017 0.0339666 0.0119737 0.00582649 -0.00420844 0.00381252 -0.0236484 0.0368689 0.0423717 0.0166585 0.000491992 0.0227725 0.0109238 -0.0383088 -0.048215 -0.0515906 0.0601528 -0.0455806 -0.049728 0.0486163 0.0503219 0.0466156
internal_weight=457.443 158.417 299.026 63.0118 95.4049 33.63 169.948 61.7749 54.6014 41.1727 34.3331 10.5501 155.415 110.081 23.783 15.2597 45.3334 28.3717 27.7791 60.1207 54.4983 129.078 23.3788 20.0028 89.3351 81.3009 70.2317
internal_count=1832 1223 609 705 518 257 371 261 241 200 162 73 332 219 89 60 113 76 234 698 669 238 205 177 168 151 134
is_linear=0
shrinkage=0.05


Tree=24
num_leaves=27
num_cat=0
split_feature=5 5 3 13 9 9 10 4 9 5 5 12 3 1 5 13 6 9 6 12 5 16 3 4 9 9
split_gain=156.952 21.9364 20.335 13.5082 10.8078 12.3037 11.1413 6.45091 5.57046 4.41442 4.03628 5.25719 4.01948 3.75949 3.73557 2.62431 2.62377 4.89601 2.61089 1.88264 1.67036 1.66853 4.47319 1.54879 1.37415 0.645354
threshold=379.12417175019158 1964.5004558571475 369.52871768574693 28500.278684645004 12.81962905490108 2.1185537597641271 0.080508861855949562 122.65147269463269 12.37513063125464 97.828174288119968 917.80657304898193 0.071754536196827132 1152.8333257618654 1.5000000000000002 150.71756613288991 5638.7468735150005 489.1237347793533 7.7912105357546251 94.812724837472004 -0.024715439821404676 102.93140022605395 467.67282324702404 4255.0682572592077 -12.777354197790901 4.8699732820856747 3.7684617250446668
decision_type=2 2 2 2 2 2 2 2 2 2 2 2 2 2 2 2 2 2 2 2 2 2 2 2 2 2
left_child=2 7 3 15 5 -4 12 8 10 -6 11 21 -7 14 20 18 25 -18 -1 -3 -8 24 -23 -16 -2 -12
right_child=1 19 4 -5 9 6 13 -9 -10 -11 16 -13 -14 -15 23 -17 17 -19 -20 -21 -22 22 -24 -25 -26 -27
leaf_value=-0.053598719408967203 0.053846156498293711 0.041934622504820829 0.046522759250709804 0.0499658577226368 0.044952788284111422 -0.011351152243099093 -0.016279474381304643 -0.0023248315028789207 0.0094037041423828578 -0.00073327254322326193 0.03730003031749423 -0.0030803609339029631 0.036147621581095433 -0.054109849234259558 -0.014236854831029584 -0.011445524858142047 0.049480217048802587 0.0080726165242409401 0 0.062614963891404959 0.019477305712803594 0.0075427909444218582 0.045520452703268072 -0.055017752249308771 0.027582965208853696 0.060595802338639981
leaf_weight=49.855014823377132 15.959355086088182 24.577807068824768 6.3496995866298667 2.9257488995790473 11.923085510730745 8.1141863986849767 6.2216827571392077 12.85880087316036 21.697518818080425 8.5367340669035894 12.491727963089941 10.947681546211241 7.7544700652360907 16.778891704976559 5.2933161333203316 5.5889587402343741 16.960380449891094 13.149770960211752 2.3843361884355536 100.68740472197533 4.962565690279007 19.114251881837845 13.145956307649611 6.5209348350763303 14.659960240125654 29.74238845705986
leaf_count=655 31 50 15 7 37 45 40 36 59 48 25 35 28 169 24 29 31 33 14 188 26 49 27 44 36 51
internal_value=0.0226028 0.0427826 -0.0204781 -0.0421864 -0.00410955 -0.014555 -0.022311 0.0312788 0.0338809 0.0265117 0.0373918 0.0282516 0.0123304 -0.0362168 -0.0212435 -0.0477038 0.0461387 0.0323981 -0.0512012 0.0589612 0 0.0337478 0.0240722 -0.0396732 0.0427 0.0548433
internal_weight=449.203 305.993 143.21 60.7541 82.4556 61.9957 55.646 180.728 167.869 20.4598 146.171 73.8272 15.8687 39.7774 22.9985 57.8283 72.3443 30.1102 52.2394 125.265 11.1842 62.8795 32.2602 11.8143 30.6193 42.2341
internal_count=1832 651 1181 705 476 391 376 413 377 85 318 178 73 303 134 698 140 64 669 238 66 143 76 68 67 76
is_linear=0
shrinkage=0.05


Tree=25
num_leaves=25
num_cat=0
split_feature=5 7 3 5 7 9 5 7 7 10 17 13 7 4 7 4 10 11 13 11 2 13 10 10
split_gain=145.352 23.2686 19.6845 18.8216 12.6754 13.6167 11.6916 9.41676 8.6054 8.65102 9.05356 7.89234 5.78854 4.61173 2.93387 3.9214 2.41985 2.29962 6.83926 2.21034 6.46785 1.61491 1.15613 0.188297
threshold=443.68112194953125 -227.13284756789244 369.52871768574693 1964.5004558571475 31.039923409821444 4.3089848448141712 39.185931262050083 127.70027878410794 -5.7786193123212337 0.33232807702540484 8854673.7798991669 23993.554563540001 3.6649721753571298 -10.090571534094233 -227.13284756789244 -24.78581031200309 0.71546818456753714 1.0000000180025095e-35 498.56968146000003 11.500000000000002 154.44092047000001 3976.0549723400004 0.48310117039159683 0.13295746598472655
decision_type=2 2 2 2 2 2 2 2 2 2 2 2 2 2 2 2 2 2 2 2 2 2 2 2
left_child=1 -1 11 7 5 13 -7 8 14 10 12 17 -10 -4 -2 -16 -11 18 -3 22 -21 -6 -8 -5
right_child=3 2 4 23 21 6 19 -9 9 16 -12 -13 -14 -15 15 -17 -18 -19 -20 20 -22 -23 -24 -25
leaf_value=0.061435806949817554 0.059484254683294782 -0.047082760970552605 0.0348805120310689 0.045100788753456418 0.013205397555937845 0.038215668762880545 -0.05559432995985223 0.056933791479465978 -0.043633364028473204 0.047066911261623989 0.030957371923888744 0.032441160535540907 0.00055237877338734415 -0.009781699841537303 0.014317826671752821 0.044011247701820952 0.015945006570547909 -0.053838302330555088 0.037148673015149562 -0.053329339178793303 0.0026619164622494105 0.044578834613601688 -0.016853866883566448 0.06021541171324029
leaf_weight=7.8498518615961066 14.595658496022223 6.7068971395492536 11.936814069747927 22.606640115380287 11.21942186355591 4.4947852045297614 20.158557176589969 29.777219712734222 10.787794768810274 15.995138928294184 14.302113115787504 2.4088103026151648 19.315840154886246 9.5717405900359136 21.486145660281181 27.578328534960747 13.24705497920513 44.952855736017227 2.5767616704106331 8.9757747799158114 10.161305047571657 7.8291892483830443 3.7672222033143035 98.874359965324402
leaf_count=14 25 90 36 48 45 15 193 53 40 31 30 7 54 45 51 55 32 589 15 75 50 23 26 190
internal_value=0.0219146 -0.0174525 -0.0221568 0.0427398 -0.00713861 -0.0171425 -0.0318991 0.0314564 0.0255234 0.013499 -0.000427388 -0.0449027 -0.0160148 0.0152312 0.0389331 0.0316536 0.0341271 -0.0489534 -0.0218784 -0.0400322 -0.0246953 0.02793 -0.0506159 0.0578347
internal_weight=441.176 152.61 144.76 288.566 88.1148 69.0662 47.5576 167.085 137.308 73.6479 44.4057 56.6453 30.1036 21.5086 63.6601 49.0645 29.2422 54.2365 9.28366 43.0629 19.1371 19.0486 23.9258 121.481
internal_count=1832 1223 1209 609 508 440 359 371 318 187 124 701 94 81 131 106 63 694 105 344 125 68 219 238
is_linear=0
shrinkage=0.05


Tree=26
num_leaves=25
num_cat=0
split_feature=5 3 5 13 7 7 9 5 7 7 8 9 3 4 7 4 13 4 11 5 12 9 10 4
split_gain=134.149 21.6288 18.5915 12.2528 11.5348 11.6183 12.6806 10.9539 9.00031 11.2409 7.83321 4.69036 4.9666 4.17 2.86367 3.60245 2.62615 2.88227 2.1845 5.63121 2.13323 1.62752 1.15376 0.104251
threshold=443.68112194953125 369.52871768574693 1964.5004558571475 28500.278684645004 -227.13284756789244 31.039923409821444 4.3089848448141712 39.185931262050083 60.056636504821491 -5.7786193123212337 -0.054059161733450926 10.560393810372702 5518.181785693514 -10.090571534094233 -227.13284756789244 -24.78581031200309 5638.7468735150005 43.388781264838919 11.500000000000002 153.09173685556337 -0.024715439821404676 9.1806714959842743 0.48310117039159683 -31.54041424707064
decision_type=2 2 2 2 2 2 2 2 2 2 2 2 2 2 2 2 2 2 2 2 2 2 2 2
left_child=1 3 8 16 -3 6 13 -8 9 14 -11 12 -12 -6 -2 -16 17 -1 22 -20 -4 -7 -9 -10
right_child=2 4 20 -5 5 21 7 18 23 10 11 -13 -14 -15 15 -17 -18 -19 19 -21 -22 -23 -24 -25
leaf_value=-0.053076220412726249 0.057934937653353627 0.060224886115205628 0.039020492406766194 0.046065490980666021 0.033067012070423937 0.010391442180334894 0.036380434599857646 -0.055068557732401047 0.037692448861337671 0.030490214203572341 -0.013153141507215894 -0.036588906245409107 0.027691828846349423 -0.0093731344086295642 0.013680440034290099 0.042232991529143754 -0.010392839865292632 0.0029348573142106899 -0.052479998121522979 0.00043590339127752808 0.060645740648910644 0.041124136409659652 -0.016325786873087413 0.055069363622398074
leaf_weight=45.904541365802288 14.271683171391485 5.9036392569541922 23.413358435034752 2.9711511880159369 12.014660887420179 10.097087487578394 4.5348368734121314 19.363173849880699 15.666313186287878 21.327992260456085 17.488658070564274 8.8185753822326642 11.420464038848875 9.534085310995577 21.411388009786606 27.350511103868484 5.4577104449272147 2.1309120953083029 8.2452583983540553 10.580904364585875 94.352842643857002 9.0834752246737462 3.7279837653040877 27.663518339395523
leaf_count=657 25 10 50 7 36 40 15 193 32 48 54 31 25 45 51 55 29 12 71 54 188 28 26 50
internal_value=0.021277 -0.0169344 0.0414625 -0.0410604 -0.00196592 -0.00686918 -0.0166045 -0.0311333 0.0302709 0.0229182 0.00694848 -0.00667454 0.00320175 0.014485 0.0374599 0.0303229 -0.0467479 -0.0504804 -0.0392313 -0.0239655 0.0567532 0.0265101 -0.0499585 0.0498914
internal_weight=432.735 149.549 283.185 56.4643 93.0851 87.1815 68.0009 46.4522 165.419 122.089 59.0557 37.7277 28.9091 21.5487 63.0336 48.7619 53.4932 48.0355 41.9173 18.8262 117.766 19.1806 23.0912 43.3298
internal_count=1832 1223 609 705 518 508 440 359 371 289 158 110 79 81 131 106 698 669 344 125 238 68 219 82
is_linear=0
shrinkage=0.05


Tree=27
num_leaves=24
num_cat=0
split_feature=5 3 2 7 7 9 5 4 7 7 10 4 7 16 4 7 17 11 2 3 3 10 4
split_gain=123.817 20.5573 18.4001 10.6056 10.6514 11.8093 10.2647 7.90125 6.214 11.487 6.57037 8.49151 5.54245 3.82777 3.77377 3.02862 4.16132 2.15925 5.95541 1.20989 9.88133 1.15151 0.684636
threshold=443.68112194953125 369.52871768574693 1926.5204771100002 -227.13284756789244 31.039923409821444 4.3089848448141712 39.185931262050083 75.871871710319255 60.056636504821491 -5.7786193123212337 0.40383738158620941 -22.974170035423423 -94.812275726250348 91.87731407335589 -10.090571534094233 -160.12607883482102 2160371.0420956523 11.500000000000002 154.44092047000001 20.159250638798497 17.143382870134044 0.48310117039159683 -31.54041424707064
decision_type=2 2 2 2 2 2 2 2 2 2 2 2 2 2 2 2 2 2 2 2 2 2 2
left_child=1 7 8 -3 5 14 -7 12 9 15 11 -11 -1 -6 -5 -2 -17 21 -19 20 -14 -8 -10
right_child=2 3 -4 4 13 6 17 -9 22 10 -12 -13 19 -15 -16 16 -18 18 -20 -21 -22 -23 -24
leaf_value=0.021829732521983405 0.054019281021373079 0.05784019671016849 0.056533317651575446 0.031369778773853184 0.043341918956183167 0.034656436024859016 -0.054562390754709228 0.037194786477139814 0.031795213353445283 0.014233402962819828 0.028558505456329316 -0.032394739845114963 -0.049052252677672846 -0.00017344718241693656 -0.0089806511530037773 0.0081553556908815061 0.040450181672229801 -0.052079504488631703 0.0025175515652743462 -0.053749565578586789 0.051883588011908649 -0.015812123549745347 0.052256309006692772
leaf_weight=2.3353651016950598 21.460492819547653 5.8814504891633979 107.470826998353 12.083731651306154 10.942164048552515 4.5711868777871123 18.594418130815033 2.3235065788030616 14.585831061005591 22.820026740431786 22.465720787644386 15.513657078146933 11.154836568981407 8.3536164090037328 9.4978659749031049 16.606232151389122 28.634360581636429 8.3561507761478442 10.175718963146208 36.518369298428297 2.1158314347267142 3.6900984719395629 28.291641935706139
leaf_count=7 40 10 224 36 30 15 193 8 31 58 50 54 172 38 45 42 57 75 50 502 16 26 53
internal_value=0.0206593 -0.0164228 0.0402307 -0.00186991 -0.00661433 -0.0160834 -0.0303816 -0.0404836 0.0296483 0.0236951 0.0076737 -0.00485374 -0.0446753 0.0251764 0.0137792 0.037896 0.0291367 -0.0384396 -0.0232506 -0.0482615 -0.030101 -0.0493151 0.0462932
internal_weight=424.443 146.594 277.849 92.1464 86.265 66.9692 45.3876 54.4479 170.378 127.5 60.7994 38.3337 52.1244 19.2958 21.5816 66.7011 45.2406 40.8164 18.5319 49.789 13.2707 22.2845 42.8775
internal_count=1832 1223 609 518 508 440 359 705 385 301 162 112 697 68 81 139 99 344 125 690 188 219 84
is_linear=0
shrinkage=0.05


Tree=28
num_leaves=25
num_cat=0
split_feature=5 3 2 13 12 12 7 17 7 7 4 4 11 13 11 2 13 4 7 17 13 17 17 12
split_gain=114.546 23.5116 14.9189 11.3862 10.3685 6.67146 6.4318 7.45999 6.25107 8.48728 6.16233 5.34619 5.77252 5.31073 4.4492 4.26247 2.67099 2.78056 2.44984 3.82306 2.35611 2.34628 0.66554 0.0977856
threshold=525.27609323202648 369.52871768574693 2055.6192047600002 28500.278684645004 1.0000000180025095e-35 -0.20915138885917459 31.039923409821444 48671.599446487853 99.760347248392932 -2.4411243958928552 -1.7707985216128563 -34.308195848237553 11.500000000000002 1644.8553309500003 9.5000000000000018 872.39012681000008 5638.7468735150005 43.388781264838919 -4.5170839783928569 1301.4197983343913 3305.9707445800004 2160371.0420956523 11690147.604114594 -0.029284850117048854
decision_type=2 2 2 2 2 2 2 2 2 2 2 2 2 2 2 2 2 2 2 2 2 2 2 2
left_child=1 3 8 16 5 -3 7 18 9 21 -6 -9 13 -13 15 -11 17 -1 -7 -20 -14 -2 -23 -4
right_child=2 4 23 -5 10 6 -8 11 -10 14 -12 12 20 -15 -16 -17 -18 -19 19 -21 -22 22 -24 -25
leaf_value=-0.052571503498513507 0.021165025502186338 -0.038481846962636825 0.041472942137980147 0.043736002426905063 -0.056598290136336916 0.0048162382055602845 0.035960719245100817 0.044420209903820479 0.051075374987506854 0 0 0.0072483878623167894 0.0064446057258075104 -0.046057413961963757 -0.0077684921410428563 0.032718275651122876 -0.0091387238645605946 0.0025891257576348024 0.0051444145685052012 -0.051858982795430476 0.04087718067942557 0.051370957945929253 0.03259840755535124 0.058591573833477163
leaf_weight=42.067752975970507 19.146197021007538 6.2484617531299582 15.104671791195868 2.9894676655530921 10.259563732892277 4.8933082185685661 19.440595209598541 10.087368883192537 31.456118315458298 15.490580573678015 8.3561265394091588 9.9989195838570613 12.280309505760671 7.2222512438893309 19.18057119846344 26.096425697207451 5.3317827209830275 2.1343588382005683 3.7943598851561537 8.5222417786717397 8.4874555394053441 26.363586559891701 18.748938500881195 82.530404984951019
leaf_count=657 44 46 33 7 99 29 55 24 61 44 55 45 49 42 56 55 29 12 19 82 22 49 41 177
internal_value=0.0200588 -0.0127135 0.0409533 -0.039878 0.000503253 0.00758135 0.011446 0.00363836 0.030961 0.0254956 -0.0324558 0.0137936 0.00460222 -0.0161335 0.0116929 0.0207578 -0.0457888 -0.049799 -0.0236556 -0.034855 0.0219778 0.0380926 0.0445536 0.0564412
internal_weight=416.232 162.114 254.117 52.5234 109.591 90.9753 84.7268 65.2862 156.482 125.026 18.6157 48.0763 37.9889 17.2212 60.7676 41.587 49.5339 44.2021 17.2099 12.3166 20.7678 64.2587 45.1125 97.6351
internal_count=1832 1272 560 705 567 413 367 312 350 289 154 182 158 87 155 99 698 669 130 101 71 134 90 210
is_linear=0
shrinkage=0.05


Tree=29
num_leaves=28
num_cat=0
split_feature=5 3 2 13 7 12 9 7 11 17 7 7 11 11 12 9 16 17 2 4 17 16 7 16 10 7 12
split_gain=106.05 22.2055 14.8589 10.9532 9.92457 11.7068 6.2848 9.03426 6.56632 6.32894 5.9932 7.93051 5.69485 4.52301 4.18202 4.12893 5.48814 3.76155 3.35967 3.03222 2.45186 2.07121 1.94499 1.04137 0.780962 0.152552 0.143997
threshold=525.27609323202648 369.52871768574693 2055.6192047600002 5638.7468735150005 -169.49053771071416 1.0000000180025095e-35 4.2868027635863895 73.083915240714632 11.500000000000002 55502.549176287932 99.760347248392932 -57.996235442321286 14.500000000000002 11.500000000000002 0.50339796121815461 3.6432414021544992 270.13793278555488 941336.28432043956 1173.1690650050002 48.948456488824228 492648.92515847023 22.778054016913121 -227.13284756789244 820.49606303205053 0.48036779039147176 3.129815902035713 -0.029284850117048854
decision_type=2 2 2 2 2 2 2 2 2 2 2 2 2 2 2 2 2 2 2 2 2 2 2 2 2 2 2
left_child=1 3 10 19 -3 6 15 8 21 25 11 22 14 -7 17 16 -6 -13 23 -1 -11 -8 -2 -19 -23 -10 -4
right_child=2 4 26 -5 5 13 7 -9 9 20 -12 12 -14 -15 -16 -17 -18 18 -20 -21 -22 24 -24 -25 -26 -27 -28
leaf_value=-0.052336020112699194 0.057727444282938446 0.050873138368901089 0.040420247971263264 0.011539115693343052 0.029132304208482947 -0.056684221057478827 -0.0053837574060616082 0.035236092896652867 -0.04494934389602178 0.031283917663964038 0.0497758296222717 -0.0065838428780009041 -0.013390958486891692 0.00043861461599437285 0.047863344389327621 0.044712133384689851 -0.020908770545521534 0.020194197859415584 0.0025859079084356537 0.0064495460365712664 -0.0040277799166861935 -0.053989527239228056 0.031270319233223584 0.042807153794047953 -0.016830621841996799 -0.016647092104801833 0.057761035283425334
leaf_weight=40.408128716051579 15.286307722330092 7.9816037118434897 14.758081868290899 8.3153399899601919 11.18275629729033 11.774024091660978 4.4361673891544369 9.4475077092647535 3.944350071251395 10.223411224782469 30.708730846643448 14.415756925940512 13.577614367008207 4.4976888895034781 11.405452236533163 10.885565146803854 8.928344711661337 15.295015260577204 15.303216040134428 1.9398929327726353 7.9856084510684004 10.722830448299645 25.306087866425514 13.352333486080168 3.4592007026076308 3.382513739168644 79.61951756477356
leaf_count=659 28 15 33 36 37 116 28 23 38 35 61 42 40 34 23 32 32 36 39 10 30 103 55 26 22 22 177
internal_value=0.0194517 -0.0123108 0.039785 -0.0393061 0.000451695 -0.00394918 0.00361422 -0.00667343 -0.0163332 0.000177828 0.0298346 0.0244949 0.0152659 -0.0414941 0.0210236 0.0212132 0.00674158 0.0149767 0.0221489 -0.0494411 0.0161341 -0.0380885 0.0425022 0.031991 -0.0469609 -0.0360522 0.0555541
internal_weight=408.543 159.515 249.028 50.6634 108.852 100.87 84.5983 53.6016 44.1541 25.5359 154.651 123.942 83.3494 16.2717 69.7718 30.9967 20.1111 58.3663 43.9506 42.348 18.209 18.6182 40.5924 28.6473 14.182 7.32686 94.3776
internal_count=1832 1272 560 705 567 552 402 301 278 125 350 289 206 150 166 101 69 143 101 669 65 153 83 62 125 60 210
is_linear=0
shrinkage=0.05


Tree=30
num_leaves=27
num_cat=0
split_feature=2 3 7 7 13 2 17 17 13 17 3 6 6 2 13 3 6 10 4 4 13 13 3 10 17 10
split_gain=98.9181 26.1896 12.5157 12.6809 10.5824 9.86833 9.31306 6.127 6.03703 9.12743 11.3806 6.31774 15.3554 5.50014 8.18286 3.70008 3.20351 2.79171 2.1488 1.63966 0.995184 0.917441 0.699958 1.38364 0.279748 0.194087
threshold=651.20846873000016 369.52871768574693 -169.49053771071416 144.41288882464286 5638.7468735150005 2055.6192047600002 48671.599446487853 1230.7686497085624 376.44954850000005 1369161.9989806728 558.69762786057902 104.28054200939076 62.975852797644912 454.10960665500005 8565.2648813000033 13636.366060088769 135.67406756561363 0.21655903855348749 24.239565260359573 -9.6450034981547059 14069.16705754 298.23803833000005 8473.9067839476102 0.35260811550535293 217185.97950443396 0.12164356121135451
decision_type=2 2 2 2 2 2 2 2 2 2 2 2 2 2 2 2 2 2 2 2 2 2 2 2 2 2
left_child=1 4 -3 6 16 15 7 -4 -8 10 -10 12 19 14 -11 18 -1 -13 20 -12 22 -9 23 -2 -21 -7
right_child=5 2 3 -5 -6 25 8 21 9 13 11 17 -14 -15 -16 -17 -18 -19 -20 24 -22 -23 -24 -25 -26 -27
leaf_value=-0.052111403371738731 0.023151245530959014 0.054609826843753977 0.010078724354388766 0.04524537987796088 0.01098014573474475 0.040524390854166384 0.030739317893147496 -0.053556175822319502 0.030803405013154525 0.027202637199888316 -0.010283790019747413 -0.015151202865679565 0.036387176176591297 0.033932928264618016 -0.043956210067214063 0.01196118580419438 0.0091431007980565145 -0.068402209288765836 0.01809741543912349 -0.027462151676658209 0.027399456036818134 -0.01288199004800987 0.052750764260949969 0.045784402289376185 -0.060696421715601447 0.057223492025529558
leaf_weight=38.745737247169018 17.479641929268837 10.029440790414808 5.3779357373714474 12.358402274549006 8.3516716510057432 16.632163897156715 13.375957392156122 14.343681152909996 8.7424461431801301 7.4844125807285327 4.1647589653730313 4.3793175145983687 8.9941916614770872 17.617165505886078 6.6966773122549057 21.018983229994774 1.8205844610929478 10.209337305277584 17.540808036923409 4.5180041715502828 22.653852492570877 2.7353349179029456 23.52623362839222 20.623808056116104 7.0243792086839676 74.559325009584427
leaf_count=660 41 18 27 27 36 41 54 154 33 25 27 20 33 38 36 53 9 59 42 30 52 20 45 40 43 169
internal_value=0.0188687 -0.00766966 0.00349564 -0.000862199 -0.0387182 0.0420023 -0.00617715 -0.0343432 0.000848532 -0.00441626 -0.0180735 -0.0295678 -0.0129581 0.0159831 -0.00675303 0.0321669 -0.0490882 -0.0547351 0.0361323 -0.042 0.0395708 -0.0483913 0.043456 0.0363871 -0.051313 0.0547046
internal_weight=401.004 186.969 138.051 128.022 48.918 214.035 115.664 22.457 93.2066 79.8307 48.0324 39.29 24.7013 31.7983 14.1811 122.843 40.5663 14.5887 101.824 15.7071 84.2835 17.079 61.6297 38.1034 11.5424 91.1915
internal_count=1832 1349 644 626 705 483 599 201 398 344 245 212 133 99 61 273 669 79 220 100 178 174 126 81 73 210
is_linear=0
shrinkage=0.05


Tree=31
num_leaves=27
num_cat=0
split_feature=5 3 5 12 7 4 7 7 12 4 10 10 7 17 9 4 11 6 5 12 5 8 3 17 10 9
split_gain=91.2525 19.6814 14.4731 8.7318 7.75341 7.01786 6.48239 6.33219 5.80884 5.80072 5.6672 6.74312 5.27724 5.98127 7.36458 4.70687 4.80496 3.09247 2.99174 2.71437 2.64133 1.66564 1.45969 10.1547 0.626598 0.23395
threshold=525.27609323202648 369.52871768574693 1964.5004558571475 1.0000000180025095e-35 99.760347248392932 75.871871710319255 -2.4411243958928552 -227.13284756789244 -0.20915138885917459 -1.7707985216128563 0.33232807702540484 0.16785794645855032 31.039923409821444 48671.599446487853 15.332931397640618 -34.308195848237553 11.500000000000002 414.12080979262186 345.35810496000005 -0.024715439821404676 210.26655355868095 -0.012972930007046716 20.159250638798497 8796.8814716239394 0.16404406364249546 10.509492357964852
decision_type=2 2 2 2 2 2 2 2 2 2 2 2 2 2 2 2 2 2 2 2 2 2 2 2 2 2
left_child=1 5 4 8 6 7 17 -1 -3 -5 11 -8 13 14 25 -15 18 24 20 -4 -17 -18 23 -9 -2 -10
right_child=2 3 19 9 -6 -7 10 22 12 -11 -12 -13 -14 15 -16 16 21 -19 -20 -21 -22 -23 -24 -25 -26 -27
leaf_value=0.032607509307387872 0.027642497888893416 -0.037016833209836224 0.032554057080579506 -0.055409826632064244 0.05027137800856582 0.034183797423815353 0.01565151746619391 -0.047643476753160746 -0.050544380516637913 0.00023875518924122076 0.026696862075397329 -0.027962369150157443 0.032502763805612733 0.040849104202603251 0.02407464243112473 -0.0023267442545489851 0.0045766010729186108 0.016461037880892357 0.0077050669624215938 0.056718340938819382 -0.054295091684061263 0.033313739086981931 -0.053045693960928168 0.059350303678741528 0.049017089018641817 -0.020069922554662403
leaf_weight=1.9043085277080525 12.017317622900007 5.9988128021359435 20.732154965400696 9.4958520159125346 27.702208161354065 2.3747739195823661 17.874009802937508 9.7336667627096158 7.6445233486592787 8.1194828264415246 23.332232981920242 15.660940334200857 19.441104047000408 10.066797129809855 5.0786917880177489 4.5902629904449004 11.033628188073637 21.603566452860832 7.2088520824909201 79.58896692097187 5.0950615257024765 9.8005341961979848 31.376929145306349 1.8528711013495911 20.771987095475197 3.5250138454139233
leaf_count=4 27 46 50 99 56 8 45 181 80 55 52 51 55 24 19 26 40 51 24 188 37 31 504 8 40 31
internal_value=0.0182979 -0.0116111 0.0375784 0.000284692 0.0267296 -0.0381295 0.0204278 -0.0427277 0.00674346 -0.0308561 0.00827968 -0.00479145 0.010348 0.00314947 -0.0221128 0.0121172 0.0034649 0.0326596 -0.0156861 0.0521445 -0.0326559 0.0192304 -0.0468463 -0.0267802 0.0423812 -0.0437772
internal_weight=393.625 154.341 239.283 107.099 138.962 47.2425 111.26 44.8678 89.4833 17.6153 56.8672 33.535 83.4845 64.0434 16.2482 47.7951 37.7283 54.3929 16.8942 100.321 9.68532 20.8342 42.9635 11.5865 32.7893 11.1695
internal_count=1832 1272 560 567 322 705 266 697 413 154 148 96 367 312 130 182 158 118 87 238 63 71 693 189 67 111
is_linear=0
shrinkage=0.05


Tree=32
num_leaves=27
num_cat=0
split_feature=5 3 5 13 7 12 7 7 11 9 7 11 17 11 9 16 17 4 12 9 17 16 3 8 13 7
split_gain=84.522 18.5241 14.3145 10.1106 8.3479 10.0242 7.41078 6.20984 6.32491 5.29416 7.53586 5.91591 5.36701 4.36442 3.79916 4.87185 3.7305 3.01172 2.74451 2.45854 2.08233 1.90208 1.77299 1.36549 0.704786 0.15352
threshold=525.27609323202648 369.52871768574693 1964.5004558571475 5638.7468735150005 -169.49053771071416 1.0000000180025095e-35 99.760347248392932 -147.13896741571398 14.500000000000002 4.2868027635863895 73.083915240714632 11.500000000000002 55502.549176287932 11.500000000000002 3.6432414021544992 270.13793278555488 626183.87300789857 57.837308192987585 -0.024715439821404676 10.674832404369523 492648.92515847023 22.778054016913121 4255.0682572592077 -0.047432604006248734 949.97642160500016 3.129815902035713
decision_type=2 2 2 2 2 2 2 2 2 2 2 2 2 2 2 2 2 2 2 2 2 2 2 2 2 2
left_child=1 3 6 17 -3 9 7 -2 16 14 11 21 25 -7 15 -6 -9 -1 -4 22 -14 -11 -18 -24 -23 -13
right_child=2 4 18 -5 5 13 -8 8 -10 10 -12 12 20 -15 -16 -17 19 -19 -20 -21 -22 24 23 -25 -26 -27
leaf_value=-0.051657568975059923 0.046955137427291294 0.046717075384957202 0.031585521556458315 0.010866894513702083 0.026375808398481578 -0.055456218978669175 0.049085351687415207 -0.0028775446097328915 -0.014341449245845961 -0.0052755448891394462 0.031760434867389713 -0.04355031384169028 0.028322718455335572 0.0015059441712573672 0.041598481321149405 -0.02090885981797037 0.016227195567262615 0.0076887611219370868 0.055994579264475999 0.0039882939535369312 -0.0041399193212543779 -0.053304676536324785 0.022320711008573645 0.046936185461390584 -0.017574103283582762 -0.015509353071630204
leaf_weight=35.413709945976734 16.829253569245338 7.8794811815023413 20.340253680944443 8.2875041738152486 11.172552920877939 10.923078242689369 26.99522265791893 14.101342543959616 15.279686748981474 4.3582419455051449 9.3759881854057294 3.613581124693158 10.313798651099207 4.3772574327886096 10.929181955754755 8.8235023915767652 19.872709795832634 1.8613042458891857 76.673721387982368 12.272490262985228 7.9493761360645285 9.6937340721487981 14.305864021182051 17.789818748831756 3.6634223125874987 3.2733524069190025
leaf_count=660 34 15 50 36 37 116 56 41 45 28 23 38 35 34 32 32 47 9 188 32 30 99 33 34 26 22
internal_value=0.0177452 -0.0112421 0.0365155 -0.0375434 0.000224466 -0.00387794 0.0257472 0.019609 0.0141962 0.00305802 -0.00656472 -0.0155945 4.54301e-05 -0.0397606 0.0191666 0.00527064 0.0199357 -0.0484401 0.0513024 0.0249874 0.0144518 -0.0368813 0.0296831 0.0371215 -0.0457599 -0.0345128
internal_weight=386.369 151.909 234.46 45.5625 106.347 98.4671 137.446 110.451 93.6219 83.1667 52.2415 42.8655 25.1501 15.3003 30.9252 19.9961 78.3422 37.275 97.014 64.2409 18.2632 17.7154 51.9684 32.0957 13.3572 6.88693
internal_count=1832 1272 560 705 567 552 322 266 232 402 301 278 125 150 101 69 187 669 238 146 65 153 114 67 125 60
is_linear=0
shrinkage=0.05


Tree=33
num_leaves=28
num_cat=0
split_feature=2 3 7 7 2 13 17 7 9 13 17 3 6 6 2 13 6 10 6 13 7 7 10 4 10 17 10
split_gain=80.2617 21.4039 10.7333 10.51 9.89734 9.84998 7.72475 5.92255 5.87895 5.69032 8.04498 10.1764 5.77372 14.3131 4.62886 3.70699 2.81763 2.76479 2.55343 2.96665 1.98613 1.97903 3.21012 1.61743 0.394427 0.229254 0.0750438
threshold=651.20846873000016 369.52871768574693 -169.49053771071416 144.41288882464286 2055.6192047600002 28500.278684645004 48671.599446487853 6.2380535471428944 11.571718803893372 376.44954850000005 1369161.9989806728 558.69762786057902 104.28054200939076 62.975852797644912 454.10960665500005 8273.3968756200011 1031.3427692597054 0.20741972954042226 148.54935775271369 5638.7468735150005 99.760347248392932 -5.5149110749999961 0.35865905769681544 -9.6450034981547059 0.12164356121135451 217185.97950443396 0.280849958444012
decision_type=2 2 2 2 2 2 2 2 2 2 2 2 2 2 2 2 2 2 2 2 2 2 2 2 2 2 2
left_child=1 5 -3 6 8 18 7 -4 16 -8 11 -11 13 23 15 -12 20 -14 19 -1 21 26 -23 -13 -6 -25 -2
right_child=4 2 3 -5 24 -7 9 -9 -10 10 14 12 17 -15 -16 -17 -18 -19 -20 -21 -22 22 -24 25 -26 -27 -28
leaf_value=-0.051472138786922542 0.048498751376337065 0.050575061650634162 -0.053273338662128501 0.04111507430832223 0.037159771258496441 0.04004861713028636 0.029158650834938005 0 0.001630135619393281 0.02800664198390105 0.018229382721334061 -0.0096351037761528355 -0.012488719736192776 0.034546868317329192 0.030823905345126121 -0.029979510232777437 0.012684102664002859 -0.066625645138403952 0.0082940133714912902 -0.0078063475267357912 0.053935873006394179 0.0087262519894455836 0.039599207540402422 -0.027396093989420972 0.055142728253329942 -0.060044678372090259 0.032248070946265424
leaf_weight=34.069364693015814 16.107088401913643 9.8311414271593076 12.551853291690351 12.0938623547554 15.117439240217207 3.0128173679113379 13.368944443762301 8.5345222130417806 17.209308132529259 8.810872480273245 6.7120220214128512 4.0327068231999794 3.9857716411352149 8.9555943012237531 17.387533813714981 7.2160729169845581 15.793770760297773 10.165139384567736 1.8122476190328587 5.131526753306388 17.076023310422897 20.442127212882042 15.03984475135803 4.4627129398286431 67.107291758060455 6.8351671174168587 16.381071478128433
leaf_count=662 32 18 143 27 41 7 54 58 46 33 24 27 17 33 38 37 40 62 8 28 36 52 30 30 169 43 37
internal_value=0.0172074 -0.00709349 0.00281228 -0.00127246 0.0388756 -0.0369548 -0.00617291 -0.0327261 0.0290644 0.000150347 -0.00502751 -0.0179501 -0.0290545 -0.0130377 0.014267 -0.00674758 0.0336353 -0.0535381 -0.0435491 -0.0462169 0.0372753 0.0322959 0.0226763 -0.0415544 0.0523828 -0.0508313 0.0416618
internal_weight=379.244 178.97 134.944 125.113 200.274 44.026 113.019 21.0864 118.049 91.9325 78.5636 47.248 38.4371 24.2862 31.3156 13.9281 100.84 14.1509 41.0131 39.2009 85.0462 67.9701 35.482 15.3306 82.2247 11.2979 32.4882
internal_count=1832 1349 644 626 483 705 599 201 273 398 344 245 212 133 99 61 227 79 698 690 187 151 82 100 210 73 69
is_linear=0
shrinkage=0.05


Tree=34
num_leaves=24
num_cat=0
split_feature=17 3 7 7 17 17 13 17 6 10 13 16 12 13 6 13 11 17 13 17 12 11 17
split_gain=61.2197 32.654 13.311 16.0946 8.18385 7.91302 7.32094 6.66462 6.44836 5.32919 6.77808 4.75644 6.93009 4.10542 3.33068 3.196 2.67268 2.63711 4.65629 4.0978 2.30438 1.64834 0.476711
threshold=7138422.1800428135 369.52871768574693 60.056636504821491 -169.49053771071416 92756.981147777813 1230.7686497085624 5638.7468735150005 133779.79456139603 11.965865505425436 0.40383738158620941 836.97576841500006 586.49484565638272 0.024698006655572462 3305.9707445800004 148.54935775271369 1585.5138092750001 8.5000000000000018 74264741.014955655 12308.638100800001 18391803.97041681 0.045490439713982346 10.500000000000002 17496448.02970507
decision_type=2 2 2 2 2 2 2 2 2 2 2 2 2 2 2 2 2 2 2 2 2 2 2
left_child=1 6 3 -3 5 -5 14 -6 -7 10 21 12 13 -12 -1 -11 -4 18 22 -20 -13 -9 -2
right_child=17 2 16 4 7 8 -8 9 -10 15 11 20 -14 -15 -16 -17 -18 -19 19 -21 -22 -23 -24
leaf_value=-0.051248378978950508 0.054224355528315719 0.052006771697605682 0.018654248070638368 0.020768921225413857 0.040275762941518162 0.0024886059723421882 0.0064770499184035315 -0.054341985514994057 -0.055857707022226977 0.028285954388013203 -0.020314810766540976 0.0017350523174177166 -0.050944763511221153 0.018166311887765803 0.012894033923947897 -0.0025591922494905524 0.047655435988675887 0.053516360820822319 -0.00058519654238641146 0.034045396559615686 0.031668342077951481 -0.015425064492968425 0.035558343152580447
leaf_weight=32.549980349838734 26.874409064650536 14.482830613851545 16.41375856846571 6.3788632974028614 10.57852481305599 6.3059185110032585 7.1029210537672034 6.8478592000901681 15.465950366109608 20.650855414569378 11.642605390399696 14.230822160840036 7.6112800613045684 14.320974960923193 1.6425890922546376 13.011634480208157 21.811552427709103 51.902861304581165 12.469514191150664 24.115517161786556 11.53636012971401 6.5526625514030457 17.713330164551735
leaf_count=662 61 28 46 29 38 48 33 35 171 52 57 38 62 51 7 43 48 132 34 58 25 26 48
internal_value=0.0166993 0.0015081 0.0100078 0.00353662 -0.00158874 -0.0253276 -0.0383688 0.00424761 -0.0393718 0.000277584 -0.0072786 0.000103176 -0.0120667 0.000611694 -0.0477461 0.0164892 0.036123 0.0437458 0.0368622 0.0224075 0.0160059 -0.038052 0.0478613
internal_weight=372.214 239.138 197.842 159.617 145.134 28.1507 41.2955 116.984 21.7719 106.405 72.7426 59.342 33.5749 25.9636 34.1926 33.6625 38.2253 133.076 81.1728 36.585 25.7672 13.4005 44.5877
internal_count=1832 1499 797 703 675 248 702 427 219 389 294 233 170 108 669 95 94 333 201 92 63 61 109
is_linear=0
shrinkage=0.05


Tree=35
num_leaves=26
num_cat=0
split_feature=2 7 5 2 16 7 13 6 7 13 10 6 6 16 10 10 13 7 7 8 7 6 5 10 13
split_gain=69.9062 15.4101 16.026 9.90936 8.30254 11.0691 6.60056 6.80339 5.32024 5.36414 8.99618 7.01012 5.96497 3.46052 3.05917 4.28433 2.89234 2.82395 6.34929 5.58835 2.55753 3.03869 0.520851 0.513379 0.431613
threshold=651.20846873000016 -169.49053771071416 264.70471206570295 2055.6192047600002 14.047703883579256 31.039923409821444 793.09383243000013 62.975852797644912 -29.863852837499952 4336.8304534450008 0.14514330862986405 104.28054200939076 292.05725153942836 43.199998677193612 0.048848959632227552 0.0044876444999591737 7186.2575602550014 60.056636504821491 -17.818156233749974 -0.032078124627828296 6.2380535471428944 24.653013548413906 1513.4602172122966 0.12164356121135451 5438.5411306750011
decision_type=2 2 2 2 2 2 2 2 2 2 2 2 2 2 2 2 2 2 2 2 2 2 2 2 2
left_child=1 -1 4 17 16 6 14 13 -4 10 -10 -12 -13 -8 15 -6 -3 18 22 -20 -16 -22 -2 -5 -19
right_child=3 2 8 23 5 -7 7 -9 9 -11 11 12 -14 -15 20 -17 -18 24 19 -21 21 -23 -24 -25 -26
leaf_value=0.046331199087568858 0.04097918689463096 -0.053085842533206917 -0.023559414530561755 0.035097661386218518 -0.039515146344167265 0.029474357907268045 0.012708091234862235 0.041006206490053612 -0.037642171328447972 0.032271283767710025 0.046555876635311924 -0.030887516418758559 0.01807278285812788 -0.048255816253924694 -0.053047478344149385 0.038691652868126293 -0.00984333728278226 0.049608765187941439 0.024141096518678504 -0.01054859596492776 0.018444426668783116 -0.042736668715948674 0.02370030771133004 0.053915152047541548 0.029538570059048083
leaf_weight=11.691802248358725 27.353638201951981 25.268492974340919 11.931077048182486 14.240584455430506 2.5605870261788395 10.994335629045962 3.1255010329186899 5.8828301355242729 10.119967423379419 20.101950094103813 10.225591719150541 9.2588201723992842 14.778332978487013 4.8433408662676811 19.10435647144914 2.4416054338216782 5.4928324818611136 14.377411574125292 24.632897704839706 20.185723125934601 3.1575464010238639 2.9889478087425232 13.907275915145872 62.585314132273197 14.456623226404188
leaf_count=23 58 460 46 41 41 49 24 27 46 51 28 51 47 49 296 20 29 31 56 57 29 33 35 169 36
internal_value=0.016184 -0.00673438 -0.0108487 0.0369311 -0.0255582 -0.0133977 -0.0246121 0.0035478 0.00573094 0.0115037 0.00148353 0.0139214 -0.00106686 -0.0250364 -0.0373663 -0.000422465 -0.0460748 0.027132 0.0219976 0.00851895 -0.0441996 -0.0124244 0.0359722 0.0509871 0.0410411
internal_weight=365.707 173.968 162.276 191.739 85.8604 55.0991 44.1047 13.8517 76.4157 64.4847 44.3827 34.2627 24.0372 7.96884 30.253 5.00219 30.7613 114.914 86.0795 44.8186 25.2509 6.14649 41.2609 76.8259 28.834
internal_count=1832 1349 1326 483 1057 568 519 100 269 223 172 126 98 73 419 61 489 273 206 113 358 62 93 210 67
is_linear=0
shrinkage=0.05


Tree=36
num_leaves=26
num_cat=0
split_feature=5 3 5 12 7 4 7 7 4 12 8 12 7 7 5 7 16 12 3 6 3 3 5 17 10
split_gain=63.0271 14.5933 13.7233 6.9608 6.69275 6.0346 5.98116 5.51788 5.39892 4.84055 4.5921 4.98596 3.76967 5.3888 4.60891 5.52518 6.93231 3.25921 3.19381 2.87755 1.8939 11.1755 1.71119 3.51588 0.105135
threshold=525.27609323202648 369.52871768574693 1964.5004558571475 1.0000000180025095e-35 88.061974857678692 75.871871710319255 -2.4411243958928552 -227.13284756789244 -1.7707985216128563 -0.20915138885917459 -0.054059161733450926 0.013309462947383943 31.039923409821444 8.7802245282143527 345.35810496000005 -65.819737422856932 38.787203277159179 -0.024715439821404676 7940.3579601671436 414.12080979262186 20.159250638798497 18.71637620246711 268.98443507475565 48671.599446487853 0.17090076615059938
decision_type=2 2 2 2 2 2 2 2 2 2 2 2 2 2 2 2 2 2 2 2 2 2 2 2 2
left_child=1 5 4 9 6 7 19 -1 -5 -3 -8 18 13 14 15 -11 -17 -4 -12 24 21 -9 23 -18 -2
right_child=2 3 17 8 -6 -7 10 20 -10 12 11 -13 -14 -15 -16 16 22 -19 -20 -21 -22 -23 -24 -25 -26
leaf_value=0.029999209046731142 0.027046784701978212 -0.035366756335791068 0.026763052953811779 -0.054240874396895802 0.043980819688154066 0.030860634349050672 0.023556226944907756 -0.046442398040321554 0.0013574210092967439 0.032119926784243795 -0.010430132112838759 -0.038304179609962019 0.027728909576260875 -0.037052999151843437 0.026219167319524464 0.027853785085261873 -0.046188284493689842 0.05368259259626991 0.023554969277055082 0.012441181169952622 -0.05231100734603919 0.07240353594909571 -0.054305743833308454 0 0.043031359526010893
leaf_weight=1.8756607174873341 12.388418868184091 5.6270391680300227 18.401322305202484 8.5271314494311827 27.29290460050106 2.420325130224227 18.293573707342148 8.0441454313695395 7.6577014289796344 7.5384613648056975 15.05869083106518 8.2746041566133481 19.31887574493885 6.4882213436067095 20.608175680041313 6.5420429036021259 5.7659075483679834 66.817078396677971 11.074012100696562 20.753881588578224 25.951946131885052 1.5584119707345969 4.2365535460412493 10.570537008345125 18.06009204685688
leaf_count=4 29 46 50 99 62 8 43 181 55 20 43 30 55 48 57 29 77 188 26 51 504 8 26 55 38
