tree
version=v4
num_class=1
num_tree_per_iteration=1
label_index=0
max_feature_idx=12
objective=tweedie
feature_names=Archetype_Cluster count_pre_release_tracks max_single_peak_volume total_pre_release_auc terminal_velocity composite_peak_momentum expected_week1_carryover catalog_momentum_slope norm_terminal_velocity norm_total_auc hype_concentration peak_proximity_weeks cannibalization_ratio
feature_infos=-1:0:3:1:2 [1:29] [0.00026666999999999999:75938.964484180004] [0.00013262239526756796:654410.08544880524] [-10784.996305467765:22223.337508151777] [0.0001656379929143584:75915.335017945734] [0:44446.675016303554] [-328556.35739127523:23155.724540375009] [-0.49693899633916105:0.5] [0.5:23.995481025867157] [0:1] [0:25] [-1:60952495825.179901]
tree_sizes=3247 3414 3409 3401 3410 3405 3417 3421 3408 3426 3410 3399 3400 3409 3414 3417 3389 3435 3416 3401 3402 3410 3405 3397 3407 3403 3406 3405 3390 3393 3425 3384 3441 3410 3415 3407 3400 3426 3405 3418 3410 3411 3424 3419 3454 3421 3427 3440 3411 3425 3406 3444 3439 3422 3441 3429 3461 3424 3430 3448 3443 3440 3447 3476 3447 3435 3420 3467 3416 3413 3441 3439 3419 3437 3425 3444 3487 3461 3449 3481 3443 3467 3434 3423 3451 3456 3457 3465 3473 3476 3452

Tree=0
num_leaves=31
num_cat=0
split_feature=2 2 5 7 7 2 2 7 7 10 3 4 7 7 3 5 7 7 5 4 3 2 2 10 2 6 3 7 7 7
split_gain=2.12006e+06 203265 144795 54135.5 44444.8 37429.9 35086 28031.6 23123.9 13067.4 12872.4 12099.7 10432.2 9998.55 9871.08 9099.44 8018.87 8883.55 9189.18 8000.69 6164.66 5302.83 4925.24 5402.57 4988.38 4538.46 4535.43 4287.11 4025.32 4736.91
threshold=235.57394962000004 56.970555615000009 607.56311981165788 78.40865427392859 25.575737457965911 2167.7929489100002 11.622944950000003 -64.039221834678486 -169.71983159524976 0.82952752421783227 103.25620893617959 3.6974381013791375 -9.5240590099285676 256.86659972900037 830.04546422931469 290.27145084627881 27.395984210357234 -169.71983159524976 222.03769902401527 6.8574052839758881 12967.728211174284 5612.7997537150013 425.99807035500004 0.99999999733365896 697.47135076000006 45.654886412665668 2114.6163827139439 5.3492202746428683 -15.819617083892821 5.6532903291428616
decision_type=2 2 2 2 2 2 2 2 2 2 2 2 2 2 2 2 2 2 2 2 2 2 2 2 2 2 2 2 2 2
left_child=1 3 9 6 7 13 12 14 -8 16 -6 -9 -1 20 -3 -11 17 -2 -19 28 22 -7 -4 24 -24 -17 -12 -14 -10 -30
right_child=2 4 5 -5 10 21 8 11 19 15 26 -13 27 -15 -16 25 -18 18 -20 -21 -22 -23 23 -25 -26 -27 -28 -29 29 -31
leaf_value=7.0316970204018467 7.1309811351253618 7.0676248333291962 7.1701760291772079 7.111465797105712 7.1696694721520595 7.1571362091011945 7.1233733681629223 7.0370032105516707 7.0373912165267214 7.0776566713247915 7.0861710117632972 7.0707628498299693 6.9869811876700112 7.1632186343524777 7.1379342509869357 7.0787103343225342 7.1170031621788254 7.1453921034888728 7.0677595834586526 7.0474792613413566 7.0978179083756787 7.1701643820158711 7.0932744800460314 7.1450932067033461 7.1297687110155863 7.1306230465750602 7.1431875456700382 7.0158495505182481 7.0057534205827796 7.0323080212805715
leaf_weight=14446.233211517334 7217.7355270385742 9143.9394569396973 9425.415922164917 11173.681127548218 7780.9111881256104 143808.82174110413 4964.2890682220459 135891.08721160889 13357.523330688477 12535.106122970581 20437.042150497437 32984.096471786499 297987.30264663696 31267.793712615967 10992.32105255127 4667.8748817443848 16413.072040557861 4061.559196472168 61751.28639793396 16422.880540847778 11900.77455329895 171191.6163482666 10428.664096832275 58576.976356506348 91833.775724411011 42963.853614807129 4204.7889442443848 13451.07201385498 144582.60103034973 19009.727794647217
leaf_count=609 96 290 18 212 16 820 77 5519 541 361 538 1016 16434 123 124 133 285 37 1956 617 273 328 253 539 1254 576 41 629 7185 798
internal_value=7.07676 7.01923 7.14097 7.00257 7.05952 7.15326 7.00025 7.05025 7.01683 7.09754 7.11361 7.0436 6.99015 7.1371 7.10601 7.11556 7.08542 7.07833 7.07255 7.01409 7.13261 7.16422 7.13504 7.13298 7.12605 7.12554 7.0959 6.98823 7.01099 7.00884
internal_weight=1.43487e+06 756829 678044 535395 221434 528434 524222 189011 198337 149610 32422.7 168875 325885 213433 20136.3 60166.8 89443.7 73030.6 65812.8 193373 182166 315000 170265 160839 102262 47631.7 24641.8 311438 176950 163592
internal_count=41698 34646 7052 27102 7544 3608 26890 6949 9218 3444 595 6535 17672 2460 414 1070 2374 2089 1993 9141 2337 1148 2064 2046 1507 709 579 17063 8524 7983
is_linear=0
shrinkage=1


Tree=1
num_leaves=31
num_cat=0
split_feature=5 2 5 7 2 7 5 7 7 4 8 10 8 7 7 7 4 7 7 7 6 2 2 10 7 11 7 2 11 7
split_gain=1.96431e+06 210091 124774 51037.7 38576.7 36160.2 36033.6 24484.2 21713.6 18421.3 14268.5 13999.5 12686.1 10131.6 8946.03 8894.73 8591.69 6954.42 6585.59 6466.99 5803.9 5794.98 5724.84 7298.66 4682.44 4221.75 4158.24 4122.71 3783.6 3583.35
threshold=248.41193433043671 56.970555615000009 607.56311981165788 44.502064286249968 2167.7929489100002 21.145981757666657 8.1257631459844166 -59.932823727607065 -169.71983159524976 3.1775393303636483 0.25195221878032203 0.82952752421783227 0.017272257820691774 256.86659972900037 27.395984210357234 -140.83003139842887 6.8574052839758881 -19.331418783035655 -12.725275096928341 150.98291618100066 45.654886412665668 5612.7997537150013 425.99807035500004 0.99999999733365896 -236.92049103500062 8.5000000000000018 5.6532903291428616 697.47135076000006 22.500000000000004 209.23891868717871
decision_type=2 2 2 2 2 2 2 2 2 2 2 2 2 2 2 2 2 2 2 2 2 2 2 2 2 2 2 2 2 2
left_child=1 3 11 6 13 7 17 24 -8 -9 28 14 -11 22 15 -2 18 -1 -10 -5 -13 -6 -4 27 25 -3 -20 -24 29 -7
right_child=2 5 4 19 21 10 8 9 16 12 -12 20 -14 -15 -16 -17 -18 -19 26 -21 -22 -23 23 -25 -26 -27 -28 -29 -30 -31
leaf_value=-0.039329783556444856 0.049051918158953642 0.014776006504077861 0.092797219148708351 -0.013912258445229623 0.078909081174119725 -0.00030991316952632363 0.041071083949223597 -0.038832569785887637 -0.036235488802834462 0.087278125422451752 0.094987912617560663 -0.0041740751584303905 -0.009144298265279769 0.085327706394294794 0.042110984921534277 -0.0065125475337863758 -0.028311211605296371 -0.088906472002233172 -0.070974762562299759 0.052599374834413043 0.046945399308978564 0.092784072873801221 0.014939146564782622 0.066471175887870299 0.0067403289693347707 0.084066558869113017 -0.046292735314329141 0.047635001527810895 0.078997391774354636 0.042631869956902581
leaf_weight=7268.1058101654053 8210.4452838897705 3893.3926620483398 9024.2300243377686 7302.7462520599365 139278.19934654236 20089.650856018066 5117.0086784362793 135424.73803901672 17229.059188842773 3778.6482753753662 6976.7756099700928 6279.8560066223145 34995.882246017456 30127.91100692749 15836.189338684082 58612.024593353271 16458.90371131897 268024.54078483582 171598.26105690002 7314.0591201782227 47915.252130508423 163907.57654571533 10647.204360961914 57243.198194503784 12780.164167404175 5050.2143745422363 18958.46858215332 102218.17435646057 2152.074291229248 6406.5310764312744
leaf_count=301 119 96 18 243 820 583 86 5569 697 14 10 190 1113 123 261 1823 623 15378 8850 99 723 328 261 539 345 23 825 1519 13 106
internal_value=1.1267e-06 -0.055073 0.0636861 -0.0727345 0.0750131 -0.0154649 -0.0754023 -0.0238905 -0.0607642 -0.0301324 0.0308717 0.0212723 0.000254121 0.0584997 0.00832312 0.000315189 -0.0630882 -0.0875977 -0.0658427 0.0193703 0.0410219 0.0864104 0.0539871 0.0519276 0.026161 0.0539081 -0.0685194 0.0445508 0.0152544 0.010074
internal_weight=1.40012e+06 750819 649300 519271 512446 231548 504654 195923 229362 174199 35625 136854 38774.5 209261 82658.7 66822.5 224245 275293 207786 14616.8 54195.1 303186 179133 170109 21723.8 8943.61 190557 112865 28648.3 26496.2
internal_count=41698 34974 6724 27102 3608 7872 26760 7160 11081 6696 712 3116 1127 2460 2203 1942 10995 15679 10372 342 913 1148 2337 2319 464 119 9675 1780 702 689
is_linear=0
shrinkage=0.05


Tree=2
num_leaves=31
num_cat=0
split_feature=2 2 5 7 2 7 7 7 6 2 8 10 7 4 3 5 7 7 5 2 3 2 5 10 3 2 2 5 3 3
split_gain=1.8185e+06 190214 134951 51671.8 39609.8 37207.1 34433.9 20272.9 15588.1 13463.8 13423.5 11050.6 10224.8 9074.01 8942.41 8009.56 6621.63 7486.07 8039.05 6304.05 5970.17 5144.54 5348.38 5139.26 5090.1 4950.38 4643.38 4575.72 4493.82 4247.43
threshold=235.57394962000004 27.426018205000002 607.56311981165788 25.575737457965911 2167.7929489100002 71.089095311607238 -64.039221834678486 -36.312129737857084 55.513933890211895 6.0401546050000006 0.25195221878032203 0.82952752421783227 256.86659972900037 6.8574052839758881 534.57270524660464 290.27145084627881 27.395984210357234 -169.71983159524976 222.03769902401527 5612.7997537150013 12967.728211174284 425.99807035500004 904.16547058363506 0.90540793375659201 922.48335565146965 56.970555615000009 90.352527865000013 173.40174646696752 124.83624095822653 2114.6163827139439
decision_type=2 2 2 2 2 2 2 2 2 2 2 2 2 2 2 2 2 2 2 2 2 2 2 2 2 2 2 2 2 2
left_child=1 5 11 6 12 7 14 28 25 -9 29 16 20 -11 -3 -13 17 -2 -19 -6 21 -4 24 27 -23 -8 -16 -10 -1 -5
right_child=2 3 4 10 19 -7 8 9 23 13 -12 15 -14 -15 26 -17 -18 18 -20 -21 -22 22 -24 -25 -26 -27 -28 -29 -30 -31
leaf_value=-0.031033473803572183 0.050498347469431187 -0.012759423333175974 0.092124979901570994 0.0086280952770761352 0.077373334573572775 0.031599343140513048 -0.054740026315943817 -0.088529357185512136 -0.041503425719383195 -0.072125036722540933 0.093513535714210574 0.00030994682504586476 0.084124686096657297 -0.012355712771078275 0.080693105450438299 0.04536135988312967 0.036842404099300355 0.066172165837637464 -0.0081926044172321334 0.092110214294145454 0.017788586323519231 0.07381487654364613 0.059243173565331243 0.00022663473570033461 0.032864072772698046 -0.038294372116113785 0.023473860760590642 -0.0057691495529079845 0.041887563956985792 0.063545815921621882
leaf_weight=8327.3092670440674 7024.197452545166 9527.4858112335205 8645.2079200744629 27576.828588485718 135049.28186225891 7751.2982387542725 81786.42046546936 233009.84068202972 24707.958620071411 151247.00816345215 6707.4133148193359 12521.530876159668 29058.183738708496 6629.1154823303223 6564.2967338562012 46519.398464202881 16152.90726852417 3860.72385597229 61683.357439041138 157026.10819244385 11820.876726150513 9131.1044216156006 101855.12214660645 25877.07931137085 44925.787200927734 103923.8665561676 7711.9870910644531 14054.718320846558 2829.9302082061768 4035.2511615753174
leaf_count=328 96 312 18 729 820 151 3917 13942 1054 8145 12 361 123 223 36 709 285 37 1956 328 273 65 1142 760 839 4333 167 447 49 41
internal_value=2.34373e-06 -0.0544955 0.0610029 -0.0251109 0.0734642 -0.0769015 -0.0327124 -0.0789935 -0.0381765 -0.0808904 0.0292733 0.0190455 0.0566416 -0.0696155 0.0247534 0.035807 0.0078909 0.00144612 -0.0038113 0.0852965 0.0521133 0.0545788 0.0524963 -0.0170284 0.0397827 -0.0455373 0.0497877 -0.0285474 -0.0125352 0.0156402
internal_weight=1.36754e+06 722268 645274 312473 497512 409795 274154 402043 250350 390886 38319.5 147762 205436 157876 23803.8 59040.9 88721.2 72568.3 65544.1 292075 176378 164557 155912 64639.8 54056.9 185710 14276.3 38762.7 11157.2 31612.1
internal_count=41698 34646 7052 11808 3608 22838 11026 22687 10511 22310 782 3444 2460 8368 515 1070 2374 2089 1993 1148 2337 2064 2046 2261 904 8250 203 1501 377 770
is_linear=0
shrinkage=0.05


Tree=3
num_leaves=31
num_cat=0
split_feature=5 5 5 7 5 7 7 5 7 5 3 3 3 7 11 7 7 10 5 4 7 7 3 7 5 7 12 5 3 3
split_gain=1.68265e+06 236296 81223.8 47803.4 38530.4 27605 27907.5 23012.8 18391.2 14329.3 13007.5 11394 10182.9 9824.46 9450.97 7330.82 7325.42 7323.65 7118.83 6904.55 7271.46 5197.37 5196.19 4503.47 4453.03 4256.15 3929.64 5837.22 4798.15 3893
threshold=333.01219283500001 56.062729058560272 2143.7987711841383 44.502064286249968 8.1257631459844166 25.575737457965911 -59.932823727607065 607.56311981165788 -169.71983159524976 152.65289111680383 103.25620893617959 674.75586713031555 830.04546422931469 1268.6276730725363 3.5000000000000004 -19.331418783035655 53.882265254464201 0.86654828610691814 5498.5473454337671 5.894786427027463 -12.725275096928341 150.98291618100066 12967.728211174284 5.6532903291428616 8.4057423472653046 -551.90989780698135 0.13318118126169012 904.16547058363506 922.48335565146965 555.97491382334636
decision_type=2 2 2 2 2 2 2 2 2 2 2 2 2 2 2 2 2 2 2 2 2 2 2 2 2 2 2 2 2 2
left_child=1 3 7 4 15 6 12 11 -6 17 -7 -2 -3 22 -11 -1 -13 -8 -4 20 24 -5 26 -22 -10 -14 27 28 -9 -12
right_child=2 5 18 21 8 10 9 13 19 14 29 16 25 -15 -16 -17 -18 -19 -20 -21 23 -23 -24 -25 -26 -27 -28 -29 -30 -31
leaf_value=-0.035512233743480268 0.0565877056874204 -0.006788178607062924 0.075257472726384264 -0.010125174667146526 0.038618782085310527 0.093742634038017109 -0.043665096296456825 0.073305807111336857 0.091000095998139796 0.010094019982415183 -0.011234286646799457 0.0085622740335522876 0.088637094661792939 0.092834238903522437 -0.023194968977446221 -0.086922407374476596 0.051700045730399879 -0.016590664448604433 0.091324429683514313 -0.030486924928507103 -0.067550677140194665 0.048995024569930497 0.021085038142944917 -0.041308711523709081 -0.036072050888645242 0.035520923364490038 0.082827273455348238 0.059392704756240026 0.033221274928149691 0.027224821906713305
leaf_weight=7135.8226318359375 22620.97717666626 11656.372634887695 128137.60917854309 7607.2895097732544 4920.7084255218506 6380.939962387085 81941.190019607544 8867.7755432128906 718.89898109436035 37911.771312713623 9535.3025798797607 58641.232980728149 5822.8874034881592 16370.969537734985 48720.136211395264 248089.80920505524 11825.388217926025 35933.007664680481 149373.90659141541 19168.521423339844 161308.64715003967 7268.6361217498779 12339.02735710144 18200.785081863403 16314.571040153503 10710.245616912842 11565.09112739563 109585.55828857422 47231.041423797607 21225.010751724243
leaf_count=301 269 361 820 247 85 11 3629 62 2 999 303 1543 18 30 1809 15378 156 1261 328 767 8727 102 270 806 687 193 53 1185 860 436
internal_value=3.57452e-06 -0.0488315 0.0644246 -0.0694975 -0.0722566 -0.0112476 -0.0176368 0.0463459 -0.0569536 -0.0240656 0.0287813 0.0257139 0.029001 0.0556707 -0.00862707 -0.0854852 0.0158022 -0.0354119 0.083906 -0.0591339 -0.0619276 0.018763 0.0524611 -0.0648902 -0.0307036 0.0542327 0.0546452 0.0526775 0.0395589 0.0153029
internal_weight=1.33713e+06 760571 576559 490734 475858 269837 232696 299047 220632 204506 37141.3 93087.6 28189.5 205959 86631.9 255226 70466.6 117874 277512 215711 196543 14875.9 189588 179509 17033.5 16533.1 177249 165684 56098.8 30760.3
internal_count=41698 36122 5576 27102 26753 9020 8270 4428 11074 7698 750 1968 572 2460 2808 15679 1699 4890 1148 10989 10222 349 2430 9533 689 211 2160 2107 922 739
is_linear=0
shrinkage=0.05


Tree=4
num_leaves=31
num_cat=0
split_feature=5 2 2 2 7 7 7 5 7 5 3 9 9 7 4 9 7 7 2 7 7 10 9 10 2 9 2 7 9 4
split_gain=1.5549e+06 227792 85426.2 44500.7 31400 25582.1 24627.2 20283.1 17970.3 12753.2 12651.6 12570.6 10799 10484 9461 8401.18 7647.64 7347.53 7340.53 6863.82 6671.49 6355.74 8019.45 6254.26 5643.43 5821.78 5184.67 5041.17 4506.13 4402.33
threshold=333.01219283500001 56.970555615000009 2167.7929489100002 5.6820016350000015 98.384341065357276 25.575737457965911 -59.932823727607065 607.56311981165788 -12.725275096928341 152.65289111680383 103.25620893617959 1.545281850260589 10.452512260042658 256.86659972900037 6.8574052839758881 13.091355523563847 6.4048173678571958 53.882265254464201 5612.7997537150013 -169.71983159524976 15.733143102857396 0.45525314498860175 8.3087132658165626 0.86654828610691814 425.99807035500004 2.7781273429817843 25.920827135000003 -23.428927610000404 20.398509143594936 -113.1552681341584
decision_type=2 2 2 2 2 2 2 2 2 2 2 2 2 2 2 2 2 2 2 2 2 2 2 2 2 2 2 2 2 2
left_child=1 3 7 20 8 6 12 11 19 23 -7 -2 -3 15 16 24 26 -13 -4 -5 27 -11 29 -8 -9 -26 -10 -1 -18 -23
right_child=2 5 18 4 -6 10 9 13 14 21 -12 17 -14 -15 -16 -17 28 -19 -20 -21 -22 22 -24 -25 25 -27 -28 -29 -30 -31
leaf_value=-0.036005585538318778 0.056826009112446431 0.0078528513916383148 0.074136465591719533 0.035029156202483765 0.043041688061074494 0.090823272909740682 -0.041419955403550784 0.09181729669714489 -0.073500151159525282 -0.021674116571403629 0.014418692584960256 0.006687504283006092 0.077040483597852219 0.081771185218122794 -0.024600679680727749 -0.0043198129209688386 -0.042016773911899646 0.049814631232073962 0.090602064991156361 -0.030099981898048911 -0.02807015417309329 0.057099262512729856 0.0967755665372447 -0.016711086938079611 0.059932359601904878 0.040365174362903669 -0.056032578936704436 -0.087419370591745635 0.056325113227875478 -0.0044169852249358182
leaf_weight=4882.8281135559082 22778.153635025024 19977.23078918457 127490.34920692444 5151.3942680358887 8046.4691848754883 6583.5491371154785 79701.821188926697 7930.4557647705078 126448.39019775391 43414.749786376953 30590.171409606934 57873.893548965454 7857.6537322998047 27176.056838989258 16059.933048248291 7252.6182727813721 20796.867560386658 11907.279750823975 144428.68455123901 18827.182855606079 5050.0329093933105 3151.0528945922852 2275.1733055114746 37739.211517333984 65521.992322921753 90583.447710037231 64011.237104415894 206287.59479904175 1233.0642862319946 37611.355369567871
leaf_count=210 262 526 820 93 126 16 3547 16 7405 1608 738 1547 49 123 619 207 940 159 328 773 207 38 2 1338 680 1434 3311 13401 17 1158
internal_value=4.51942e-06 -0.04735 0.0627322 -0.0681034 -0.0541883 -0.0105517 -0.0167286 0.0439046 -0.0572866 -0.0227512 0.0279523 0.0245754 0.0273864 0.0529191 -0.0616069 0.0483411 -0.0644037 0.0140473 0.0828824 -0.016107 -0.0848725 -0.0081763 0.00543988 -0.0334801 0.0506695 0.0485785 -0.0676299 -0.0862307 -0.0365098 0.000339561
internal_weight=1.30864e+06 745697 562943 476795 260575 268902 231728 291024 252528 203893 37173.7 92559.3 27834.9 198465 228549 171289 212490 69781.2 271919 23978.6 216220 86452.3 43037.6 117441 164036 156105 190460 211170 22029.9 40762.4
internal_count=41698 36122 5576 27102 13284 9020 8266 4428 13158 7691 754 1968 575 2460 12292 2337 11673 1706 1148 866 13818 2806 1198 4885 2130 2114 10716 13611 957 1196
is_linear=0
shrinkage=0.05


Tree=5
num_leaves=31
num_cat=0
split_feature=5 5 5 7 7 7 5 5 5 8 9 9 7 7 9 5 4 11 7 7 9 9 9 11 7 9 5 8 8 3
split_gain=1.43555e+06 213776 80624.3 36284.6 29289.7 29758.5 26943.1 20461.2 19068.9 12928 12056.7 11679.4 10221.2 10119.9 8573.45 8201.6 8030.63 7947.98 7518.54 6766.57 5812 5233.43 5432.06 5137.62 4326.65 4230.78 4105.9 3817.51 4099.56 3639.94
threshold=333.01219283500001 35.766230320211825 2143.7987711841383 44.502064286249968 25.575737457965911 -59.932823727607065 8.1257631459844166 607.56311981165788 152.65289111680383 0.25195221878032203 10.452512260042658 1.545281850260589 1268.6276730725363 -5.1652215641964014 13.091355523563847 5498.5473454337671 6.8574052839758881 3.5000000000000004 -15.019432035357115 23.813182892142645 3.9644249345242808 12.962542005204424 2.3627081547207793 3.5000000000000004 -169.71983159524976 1.545281850260589 59.345222742248716 -0.027294307708118946 0.027940881722802974 12967.728211174284
decision_type=2 2 2 2 2 2 2 2 2 2 2 2 2 2 2 2 2 2 2 2 2 2 2 2 2 2 2 2 2 2
left_child=1 3 7 6 5 10 18 11 20 27 -3 -2 14 24 21 29 -15 -10 -1 -13 26 22 -9 -5 -8 -26 -7 -6 -29 -4
right_child=2 4 15 23 9 8 13 12 17 -11 -12 19 -14 16 -16 -17 -18 -19 -20 -21 -22 -23 -24 -25 25 -27 -28 28 -30 -31
leaf_value=-0.035671174929540167 0.054871314851409649 0.0051835885432157261 0.078367581675062345 -0.025782453571415606 -0.0059228199951977872 -0.043832449341326546 0.032730966984270173 0.06089784297373714 0.0093886088686574668 0.092733687315621038 0.074173938346181564 0.0051752087114992715 0.091529593706636506 -0.065074508204789924 -0.0046150076731651096 0.089688344103121098 -0.018374667853540434 -0.021210664264918012 -0.084799192489267997 0.042999362053218443 -0.045646955514373727 0.095210096219338999 0.042411297271738951 0.043363858796343677 0.019334231270759082 -0.043803397845068447 -0.01909689786556663 0.034688865216976908 -0.044311220694021353 0.060331885175646222
leaf_weight=8063.9157552719116 22419.505933761597 21763.50121307373 77461.039009094238 4276.5312871932983 15534.063111305237 24471.291326522827 2785.9851570129395 63110.344579696655 37731.212057113647 5870.8643341064453 8930.9190654754639 54527.000282287598 15105.977296829224 126879.49936962128 7231.6232376098633 137583.04757118225 9927.2736711502075 48496.356594085693 229398.01998138428 15097.480108261108 87683.747034072876 6429.7671756744385 107350.98282241821 7220.9150104522705 3152.6256513595581 16730.501993179321 53365.339004516602 17618.763127326965 1810.0628032684326 43832.315280914307
leaf_count=358 262 589 402 156 466 1154 51 617 999 11 61 1479 30 7228 207 328 367 1809 15321 227 4175 8 1598 118 83 796 1984 323 73 418
internal_value=5.38921e-06 -0.0458752 0.0610276 -0.0699191 -0.0154974 -0.0212199 -0.0724554 0.0429823 -0.026887 0.024084 0.0252591 0.0234849 0.0519899 -0.0565588 0.0487454 0.081331 -0.061686 -0.00782111 -0.083131 0.0133776 -0.0368192 0.0509269 0.049256 0.0176441 -0.0256149 -0.0337917 -0.0268741 0.012554 0.0273268 0.0718505
internal_weight=1.28186e+06 731711 550149 408435 323276 282442 396938 291273 251748 40833.8 30694.4 92044 199229 159476 184123 258876 136807 86227.6 237462 69624.5 165520 176891 170461 11497.4 22669.1 19883.1 77836.6 34962.9 19428.8 121293
internal_count=41698 36122 5576 24478 11644 10771 24204 4428 10121 873 650 1968 2460 8525 2430 1148 7595 2808 15679 1706 7313 2223 2215 274 930 879 3138 862 396 820
is_linear=0
shrinkage=0.05


Tree=6
num_leaves=31
num_cat=0
split_feature=3 6 3 9 3 7 7 7 7 9 6 9 9 9 3 4 4 4 7 7 6 7 7 9 7 7 9 7 3 9
split_gain=1.1616e+06 148571 121067 101727 44743.4 28871.2 24111.1 26821.4 23530.9 19270.7 17668.1 16272.9 14204.7 12970.7 12106.1 10069.1 9327.65 9047.26 8063.67 8061.56 10111.6 8029.55 7312.68 6989.66 6340.13 5997.61 6935.97 6202.89 5889.76 5662.98
threshold=608.81283456007338 43.699715733087807 7064.9815779555774 3.0937314998840009 18.806816912532899 -187.26015368428531 16.675302339464618 -13.471727171249956 29.676858818285911 2.6251130216925689 171.79393957741144 13.724618373179412 3.4613609874706825 1.545281850260589 1503.0764818735736 -452.57079999662949 3.1775393303636483 -28.080086836076145 -11.580882984107093 25.575737457965911 282.27152183514016 -17.291913341749954 150.98291618100066 8.3822418248769797 5.0707833937500091 256.86659972900037 5.4858209833475344 -38.353877837142818 151.34238163163587 8.1061235081776761
decision_type=2 2 2 2 2 2 2 2 2 2 2 2 2 2 2 2 2 2 2 2 2 2 2 2 2 2 2 2 2 2
left_child=1 4 3 13 16 -5 7 -6 10 -9 17 15 19 -2 -15 -4 18 -7 -1 20 -3 -19 -8 29 -20 26 -17 -28 -11 -12
right_child=2 12 11 5 6 8 22 9 -10 28 23 -13 -14 14 -16 25 -18 21 24 -21 -22 -23 -24 -25 -26 -27 27 -29 -30 -31
leaf_value=-0.029353349863734876 0.073591161696095628 0.0047345385226634836 0.089635725245414133 0.059913749495541985 -0.014719630102863862 0.020278255162261345 -0.019910938849386703 -0.035057572006188829 0.036045227977529661 -0.072990686201227672 0.019942921777689825 0.02139061146076042 -0.031833871185271242 0.017349770705462581 0.058929503659181717 0.075901755670241267 -0.032782950061403575 0.0046728341416163105 -0.086253033494855455 0.067671504271333963 0.054554084522075136 -0.030463623261470441 0.037540863673054606 -0.017414678611899419 -0.040257668638957154 0.088126607445009442 0.072139441275669389 0.042434946854451004 -0.055537513552190942 0.076783923415221556
leaf_weight=7000.587516784668 78955.941610336304 45508.402340888977 81728.596885681152 23108.305082321167 40261.621743202209 13471.55156993866 20584.88646697998 66204.864262580872 38670.869039535522 122994.73519420624 34463.051423072815 14878.28631401062 14633.315925598145 26460.230798721313 51736.453590393066 64389.689012527466 10208.09165763855 20386.608951568604 161562.68783950806 8619.0436344146729 13120.933938980103 80314.021935462952 7576.4544219970703 11306.765439033508 7859.6610374450684 31158.188369750977 28063.905927658081 47045.395107269287 79678.883836746216 5019.5817642211914
leaf_count=306 500 1280 190 241 1451 305 770 2984 654 7789 751 310 620 601 519 361 459 574 11353 78 149 3308 127 386 388 85 191 667 4268 33
internal_value=6.44512e-06 -0.0498256 0.0463685 0.0283794 -0.0596143 0.00695148 -0.0487452 -0.0527799 0.000941006 -0.058479 -0.00728839 0.0722074 0.0128085 0.0592955 0.0448602 0.0752029 -0.0792577 -0.0182023 -0.0819466 0.0225231 0.0158847 -0.0233503 -0.00445329 0.0172452 -0.0841195 0.0682905 0.0638593 0.0535346 -0.0661295 0.0271712
internal_weight=1.25697e+06 605814 651157 383893 523932 226741 337301 309140 203632 268878 164962 267264 81881.7 157153 78196.7 252386 186631 114172 176423 67248.4 58629.3 100701 28161.3 50789.4 169422 170657 139499 75109.3 202674 39482.6
internal_count=41698 32022 9676 7872 29895 6252 17389 16492 6011 15041 5357 1804 2127 1620 1120 1494 12506 4187 12047 1507 1429 3882 897 1170 11741 1304 1219 858 12057 784
is_linear=0
shrinkage=0.05


Tree=7
num_leaves=31
num_cat=1
split_feature=5 2 2 6 7 2 7 7 7 7 7 3 7 2 5 3 5 4 11 2 0 11 2 7 6 6 5 3 11 3
split_gain=1.22337e+06 208745 75733.2 31865.2 28724.5 20018 15516.6 13668.5 15900.8 12570.8 14286.2 10878.8 10470.6 8907.66 8559.77 9975.39 8456.25 8252.11 7848.95 6347.51 7129.64 5653.13 5012.47 4905.82 4599.8 4187.33 3966.59 4333.37 3954.8 3797.81
threshold=363.7767797759613 27.426018205000002 2167.7929489100002 43.699715733087807 71.089095311607238 6.0401546050000006 256.86659972900037 27.395984210357234 -13.471727171249956 -236.92049103500062 21.145981757666657 103.25620893617959 -36.312129737857084 5612.7997537150013 607.56311981165788 674.75586713031555 126.16532937921953 8.0508878635549497 3.5000000000000004 425.99807035500004 0 8.5000000000000018 78.678874975000014 -23.428927610000404 17.646329744336672 49.408921280925476 904.16547058363506 922.48335565146965 12.500000000000002 12967.728211174284
decision_type=2 2 2 2 2 2 2 2 2 2 2 2 2 2 2 2 2 2 2 2 1 2 2 2 2 2 2 2 2 2
left_child=1 4 6 7 5 23 14 8 -3 21 16 -12 -7 29 15 -2 -11 -14 25 -16 -21 -5 -10 -1 -19 -18 27 -22 -9 -4
right_child=2 3 13 9 -6 12 -8 28 22 10 11 -13 17 -15 19 -17 18 24 -20 20 26 -23 -24 -25 -26 -27 -28 -29 -30 -31
leaf_value=-0.033308416491600726 0.05612661497127959 -0.0035062525508986874 0.075824224954284036 0.0057499963687151351 0.027459847702207253 0.00058316231249160217 0.075822232950084847 -0.0091891727988654796 -0.047127193071455638 -0.027417140957747273 0.097446331614751816 0.015947132962412194 -0.063007189174298692 0.088014144873426375 0.088909326932719551 0.01257350561848157 0.073064640087256882 0.056195666976985914 -0.017446082788945338 0.015222460556560581 0.065201341527336504 0.092202873426881979 -0.028924158988771334 -0.083283416891588635 -0.041712675995046369 0.01049045188405525 0.050936735742126052 0.024546984761839068 0.034314063848588906 0.057205822574869218
leaf_weight=5041.4575080871582 16984.697957992554 38619.167057991028 74542.485332489014 2918.3643836975098 7478.3604011535645 7323.7486095428467 27856.975021362305 11769.399391174316 88776.13996887207 40130.071765899658 5182.9913158416748 19489.184057235718 136293.14924621582 128517.14953422546 7133.2111320495605 58182.990396499634 2853.9115962982178 2229.2845411300659 33724.72803401947 23443.116920471191 8124.8009700775146 5371.28684425354 65902.06000328064 192502.75666046143 2594.8248615264893 42104.30242061615 92218.181381225586 33922.098314285278 9392.4417743682861 43337.710149765015
leaf_count=223 185 1231 401 74 151 228 155 368 4562 1649 3 453 8220 328 18 1423 22 31 1230 517 65 10 2750 13868 117 1091 1091 646 169 419
internal_value=6.98547e-06 -0.0420768 0.0589021 -0.0156225 -0.0694868 -0.0715824 0.0404992 -0.0280297 -0.0322063 0.00190907 -0.00154981 0.0330715 -0.0577073 0.0789082 0.0363991 0.0224153 -0.00873937 -0.0607325 0.000786881 0.0427755 0.0406883 0.0617722 -0.0393719 -0.0820082 0.00353329 0.0144643 0.04513 0.0324042 0.0101197 0.0689799
internal_weight=1.23396e+06 719698 514263 366234 353464 345985 267866 214459 193297 151775 143485 24672.2 148441 246397 240009 75167.7 118813 141117 78682.9 164841 157708 8289.65 154678 197544 4824.11 44958.2 134265 42046.9 21161.8 117880
internal_count=41698 36450 5248 13612 22838 22687 4100 9080 8543 4532 4448 456 8596 1148 3945 1608 3992 8368 2343 2337 2319 84 7312 14091 148 1113 1802 711 537 820
cat_boundaries=0 1
cat_threshold=2
is_linear=0
shrinkage=0.05


Tree=8
num_leaves=31
num_cat=0
split_feature=2 2 2 2 2 2 2 2 8 3 4 4 9 9 9 2 8 8 4 10 9 2 9 9 4 9 4 8 10 2
split_gain=1.12413e+06 150383 114555 26053.2 24201.8 15180.6 11387.1 10177.2 14025.5 8834.88 7799.42 6318 6111.71 5042.9 4060.34 4059.92 3795.66 4743.34 7897.56 3771.04 8431.81 3252.35 3237.74 4204.2 3182.29 3081.86 3005.98 2951.43 2815.94 2749.79
threshold=235.57394962000004 27.426018205000002 1910.9231420900003 697.47135076000006 5.6820016350000015 56.970555615000009 5612.7997537150013 58.627485025000006 0.18098375369351069 8835.3978580775893 125.91318801559727 8.0508878635549497 13.724618373179412 13.570466594192155 4.7225616620082347 78.678874975000014 -0.038599014771087965 -0.032888481002382515 -3.1568875953166411 0.44622260024728516 8.1061235081776761 19.251890870000004 14.043326222090291 14.423054429582745 -2.1141978677132793 3.0937314998840009 -2.0128018291286378 -0.028372833019974324 0.42599937818532857 144.94062990500001
decision_type=2 2 2 2 2 2 2 2 2 2 2 2 2 2 2 2 2 2 2 2 2 2 2 2 2 2 2 2 2 2
left_child=1 4 3 9 -1 -3 14 8 -7 10 19 -6 13 25 -4 28 29 18 -18 -2 -21 -13 -19 -24 -25 -5 -26 -27 -9 -17
right_child=2 5 6 12 11 7 -8 15 -10 -11 -12 21 -14 -15 -16 16 17 22 -20 20 -22 -23 23 24 26 27 -28 -29 -30 -31
leaf_value=-0.07990332690102625 0.0030592912484150771 -0.036783358231460686 0.072007211508266708 0.054054929721729456 -0.055055164034300441 -0.044198673463108719 0.086983212412780911 -0.04234868185031275 0.089684561143791863 0.07134308733684544 0.047644181330724185 0.043993843528343762 -0.011552265055482342 0.094360102729706422 0.05327737343750466 -0.029816065170583002 -0.014774523858351558 -0.011949581709274022 0.073123630458019243 0.014833995882966267 0.087270941070626218 -0.038593396078230278 0.073759107445259806 -0.035775518118414083 0.087803183463176643 0.046325679420164481 0.00011448184150915652 0.025881402702852011 -0.015347579694911179 -0.0091586604684733338
leaf_weight=188317.31968593597 73249.880332946777 87993.595105171204 87647.737422943115 63421.239414215088 151118.02830028534 3053.1962089538574 123662.18200111389 19365.056303024292 5440.72190284729 7196.151668548584 16102.592094421387 2424.4082660675049 4482.0104751586914 5574.6726856231689 43226.966197967529 34819.013798713684 5307.4302215576172 77704.578036308289 4926.9135293960571 62880.716878890991 4290.6584854125977 2343.338134765625 2528.1344881057739 3524.3008165359497 1420.4791097640991 50668.98811340332 3128.2107067108154 27102.348440170288 19263.641417503357 29984.287223815918
leaf_count=13818 2041 4264 532 676 8872 147 328 922 17 56 205 43 134 8 452 1469 195 2739 43 1455 15 105 20 152 5 659 99 491 718 1018
internal_value=8.53013e-06 -0.0453181 0.0511576 0.0309984 -0.0678403 -0.0193438 0.0761028 -0.0120523 0.0415592 0.0171765 0.0146857 -0.0532672 0.0459597 0.0477161 0.0658214 -0.0143072 -0.0108596 -0.00467852 0.027543 0.0109059 0.0194623 0.00340175 -0.00841322 0.017506 -0.000116527 0.0458738 0.0275126 0.0392016 -0.0288845 -0.0202583
internal_weight=1.21217e+06 642663 569506 314969 344203 298460 254537 210466 8493.92 163720 156524 155886 151249 146767 130875 201972 163343 98540 10234.3 140421 67171.4 4767.75 88305.7 10601.1 8072.99 141193 4548.69 77771.3 38628.7 64803.3
internal_count=41698 34646 7052 5740 22838 11808 1312 7544 164 3772 3716 9020 1968 1834 984 7380 5740 3253 238 3511 1470 148 3015 276 256 1826 104 1150 1640 2487
is_linear=0
shrinkage=0.05


Tree=9
num_leaves=31
num_cat=1
split_feature=5 5 5 7 6 5 7 10 7 7 7 3 7 7 12 7 4 5 7 6 8 7 5 0 5 10 7 5 3 5
split_gain=1.03775e+06 186118 65467.4 33375.8 24044.1 23967 14459.9 13321.4 10932.4 11697.8 10362.9 10177.6 10131.9 12155.3 9860.48 8334.16 8295.02 8092.04 8080.93 6960.71 6458.33 6073.4 4856.18 4492.19 5205.9 4173.8 3644.01 3793.1 3609.68 3466.68
threshold=383.3457049338304 32.918272523482877 2449.5725674084861 12.091576569285824 43.699715733087807 8.1257631459844166 179.26843477214462 0.99999999733365896 -551.90989780698135 21.145981757666657 -5.1652215641964014 103.25620893617959 27.395984210357234 -13.471727171249956 0.13318118126169012 -15.019432035357115 4.9995328700165809 5498.5473454337671 150.98291618100066 120.18341539641587 -0.41757850815036718 -126.15877084392812 1517.062934680476 0 904.16547058363506 0.58141445923792079 -169.71983159524976 8.4057423472653046 722.58859543439678 184.72885712386923
decision_type=2 2 2 2 2 2 2 2 2 2 2 2 2 2 2 2 2 2 2 2 2 2 2 1 2 2 2 2 2 2
left_child=1 3 6 5 12 15 7 14 -6 19 26 -11 13 -3 21 -1 -12 -4 -5 20 -10 -2 -9 24 -23 -8 -7 -28 -14 -15
right_child=2 4 17 18 8 10 25 22 9 11 16 -13 28 29 -16 -17 -18 -19 -20 -21 -22 23 -24 -25 -26 -27 27 -29 -30 -31
leaf_value=-0.027880439725791396 0.045987441035025917 -0.0029985567332062495 0.066018501191593304 -0.021078768269285425 0.077672541706438766 0.03657313676637651 0.07821917864485789 0.044026512101873909 0.057104355379464566 0.097039003335365095 -0.061834731192320191 0.015538641103754232 -0.0087983768782736848 -0.038692259972053548 0.071947151065604217 -0.080497399926519886 -0.017819936404832273 0.085812314906995632 0.049744621160875004 0.0082591612810763299 -0.018751671008539961 0.013275787986332622 0.070187375162756721 0.0019832868906851163 0.037042228615869151 0.032436809955303784 0.079570205053523649 -0.031613741508096503 0.034941322127045316 -0.015969148586069157
leaf_weight=7826.4277353286743 25509.933113098145 37046.665114402771 91725.255701065063 15408.713244438171 4634.0356521606445 2614.7666893005371 28791.149696350098 59077.172840118408 2915.6892490386963 4730.144474029541 101503.70723342896 20128.712565422058 11038.727582931519 114343.61441516876 11467.820398330688 196974.76840591431 11967.744599342346 118223.48909187317 5451.804141998291 48904.499321937561 73913.628206253052 48617.599864959717 25359.683916091919 29020.422311782837 43802.62257194519 6021.8563385009766 802.25093460083008 17059.446713447571 8234.7593898773193 19675.941996574402
leaf_count=358 331 1183 656 668 27 46 140 775 32 3 6418 468 348 5586 82 15120 490 328 73 1305 2822 1131 163 748 640 90 6 807 143 711
internal_value=1.10893e-05 -0.0387704 0.0560956 -0.0639509 -0.0125665 -0.0677309 0.0401645 0.0358442 0.00203814 -0.000289752 -0.0512849 0.03105 -0.0244768 -0.0283489 0.0272944 -0.0784868 -0.0571928 0.0771649 -0.00256765 -0.00648618 -0.0158721 0.0238093 0.0518844 0.0191501 0.0245376 0.0703012 -0.0185449 -0.0266155 0.00989036 -0.0353564
internal_weight=1.19279e+06 705176 487617 359610 345566 338749 277668 242855 155227 150593 133948 24858.9 190340 171066 158418 204801 113471 209949 20860.5 125734 76829.3 146951 84436.9 121441 92420.2 34813 20476.5 17861.7 19273.5 134020
internal_count=41698 36614 5084 23986 12628 23245 4100 3870 4657 4630 7767 471 7971 7480 2932 15478 6908 984 741 4159 2854 2850 938 2519 1771 230 859 813 491 6297
cat_boundaries=0 1
cat_threshold=9
is_linear=0
shrinkage=0.05


Tree=10
num_leaves=31
num_cat=0
split_feature=5 2 2 7 7 7 7 5 7 4 2 8 9 5 9 5 2 7 11 9 7 7 7 7 7 9 7 9 11 5
split_gain=953783 181174 67755.4 27301 23137.7 24443.3 19904.3 17306.7 14538.6 14510.3 10172.5 10051.4 10049.9 8380.49 7771.72 7269.3 7457.48 7027.12 6070.46 5827.93 4909.45 4618.05 4468.32 4902.86 4186.75 4062.62 3896.84 3521.52 3460.46 3363.01
threshold=383.3457049338304 27.426018205000002 2167.7929489100002 14.691674404714549 25.575737457965911 -64.039221834678486 -7.7849392583928507 152.65289111680383 729.17810188250053 3.1775393303636483 5612.7997537150013 0.25195221878032203 10.452512260042658 4.2107827428878286 2.3627081547207793 572.82360958382367 425.99807035500004 150.98291618100066 3.5000000000000004 4.2253613629145823 -13.471727171249956 -156.05715291092852 -169.71983159524976 20.00773874785715 256.86659972900037 4.7225616620082347 5.9962457194642864 12.69000727404755 22.500000000000004 59.345222742248716
decision_type=2 2 2 2 2 2 2 2 2 2 2 2 2 2 2 2 2 2 2 2 2 2 2 2 2 2 2 2 2 2
left_child=1 3 8 6 5 12 21 19 14 13 25 24 -3 -8 -2 -16 -17 -5 -9 29 -21 -1 -18 27 28 -4 -22 -24 -6 -7
right_child=2 4 10 17 11 7 9 18 -10 -11 -12 -13 -14 -15 15 16 22 -19 -20 20 26 -23 23 -25 -26 -27 -28 -29 -30 -31
leaf_value=0.025707912258525086 0.046481820793095034 0.0060592859296015366 0.070164123422971611 -0.022243394482191144 -0.0007423957663714874 -0.033646943653099524 -0.082197959268034165 0.0081466347529050229 0.082588613048871273 -0.021738018863940861 0.084726494864654334 0.08859512568047756 0.068300845187426518 -0.064618256701882024 0.0084175683022958449 0.085622552825334319 0.052433918031975724 0.050154918149434527 -0.016706056535823379 -0.0070889629142375276 -0.048713238658680935 -0.034082485511297743 0.022451943858824222 0.044263020492115356 0.04187950249331851 0.049707350738916634 -0.017174328088489701 -0.016915680256120957 0.071618055851693105 -0.014906322882790354
leaf_weight=3805.2512741088867 77563.006355285645 23728.882459640503 74058.67834854126 11697.145142555237 29093.648320198059 41702.187237739563 145262.14195537567 44224.726076126099 16103.757225036621 13968.212544441223 114842.53923606873 4821.1249198913574 8924.0026350021362 127188.26312255859 38983.441410064697 6434.3861446380615 19015.276477813721 4696.5741634368896 55284.410285949707 9884.4238681793213 71243.568211555481 21316.790598869324 62814.053232192993 26293.068340301514 9149.495080947876 36124.377696990967 11357.202214241028 6244.4944648742676 1750.7057933807373 56208.086101531982
leaf_count=88 947 636 443 516 824 2037 11782 1160 58 633 328 13 73 8689 988 21 210 61 2045 358 3863 1069 1175 343 141 377 469 194 13 2144
internal_value=1.1975e-05 -0.0373769 0.0543443 -0.0643909 -0.0132628 -0.01794 -0.0677003 -0.0225594 0.0366152 -0.0714433 0.0743127 0.0204011 0.0230716 -0.0739915 0.0334956 0.0271915 0.0332498 -0.00150018 -0.00566078 -0.0313912 -0.0403921 -0.0250251 0.0303025 0.0258884 0.0121784 0.0634578 -0.0443771 0.0188919 0.00336676 -0.0228887
internal_weight=1.17378e+06 695307 478477 327934 367372 322557 311541 289905 253451 286419 225026 44815 32652.9 272450 237348 159785 120801 16393.7 99509.1 190395 92485.2 25122 114367 95351.6 39993.8 110183 82600.8 69058.5 30844.4 97910.3
internal_count=41698 36614 5084 22838 13776 12785 22261 12076 3936 21104 1148 991 709 20471 3878 2931 1943 577 3205 8871 4690 1157 1922 1712 978 820 4332 1369 837 4181
is_linear=0
shrinkage=0.05


Tree=11
num_leaves=31
num_cat=0
split_feature=5 2 2 7 6 2 7 7 7 2 7 7 7 3 8 10 5 2 7 6 8 7 3 2 3 7 7 2 2 2
split_gain=875875 170817 65962.6 25778.7 23489 19315.8 14120.9 10745.9 11789.7 10520.9 9972.97 9630.83 9736.7 9569.73 8922.4 7214.75 6968.89 7200.87 6403.19 5676.32 5660.32 5285.09 4228.92 3995.16 3848.36 3675.7 4345.38 3670.81 3574.16 3883.23
threshold=383.3457049338304 27.426018205000002 2167.7929489100002 14.691674404714549 43.699715733087807 6.0401546050000006 729.17810188250053 27.395984210357234 -13.471727171249956 5612.7997537150013 -7.7849392583928507 -551.90989780698135 21.145981757666657 103.25620893617959 0.48407594496367873 0.99999999733365896 572.82360958382367 425.99807035500004 150.98291618100066 120.18341539641587 -0.41757850815036718 -9.5240590099285676 12967.728211174284 78.678874975000014 55.808003087920959 126.38748325107191 -126.15877084392812 1080.3856867150002 17.724953300000006 19.251890870000004
decision_type=2 2 2 2 2 2 2 2 2 2 2 2 2 2 2 2 2 2 2 2 2 2 2 2 2 2 2 2 2 2
left_child=1 3 6 5 7 21 15 8 -3 22 -7 -6 19 -14 -12 16 -2 -18 -5 20 -13 -1 -4 24 -10 26 -19 -28 -16 -30
right_child=2 4 9 18 11 10 -8 -9 23 -11 14 12 13 -15 28 -17 17 25 -20 -21 -22 -23 -24 -25 -26 -27 27 -29 29 -31
leaf_value=-0.037291281689662621 0.0075971579505790436 -0.0027232972256196735 0.069244922012192012 -0.021183770086252173 0.075275208448165806 -0.01487281119255985 0.081230542958490887 0.010243241699347124 -0.015679371427307659 0.083487560259576585 -0.061117269844646618 0.054868243739364803 0.09644808850288332 0.014433046676755202 -0.039221546199320487 0.04495373258123643 0.084438025440129835 0.045768988280537652 0.048255049617966402 0.0077508349127745763 -0.0167854802942017 -0.079026592635016948 0.048817150467847938 -0.024284329206479393 -0.045158894387257342 0.053521501498693475 0.010180456730959013 0.031463374935518616 0.064254862196358759 -0.026156601479013903
leaf_weight=7959.2050619125366 38608.532236099243 39068.803033828735 67320.784410476685 11668.928078651428 4381.73752784729 16170.99711227417 15568.08837890625 21283.476143836975 13068.077034950256 110822.30343437195 106400.18356800079 2862.8547973632812 4323.7895812988281 20031.969283103943 5811.097710609436 74317.256944656372 6204.3129806518555 21742.351285934448 4638.95947265625 48807.831678390503 73294.880444526672 162909.73966121674 40649.308006286621 66011.000227928162 72500.457699775696 13665.463829040527 41400.368806838989 39679.717861175537 2384.6397037506104 2364.1063232421875
leaf_count=422 986 1253 401 516 27 669 58 540 558 328 7225 32 3 466 318 909 21 268 61 1305 2807 13498 419 2781 4004 139 920 635 28 101
internal_value=1.24538e-05 -0.036014 0.0525938 -0.0626722 -0.0126605 -0.0659575 0.0351112 -0.0234529 -0.0272147 0.0726644 -0.0516781 0.00222062 7.63569e-05 0.0289964 -0.0567667 0.0320636 0.0261244 0.0319543 -0.00142907 -0.00556031 -0.0140912 -0.0770828 0.0615547 -0.0335272 -0.0406571 0.0291582 0.0259197 0.0205964 -0.0129283 0.0192475
internal_weight=1.15592e+06 685943 469978 320308 365635 304000 251186 211932 190648 218792 133131 153703 149321 24355.8 116960 235618 161301 122692 16307.9 124966 76157.7 170869 107970 151580 85568.5 116488 102822 81080.1 10559.8 4748.75
internal_count=41698 36614 5084 22838 13776 22261 3936 9136 8596 1148 8341 4640 4613 469 7672 3878 2969 1983 577 4144 2839 13920 820 7343 4562 1962 1823 1555 447 129
is_linear=0
shrinkage=0.05


Tree=12
num_leaves=31
num_cat=0
split_feature=5 5 5 5 6 5 5 3 9 9 5 6 9 9 4 9 3 6 6 3 8 8 11 10 5 5 9 9 9 3
split_gain=803510 155504 61204.7 30252.1 18525.8 9260.74 8990.61 7747.64 7022.09 7747.76 5573.47 5293.44 4752.15 4572.51 5625.4 8455.08 4840.23 4167.48 3817.2 5642.45 3430.18 5398.67 3257.04 4946.18 4097.78 3256.82 3235.67 5425.25 3197.85 3126
threshold=383.3457049338304 32.918272523482877 2449.5725674084861 5.2826165673381462 43.699715733087807 607.56311981165788 5498.5473454337671 674.75586713031555 13.724618373179412 12.962542005204424 107.89328284011152 10.034034666905582 3.3844094771926012 3.4613609874706825 15.939095413092268 1.843341706464247 775.05146640290775 150.92730830271697 1.2739415813449135 0.83500161948800922 -0.023684417966229127 -0.022673431756778686 8.5000000000000018 0.56898159579403773 1517.062934680476 1376.7420921631585 3.7412142522782594 3.7086093309164028 13.570466594192155 12967.728211174284
decision_type=2 2 2 2 2 2 2 2 2 2 2 2 2 2 2 2 2 2 2 2 2 2 2 2 2 2 2 2 2 2
left_child=1 3 5 18 10 7 29 -2 9 12 -3 26 25 14 15 -6 -15 -17 -1 -20 -13 -22 23 -14 -25 -7 27 -5 -12 -4
right_child=2 4 6 11 13 8 -8 -9 -10 -11 28 20 22 16 -16 17 -18 -19 19 -21 21 -23 -24 24 -26 -27 -28 -29 -30 -31
leaf_value=-0.078702489575974588 0.052296934286719568 -0.028292940299478726 0.068522078498411479 -0.043294480824141675 0.076636456951161225 0.040221748564768983 0.082109441075787604 0.011331723928723045 -0.010288601835443086 0.083464660191400974 -0.012378142196345629 -0.047804081486865685 0.047913033323553719 -0.025625060131689678 -0.0012319040844007913 -0.00093119286878263195 0.0013341542160489981 0.049314748969978284 0.05410348591442328 -0.06396794238218538 0.059929099360799445 -0.025980383955050385 0.019759614897981899 -0.0078746410811954982 0.045551629781267658 0.059419929157203268 -0.056868422770872618 0.051402408136831161 0.051673547262548782 0.049250148172806173
leaf_weight=122405.7200422287 14566.681053161621 114751.40105628967 49843.011713027954 50979.261105537415 7043.4219264984131 52289.62456703186 106297.2044467926 55576.864534378052 6465.836877822876 10982.606149673462 70987.734569549561 18493.853450775146 43086.88271522522 21723.540035247803 32977.50790309906 14746.484495162964 71262.672332763672 5729.3090858459473 1038.0900611877441 38928.827460289001 1946.2872734069824 30037.911876678467 33486.594720840454 8615.8356094360352 6150.123664855957 38272.169929504395 70748.772969245911 1557.8640127182007 2002.6665811538696 36446.782112121582
leaf_count=10461 154 5376 292 3064 41 671 328 1322 185 44 2563 1112 507 926 978 455 2179 78 23 3006 31 1473 620 213 71 313 4784 32 32 364
internal_value=1.30722e-05 -0.034666 0.050849 -0.0588035 -0.0108883 0.0354657 0.0723751 0.0198396 0.0409637 0.0426819 -0.0214222 -0.0443031 0.0402191 0.00199674 0.0126961 0.0293862 -0.00496424 0.0131295 -0.0743209 -0.0608998 -0.0306633 -0.0207508 0.032171 0.0393545 0.014379 0.0483357 -0.0498874 -0.0404854 -0.01062 0.0603828
internal_weight=1.13944e+06 677361 462080 336137 341225 269493 192587 70143.5 199350 192884 187742 173764 181901 153483 60496.7 27519.2 92986.2 20475.8 162373 39966.9 50478.1 31984.2 91339.4 57852.8 14766 90561.8 123286 52537.1 72990.4 86289.8
internal_count=41698 36614 5084 23986 12628 4100 984 1476 2624 2439 7971 10496 2395 4657 1552 574 3105 533 13490 3029 2616 1504 1411 791 284 984 7880 3096 2595 656
is_linear=0
shrinkage=0.05


Tree=13
num_leaves=31
num_cat=0
split_feature=5 2 2 5 6 2 2 2 12 9 6 9 2 2 5 5 9 6 9 6 9 9 5 8 4 4 9 6 9 6
split_gain=736138 151296 61935.5 23752.3 19227.7 11043 7518.32 6247.86 6134.54 7244.05 5883.96 4107.38 5456.05 5995.89 4237.13 4499.08 5757.01 4292.22 4044.26 3858.68 3804.27 5132.1 3352.6 3382.5 3336.44 5108.74 3062.26 2990.68 3329.6 3140.06
threshold=383.3457049338304 27.426018205000002 2167.7929489100002 5.2826165673381462 43.699715733087807 5612.7997537150013 697.47135076000006 90.352527865000013 0.13318118126169012 1.545281850260589 10.034034666905582 3.4613609874706825 58.627485025000006 56.970555615000009 83.620248175791218 90.933777131855479 10.33712390183681 120.18341539641587 4.7225616620082347 1.2739415813449135 13.724618373179412 13.570466594192155 5.4506076617594088 -0.10475898483954048 -0.31254131177933991 -0.2435548237378555 10.56433513486137 150.92730830271697 2.9927283724423988 49.408921280925476
decision_type=2 2 2 2 2 2 2 2 2 2 2 2 2 2 2 2 2 2 2 2 2 2 2 2 2 2 2 2 2 2
left_child=1 3 6 19 7 18 8 -3 9 -2 22 12 13 -6 -13 16 -16 -17 -4 -1 21 26 23 -5 -12 -26 -8 29 -29 -14
right_child=2 4 5 10 11 -7 20 -9 -10 -11 24 14 27 -15 15 17 -18 -19 -20 -21 -22 -23 -24 -25 25 -27 -28 28 -30 -31
leaf_value=-0.077157805076907324 0.046153850164707556 -0.028832285901048728 0.064737726712089175 0.054271642413007096 0.0028431823320608372 0.080810438716324429 0.040219670919122638 -0.011446442687116927 0.064157618657482415 0.0090916229983372294 -0.045506007479554009 -0.031316915388167957 0.038223508667585906 0.091129826835237807 -0.032666860642157042 -0.015594483889588728 0.073290832281077786 0.0085137730040769719 0.043843618931314499 -0.059055187426900239 -0.0032441032150065832 0.092321450540976457 -0.052538402936015617 -0.046418326386190395 0.056729474832778265 -0.023904080915865069 0.0073988897475429222 0.010997441988703791 0.061495591000286953 -0.0080676772157560021
leaf_weight=118708.53951454163 16540.177700042725 118890.19018268585 69207.27449798584 1492.9270391464233 3503.5575180053711 103551.61427879333 140947.30130958557 91407.68013381958 7399.6169090270996 64974.251415252686 17172.057193756104 12771.606378555298 4175.189338684082 4262.664119720459 1840.4385557174683 37422.581977844238 4219.5398750305176 36438.328507423401 34826.739774703979 39175.377617835999 5216.9654483795166 4576.4859714508057 104637.2040348053 1887.3667049407959 2159.2439746856689 21665.048536300659 7485.2809925079346 14161.960227966309 4241.3755359649658 29832.069440841675
leaf_count=10461 191 5791 443 31 114 328 1819 3345 63 1550 1045 588 77 11 85 1410 36 972 377 3029 143 8 7034 133 37 1068 162 338 43 966
internal_value=1.44678e-05 -0.0333074 0.0491162 -0.0591527 -0.0114666 0.0692506 0.0322041 -0.0212755 0.02057 0.0166125 -0.0448341 0.00202733 0.0121991 0.0513074 -0.00457628 -0.000302638 0.0411102 -0.00370096 0.0577437 -0.0726665 0.0387416 0.0401731 -0.0509552 -0.00194362 -0.0287051 -0.0165938 0.0385647 0.00640304 0.0226386 -0.00238324
internal_weight=1.12479e+06 670065 454726 306898 363167 207586 247140 210298 88914 81514.4 149014 152869 60176.8 7766.22 92692.5 79920.9 6059.98 73860.9 104034 157884 158226 153009 108017 3380.29 40996.3 23824.3 148433 52410.6 18403.3 34007.3
internal_count=41698 36614 5084 22838 13776 1148 3936 9136 1804 1741 9348 4640 1549 125 3091 2503 121 2382 820 13490 2132 1989 7198 164 2150 1105 1981 1424 381 1043
is_linear=0
shrinkage=0.05


Tree=14
num_leaves=31
num_cat=0
split_feature=5 2 2 7 7 7 7 5 7 5 2 8 8 10 3 5 2 7 4 4 8 10 4 3 7 7 7 7 5 7
split_gain=673746 141510 59892.9 24985.1 19398.7 17831.4 20277.7 14531 13637.7 11669.7 9176.58 8379.34 7078.76 6840.35 6685.48 6019.47 6653.9 5393.23 5245.2 4713.92 5755.46 4668.86 4420.04 4948.43 4369.69 5505.43 4279.35 3950.89 3805.41 3726.89
threshold=383.3457049338304 27.426018205000002 2496.3348225550003 14.691674404714549 -7.7849392583928507 21.145981757666657 -64.039221834678486 8.9523746890899947 729.17810188250053 157.67932456734343 8351.8714891500022 0.25195221878032203 0.48407594496367873 0.99999999733365896 830.04546422931469 572.82360958382367 425.99807035500004 150.98291618100066 -0.079257212458467743 3.1775393303636483 0.017272257820691774 0.99999999733365896 0.71249472404363334 0.83500161948800922 179.26843477214462 -156.05715291092852 -13.471727171249956 -95.470564293392826 1376.7420921631585 256.86659972900037
decision_type=2 2 2 2 2 2 2 2 2 2 2 2 2 2 2 2 2 2 2 2 2 2 2 2 2 2 2 2 2 2
left_child=1 3 8 4 27 6 14 22 13 18 21 29 -9 15 -3 -2 -17 -5 26 -11 -21 -4 -6 -24 25 -18 -8 -1 -15 -7
right_child=2 5 10 17 7 11 9 12 -10 19 -12 -13 -14 28 -16 16 24 -19 -20 20 -22 -23 23 -25 -26 -27 -28 -29 -30 -31
leaf_value=0.020353172396879844 0.0061106227434177696 -0.0017287309560061607 0.052773080154248732 -0.01500397608288234 -0.075257928698431592 0.0036540933710749409 -0.0092638601811508899 -0.052629324276152349 0.076311503140033723 -0.011822190793497346 0.084208153997340954 0.085735004191254571 -0.0037607345272486605 0.03408941088795972 0.043913927736039415 0.081710926810758311 0.045588050032011614 0.04907559309446969 -0.015017881279822924 0.072627078617613292 0.0037550243892697267 0.072942189908174304 0.066717571876471135 -0.053147809556133144 0.055139778571143098 0.017691574754145418 -0.036319661369548568 -0.028649353596155093 0.05808077137314227 0.039767484536538472
leaf_weight=5231.5953330993652 38579.374221801758 15204.625661849976 71006.38011932373 11527.227734565735 161731.67844390869 34524.047320365906 16904.791688919067 78504.182670593262 16331.770351409912 69059.680382728577 65656.298450469971 4118.6796970367432 8183.1384420394897 54820.811973571777 16983.812767028809 5641.4064254760742 21990.424036026001 4590.351354598999 63627.558487892151 3540.0471286773682 21163.004409790039 48178.706806182861 932.29594230651855 11136.778280258179 11797.405191421509 90365.231489181519 107956.20463752747 19231.096012115479 23669.085308074951 9007.4555358886719
leaf_count=143 986 459 597 516 14538 963 637 5393 71 2443 164 13 315 767 250 21 253 61 2628 27 560 223 15 843 106 1708 5655 1014 188 141
internal_value=1.57099e-05 -0.0319858 0.0473825 -0.0573155 -0.0607412 -0.0109248 -0.0152441 -0.064739 0.0320622 -0.019532 0.0691968 0.017578 -0.0480164 0.0291345 0.0223545 0.0234515 0.0286057 0.00324775 -0.0267026 -0.00511702 0.0136274 0.0609267 -0.0730795 -0.0438834 0.026192 0.0231519 -0.0326568 -0.0181691 0.0413249 0.0111275
internal_weight=1.1112e+06 663158 448037 301068 284951 362090 314440 260488 263196 282251 184841 47650.2 86687.3 246864 32188.4 168374 129794 16117.6 188489 93762.7 24703.1 119185 173801 12069.1 124153 112356 124861 24462.7 78489.9 43531.5
internal_count=41698 36614 5084 22838 22261 13776 12659 21104 4100 11950 984 1117 5708 4029 709 3074 2088 577 8920 3030 587 820 15396 858 2067 1961 6292 1157 955 1104
is_linear=0
shrinkage=0.05


Tree=15
num_leaves=31
num_cat=1
split_feature=5 2 2 7 7 6 4 7 5 7 7 2 7 7 8 7 7 2 10 4 6 8 7 10 2 1 7 11 2 0
split_gain=616616 132627 57642 23421.7 18428.4 17440.6 13755.7 13412 9351.46 9012.93 10154.6 8473.81 8371.97 7465.37 6756.77 6545.68 6476.54 5594.28 4592.04 4292.4 4078.8 4370.93 3904.83 3870.41 3691.32 3507 6167.06 3385.8 5096.54 3236.25
threshold=383.3457049338304 24.603738930000002 3443.4789626150005 7.5749720072321507 -7.7849392583928507 43.699715733087807 3.1775393303636483 439.3231023978596 1517.062934680476 27.395984210357234 -13.471727171249956 1.5784026200000001 -551.90989780698135 21.145981757666657 0.25195221878032203 150.98291618100066 -126.15877084392812 8351.8714891500022 0.99999999733365896 -0.047640224227646556 120.18341539641587 -0.41757850815036718 -95.470564293392826 0.93014015778910653 188.68634446500002 2.5000000000000004 -1.0000000180025095e-35 12.500000000000002 271.95511452000005 0
decision_type=2 2 2 2 2 2 2 2 2 2 2 2 2 2 2 2 2 2 2 2 2 2 2 2 2 2 2 2 2 1
left_child=1 3 7 4 22 9 11 8 16 10 -3 -6 -7 20 -15 -5 -2 23 -10 24 21 -14 -1 -4 -12 26 -18 28 -27 -22
right_child=2 5 17 15 6 12 -8 -9 18 -11 19 -13 13 14 -16 -17 25 -19 -20 -21 29 -23 -24 -25 -26 27 -28 -29 -30 -31
leaf_value=0.021372065353784192 0.045335511307830749 -0.0010257956745520723 0.053129497534952885 -0.019990329531233295 -0.080643801943738561 0.072276106695438588 -0.013034845006473065 0.070889926203484097 0.035049786859235411 0.0104184556065055 -0.037730284931590002 -0.060359901916704477 0.049765348782007335 0.013752934274109205 0.085404575069327623 0.048330033083516161 -0.0026693809575459491 0.08293917865236064 0.058861263769532692 -0.015334354283414099 -0.017183007831753708 -0.01450533601026284 -0.02852042937798438 0.075411821918314859 -0.012540720390833966 0.068922798583829686 0.023187529010174977 0.087344071193644221 -0.045923526695800618 0.013463917038406463
leaf_weight=5037.7992944717407 30076.016023635864 40277.702896118164 44041.50309753418 16111.651428222656 78522.783856391907 4114.2668380737305 12289.740999221802 21907.106679916382 54902.033163070679 21813.33963394165 99708.633341789246 149659.46604537964 2743.9296092987061 19610.340675354004 3952.7842502593994 4479.8030109405518 28313.024103164673 63385.92915725708 32086.749624252319 41506.227715492249 11187.44681930542 72947.484986305237 17688.924927711487 34984.943515777588 17029.818506240845 2309.1943454742432 124285.5420627594 3711.0176544189453 1659.2914390563965 37330.790559768677
leaf_count=135 357 1307 352 819 7689 27 561 115 703 562 5462 11969 32 457 12 59 719 164 234 1830 397 2814 950 140 624 18 2214 11 57 908
internal_value=1.61285e-05 -0.0307327 0.0456882 -0.0564801 -0.0604978 -0.0111023 -0.0645651 0.033227 0.0302518 -0.0200883 -0.0234404 -0.0673404 0.00193323 -2.56906e-05 0.025776 -0.00512493 0.024045 0.0718723 0.0438335 -0.0291455 -0.0049206 -0.0121747 -0.0174602 0.0629948 -0.0340558 0.0200495 0.01839 0.0530175 0.0209029 0.0063962
internal_weight=1.09768e+06 656013 441662 283790 263199 372223 240472 299250 277343 220336 198522 228182 151887 147773 23563.1 20591.5 190354 142412 86988.8 158245 124210 75691.4 22726.7 79026.4 116738 160278 152599 7679.5 3968.49 48518.2
internal_count=41698 36614 5084 22182 21304 14432 20219 4428 4313 9785 9223 19658 4647 4620 469 878 3376 656 937 7916 4151 2846 1085 492 6086 3019 2933 86 75 1305
cat_boundaries=0 1
cat_threshold=2
is_linear=0
shrinkage=0.05


Tree=16
num_leaves=31
num_cat=0
split_feature=5 2 2 2 2 2 2 6 2 3 3 8 5 3 2 3 6 6 3 6 3 3 3 8 8 5 10 5 3 10
split_gain=563910 121358 57637.8 19042.3 16199.1 9548.06 8581.46 6518.19 10177.8 5185.58 5007.99 4589.06 4074.8 3252.95 3467.7 3106.6 2861.04 2850.71 6729.77 2739.61 2687.52 3145.39 3036.84 2744.15 5016.28 3235.46 2592.1 2498.24 6041.55 3570.08
threshold=363.7767797759613 18.265887930000002 2496.3348225550003 56.970555615000009 4.1421355450000013 8351.8714891500022 697.47135076000006 43.699715733087807 58.627485025000006 8835.3978580775893 775.05146640290775 0.48407594496367873 83.620248175791218 26.800653173941097 19.251890870000004 2114.6163827139439 1581.195943014153 1.5706150180751306 0.83500161948800922 10.034034666905582 922.48335565146965 1442.7710360131862 2664.7490220608584 -0.028372833019974324 -0.031129883402047229 2143.7987711841383 0.25269832383942442 90.933777131855479 922.48335565146965 0.45966818299137552
decision_type=2 2 2 2 2 2 2 2 2 2 2 2 2 2 2 2 2 2 2 2 2 2 2 2 2 2 2 2 2 2
left_child=1 4 6 13 17 11 9 15 -9 10 -2 16 -10 14 -3 -5 -4 -1 -19 -6 -8 -22 -23 24 26 -25 -24 28 -14 -29
right_child=2 3 5 7 19 -7 20 8 12 -11 -12 -13 27 -15 -16 -17 -18 18 -20 -21 21 22 23 25 -26 -27 -28 29 -30 -31
leaf_value=-0.072723056206404874 0.037025326444732644 0.051380840789013338 0.05950111388670476 -0.014574908454114877 -0.047149126790068892 0.081599638963593263 0.058040522973130775 0.077515692157114152 -0.025438591420748054 0.061836022125976581 0.0075715669739712709 0.080977428973406484 -0.02137004198223539 -0.031096172728744095 -0.017805610063268206 0.030404293570967716 0.041764601057290317 0.089517550228246756 -0.058284070343453336 -0.02623856596305147 0.003646594528937488 0.048616216638716056 0.011668220186658525 0.015722250483857739 0.072437356146869164 0.05062884142986971 0.037521653303691477 -0.010468813399081253 0.073444191549847923 0.0078928821789337831
leaf_weight=108657.39821720123 18165.273906707764 2374.776930809021 61720.197061538696 125920.30989456177 99559.293019294739 61259.648872375488 12220.32142829895 4363.4689626693726 14159.444176673889 5952.7494564056396 70212.005548477173 17197.752647399902 2969.347638130188 115525.33848285675 7618.5981569290161 3958.5857820510864 36022.831611633301 799.05933856964111 20682.726319313049 18594.933011054993 8251.510139465332 33564.557815551758 11958.190090179443 37331.645881652832 9047.9557762145996 8073.9330196380615 51269.797409057617 41833.972301483154 3867.3940877914429 72087.332226753235
leaf_count=10430 244 45 418 5032 7188 164 99 32 608 57 1667 52 123 6327 352 86 350 4 1744 1012 158 341 229 692 55 72 650 1469 32 1966
internal_value=1.62602e-05 -0.0298756 0.0434751 -0.0126462 -0.0572627 0.0656554 0.0287852 -0.00514617 0.00236746 0.016669 0.013626 0.057157 -6.34823e-05 -0.0287288 -0.00136048 -0.0132037 0.0529649 -0.0694319 -0.0527821 -0.0438585 0.0354408 0.0337089 0.0353489 0.0315645 0.0376164 0.0219304 0.0326324 0.00291201 0.0322664 0.00115006
internal_weight=1.08522e+06 642972 442248 394679 248293 176200 266048 269160 139281 94330 88377.3 114941 134917 125519 9993.38 129879 97743 130139 21481.8 118154 171718 159498 151246 117682 72275.9 45405.6 63228 120758 6836.74 113921
internal_count=41698 36450 5248 16072 20378 984 4264 9348 4230 1968 1911 820 4198 6724 397 5118 768 12178 1748 8200 2296 2197 2039 1698 934 764 879 3590 155 3435
is_linear=0
shrinkage=0.05


Tree=17
num_leaves=31
num_cat=1
split_feature=5 2 2 2 6 2 2 6 9 10 10 2 5 9 10 2 2 9 9 2 2 3 9 8 0 10 8 8 8 8
split_gain=515075 115786 54012.1 20551.7 14306.7 11799.7 5299.1 4994.16 4452.03 4636.49 4833.38 4433.74 4490.01 4207.59 3779.71 3775.31 3585.79 5140.58 3262.66 4394.86 5059.89 3456.58 3058.32 2941.87 2744.52 3037.72 2622.16 2610.17 3371.53 3117.82
threshold=383.3457049338304 24.603738930000002 4253.8367728800013 4.1421355450000013 43.699715733087807 1080.3856867150002 78.678874975000014 10.034034666905582 1.23803596218676 3.3361674068482809e-05 0.14040015365505507 425.99807035500004 607.56311981165788 5.5413585560872987 0.49188164353039487 697.47135076000006 8351.8714891500022 4.7225616620082347 3.4613609874706825 58.627485025000006 56.970555615000009 775.05146640290775 1.1696887285351816 -1.2157939874906633e-06 0 0.25269832383942442 -0.01931205334115468 0.045540660144211605 0.33078384256942589 -0.043726966483325129
decision_type=2 2 2 2 2 2 2 2 2 2 2 2 2 2 2 2 2 2 2 2 2 2 2 2 1 2 2 2 2 2
left_child=1 3 5 22 6 8 -3 -5 -2 23 26 12 14 -7 -12 -13 17 -4 19 20 -6 -20 -1 -10 25 -17 -11 29 -29 -21
right_child=2 4 16 7 18 13 -8 -9 9 10 11 15 -14 -15 -16 24 -18 -19 21 27 -22 -23 -24 -25 -26 -27 -28 28 -30 -31
leaf_value=-0.036807370870954807 0.047759753341322299 -0.025565051881976098 0.071721188544993569 -0.045227855188629859 0.0047848996721075697 0.046365102008258191 -0.00998784100672305 -0.023326968753085937 0.082882826339238935 -0.02746376833429693 -0.0078474836067584843 0.0058186944738242256 0.083321676871732239 0.028890938131064164 0.046982649822299327 0.0061757884328588145 0.080190243432634201 0.037644290173988633 -0.021713363678506733 0.0083029153963874794 0.088748742739223591 0.0012363890821471886 -0.069607192311992791 0.023294049446993419 0.019990181050093481 0.068210574624112674 0.0076613785957501193 -0.021043046616630857 0.011298151422100619 0.05364827576340845
leaf_weight=7561.1997909545898 14739.437931060791 115539.72422409058 41211.235565185547 113174.40118408203 3518.5437431335449 112643.56400680542 103511.97720813751 33811.673741340637 4429.5860385894775 7765.2343349456787 4752.5304470062256 42709.299415588379 5067.6098327636719 49639.285346984863 9278.1783905029297 2770.3872852325439 59270.555061340332 15136.364616394043 21389.82010269165 14130.12815952301 3661.0609188079834 70418.898571968079 119402.05799102783 3892.1738376617432 33240.297750473022 6862.2256813049316 16820.998296737671 14205.090863227844 18620.820377349854 5179.9945001602173
leaf_count=594 149 5901 177 8182 115 1093 3884 1822 18 250 137 989 15 711 117 56 164 151 921 374 11 2176 11584 69 560 46 382 496 485 69
internal_value=1.76677e-05 -0.0282764 0.0423787 -0.0529187 -0.0100397 0.0316388 -0.0182042 -0.0401902 0.0216439 0.0188458 0.0165166 0.0212022 0.0429849 0.0410203 0.0284108 0.0163407 0.0716026 0.0625682 0.00179449 0.0109344 0.0476073 -0.00411062 -0.0676542 0.0550193 0.0268221 0.0503198 -0.00343289 0.00588332 -0.00269725 0.0204693
internal_weight=1.07435e+06 644125 430229 273949 370176 314611 219052 146986 152328 137589 129267 104681 19098.3 162283 14030.7 85582.2 115618 56347.6 151124 59315.6 7179.6 91808.7 126963 8321.76 42872.9 9632.61 24586.2 52136 32825.9 19310.1
internal_count=41698 36614 5084 22182 14432 4592 9785 10004 2788 2639 2552 1920 269 1804 254 1651 492 328 4647 1550 126 3097 12178 87 662 102 632 1424 981 443
cat_boundaries=0 1
cat_threshold=8
is_linear=0
shrinkage=0.05


Tree=18
num_leaves=31
num_cat=0
split_feature=3 3 6 9 7 7 7 4 7 9 6 3 7 7 9 9 3 8 6 4 10 9 7 3 9 3 7 10 9 9
split_gain=412739 70848.8 51916.4 46005.2 30450.3 21200.8 19143.7 16855.9 14655.1 13061.3 12531.7 11912.1 10676.7 10192.5 9128.41 8963.59 8457.47 7884.27 6229.88 5831.29 5429.87 5286.91 4969.88 4398.33 4345.64 4206.52 4176.65 3838.35 3810.3 3815.58
threshold=470.09171493542283 7064.9815779555774 10.335188783888587 3.1923111063250516 9.6225948364285792 -5.1652215641964014 -187.26015368428531 -452.57079999662949 29.676858818285911 1.1696887285351816 55.513933890211895 12.322124020335584 256.86659972900037 -208.98635206199992 8.6120590147234051 5.2459517040162655 1644.7247619825569 0.27067056626517944 209.08166615279814 0.71249472404363334 0.53509150014288254 13.091355523563847 25.575737457965911 89.619152928279604 1.1795759167786726 0.83500161948800922 150.98291618100066 0.33348005043468926 12.962542005204424 5.5413585560872987
decision_type=2 2 2 2 2 2 2 2 2 2 2 2 2 2 2 2 2 2 2 2 2 2 2 2 2 2 2 2 2 2
left_child=2 3 4 9 5 -1 27 -3 14 -2 -4 19 13 -9 18 23 -11 21 -8 -7 -20 28 24 -13 -12 -21 -6 -5 29 -15
right_child=1 7 10 6 26 11 8 12 -10 16 22 15 -14 17 -16 -17 -18 -19 20 25 -22 -23 -24 -25 -26 -27 -28 -29 -30 -31
leaf_value=-0.017118115927659019 0.068576226696306503 0.075356044255509902 -0.020592601349276343 0.062899748158150262 -0.0055623398020895679 -0.074655684302122702 -0.0081057850261242494 0.063260479857284682 0.025113864210982134 0.016700481704857228 0.021476494187545502 -0.045229071505098223 0.07449318107528223 0.042760969806801358 -0.025672648558245439 -0.060268292427355409 0.042541289541527173 0.083777600046134118 0.038925722434372145 0.06683987880604679 -0.0027298018460586268 -0.0028948526732513191 0.054961237181221125 -0.021071981339597964 -0.010590472198285473 -0.045425885781419172 0.042353901808601296 0.017069939219622614 0.080116154636206083 0.01941693840143479
leaf_weight=39825.885715484619 26404.529596328735 54857.030029296875 105903.48993206024 13613.369216918945 20609.015761375427 85185.336963653564 88158.302212715149 29107.874382019043 37949.621674537659 61901.768110275269 19870.197413444519 50725.979635238647 22747.544744491577 28406.417108535767 56646.943837165833 74965.707559585571 64827.624382019043 6271.7931289672852 15469.897365570068 906.39304733276367 15825.229457855225 13630.668684005737 5494.6114292144775 29984.015198707581 22558.943911552429 10381.663562774658 5834.457670211792 6878.0591411590576 3737.4031238555908 45619.972166061401
leaf_count=1936 139 192 5143 114 881 8951 3069 179 696 1249 419 3697 93 269 2497 6452 670 14 229 15 392 326 64 1464 776 822 90 129 14 717
internal_value=1.91553e-05 0.0278277 -0.0348444 0.0152691 -0.0463671 -0.0510203 0.00135141 0.0516493 -0.00306844 0.0365854 -0.0109925 -0.0563749 0.0429512 0.037291 -0.00914186 -0.047819 0.0299195 0.0295506 -0.00130248 -0.0701807 0.0178619 0.0258284 0.010222 -0.0362551 0.004427 -0.0364058 0.00501086 0.0475186 0.0308631 0.0283754
internal_weight=1.0643e+06 592054 472246 387675 318418 291975 234541 204379 214050 153134 153827 252149 149522 126774 176100 155676 126729 97666.3 119453 96473.4 31295.1 91394.5 47923.8 80710 42429.1 11288.1 26443.5 20491.4 77763.8 74026.4
internal_count=41698 10988 30710 9184 24308 23337 7126 1804 6883 2058 6402 21401 1612 1519 6187 11613 1919 1340 3690 9788 621 1326 1259 5161 1195 837 971 243 1000 986
is_linear=0
shrinkage=0.05


Tree=19
num_leaves=31
num_cat=0
split_feature=5 2 2 7 7 7 7 7 2 5 2 8 8 7 9 2 9 9 12 9 7 2 9 9 2 7 2 5 7 9
split_gain=430338 75294.7 71659.7 23387.3 17955.9 15283.2 15047.5 13993.6 11709.9 9538.98 9390.73 7409.97 6746.99 6302.44 5906.78 4273.16 4069.21 3894.64 3844.4 4723.57 3827.65 3772.01 3711.23 3583.38 3536.18 3493.76 3430.06 3329.12 3187.02 3169.71
threshold=213.21905665257563 18.265887930000002 2167.7929489100002 5.3492202746428683 -9.5240590099285676 729.17810188250053 16.675302339464618 -42.972148408214103 5612.7997537150013 545.42003533664672 1.5784026200000001 0.092333752038688849 0.25195221878032203 150.98291618100066 9.9499587480943976 25.920827135000003 0.56462664602499057 10.126348288414482 0.13318118126169012 1.7262887621053404 126.38748325107191 19.251890870000004 14.043326222090291 1.1696887285351816 425.99807035500004 -169.71983159524976 1.6528009550000002 24.972209384659049 -187.26015368428531 5.168732152031402
decision_type=2 2 2 2 2 2 2 2 2 2 2 2 2 2 2 2 2 2 2 2 2 2 2 2 2 2 2 2 2 2
left_child=1 3 5 4 -1 9 7 14 17 23 -6 15 22 -5 -3 -9 26 -4 19 -11 25 -13 -8 -2 -20 -21 -12 -17 -10 -30
right_child=2 6 8 13 10 -7 12 11 28 18 16 21 -14 -15 -16 27 -18 -19 24 20 -22 -23 -24 -25 -26 -27 -28 -29 29 -31
leaf_value=-0.007631666556874344 0.037436021429614511 0.0014339422272283524 0.049639521914477243 -0.014934176812022732 -0.075699367892059402 0.070365618148681836 0.0012177499207338411 -0.04665912174511979 0.082746060638513738 0.037476720962546624 0.089404037997601951 0.058657815989079799 0.079683563930839016 0.053254672099497372 0.054337759710340418 0.0254000457047735 -0.054904496593434507 0.014436335179814278 0.087641696111816936 0.034606223866350372 0.04254236863293609 -0.0076897670784473668 0.046796290058730393 0.0046407205867882006 0.023200621556480144 0.010778825489124663 -0.026863826818873362 -0.02497712551787775 0.071722625895722009 0.043960550839722223
leaf_weight=17201.883386611938 8929.0220336914062 20946.166771888733 86605.752040863037 15976.441535949707 69515.072368621826 13992.194812774658 32900.833265304565 23641.870087623596 37798.452373504639 41816.32006072998 715.46443367004395 2251.5385303497314 3527.0265054702759 4299.7465667724609 7051.7681951522827 3341.790584564209 122795.74571895599 8642.1626110076904 4529.1625385284424 18547.834621429443 14087.56893157959 43733.909556388855 5166.7488822937012 123845.09253311157 4018.5202007293701 90199.011819839478 5533.3838090896606 173458.19734287262 34402.469089508057 14675.056251525879
leaf_count=803 127 646 692 876 7668 72 1012 1700 86 486 4 34 16 52 91 111 10619 128 10 235 155 1665 80 3297 63 1787 356 8585 129 113
internal_value=1.94502e-05 -0.030447 0.033518 -0.0518131 -0.0566379 0.0192667 -0.0144884 -0.0187361 0.0585551 0.0169297 -0.0608834 -0.0225418 0.0135359 -0.000471963 0.0147603 -0.0266947 -0.0529016 0.0464457 0.0246595 0.0229618 0.0180203 -0.00443994 0.00740513 0.0068465 0.0573529 0.0148431 -0.0135387 -0.0240248 0.0718308 0.0634224
internal_weight=1.05415e+06 552058 502089 236038 215762 319965 316020 274425 182124 305973 198560 246427 41594.6 20276.2 27997.9 200442 129045 95247.9 173198 164651 122834 45985.4 38067.6 132774 8547.68 108747 6248.85 176800 86876 49077.5
internal_count=41698 34318 7380 20378 19450 6232 13940 12832 1148 6160 18647 12095 1108 928 737 10396 10979 820 2736 2663 2177 1699 1092 3424 73 2022 360 8696 328 242
is_linear=0
shrinkage=0.05


Tree=20
num_leaves=31
num_cat=0
split_feature=5 2 2 7 7 7 2 9 2 7 7 3 5 9 7 11 7 7 2 9 7 3 2 9 9 2 9 6 9 7
split_gain=393062 93173.3 48220.2 21792.7 16923.8 14478.3 14078.9 10513 9359.65 7881.83 10310.7 7177.77 6622.47 6243.29 5864.75 5523.95 5190.88 4836.83 4614.12 5724.29 4010.58 3943.2 3856 5148.95 3815.25 3723.95 3640.26 3603.09 3382.4 3413.97
threshold=383.3457049338304 18.265887930000002 4253.8367728800013 5.3492202746428683 -9.5240590099285676 439.3231023978596 56.970555615000009 1.545281850260589 1.5784026200000001 -64.039221834678486 21.145981757666657 103.25620893617959 642.36462053821151 10.452512260042658 71.089095311607238 2.5000000000000004 -208.98635206199992 -373.64481306000027 425.99807035500004 10.452512260042658 0.31959063732142923 0.83500161948800922 8351.8714891500022 3.7086093309164028 20.398509143594936 1910.9231420900003 4.9686224684171441 12.168464385563999 2.6251130216925689 64.653568042321197
decision_type=2 2 2 2 2 2 2 2 2 2 2 2 2 2 2 2 2 2 2 2 2 2 2 2 2 2 2 2 2 2
left_child=1 3 5 4 -1 7 17 25 -6 13 15 -12 20 -8 -5 -11 -14 -3 -18 -20 26 -10 23 -4 28 -2 -9 -23 -19 -30
right_child=2 6 22 14 8 -7 9 12 21 10 11 -13 16 -15 -16 -17 18 24 19 -21 -22 27 -24 -25 -26 -27 -28 -29 29 -31
leaf_value=-0.0072522192445862062 0.033892155259042531 0.05356364025565985 0.069358766761496105 -0.018826100538707261 -0.074036543649740105 0.066318183847419568 0.0080727714254848273 0.0096697647599175013 0.050054752716279842 -0.0001316085763868105 0.082435549973164102 0.0098058044637601219 0.043677197158683886 0.063647064334232742 0.039042296368634877 -0.017231292822119233 0.080088305607897592 -0.014587577876505654 0.023188378760565717 -0.007796190465024392 0.025043047067210923 -0.054035333485247833 0.075973579788964699 0.037404617270650004 0.041415783512043537 0.059902076270217236 -0.020608695213102352 -0.020210502477299271 -0.034698030304986263 0.016672736234857443
leaf_weight=17196.99879360199 37799.576824188232 1965.6484851837158 32665.2799949646 13784.210589408875 67572.621932983398 22490.96891784668 21065.065985679626 22784.211282730103 957.12420511245728 73069.948499679565 3761.2236633300781 35510.099864006042 29834.38445854187 6648.0086669921875 6415.1351289749146 133554.80619907379 3192.3610820770264 39036.391683578491 118131.0822353363 17058.112903594971 17663.849206924438 117796.08023691177 54248.317691802979 20538.663446426392 2093.4885816574097 21646.89349937439 17589.004888534546 8439.1708078384399 76804.913716316223 3375.6818389892578
leaf_count=803 463 26 137 811 7668 121 551 514 26 2325 16 877 296 57 117 5686 11 1865 1751 407 324 10481 164 191 51 132 573 472 4699 83
internal_value=1.96195e-05 -0.0249106 0.0377497 -0.0500706 -0.0547996 0.0276936 -0.0101929 0.0246527 -0.0589977 -0.00387169 -0.00672068 0.016764 0.0197362 0.0214063 -0.000446335 -0.0111843 0.0247607 -0.0242225 0.0206821 0.0192787 0.00517251 -0.0510076 0.0665917 0.0570243 -0.0254834 0.0433644 -0.00352142 -0.0517743 -0.0266585 -0.032535
internal_weight=1.04469e+06 629047 415643 232161 211962 308190 396885 285699 194765 273609 245896 39271.3 226253 27713.1 20199.3 206625 168216 123276 138382 135189 58037.1 127192 107452 53203.9 121310 59446.5 40373.2 126235 119217 80180.6
internal_count=41698 36614 5084 20378 19450 4592 16236 4471 18647 9512 8904 893 3876 608 928 8011 2465 6724 2169 2158 1411 10979 492 328 6698 595 1087 10953 6647 4782
is_linear=0
shrinkage=0.05


Tree=21
num_leaves=31
num_cat=0
split_feature=2 2 2 7 7 7 4 2 2 7 2 9 3 7 3 9 7 7 4 7 2 4 6 10 2 3 7 2 9 10
split_gain=357607 69245.9 60685.6 23785.9 20479.9 13366 12810.7 9724.82 8677.44 8507.5 8169.98 6020.16 5817.86 5789.62 5034.44 4868.21 6805.76 4190.82 4121.18 4027.9 4022.07 4615.45 3740.58 4409.87 3557.24 4177.36 3480.35 3416.89 4026.84 3387.52
threshold=235.57394962000004 5.6820016350000015 2496.3348225550003 18.80932689767862 -12.725275096928341 729.17810188250053 5.894786427027463 8351.8714891500022 25.920827135000003 5.0707833937500091 697.47135076000006 4.6332511455484298 12967.728211174284 -5.9344796139285618 8835.3978580775893 10.452512260042658 -169.71983159524976 -169.71983159524976 125.91318801559727 -1.0000000180025095e-35 7.6912225550000004 13.531954739848073 0.00044864215521931892 4.1744440346160087e-07 1.5784026200000001 0.83500161948800922 1268.6276730725363 1080.3856867150002 10.56433513486137 0.19569444733211935
decision_type=2 2 2 2 2 2 2 2 2 2 2 2 2 2 2 2 2 2 2 2 2 2 2 2 2 2 2 2 2 2
left_child=1 9 5 4 15 10 8 11 -6 13 14 -4 17 -1 18 -3 -17 -12 -2 -19 -5 -22 23 -10 -15 -26 -13 28 -21 -7
right_child=2 3 7 20 6 29 -8 -9 22 -11 12 26 -14 24 -16 16 -18 19 -20 27 21 -23 -24 -25 25 -27 -28 -29 -30 -31
leaf_value=-0.023413830899457051 0.0042102729118042711 -0.0025023409999187438 0.056369964727418502 0.067637850661810314 -0.04291696507860749 0.085938299267351539 -0.0026075352926108485 0.074320658800306263 -0.037338383816315698 -0.010910688785482165 0.045882163526412029 0.026289105922846209 -0.0061895432516818642 -0.072612005926946457 0.056445154920753221 0.075841235830813258 0.00045686713403935418 0.0026827876620752712 0.031998008828705758 0.019911035569806276 0.0066449770248712325 0.063548514915133192 -0.026351846232476731 0.024065495223388123 0.049479749315101539 -0.057002104475379491 0.083262438334594902 0.035369415008530261 -0.052097764151719295 0.038108615785840239
leaf_weight=9116.5044813156128 134344.50330352783 50565.818813323975 71595.804737091064 3438.7499399185181 99195.70140838623 8475.7538738250732 45819.461597442627 52721.452465057373 4570.8391885757446 8783.5176763534546 26567.499206542969 32041.26763343811 13648.886568069458 64887.773011207581 5324.5234451293945 5223.871187210083 7012.5959615707397 18803.591693878174 14813.607471466064 33147.028244018555 41329.723173141479 3898.8122863769531 149182.74744415283 8111.2645740509033 937.05267524719238 51540.901162624359 2924.7009391784668 59126.393516540527 2061.2897129058838 6577.7187900543213
leaf_count=567 3483 1790 440 43 7647 18 1622 164 258 492 256 373 319 7583 56 29 246 373 205 529 1189 33 7719 252 25 5151 7 691 72 66
internal_value=1.98786e-05 -0.027398 0.0315002 -0.0173428 -0.0216686 0.0190415 -0.0269924 0.0567555 -0.0312722 -0.0584964 0.0167917 0.0480645 0.0249672 -0.0618008 0.00867587 0.00434578 0.0326432 0.0280112 0.00697024 0.0238142 0.015516 0.0115516 -0.0241357 0.00193293 -0.0647823 -0.0550997 0.031057 0.0280262 0.0156937 0.065043
internal_weight=1.03579e+06 553615 482174 418350 369682 322891 306880 159283 261061 135266 307837 106562 153355 126482 154483 62802.3 12236.5 139706 149158 113138 48667.3 45228.5 161865 12682.1 117366 52478 34966 94334.7 35208.3 15053.5
internal_count=41698 34646 7052 20828 19563 6068 17498 984 15876 13818 5984 820 2240 13326 3744 2065 275 1921 3688 1665 1265 1222 8229 510 12759 5176 380 1292 601 84
is_linear=0
shrinkage=0.05


Tree=22
num_leaves=31
num_cat=0
split_feature=5 2 2 2 2 2 9 3 9 4 2 2 9 3 8 9 3 9 8 4 8 11 9 9 3 3 2 9 5 9
split_gain=327010 62543.4 58881.1 16373 11130.7 9820.56 7060.38 4469.75 3977.8 3737.89 7487.43 3618.73 3594.17 3419.58 3418.83 3553.89 2816.01 2765.94 2734.31 3006.01 2705.04 2573.13 2571.44 5213.63 2469.39 2760.26 2675.08 2607.18 2522.17 2131.28
threshold=213.21905665257563 5.6820016350000015 2167.7929489100002 56.970555615000009 8351.8714891500022 697.47135076000006 4.7225616620082347 8835.3978580775893 1.1696887285351816 2.3827239987401621 58.627485025000006 1.5784026200000001 20.398509143594936 0.83500161948800922 0.035346230025564099 5.0065059790052215 2002.1541184703372 1.3826041830970424 0.28943882569530627 -12.099145864846824 0.48407594496367873 22.500000000000004 13.724618373179412 13.570466594192155 922.48335565146965 1442.7710360131862 749.20618894000006 10.452512260042658 904.16547058363506 8.6120590147234051
decision_type=2 2 2 2 2 2 2 2 2 2 2 2 2 2 2 2 2 2 2 2 2 2 2 2 2 2 2 2 2 2
left_child=1 11 5 12 6 7 20 8 -2 16 -11 -1 18 -13 15 -12 -5 -16 19 -3 -4 -18 23 24 -7 -26 -27 28 -28 -10
right_child=2 3 4 9 -6 22 -8 -9 29 10 14 13 -14 -15 17 -17 21 -19 -20 -21 -22 -23 -24 -25 25 26 27 -29 -30 -31
leaf_value=-0.064293969497698611 0.037730799326678006 0.0062003655673162454 0.048734388587957859 -0.011821712884508112 0.072610838173025535 0.048767054909183288 0.027442145410583971 0.053841794662787545 0.0077329479209676108 0.077698330438200042 0.070512835630373638 0.047591443679813814 0.028001296717499319 -0.04919436295256923 0.0042264468496477272 -0.017616350984770948 0.0044837294013878931 -0.027839377447411634 -0.0085623528702914158 -0.030170433787229903 0.07169981738538668 0.073800459463896559 -0.0084183820593063535 0.088459362676377967 -0.0040991042583786779 0.049818028515462708 0.0081597980236468703 -0.006906278527678846 0.029023534744413462 -0.0079310399105126696
leaf_weight=71570.771189689636 9910.9067268371582 5857.2662754058838 66151.578994750977 141393.66025161743 51301.443069458008 10902.39520072937 39423.955583572388 5264.938138961792 126508.55817604065 3433.1274099349976 3198.8179559707642 925.85408973693848 2972.5831508636475 60243.680037021637 22049.394211769104 1779.8142156600952 7628.5269155502319 9675.1326694488525 17736.624206542969 188202.10601997375 15913.921863555908 1622.9088983535767 5189.7969913482666 3412.7005214691162 8192.9166946411133 10650.763320922852 17414.024112701416 6594.2901649475098 86180.795860290527 26214.679797172546
leaf_count=8078 133 232 473 5780 164 96 451 57 3099 22 28 25 95 5715 678 68 240 386 812 12145 60 14 143 8 157 111 327 154 1136 811
internal_value=2.00617e-05 -0.0268707 0.0296075 -0.01712 0.0530814 0.0167895 0.0448341 0.00850441 0.00703635 -0.00646054 0.00709814 -0.0566607 -0.0265887 -0.0477286 0.00049229 0.0390093 -0.010073 -0.00555318 -0.0273551 -0.0290726 0.0531887 0.0166506 0.0261543 0.0274061 0.0259164 0.0239853 0.0258895 0.0235761 0.0255166 0.00504418
internal_weight=1.02752e+06 538290 489228 405550 172791 316437 121489 167899 162634 190781 40136.3 132740 214769 61169.5 36703.2 4978.63 150645 31724.5 211796 194059 82065.5 9251.44 148538 143348 139935 129033 120840 110189 103595 152723
internal_count=41698 34318 7380 20500 1148 6232 984 4100 4043 7216 1182 13818 13284 5740 1160 96 6034 1064 13189 12377 533 254 2132 1989 1981 1885 1728 1617 1463 3910
is_linear=0
shrinkage=0.05


Tree=23
num_leaves=31
num_cat=0
split_feature=5 2 2 7 7 7 7 7 9 5 4 9 8 7 2 8 7 12 9 2 7 9 2 9 4 12 2 2 7 7
split_gain=297937 74549 41731.5 19118.2 15200.4 12930.2 11658.3 13078.8 8980.19 8757.5 8618.76 6287.36 5832.15 5470.25 5238.48 5083.04 4927.11 4273.8 4248.14 4222.76 3922.77 4220.34 3721.75 3613.06 3426.75 3339.09 3294.87 3222.04 3192.43 3189.08
threshold=383.3457049338304 18.265887930000002 4253.8367728800013 5.3492202746428683 -9.5240590099285676 439.3231023978596 -64.039221834678486 15.733143102857396 1.545281850260589 1.5566620195051522 3.1775393303636483 10.452512260042658 0.017272257820691774 -208.98635206199992 60.253952450000007 0.25195221878032203 150.98291618100066 0.13318118126169012 10.235423976769608 1080.3856867150002 -187.26015368428531 5.168732152031402 19.251890870000004 0.56462664602499057 -113.1552681341584 0.13820666703377019 8351.8714891500022 296.41824312500006 -236.92049103500062 333.4521528253585
decision_type=2 2 2 2 2 2 2 2 2 2 2 2 2 2 2 2 2 2 2 2 2 2 2 2 2 2 2 2 2 2
left_child=1 3 5 4 -1 8 11 10 -2 -6 14 -3 -12 -10 -8 29 -5 18 19 -15 26 -22 -14 -11 27 -19 -4 -16 -13 -9
right_child=2 6 20 16 9 -7 7 15 13 23 12 28 22 17 24 -17 -18 25 -20 -21 21 -23 -24 -25 -26 -27 -28 -29 -30 -31
leaf_value=-0.0044706372435070205 0.038855485992360383 0.007338860162620856 0.050877073588700306 -0.011042424181472985 -0.068912397738420367 0.061798124946149016 -0.029188754148580409 0.0022715738664474574 0.035768756913849169 -0.0077771041533473903 0.063392269672472482 0.081953843074963256 0.061551291644847142 0.0072372377746012951 0.080512437791394012 0.072550994925414738 0.050129678228408615 0.092356871031838275 -0.0072874180686768866 0.023547100862567394 0.062118563186383681 0.033756288183713373 -0.0051906856405160738 -0.047884378582521016 -0.015198550290289639 0.024597262519957797 0.082865830399070861 -0.013212881752593284 0.016062880808110278 0.03777490234387533
leaf_weight=17105.34112071991 57889.770927429199 25003.245889663696 11325.530696868896 15863.669613838196 62824.329298019409 21192.339349746704 91520.403345108032 44293.702192306519 32384.868684768677 5899.5770545005798 3509.9066467285156 5118.8261299133301 2163.5149030685425 83306.954223632812 1836.3094577789307 3170.9357013702393 4152.5442352294922 2897.8024253845215 24680.288732528687 75794.895656585693 42661.393878936768 18946.358619689941 59676.627771377563 116811.42895746231 145689.7448015213 4880.7021045684814 27896.209560394287 1829.9663677215576 2869.2758264541626 7377.8798313140869
leaf_count=803 595 676 73 876 7676 121 5652 1322 364 343 37 19 29 1801 9 19 52 4 624 1005 198 168 2087 10628 6158 78 53 52 62 114
internal_value=2.09263e-05 -0.0218406 0.033405 -0.0449671 -0.0495718 0.0241335 -0.00877329 -0.0113729 0.0213011 -0.0537298 -0.0154001 0.0196775 0.000704277 0.0167631 -0.0197692 0.0111133 0.0016499 0.0135499 0.0120132 0.0150073 0.0612684 0.053397 -0.00285464 -0.0459563 -0.013997 0.0498497 0.0736305 0.0337386 0.0582918 0.00734161
internal_weight=1.02057e+06 616717 403857 222657 202641 303028 394060 361069 281835 185535 306226 32991.3 65350 223946 240876 54842.5 20016.2 191561 183782 159102 100829 61607.8 61840.1 122711 149356 7778.5 39221.7 3666.28 7988.1 51671.6
internal_count=41698 36614 5084 20378 19450 4592 16236 15479 4471 18647 14024 757 2153 3876 11871 1455 928 3512 3430 2806 492 366 2116 10971 6219 82 126 61 81 1436
is_linear=0
shrinkage=0.05


Tree=24
num_leaves=31
num_cat=0
split_feature=5 2 2 2 5 2 9 3 9 6 9 2 9 3 9 10 6 6 9 12 5 6 9 5 8 8 3 9 3 10
split_gain=271475 62026.2 45960.7 11951.5 10379.2 8397.69 4414.94 4085.66 6573.42 4016.46 3850.28 3572.41 3176.45 2914.61 2588.96 2479.19 3807.92 2450.75 2278.66 2266.04 2255.2 2560.36 2062.92 2010.12 2861.73 4368.61 2724.94 2551.02 2004.12 2787.72
threshold=147.53397223029069 1910.9231420900003 5.6820016350000015 5612.7997537150013 572.82360958382367 56.970555615000009 1.1795759167786726 121.56788754268941 1.7876006871933547 0.60489373749450759 1.4097613190693015 425.99807035500004 20.398509143594936 402.07607702317733 9.1454828144731142 3.3361674068482809e-05 8.3758560388505355e-05 11.051008663466957 7.709572970712343 -0.1182935563081569 17.982214092369066 17.119496005703216 10.235423976769608 904.16547058363506 -0.02663582154979632 -0.031129883402047229 922.48335565146965 7.6463178435812713 470.09171493542283 0.64693687067744854
decision_type=2 2 2 2 2 2 2 2 2 2 2 2 2 2 2 2 2 2 2 2 2 2 2 2 2 2 2 2 2 2
left_child=2 4 9 10 6 12 13 8 -7 -1 -3 -6 17 -2 -5 16 -13 18 -4 -17 21 -19 -12 26 25 27 -21 -25 -8 -30
right_child=1 3 5 14 11 7 28 -9 -10 -11 22 15 -14 -15 -16 19 -18 20 -20 23 -22 -23 -24 24 -26 -27 -28 -29 29 -31
leaf_value=-0.060870922733343914 0.016825811855252278 0.05586576109082856 -0.025537030439180215 0.066378703391936883 0.065555466886471334 -0.00080008582327778164 -0.011622585746800917 -0.012247927859744276 0.071649667920427915 -0.043066396893574693 0.035076935226144045 0.0083996987506348968 0.027301535232434671 0.066474683731404124 0.037432269597845451 -0.035902399659063652 0.07602725269822036 -0.0097837281904389305 -0.041262853323453384 0.039101912520851295 -0.02210462027675858 0.045232691416791003 0.010399183580160461 0.029712992182535692 0.012534449155373238 0.065369956034468477 0.0079297252431424301 -0.0066626423036949744 5.9167185982429921e-05 0.014427826273024894
leaf_weight=71756.191009044647 10140.06050491333 21734.760456085205 102628.76209115982 68460.54231262207 4519.388614654541 19673.021067619324 22177.078820228577 111764.98660469055 3722.3268938064575 56740.351213932037 72789.935571670532 3671.4022350311279 2950.4673881530762 4172.1281127929688 8712.9866142272949 1858.7536315917969 4807.0791702270508 12779.931276321411 29708.457275867462 8175.4580364227295 62094.208331108093 2533.0168552398682 9585.4058609008789 41721.135461807251 32033.585311889648 8047.1740550994873 49185.564376831055 5448.7387752532959 111298.47539424896 48451.148324966431
leaf_count=8384 203 130 6777 262 27 696 762 4683 35 5434 705 63 95 25 66 51 21 669 2311 84 3374 56 149 524 535 58 977 120 3371 1051
internal_value=2.1602e-05 0.0243962 -0.0274558 0.0481996 0.0122648 -0.0180163 0.00456547 -0.00827062 0.0107294 -0.0530094 0.0371456 0.0217394 -0.0242092 0.0313029 0.0631112 0.0204609 0.0467478 -0.024934 -0.0290677 0.018939 -0.0178665 -0.000680409 0.0322056 0.0196441 0.0244239 0.0313211 0.0123733 0.025511 0.00246185 0.00441719
internal_weight=1.01334e+06 536991 476352 181284 355707 347855 196239 135160 23395.3 128497 104110 159468 212695 14312.2 77173.5 154949 8478.48 209744 132337 146470 77407.2 15312.9 82375.3 144612 87250.6 55217 57361 47169.9 181927 159750
internal_count=41698 9184 32514 1312 7872 18696 5412 5414 731 13818 984 2460 13282 228 328 2433 84 13187 9088 2349 4099 725 854 2298 1237 702 1061 644 5184 4422
is_linear=0
shrinkage=0.05


Tree=25
num_leaves=31
num_cat=0
split_feature=5 5 5 7 7 5 9 5 7 7 9 7 8 8 7 7 12 9 10 7 5 7 5 5 8 7 6 11 6 7
split_gain=246586 55382.8 42806 14496.7 16867.5 12919 9221.03 8990.27 8893.39 8385.51 5585.93 6359.63 5518.28 5507.59 5454.34 5205.07 4930.52 6750.38 4644.97 4092.32 4071.23 3621.72 3479.79 3300.37 3273.92 4212.43 3263.52 3261.14 3203.4 2812.14
threshold=147.53397223029069 2449.5725674084861 5.2826165673381462 10.843966883750008 -12.725275096928341 572.82360958382367 2.6251130216925689 8152.8282219585462 179.26843477214462 5.0707833937500091 9.9499587480943976 -169.71983159524976 0.48407594496367873 0.25195221878032203 150.98291618100066 -38.353877837142818 0.13318118126169012 1.7262887621053404 0.58141445923792079 -373.64481306000027 1376.7420921631585 -187.26015368428531 32.918272523482877 61.048864375033382 -0.16421820378679511 256.86659972900037 93.461336353414737 4.5000000000000009 0.60489373749450759 1268.6276730725363
decision_type=2 2 2 2 2 2 2 2 2 2 2 2 2 2 2 2 2 2 2 2 2 2 2 2 2 2 2 2 2 2
left_child=2 5 9 4 10 19 23 12 16 15 -4 -12 24 14 -5 -1 17 20 29 -2 -7 -9 -8 -6 -3 26 -26 -16 -17 -10
right_child=1 7 3 13 6 8 22 21 18 -11 11 -13 -14 -15 27 28 -18 -19 -20 -21 -22 -23 -24 -25 25 -27 -28 -29 -30 -31
leaf_value=0.0092565100609078698 0.041212019230278452 0.054577875050617564 -0.0036866892695294924 -0.0053843872264846869 -0.02010735633893343 0.018986120586707338 -0.040287715856865192 0.079574086817531614 0.046719999975726373 -0.0034403315287238213 0.080841258362184906 0.0052798628433849476 0.069636479026888673 0.07520143718757448 0.00058446507946970658 -0.064048826577409998 0.056037220242361366 0.0098218959862658786 0.0061678448231388639 0.0029265470439367738 0.049004059404252703 0.051564359691608767 -0.025985940115722885 0.00054182299917376843 0.048870269334091034 0.062734466594315336 0.020046298834550755 0.059565120547490927 -0.046833890032578263 0.085550377819942805
leaf_weight=3051.3937177658081 7246.7367382049561 18889.784851074219 36492.378370285034 33539.063736915588 56809.947610855103 24763.678657531738 85235.421398639679 26529.461582183838 12505.706632614136 8410.8912916183472 4718.8272180557251 6792.4550848007202 14350.43070602417 2917.1481342315674 3811.3146133422852 65375.3284740448 8288.2459011077881 111101.15443229675 4745.4490699768066 188824.46403121948 20772.18452835083 20446.184726715088 84918.073867797852 29345.88512802124 12458.517496109009 9083.1196632385254 46382.395532608032 6085.8417053222656 46100.509788036346 7440.5999145507812
leaf_count=126 102 109 1387 1297 3324 349 6885 57 108 467 21 240 52 17 98 8131 66 2026 70 5310 155 107 4645 1047 86 45 528 63 4766 14
internal_value=2.21679e-05 0.023322 -0.0262405 -0.01734 -0.0213076 0.0133409 -0.026402 0.0493079 0.0226463 -0.0516278 0.00589288 0.0362596 0.0409135 0.00870798 0.00424058 -0.0551666 0.0184562 0.0164673 0.0506315 0.0043418 0.0326803 0.0673843 -0.0331504 -0.013074 0.0361648 0.0310432 0.0261501 0.036855 -0.0569302 0.0612088
internal_weight=1.00743e+06 533828 473604 350666 304313 385688 256309 148140 189617 122938 48003.7 11511.3 101164 46353.4 43436.2 114527 164925 156637 24691.8 196071 45535.9 46975.6 170153 86155.8 86813.8 67924 58840.9 9897.16 111476 19946.3
internal_count=41698 9184 32514 19024 17549 8200 15901 984 2788 13490 1648 261 820 1475 1458 13023 2596 2530 192 5412 504 164 11530 4371 768 659 614 161 12897 122
is_linear=0
shrinkage=0.05


Tree=26
num_leaves=31
num_cat=0
split_feature=5 5 5 5 7 7 9 7 7 7 7 7 5 7 9 4 7 9 6 9 8 7 9 12 9 5 9 12 5 9
split_gain=224669 57158.6 32973.7 17367.6 11428.8 10260.4 8527.53 8186.42 7826.61 7057.79 6135.99 6712.44 5409.33 4905.22 4891.19 4619.64 4333.97 5752.05 4478.56 4180.41 3964.61 3720.51 3848.55 3626.31 3429.84 3471.5 3373.46 3202.07 3161.37 3072.71
threshold=383.3457049338304 5.2826165673381462 5498.5473454337671 56.062729058560272 256.86659972900037 98.384341065357276 1.545281850260589 -12.725275096928341 5.0707833937500091 -208.98635206199992 -64.039221834678486 21.145981757666657 57.701226414816695 -1.9540299867857065 14.610278525163372 2.0147121248761723 2.9923271746428686 6.942124839050817 11.051008663466957 2.8180308718397078 0.017272257820691774 -187.26015368428531 5.168732152031402 0.12751884006080802 10.235423976769608 977.51620726751082 1.1696887285351816 0.13820666703377019 7.137499700390058 20.398509143594936
decision_type=2 2 2 2 2 2 2 2 2 2 2 2 2 2 2 2 2 2 2 2 2 2 2 2 2 2 2 2 2 2
left_child=1 8 4 5 6 7 -2 -3 13 -8 14 15 -13 -1 -5 -12 17 18 -9 -6 -17 -4 -23 24 25 -11 -15 -25 -7 -18
right_child=2 3 21 10 19 28 9 16 -10 23 11 12 -14 26 -16 20 29 -19 -20 -21 -22 22 -24 27 -26 -27 -28 -29 -30 -31
leaf_value=-0.024062348174779202 0.035786184982075163 0.0039720697007787865 0.072754308138812104 0.011563342562644283 0.005655737252318908 0.08549604651865389 0.035040933477010615 -0.031974560566743991 -0.0032685293962197931 0.0044935794187241649 -0.013313167181293393 0.078054741393607005 0.0082458149450511942 -0.025038943342752137 0.075878800583172423 0.049752545135382506 -0.013491698179711875 -0.045994444193669923 -0.010819394369773708 0.060157683607459128 -0.0001644841117979632 0.060352568051636885 0.028251475079019341 0.088173167129862173 -0.0071935259332575373 0.019331921974395844 -0.05963549701148161 0.020299507963008133 0.014395748525714465 0.061153730168298406
leaf_weight=12751.676149368286 63005.83078956604 23140.139580726624 30980.630882263184 23946.895671844482 4099.2209529876709 2221.1180772781372 36888.069807052612 73492.742699623108 8410.405846118927 72901.237234115601 155338.58182239532 3011.7003288269043 35179.554615974426 7630.908796787262 3371.6075820922852 4363.1054706573486 27253.713306903839 44761.120051383972 37932.110390663147 24844.621404647827 44935.054686546326 28931.111198425293 13790.931289672852 2751.3523273468018 25634.866998672485 85822.922008514404 92342.710780143738 4716.5204620361328 5276.6748018264771 1451.1042122840881
leaf_count=998 633 873 89 587 58 8 395 5486 467 1637 6571 17 875 696 18 63 1451 3719 1928 147 1381 123 116 6 636 1167 11329 77 124 23
internal_value=2.29946e-05 -0.0190716 0.0294037 -0.0114076 0.0224721 -0.0219932 0.0194987 -0.0240643 -0.0497985 0.0150117 -0.00296221 -0.00548975 0.0137529 -0.05327 0.0195037 -0.00908106 -0.0275733 -0.0308551 -0.024773 0.0524394 0.00425421 0.0595605 0.0499912 0.0111599 0.00977609 0.0125168 -0.0569951 0.045315 0.0354675 -0.009716
internal_weight=1.00118e+06 606811 394367 485675 320665 215529 291721 208031 121136 228715 270147 242828 38191.3 112725 27318.5 204637 184891 156186 111425 28943.8 49298.2 73702.7 42722 191827 184359 158724 99973.6 7467.87 7497.79 28704.8
internal_count=41698 36614 5084 23124 4756 13612 4551 13480 13490 3918 9512 8907 892 13023 605 8015 12607 11133 7414 205 1444 328 239 3523 3440 2804 12025 83 132 1474
is_linear=0
shrinkage=0.05


Tree=27
num_leaves=31
num_cat=0
split_feature=2 2 2 2 2 2 9 6 3 9 3 9 9 4 4 2 9 4 6 4 10 3 4 8 10 4 10 11 6 8
split_gain=203672 45943.9 40512.5 11577.2 8431.85 5382.3 4606.93 3746.37 3509.69 2921.76 2769.52 5904.69 2670.77 5182.35 3374.25 2567.37 2562.63 2546.97 3273.02 3269.9 3167.76 2692.54 2398.38 2275.82 2255.56 3045.49 2255.02 5341.16 1830.83 1783.82
threshold=182.57230296000003 3443.4789626150005 5.6820016350000015 697.47135076000006 56.970555615000009 8351.8714891500022 3.7086093309164028 0.60489373749450759 8835.3978580775893 1.1696887285351816 103.25620893617959 1.7876006871933547 1.4097613190693015 -0.00012608476316249118 -0.0019610590034325808 1910.9231420900003 20.398509143594936 -28.080086836076145 62.425775382905144 -13.534077285832298 0.14641413765587605 10065.594468197038 -12.099145864846824 0.28943882569530627 0.035693512022661002 -830.02024032482916 0.17527945940259257 14.500000000000002 134.50767219645613 -0.06373155050140937
decision_type=2 2 2 2 2 2 2 2 2 2 2 2 2 2 2 2 2 2 2 2 2 2 2 2 2 2 2 2 2 2
left_child=2 3 7 8 16 6 -3 -1 9 -2 11 -6 15 14 17 -5 22 18 20 -19 -14 -21 -4 -24 -7 -26 -20 29 -12 -28
right_child=1 5 4 12 10 24 -8 -9 -10 -11 28 -13 13 -15 -16 -17 -18 19 26 21 -22 -23 23 -25 25 -27 27 -29 -30 -31
leaf_value=-0.05533308294686487 0.028168111527260217 0.05336950071556304 0.0098078626882258796 0.023448843049429506 0.00068444207981063743 0.085883167952305231 0.026749933511325871 -0.037794529882990473 0.047738815972108495 0.002979081461911723 -0.009826444204836705 0.080727377494590441 0.082384639457078135 -0.0036710205035614162 0.067854463189232814 0.052360641810804902 0.025737272930349348 -0.016734598649829867 0.0032812907931139552 0.0090265225936579305 0.031819437956947354 0.052116392693362518 -0.024276463918444579 -0.0054484295539684417 0.071265423773051326 0.042033534578358511 0.017432111020916817 0.094819393495843951 0.011992717853588122 0.032500750383827499
leaf_weight=68064.721365451813 12324.547295570374 37226.740215301514 5863.351336479187 17025.962976455688 16141.199724197388 9417.7858695983887 28857.665796279907 55121.873412132263 4845.4417934417725 174503.03763198853 134857.4167137146 2686.7270469665527 4589.7965850830078 19544.995811462402 4211.8984432220459 13991.162956237793 2884.2343235015869 8628.4720249176025 13192.099786758423 13584.815212249756 9530.385950088501 4944.5287857055664 183654.73991203308 17588.125419616699 20255.683696746826 15920.87967300415 50968.522331237793 2689.8861198425293 10351.165477752686 31960.154884338379
leaf_count=8384 202 203 232 210 562 13 289 5434 57 4661 5550 15 13 364 23 87 95 212 238 230 109 42 12145 812 57 94 702 2 269 392
internal_value=2.31321e-05 0.0226172 -0.0226164 0.0144557 -0.0144256 0.0508649 0.041746 -0.0474856 0.00573068 0.00464091 -0.00593152 0.0121104 0.0230377 0.0204906 0.0237632 0.0364918 -0.0210607 0.022437 0.0257432 0.00868834 0.0482608 0.0205275 -0.0217126 -0.022631 0.0640806 0.0584025 0.0225249 0.0254898 -0.00827096 0.0232398
internal_weight=995428 498214 497214 386536 374027 111679 66084.4 123187 191673 186828 164037 18827.9 194863 163846 144301 31017.1 209990 140089 112931 27157.8 14120.2 18529.3 207106 201243 45594.3 36176.6 98810.7 85618.6 145209 82928.7
internal_count=41698 8200 33498 7544 19680 656 492 13818 4920 4863 6396 577 2624 2327 1963 297 13284 1940 1456 484 122 272 13189 12957 164 151 1334 1096 5819 1094
is_linear=0
shrinkage=0.05


Tree=28
num_leaves=31
num_cat=0
split_feature=5 2 5 2 2 2 9 6 3 9 6 4 9 10 10 9 9 3 10 2 4 5 2 10 4 5 3 9 6 9
split_gain=185820 45817.9 34009.6 9115.6 8189.91 6347.07 4529.89 3777.11 3311.76 3043.96 2846.67 2751.03 2561.11 2649.71 4390.36 2523.68 4492.78 2785.57 2506.14 2341.83 2769.84 2693.22 5241.91 2299.59 2986.63 2260.03 2189.44 2188.46 2101.73 2019.23
threshold=147.53397223029069 2496.3348225550003 5.2826165673381462 697.47135076000006 8351.8714891500022 27.426018205000002 1.1616823305324651 0.60489373749450759 8835.3978580775893 2.4393279620912325 10.034034666905582 125.91318801559727 4.6332511455484298 0.3444828053242513 0.36996381687511087 13.724618373179412 13.570466594192155 12967.728211174284 0.93014015778910653 30.779744770000004 -0.005830378338029722 56.062729058560272 58.627485025000006 0.035693512022661002 -830.02024032482916 5.4506076617594088 7915.4391660674592 15.713713691460992 1581.195943014153 3.4613609874706825
decision_type=2 2 2 2 2 2 2 2 2 2 2 2 2 2 2 2 2 2 2 2 2 2 2 2 2 2 2 2 2 2
left_child=2 3 7 8 6 10 -3 -1 11 19 25 -2 26 -14 -15 16 17 -5 27 20 -7 -21 -23 -6 -25 -4 -8 -11 -28 -30
right_child=1 4 5 15 23 9 12 -9 -10 18 -12 -13 13 14 -16 -17 -18 -19 -20 21 -22 22 -24 24 -26 -27 28 -29 29 -31
leaf_value=-0.053986443449828593 0.0023430080738729409 0.065934925266333197 0.014882584991817733 0.022264228154864688 0.084714445667834912 0.055901460558623911 0.024129123810245273 -0.035941972003858243 0.045875489010459541 -0.017439021816870588 -0.012242555886206341 0.024880801770404418 0.0092908830372410937 0.073039461730995292 0.01697485233991354 -0.012346877181256415 0.084525220142568941 -0.0051326027670520573 0.010991087317877605 -0.017813159633139234 -0.018587618428929042 0.059754953731556593 -0.0019696580765193009 0.069467131654492531 0.04028815989250855 -0.029789288351907459 0.054138240482181965 0.007069690605753587 0.045657210593119113 0.0036809538750318207
leaf_weight=66865.451644897461 201957.96488666534 11518.477733612061 2921.4542322158813 141787.4525604248 9079.0002899169922 3596.4647903442383 16401.893795013428 51236.126750946045 4791.590690612793 125706.8598985672 38406.32665348053 14511.922214508057 18804.435722351074 5497.4345245361328 9572.0314025878906 5665.6696720123291 2787.0571155548096 9926.9356212615967 9431.6521167755127 22603.769843101501 1910.1361618041992 3779.9217987060547 38104.106081008911 19754.039539337158 15783.729167938232 91036.318022727966 25504.445304870605 9818.9999856948853 7083.7641868591309 4810.8387145996094
leaf_count=8387 5640 44 164 1932 13 73 153 5103 57 6281 2150 207 248 21 111 155 8 201 323 1124 96 51 1362 57 94 7034 142 366 44 57
internal_value=2.41695e-05 0.0204086 -0.0229802 0.0113408 0.0444588 -0.0150985 0.0364556 -0.0461586 0.00476428 -0.00979436 -0.023712 0.00385405 0.0325819 0.0218106 0.0374314 0.0204257 0.0216276 0.0204716 -0.0139289 -0.00123162 0.030063 -0.00390436 0.003602 0.0622506 0.0565092 -0.0284001 0.039363 -0.0156633 0.0460431 0.0286818
internal_weight=990656 525239 465418 381429 143810 347316 99193.3 118102 221261 214952 132364 216470 87674.8 33873.9 15069.5 160167 154501 151714 144958 69994.4 5506.6 64487.8 41884 44616.8 35537.8 93957.8 53800.9 135526 37399 11894.6
internal_count=41698 9184 32514 8200 984 19024 820 13490 5904 9676 9348 5847 776 380 132 2296 2141 2133 6970 2706 169 2537 1413 164 151 7198 396 6647 243 101
is_linear=0
shrinkage=0.05


Tree=29
num_leaves=31
num_cat=0
split_feature=5 2 2 7 7 7 7 7 5 9 4 9 3 7 7 7 9 9 2 7 7 2 7 4 7 6 10 2 7 4
