tree
version=v4
num_class=1
num_tree_per_iteration=1
label_index=0
max_feature_idx=22
objective=regression
feature_names=Archetype_Cluster count_pre_release_tracks max_single_peak_volume total_pre_release_auc terminal_velocity composite_peak_momentum expected_week1_carryover catalog_momentum_slope norm_terminal_velocity norm_total_auc hype_concentration peak_proximity_weeks cannibalization_ratio max_historical_product_sales median_historical_product_sales is_debut_album cluster_prob_0 cluster_prob_1 cluster_prob_2 cluster_prob_3 historical_single_momentum momentum_growth_ratio momentum_baseline_interaction
feature_infos=-1:1:0:2:3 [1:5] [0.15493354000000001:75504.173984980007] [0.9623009484630124:586064.96816895751] [-4652.4197062240692:5950.1745318299018] [0.15375558970442357:73887.775385993606] [7.7160203568537457e-17:18428.69349494268] [-7229.7353489150037:3157.048520890005] [-0.46049674334352897:0.5] [0.5:21.542368515238689] [6.0680680108863112e-14:1] [0:24] [-0.61267983043558838:781410949.77239323] [0:506578] [0:506578] none [0:1] [0:1] [0:0.5] [0:0.66666666666666663] [0:31927.890982030003] [0.0021978005458096975:81388.518390553829] [0:10712343502.823486]
tree_sizes=1400 1295 1461 1491 1576 1496 1485 1498 1658 1415 1393 1391 1415 1581 1497 1497 1416 1505 1577 1564 1585 1584 1563 1592 1504 1596 1597 1587 1671 1673 1595 1762 1590 1677 1512 1682 1505 1762 1599 1681 1666 1595 1763 1502 1613 1685 1774 1685 1684 1608 1611 1683 1516 1621 1505 1747 1683 1774 1666 1682 1691 1670 1406 1685 1780 1687

Tree=0
num_leaves=16
num_cat=0
split_feature=13 13 13 19 4 5 17 4 4 20 13 13 17 6 13
split_gain=183.933 17.9421 16.4607 11.3801 6.65976 6.39349 5.27052 3.94369 3.51145 3.37449 2.7657 3.51835 1.99958 1.28015 0.205255
threshold=18463.500000000004 8103.5000000000009 60704.500000000007 1.0000000180025095e-35 -41.433568597832014 977.72283605082009 0.81666666666666676 -0.0047398736584898325 -59.298978610302491 82.200303645000005 4300.5000000000009 2250.2500000000005 0.47727272727272735 11.412419829985435 1052.2500000000002
decision_type=2 2 2 2 2 2 2 2 2 2 2 2 2 2 2
left_child=1 3 8 4 6 -5 -1 12 -2 10 11 14 -3 -12 -6
right_child=2 7 -4 5 9 -7 -8 -9 -10 -11 13 -13 -14 -15 -16
leaf_value=9.343713108744339 9.4094770900436995 9.329926516753595 9.4435842717197129 9.3266328282950717 9.3218394665086581 9.3601653494696713 9.3154033508680723 9.3676672874348696 9.3781218825739412 9.3285117472338008 9.3090652725696756 9.2941415983049467 9.3493369217383027 9.3264543312707531 9.3106108446052573
leaf_weight=37 20 20 28 29 21 26 28 20 27 30 20 49 35 33 24
leaf_count=37 20 20 28 29 21 26 28 20 27 30 20 49 35 33 24
internal_value=9.34195 9.32751 9.41285 9.322 9.31735 9.34244 9.33138 9.34923 9.3927 9.31231 9.30915 9.30378 9.3421 9.31931 9.31519
internal_weight=447 372 75 297 242 55 65 75 47 177 147 94 55 53 45
internal_count=447 372 75 297 242 55 65 75 47 177 147 94 55 53 45
is_linear=0
shrinkage=1


Tree=1
num_leaves=14
num_cat=0
split_feature=13 7 13 13 7 20 7 4 7 6 9 13 16
split_gain=166.68 21.1017 18.2163 14.8777 9.53296 3.74653 3.25227 3.18248 3.08355 2.05727 2.03113 2.07096 0.0176457
threshold=18463.500000000004 -152.15725574499908 7009.0000000000009 60704.500000000007 189.67718253821442 569.01049580500001 20.692596926607333 -59.298978610302491 -4.8184115955356575 68.27528470617213 2.2583281053444035 5142.7500000000009 1.0000000180025095e-35
decision_type=2 2 2 2 2 2 2 2 2 2 2 2 2
left_child=1 -1 4 7 5 8 9 -2 -3 -4 -10 12 -12
right_child=3 2 6 -5 -6 -7 -8 -9 10 -11 11 -13 -14
leaf_value=0.020611670414917169 0.064309722880522405 -0.017799221570137889 -0.016601827982068062 0.09672599952796411 0 -0.0086650606803596025 0.014331649216192385 0.034426092665110312 -0.022837902673306196 0.0017277826874730333 -0.046341484778739034 -0.023476004402797956 -0.036271910943636076
leaf_weight=39 20 39 24 28 33 22 30 27 36 38 46 25 40
leaf_count=39 20 39 24 28 33 22 30 27 36 38 46 25 40
internal_value=0 -0.0137475 -0.0178362 0.0674933 -0.0250368 -0.0289801 0.00103891 0.0483216 -0.031297 -0.00543908 -0.0346998 -0.0382641 -0.0421862
internal_weight=447 372 333 75 241 208 92 47 186 62 147 111 86
internal_count=447 372 333 75 241 208 92 47 186 62 147 111 86
is_linear=0
shrinkage=0.05


Tree=2
num_leaves=16
num_cat=0
split_feature=13 7 13 22 7 13 17 13 13 22 7 13 10 7 10
split_gain=151.036 19.1015 16.4931 13.65 8.62859 7.49642 5.39695 3.39692 3.16682 2.63196 1.59341 1.32069 0.789236 0.458886 0.497665
threshold=18463.500000000004 -152.15725574499908 7009.0000000000009 203491817.29767022 189.67718253821442 33043.750000000007 0.27500000000000008 892.50000000000011 4247.2500000000009 42971.701349559415 20.692596926607333 5762.0000000000009 0.31382631080170681 -1.9744968091070294 0.52115072795981832
decision_type=2 2 2 2 2 2 2 2 2 2 2 2 2 2 2
left_child=1 -1 4 5 7 -2 -4 9 13 -3 12 -10 -8 -9 -15
right_child=3 2 6 -5 -6 -7 10 8 11 -11 -12 -13 -14 14 -16
leaf_value=0.019606850795215 0.029409862200419107 -0.027489689981697929 -0.021300495422522853 0.096727103044589369 0 0.069564206854750718 -0.0047573575265635985 -0.026536335193862521 -0.012634739128932837 -0.0028521609261631963 0.017720228832401336 -0.028466450558480572 0.0077957324435313545 -0.042439445864343853 -0.029036319541931158
leaf_weight=39 29 20 20 23 33 23 22 23 30 24 24 31 26 56 24
leaf_count=39 29 20 20 23 33 23 22 23 30 24 24 31 26 56 24
internal_value=0 -0.0130806 -0.016971 0.0642538 -0.0238226 0.0482422 0.000986676 -0.0275743 -0.030936 -0.0145242 0.00745303 -0.0210904 0.00196052 -0.0364599 -0.0388884
internal_weight=447 372 333 75 241 52 92 208 164 44 72 61 48 103 80
internal_count=447 372 333 75 241 52 92 208 164 44 72 61 48 103 80
is_linear=0
shrinkage=0.05


Tree=3
num_leaves=16
num_cat=0
split_feature=13 7 13 13 5 13 7 17 10 7 13 7 7 10 10
split_gain=136.901 17.2958 14.937 12.3927 7.85559 5.80456 7.40567 4.8941 2.81029 2.0299 1.75651 1.44396 1.43439 0.760151 0.715605
threshold=18463.500000000004 -152.15725574499908 7009.0000000000009 60704.500000000007 1063.2723126586322 4055.7500000000005 189.67718253821442 0.27500000000000008 0.23025523536346273 -1.9744968091070294 5142.7500000000009 20.692596926607333 -25.896952824642852 0.78602165725437012 0.31382631080170681
decision_type=2 2 2 2 2 2 2 2 2 2 2 2 2 2 2
left_child=1 -1 4 8 9 6 -6 -4 -2 12 13 14 -3 -11 -9
right_child=3 2 7 -5 5 -7 -8 11 -10 10 -12 -13 -14 -15 -16
leaf_value=0.018651016998453999 0.028608477755139274 -0.027396552552069936 -0.020286185719250213 0.087855210478963525 -0.015078322471630191 -0.029135737823477639 0.022847007116810845 -0.0045298320162312491 0.056200139808654785 -0.038794753961920947 -0.020550020750721588 0.016869657612591984 -0.0079188830591738219 -0.02479915898991749 0.0074203823203289956
leaf_weight=39 23 20 20 28 30 23 21 22 24 70 33 24 21 23 26
leaf_count=39 23 20 20 28 30 23 21 22 24 70 33 24 21 23 26
internal_value=9.86251e-07 -0.0124503 -0.0161527 0.0611764 -0.0226732 -0.00885402 0.000580888 0.000934363 0.0436793 -0.0286777 -0.0319552 0.0070946 -0.0179653 -0.0356873 0.00186049
internal_weight=447 372 333 75 241 74 51 92 47 167 126 72 41 93 48
internal_count=447 372 333 75 241 74 51 92 47 167 126 72 41 93 48
is_linear=0
shrinkage=0.05


Tree=4
num_leaves=17
num_cat=0
split_feature=22 7 22 3 22 7 2 8 22 7 21 17 16 22 2 6
split_gain=88.1625 22.4749 9.39199 10.3435 9.1187 7.57341 5.8654 5.15243 3.75415 2.12862 2.27996 1.51113 2.56487 1.24088 0.781053 0.342236
threshold=50476237.693006106 -152.15725574499908 316032616.60830998 14275.350411972031 3964446.863011722 238.40547854571423 1160.6689884550003 -0.020638521751967429 7149050.0749509474 1.0000000180025095e-35 11.171380988193546 0.77500000000000013 0.44949494949494956 590842.38587411877 437.17421846000008 42.532673108595453
decision_type=2 2 2 2 2 2 2 2 2 2 2 2 2 2 2 2
left_child=1 -1 3 -2 5 9 8 -8 -6 11 -11 12 -3 -14 -12 -13
right_child=2 4 -4 -5 6 -7 7 -9 -10 10 14 15 13 -15 -16 -17
leaf_value=0.026205061480689507 0.062507614577594003 -0.0034741114403464297 0.078629684366963132 0.016476507890969518 -0.0021910007104277611 0.0091457272205679192 0.0039366877662638826 -0.023802496857549014 0.025821478830083556 -0.01291165497686182 -0.027357194737531246 -0.03081378371881632 -0.030814000382309872 -0.012268864358572858 -0.042223222124576569 -0.018314285012228149
leaf_weight=38 22 37 21 29 24 20 29 37 22 20 39 23 20 22 24 20
leaf_count=38 22 37 21 29 24 20 29 37 22 20 39 23 20 22 24 20
internal_value=4.83891e-06 -0.00974642 0.050299 0.0372494 -0.0138806 -0.0196654 -0.00214403 -0.0116626 0.0113642 -0.0225313 -0.0289406 -0.0179303 -0.0133912 -0.0217274 -0.0336698 -0.0256621
internal_weight=447 375 72 51 337 225 112 66 46 205 83 122 79 42 63 43
internal_count=447 375 72 51 337 225 112 66 46 205 83 122 79 42 63 43
is_linear=0
shrinkage=0.05


Tree=5
num_leaves=16
num_cat=0
split_feature=13 13 22 19 2 13 13 4 22 22 20 13 17 13 16
split_gain=114.955 11.794 10.7388 8.4397 6.32298 6.01095 5.56665 3.388 3.00469 2.65919 2.25312 2.68682 1.34624 0.94199 0.697603
threshold=18463.500000000004 8103.5000000000009 203491817.29767022 1.0000000180025095e-35 823.35542486500015 29514.000000000004 524.50000000000011 -0.0047398736584898325 3791798.0933438861 9615145.6759925466 82.200303645000005 4247.2500000000009 0.47727272727272735 2203.2500000000005 0.44949494949494956
decision_type=2 2 2 2 2 2 2 2 2 2 2 2 2 2 2
left_child=1 3 5 6 -5 -2 -1 12 10 -10 11 13 -3 -8 -13
right_child=2 7 -4 4 -6 -7 8 -9 9 -11 -12 14 -14 -15 -16
leaf_value=0.0004951094177862009 0.023183058039457711 -0.010370390537594048 0.084847300238907339 -0.014597004622477911 0.018699126693287067 0.058834816380231469 -0.026597004841185282 0.023286986982095102 -0.0016130761345848441 -0.022216758961892791 -0.0099534639858064218 -0.012176584902702382 0.0055530287139117715 -0.040495392220175785 -0.025576568118607007
leaf_weight=29 26 20 23 28 27 26 35 20 29 35 20 26 35 45 23
leaf_count=29 26 20 23 28 27 26 35 20 29 35 20 26 35 45 23
internal_value=4.43544e-06 -0.0114044 0.0560634 -0.0158724 0.00170111 0.041877 -0.0198776 0.00619944 -0.022664 -0.0131261 -0.0266127 -0.0290607 -0.000229807 -0.03488 -0.0189521
internal_weight=447 372 75 297 55 52 242 75 213 64 149 129 55 80 49
internal_count=447 372 75 297 55 52 242 75 213 64 149 129 55 80 49
is_linear=0
shrinkage=0.05


Tree=6
num_leaves=16
num_cat=0
split_feature=13 7 13 22 3 22 13 7 16 7 9 21 7 13 6
split_gain=104.183 13.6328 11.5116 9.72704 6.28127 8.17686 5.43838 2.44756 1.5625 1.53435 1.64272 2.1696 1.17498 0.924016 1.21882
threshold=18463.500000000004 -152.15725574499908 7009.0000000000009 203491817.29767022 9181.3636482689744 5560683.7739254003 29514.000000000004 20.692596926607333 0.40833333333333338 -1.9744968091070294 2.2583281053444035 62.005562419857121 -25.896952824642852 5026.5000000000009 8.8185051854947893
decision_type=2 2 2 2 2 2 2 2 2 2 2 2 2 2 2
left_child=1 -1 4 6 9 -6 -2 8 -4 12 11 -11 -3 14 -12
right_child=3 2 7 -5 5 -7 -8 -9 -10 10 13 -13 -14 -15 -16
leaf_value=0.016751884610392155 0.022066836924188669 -0.02307435417790776 0.0016792224494642334 0.080781700884302463 0.018173652194116426 -0.020180598414369994 0.056002029167074301 0.012391449693710574 -0.014177035174260919 -0.028877739354613283 -0.02046062511688268 -0.0054640626314688811 -0.0059201647709547119 -0.018585668642495185 -0.037065243105419345
leaf_weight=39 26 22 37 23 22 34 26 30 25 20 21 21 21 20 60
leaf_count=39 26 22 37 23 22 34 26 30 25 20 21 21 21 20 60
internal_value=8.26524e-06 -0.0108523 -0.0141407 0.0533766 -0.019865 -0.00497065 0.0398653 0.000853145 -0.00475861 -0.0242957 -0.0269095 -0.01742 -0.0151353 -0.030504 -0.0331233
internal_weight=447 372 333 75 241 56 52 92 62 185 142 41 43 101 81
internal_count=447 372 333 75 241 56 52 92 62 185 142 41 43 101 81
is_linear=0
shrinkage=0.05


Tree=7
num_leaves=16
num_cat=0
split_feature=14 14 7 7 14 20 7 5 4 14 16 16 14 14 11
split_gain=94.7253 16.3562 9.37879 6.8922 5.61453 3.56343 2.23866 2.10724 1.36063 1.00421 0.981984 1.58995 0.757815 0.328725 0.234022
threshold=12610.500000000002 29514.000000000004 -211.78365667982126 284.15054362642837 7009.0000000000009 569.01049580500001 -4.8184115955356575 2819.1346630248777 -14.647672135981916 4610.5000000000009 1.0000000180025095e-35 0.36666666666666675 2281.2500000000005 62681.250000000007 3.5000000000000004
decision_type=2 2 2 2 2 2 2 2 2 2 2 2 2 2 2
left_child=2 7 -1 4 5 6 12 -2 -6 10 -8 -12 -4 -3 -11
right_child=1 13 3 -5 8 -7 9 -9 -10 14 11 -13 -14 -15 -16
leaf_value=0.013401874320115895 0.014296198500054225 0.05121134942640429 -0.0050577169231006075 0.0053345587552600625 -0.012215207648174518 -0.0037024479662930523 -0.035515881204605103 0.035682125486256114 0.0023774370865098067 -0.013637853384665822 -0.012169859938667683 -0.030608993698325423 -0.019293578141792257 0.072315497376884405 -0.023546155237633253
leaf_weight=31 34 22 20 36 28 26 49 20 34 22 22 35 21 25 22
leaf_count=31 34 22 20 36 28 26 49 20 34 22 22 35 21 25 22
internal_value=9.97723e-06 0.04238 -0.0124302 -0.0150226 -0.0176769 -0.021461 -0.0238205 0.0228126 -0.00422271 -0.0267077 -0.029604 -0.0239109 -0.0127541 0.0638138 -0.0191163
internal_weight=447 101 346 315 279 217 191 54 62 150 106 57 41 47 44
internal_count=447 101 346 315 279 217 191 54 62 150 106 57 41 47 44
is_linear=0
shrinkage=0.05


Tree=8
num_leaves=18
num_cat=0
split_feature=7 7 5 5 10 10 7 8 11 4 3 5 6 6 7 7 10
split_gain=37.22 22.1606 6.68759 4.07462 3.76737 3.50155 3.49795 2.40187 2.32542 2.2222 1.9151 1.85117 1.7381 1.54415 1.5656 0.768885 0.641557
threshold=-152.15725574499908 873.2539399515714 880.11346832452807 4619.8180473800012 0.22199897378014552 0.40543698782563414 -4.0142674305356749 -0.049449077119468353 6.5000000000000009 8.3211393151832098 90.70286319257697 1327.3330334322641 583.14206432247363 97.08038753825231 21.581605479036583 1.0000000180025095e-35 0.066215759816288342
decision_type=2 2 2 2 2 2 2 2 2 2 2 2 2 2 2 2 2
left_child=3 2 6 11 12 -6 8 -7 -2 10 -8 -1 16 14 15 -12 -4
right_child=1 -3 4 -5 5 7 9 -9 -10 -11 13 -13 -14 -15 -16 -17 -18
leaf_value=0.035104996503695196 -0.011663361957127399 0.040616772839178639 -0.0087010368296787845 0.053267170018093148 0.021172547317270578 0.011069499926552887 -0.034943207161767145 -0.01206426036146392 0.0087541328968169796 -0.0049005214028781463 -0.011960326554399218 0.013025781227783726 -0.020000218749046325 -0.026148611018911767 -0.0033654543115147228 -0.024964118200139357 0.00358523804428322
leaf_weight=22 32 23 20 21 28 20 20 23 23 30 31 21 22 38 28 25 20
leaf_count=22 32 23 20 21 28 20 20 23 23 30 31 21 22 38 28 25 20
internal_value=1.21427e-05 -0.00589953 -0.00898954 0.0350132 -4.11618e-05 0.00773502 -0.0141873 -0.0011837 -0.003032 -0.0176874 -0.0203007 0.0249769 -0.00900693 -0.0175951 -0.0134047 -0.0181894 -0.00249834
internal_weight=447 383 360 64 133 71 227 43 55 172 142 43 62 122 84 56 40
internal_count=447 383 360 64 133 71 227 43 55 172 142 43 62 122 84 56 40
is_linear=0
shrinkage=0.05


Tree=9
num_leaves=15
num_cat=0
split_feature=13 7 13 13 7 17 13 17 13 22 13 17 13 22
split_gain=82.7047 9.85937 9.07209 7.68706 4.82153 3.90298 2.43985 2.23479 2.11111 1.99927 1.24433 1.23609 0.471006 0.333704
threshold=18463.500000000004 -152.15725574499908 7009.0000000000009 60704.500000000007 189.67718253821442 0.27500000000000008 892.50000000000011 0.57777777777777783 4247.2500000000009 42971.701349559415 5762.0000000000009 0.85416666666666685 3075.2500000000005 1454222.3108523136
decision_type=2 2 2 2 2 2 2 2 2 2 2 2 2 2
left_child=1 -1 4 7 6 -4 9 -2 12 -3 -10 -7 13 -8
right_child=3 2 5 -5 -6 11 8 -9 10 -11 -12 -13 -14 -15
leaf_value=0.01380712504684925 0.021236447009444239 -0.020668516027785484 -0.018098811524964516 0.068588154251719338 6.762706510284367e-05 0.012432060736792689 -0.026602088510990142 0.045204318923254806 -0.0073148688798650155 0.00024567798823118208 -0.022196489068446682 -0.00046254152378865656 -0.032353852799472713 -0.015715340297846568
leaf_weight=39 24 20 20 28 33 38 36 23 30 24 31 34 47 20
leaf_count=39 24 20 20 28 33 38 36 23 30 24 31 34 47 20
internal_value=1.29736e-05 -0.00966236 -0.0124591 0.0475641 -0.017541 0.000845015 -0.0203456 0.033767 -0.0231778 -0.00939771 -0.0151943 0.00635153 -0.0276662 -0.0231456
internal_weight=447 372 333 75 241 92 208 47 164 44 61 72 103 56
internal_count=447 372 333 75 241 92 208 47 164 44 61 72 103 56
is_linear=0
shrinkage=0.05


Tree=10
num_leaves=15
num_cat=0
split_feature=13 13 19 2 13 13 22 22 5 20 13 9 13 16
split_gain=75.5926 12.7565 6.72426 5.81148 3.61282 4.5171 1.71923 2.83713 1.69682 1.51711 1.88386 1.3924 0.742498 0.599091
threshold=12610.500000000002 29514.000000000004 1.0000000180025095e-35 823.35542486500015 8509.0000000000018 524.50000000000011 3791798.0933438861 9615145.6759925466 2819.1346630248777 82.200303645000005 4247.2500000000009 3.9462641174927771 2078.7500000000005 0.44949494949494956
decision_type=2 2 2 2 2 2 2 2 2 2 2 2 2 2
left_child=2 8 4 -4 5 -1 9 -8 -2 10 12 -3 -7 -12
right_child=1 11 3 -5 -6 6 7 -9 -10 -11 13 -13 -14 -15
leaf_value=0.0017972904406487944 0.012882569812238218 0.041549786263633343 -0.01112336919614763 0.018757586823776366 0.00027630570092918098 -0.021010947569593555 0 -0.020669737507899601 0.032122171806792423 -0.0082560067588374735 -0.0097039488253981947 0.066041408628225329 -0.033347578463703391 -0.021682146617397667
leaf_weight=29 34 20 32 31 36 31 29 38 20 20 27 27 49 24
leaf_count=29 34 20 32 31 36 31 29 38 20 20 27 27 49 24
internal_value=1.32365e-05 0.0378643 -0.0110986 0.00356518 -0.0143817 -0.0165307 -0.0189888 -0.0118629 0.0205537 -0.0220189 -0.0240037 0.0568064 -0.0289473 -0.0157455
internal_weight=447 101 346 63 283 247 218 67 54 151 131 47 80 51
internal_count=447 101 346 63 283 247 218 67 54 151 131 47 80 51
is_linear=0
shrinkage=0.05


Tree=11
num_leaves=15
num_cat=0
split_feature=13 13 19 2 13 13 22 22 5 21 13 9 11 10
split_gain=68.5146 11.5537 6.08823 5.26259 3.27437 4.09419 1.55538 2.56718 1.53785 1.30294 2.17626 1.24491 0.63025 0.447266
threshold=12610.500000000002 29514.000000000004 1.0000000180025095e-35 823.35542486500015 8509.0000000000018 524.50000000000011 3791798.0933438861 9615145.6759925466 2819.1346630248777 22.751982449468432 3762.0000000000005 3.9462641174927771 3.5000000000000004 0.32189360540274753
decision_type=2 2 2 2 2 2 2 2 2 2 2 2 2 2
left_child=2 8 4 -4 5 -1 9 -8 -2 -7 13 -3 -12 -11
right_child=1 11 3 -5 -6 6 7 -9 -10 10 12 -13 -14 -15
leaf_value=0.0017104218552509943 0.012256844881389823 0.039571224767492995 -0.010584054409780287 0.01784901597071439 0.00026286381523351411 -0.012000926159518331 0 -0.019662750256367222 0.03059254476512295 -0.036438025164193116 -0.0094937980999904026 0.062857269458472739 -0.02127698055757531 -0.024050920674344528
leaf_weight=29 34 20 32 31 36 37 29 38 20 28 27 27 28 31
leaf_count=29 34 20 32 31 36 37 29 38 20 28 27 27 28 31
internal_value=1.72709e-05 0.0360533 -0.0105611 0.00338898 -0.0136852 -0.0157311 -0.0180714 -0.0112853 0.0195715 -0.0209554 -0.0236886 0.0540833 -0.0158546 -0.0305222
internal_weight=447 101 346 63 283 247 218 67 54 151 114 47 55 59
internal_count=447 101 346 63 283 247 218 67 54 151 114 47 55 59
is_linear=0
shrinkage=0.05


Tree=12
num_leaves=15
num_cat=0
split_feature=13 13 7 7 13 19 7 13 9 17 6 4 4 13
split_gain=62.1061 10.5759 6.28005 4.82638 3.82567 2.29952 1.65794 1.74013 1.49408 1.39244 1.36409 1.35486 1.32457 1.03064
threshold=12610.500000000002 33043.750000000007 -211.78365667982126 284.15054362642837 7009.0000000000009 0.11250000000000002 1.0000000180025095e-35 2078.7500000000005 4.4421457208118804 0.40833333333333338 105.19553499713476 -48.024004365109697 -14.647672135981916 4247.2500000000009
decision_type=2 2 2 2 2 2 2 2 2 2 2 2 2 2
left_child=2 9 -1 4 5 6 7 -4 -3 -2 -8 -9 -6 -13
right_child=1 8 3 -5 12 -7 10 11 -10 -11 -12 13 -14 -15
leaf_value=0.011070357498247177 0.0094495647365693009 0.039424929136241023 -0.0030599736303091049 0.0048383902577129566 -0.011181646106315071 -0.0047571430047691774 -0.017431245531031005 -0.0075146427253882089 0.064729956693269988 0.026172366035548417 -0.032405591562390326 -0.02866347805942808 0.0032199489878756656 -0.014379551105822128
leaf_weight=31 23 21 24 36 28 32 36 23 21 36 39 34 34 29
leaf_count=31 23 21 24 36 28 32 36 23 21 36 39 34 34 29
internal_value=1.93135e-05 0.0343292 -0.0100516 -0.0121746 -0.0143971 -0.0175212 -0.0196647 -0.0153735 0.0534048 0.0200028 -0.0256076 -0.0186777 -0.00327888 -0.0224939
internal_weight=447 101 346 315 279 217 185 110 42 59 75 86 62 63
internal_count=447 101 346 315 279 217 185 110 42 59 75 86 62 63
is_linear=0
shrinkage=0.05


Tree=13
num_leaves=17
num_cat=0
split_feature=13 22 3 10 13 20 13 13 8 8 9 1 13 9 16 13
split_gain=56.5368 6.57052 6.32341 7.1377 3.70854 2.86456 2.83076 2.15155 1.28711 1.1603 1.30722 0.885622 1.36127 0.511638 0.43457 0.13092
threshold=18463.500000000004 203491817.29767022 6982.1024212695384 0.38514221663487669 9023.0000000000018 359.15391750000009 30948.500000000004 688.00000000000011 0.26553701514097561 -0.011798805960441503 11.009543229492619 1.5000000000000002 3854.0000000000005 3.7795065491461872 0.29705882352941182 4162.0000000000009
decision_type=2 2 2 2 2 2 2 2 2 2 2 2 2 2 2 2
left_child=2 6 4 9 5 7 -2 -1 11 10 -4 13 -13 15 -15 -9
right_child=1 -3 3 -5 -6 -7 -8 8 -10 -11 -12 12 -14 14 -16 -17
leaf_value=-0.0047302044386213476 0.015924130342900755 0.061698393557841583 -0.01746216393442768 0.018700170574709775 0.0026096213284347736 0.0014553927692274255 0.040504295066572153 -0.034016403417502138 -0.0069878994605757977 0.001444884738219636 -0.0019668783985364894 -0.022336917749295634 -0.0049385144853073618 -0.02458171797025463 -0.012804762255788471 -0.023105238091062616
leaf_weight=32 27 23 32 39 34 23 25 20 21 27 25 26 22 22 23 26
leaf_count=32 27 23 32 39 34 23 25 20 21 27 25 26 22 22 23 26
internal_value=2.16416e-05 0.0393388 -0.00797601 0.00125866 -0.0125445 -0.0149651 0.0283771 -0.0169554 -0.0193248 -0.0069051 -0.0109033 -0.0210897 -0.0147282 -0.0241943 -0.0190803 -0.0285784
internal_weight=447 75 372 123 249 215 52 192 160 84 57 139 48 91 45 46
internal_count=447 75 372 123 249 215 52 192 160 84 57 139 48 91 45 46
is_linear=0
shrinkage=0.05


Tree=14
num_leaves=16
num_cat=0
split_feature=13 7 13 7 13 7 16 9 17 16 9 17 22 16 13
split_gain=51.3524 7.08553 6.00872 5.55031 5.15931 3.38016 2.83531 1.85062 1.47898 3.54318 1.36684 0.9579 0.995079 1.21314 0.659904
threshold=15872.750000000002 -290.63667688097985 23139.750000000004 -152.15725574499908 7009.0000000000009 189.67718253821442 0.36666666666666675 4.0054526903595589 0.77500000000000013 0.29705882352941182 6.8485076202819251 0.27500000000000008 2739197.0109143835 0.44949494949494956 3762.0000000000005
decision_type=2 2 2 2 2 2 2 2 2 2 2 2 2 2 2
left_child=3 -2 -3 -1 5 8 -4 -6 9 -5 -9 -11 13 -13 -10
right_child=1 2 6 4 7 -7 -8 10 14 11 -12 12 -14 -15 -16
leaf_value=0.0096964197350960027 0.05927848313342441 0.0047172178618609907 0.049624111015688289 0.0042064338947646321 -0.010329268513316359 0.00055688857593957127 0.021758805212524275 0.014969993932071428 -0.02557705742148858 -0.024633996815931414 -0.00075500621953431305 -0.00080162766765659837 -0.022600757156809176 -0.01648513636336877 -0.014865386025472122
leaf_weight=37 21 24 21 24 26 33 22 22 52 30 33 25 20 25 32
leaf_count=37 21 24 21 24 26 33 22 22 52 30 33 25 20 25 32
internal_value=1.71451e-05 0.0340364 0.0252958 -0.00837933 -0.0104954 -0.014152 0.0362996 0.000362798 -0.016501 -0.0127405 0.00560071 -0.0168587 -0.0131559 -0.0089109 -0.0217781
internal_weight=447 88 67 359 322 241 43 81 208 124 55 100 70 50 84
internal_count=447 88 67 359 322 241 43 81 208 124 55 100 70 50 84
is_linear=0
shrinkage=0.05


Tree=15
num_leaves=16
num_cat=0
split_feature=13 13 7 7 13 11 13 20 7 13 4 13 11 16 5
split_gain=46.8022 8.08473 5.0461 3.93458 2.93804 2.26569 2.26715 1.96192 1.64522 1.9454 1.19489 1.0162 0.460543 0.362346 0.309283
threshold=12610.500000000002 60704.500000000007 -211.78365667982126 284.15054362642837 7009.0000000000009 8.5000000000000018 23139.750000000004 569.01049580500001 1.0000000180025095e-35 2078.7500000000005 -14.647672135981916 4247.2500000000009 2.5000000000000004 0.22500000000000003 161.06310469861378
decision_type=2 2 2 2 2 2 2 2 2 2 2 2 2 2 2
left_child=2 5 -1 4 7 6 -2 8 9 -4 -6 12 -11 -13 -10
right_child=1 -3 3 -5 10 -7 -8 -9 14 11 -12 13 -14 -15 -16
leaf_value=0.0102026500296779 0.015979507072255591 0.052486878693874542 -0.0017731959527478585 0.0047223431028022957 -0.010389129821660705 0.0085858740251318656 0.039938618902649194 -0.0021679678752466484 -0.016053543933853508 -0.015156764421950689 0.0032878988975925103 -0.015249462269601369 -0.028007069443878926 -0.0049474123546055385 -0.02544032217562199
leaf_weight=31 25 28 30 36 28 28 20 26 24 21 34 20 22 20 54
leaf_count=31 25 28 30 36 28 28 20 26 24 21 34 20 22 20 54
internal_value=2.11716e-05 0.0298067 -0.00871989 -0.0106243 -0.0126322 0.0204482 0.0273734 -0.0153707 -0.0171212 -0.0129536 -0.00287632 -0.016866 -0.0223321 -0.0104667 -0.0228551
internal_weight=447 101 346 315 279 73 45 217 191 113 62 83 43 40 78
internal_count=447 101 346 315 279 73 45 217 191 113 62 83 43 40 78
is_linear=0
shrinkage=0.05


Tree=16
num_leaves=15
num_cat=0
split_feature=13 13 7 7 13 10 17 19 7 13 6 4 4 13
split_gain=42.4305 7.30954 4.57334 3.56726 2.66338 1.84726 1.80227 1.78908 1.34128 1.34848 1.32274 1.16978 1.08268 0.850181
threshold=12610.500000000002 60704.500000000007 -211.78365667982126 284.15054362642837 7009.0000000000009 0.24725558331911496 0.61250000000000016 0.11250000000000002 1.0000000180025095e-35 2078.7500000000005 105.19553499713476 -48.024004365109697 -14.647672135981916 4115.5000000000009
decision_type=2 2 2 2 2 2 2 2 2 2 2 2 2 2
left_child=2 5 -1 4 7 -2 -7 8 9 -4 -10 -11 -6 -13
right_child=1 -3 3 -5 12 6 -8 -9 10 11 -12 13 -14 -15
leaf_value=0.0097084593051113208 0.010019931987558 0.049953029217391177 -0.0018678226202726367 0.0044926077298618654 -0.0098875854503170692 0.014560828933581002 0.037370486135284112 -0.0033943695546776961 -0.014012296570313946 -0.0053269677826513848 -0.028426256808568723 -0.024867871351101817 0.003128201040306262 -0.012028578280681566
leaf_weight=31 33 28 24 36 28 20 20 32 36 23 39 33 34 30
leaf_count=31 33 28 24 36 28 20 20 32 36 23 39 33 34 30
internal_value=2.02268e-05 0.0283811 -0.00830205 -0.0101155 -0.0120275 0.0194762 0.0267209 -0.0146351 -0.0165239 -0.0126841 -0.0218488 -0.015589 -0.00273417 -0.0191155
internal_weight=447 101 346 315 279 73 40 217 185 110 75 86 62 63
internal_count=447 101 346 315 279 73 40 217 185 110 75 86 62 63
is_linear=0
shrinkage=0.05


Tree=17
num_leaves=16
num_cat=0
split_feature=13 22 3 10 16 16 2 16 13 13 22 13 10 22 1
split_gain=38.5791 5.00144 4.86045 6.11444 2.71829 4.74504 2.31939 2.06728 4.04359 1.77878 1.23749 1.63912 0.972765 0.722817 0.555624
threshold=18463.500000000004 203491817.29767022 6982.1024212695384 0.38514221663487669 1.0000000180025095e-35 0.77500000000000013 913.25396110500003 0.29705882352941182 6858.5000000000009 5165.2500000000009 5560683.7739254003 6407.0000000000009 0.21320763868203624 1265008.0133651223 1.5000000000000002
decision_type=2 2 2 2 2 2 2 2 2 2 2 2 2 2 2
left_child=2 6 4 10 9 7 -2 -6 12 14 -4 -12 -9 -14 -1
right_child=1 -3 3 -5 5 -7 -8 8 -10 -11 11 -13 13 -15 -16
leaf_value=-0.026962394641978402 0.036263610497117044 0.051956745185889303 0.0027960677308470215 0.017648368518101053 0.010425003782057993 -0.024029678436176434 0.013685480647184181 -0.00085386606731585103 0.012653592111698043 -0.0066126579171977944 -0.0180106242241398 -0.001077209768881058 -0.017883536202833058 -0.0054357470802607992 -0.015590949287638071
leaf_weight=34 20 23 26 39 25 30 32 20 23 29 30 28 39 20 29
leaf_count=34 20 23 26 39 25 30 32 20 23 29 30 28 39 20 29
internal_value=2.13831e-05 0.0325016 -0.00658321 0.00150694 -0.0105896 -0.0064722 0.0229841 -0.00213037 -0.00532754 -0.0174171 -0.00604794 -0.0100774 -0.0107178 -0.0139082 -0.0221314
internal_weight=447 75 372 123 249 157 52 127 102 92 84 58 79 59 63
internal_count=447 75 372 123 249 157 52 127 102 92 84 58 79 59 63
is_linear=0
shrinkage=0.05


Tree=18
num_leaves=17
num_cat=0
split_feature=13 7 13 7 13 3 22 16 9 9 7 6 13 6 22 13
split_gain=35.0586 5.67648 4.59143 3.94754 3.52147 2.69054 5.57392 2.40864 1.69445 1.19746 0.949675 1.80211 1.66113 1.24409 0.847791 0.113135
threshold=15872.750000000002 -290.63667688097985 23139.750000000004 -152.15725574499908 7009.0000000000009 9181.3636482689744 5560683.7739254003 0.36666666666666675 4.0054526903595589 6.8485076202819251 1.0000000180025095e-35 74.987707713301887 2078.7500000000005 92.80871424356009 236742.2801903412 4383.0000000000009
decision_type=2 2 2 2 2 2 2 2 2 2 2 2 2 2 2 2
left_child=3 -2 -3 -1 5 10 -7 -4 -6 -10 12 14 -5 15 -12 -14
right_child=1 2 7 4 8 6 -8 -9 9 -11 11 -13 13 -15 -16 -17
leaf_value=0.008318594477482533 0.050651024187999695 0.0024334345042705536 0.04211835087700324 -0.00048506843576464682 -0.0099675796643175479 0.017086886763572694 -0.014580868889178551 0.016827507445831665 0.014046232579680891 -0.0006639950122574673 -0.01822041520937568 -0.026441758000632611 -0.024807551240637191 -0.0071212291915777742 -0.0036108741771591745 -0.015747596445675617
leaf_weight=37 21 24 21 28 26 22 34 22 22 33 20 40 20 33 22 22
leaf_count=37 21 24 21 28 26 22 34 22 22 33 20 40 20 33 22 22
internal_value=2.18733e-05 0.0281325 0.0203599 -0.00691388 -0.00870001 -0.0117209 -0.00197074 0.029969 0.000260523 0.00527656 -0.014619 -0.0187927 -0.0110994 -0.0149378 -0.010946 -0.0206547
internal_weight=447 88 67 359 322 241 56 43 81 55 185 82 103 75 42 42
internal_count=447 88 67 359 322 241 56 43 81 55 185 82 103 75 42 42
is_linear=0
shrinkage=0.05


Tree=19
num_leaves=17
num_cat=0
split_feature=13 13 5 1 21 11 20 13 4 13 13 21 4 10 10 2
split_gain=31.9579 5.59373 3.84521 2.39147 3.07803 1.90984 1.78191 1.70505 1.25997 0.87518 1.09342 1.77154 0.867832 0.827188 0.603998 0.511
threshold=12610.500000000002 60704.500000000007 4619.8180473800012 1.5000000000000002 527.87078443056737 8.5000000000000018 569.01049580500001 23139.750000000004 8.3211393151832098 7340.7500000000009 2078.7500000000005 62.005562419857121 -41.433568597832014 0.29001810584881171 0.31382631080170681 357.67043125000004
decision_type=2 2 2 2 2 2 2 2 2 2 2 2 2 2 2 2
left_child=2 5 3 6 12 7 8 -2 9 10 11 -1 -5 -6 -14 -12
right_child=1 -3 -4 4 13 -7 -8 -9 -10 -11 15 -13 14 -15 -16 -17
leaf_value=-0.020236657469843825 0.013288269080221654 0.043515997600966486 0.007803000536208091 -0.0018640117372075715 0.000178070068359375 0.0060390713971493577 -0.00017101360002049694 0.034064098220495956 -0.0028991319433502531 -0.0069896945158521148 -0.016073957446962595 0 -0.019274102413783904 0.0146560136757658 -0.0075114614463721724 -0.026338796636089679
leaf_weight=23 25 28 37 29 20 28 26 20 22 25 34 20 22 20 29 39
leaf_count=23 25 28 37 29 20 28 26 20 22 25 34 20 22 20 29 39
internal_value=2.18773e-05 0.0246366 -0.00719924 -0.00903113 -0.00341366 0.0168375 -0.0125347 0.0231705 -0.0144633 -0.0161993 -0.0180647 -0.0110779 -0.00906875 0.0077199 -0.0129548 -0.0219073
internal_weight=447 101 346 309 120 73 189 45 163 141 116 43 80 40 51 73
internal_count=447 101 346 309 120 73 189 45 163 141 116 43 80 40 51 73
is_linear=0
shrinkage=0.05


Tree=20
num_leaves=17
num_cat=0
split_feature=22 7 16 17 7 22 10 2 4 9 16 7 9 21 11 10
split_gain=18.7636 8.05443 3.58056 2.87636 2.136 2.40693 3.44138 2.65963 2.13993 1.25992 0.921808 0.388855 0.882427 0.872491 0.552483 0.160783
threshold=50476237.693006106 -152.15725574499908 0.55844155844155852 0.71008403361344552 284.15054362642837 3791798.0933438861 0.25004418078831064 1065.5967548750002 -24.507651194974056 2.498253721348378 0.44949494949494956 -1.9744968091070294 6.4579809208741912 9.6050859093576246 5.5000000000000009 0.1433274755735765
decision_type=2 2 2 2 2 2 2 2 2 2 2 2 2 2 2 2
left_child=1 -1 3 -2 5 9 7 -7 -8 10 -3 12 -11 -13 -15 -16
right_child=2 4 -4 -5 -6 6 8 -9 -10 11 -12 13 -14 14 15 -17
leaf_value=0.017028772414972384 0.044261592403054238 0.00032853857161743304 0.0063118389373024303 0.01843700700905174 0.004037596521278222 0.002175086232071573 0.018007710520830007 -0.021073508684390358 -0.0030925981084937632 -0.016544718068270455 -0.012661890333349055 -0.0056824808635494925 -0.0019820034748408944 -0.01224352601915598 -0.015979527940406749 -0.025176126120079842
leaf_weight=38 22 34 23 27 38 21 24 27 22 20 21 21 23 37 22 27
leaf_count=38 22 34 23 27 38 21 24 27 22 20 21 21 23 37 22 27
internal_value=2.09439e-05 -0.00447169 0.0232293 0.0307851 -0.00695407 -0.00837647 -0.00166467 -0.0109634 0.00795879 -0.0114068 -0.00467969 -0.013793 -0.00909107 -0.0155345 -0.0177898 -0.0215492
internal_weight=447 375 72 49 337 299 94 48 46 205 55 150 43 107 86 49
internal_count=447 375 72 49 337 299 94 48 46 205 55 150 43 107 86 49
is_linear=0
shrinkage=0.05


Tree=21
num_leaves=17
num_cat=0
split_feature=13 13 5 7 13 3 11 13 9 21 16 10 7 10 16 6
split_gain=27.204 4.91102 3.29182 2.48155 3.83974 2.02531 1.72988 1.26267 0.989747 1.5177 0.721656 0.701514 1.94243 0.528444 0.479382 0.197837
threshold=12610.500000000002 60704.500000000007 4619.8180473800012 -4.0142674305356749 2078.7500000000005 5984.6804922963356 5.5000000000000009 7009.0000000000009 2.2583281053444035 62.005562419857121 0.22500000000000003 0.26381864218703016 122.93722135725054 0.5009288128801862 0.22500000000000003 129.98767730911973
decision_type=2 2 2 2 2 2 2 2 2 2 2 2 2 2 2 2
left_child=2 6 3 4 -1 10 -2 8 9 -5 -6 12 14 -13 -10 -8
right_child=1 -3 -4 7 5 -7 15 -9 11 -11 -12 13 -14 -15 -16 -17
leaf_value=0.014403583893630036 0.023854688935200957 0.040416053184147538 0.007232210762602719 -0.015342836813493211 -0.01982902750298381 0.0035238140076398849 0.0037439616898163443 -0.0029747734609991312 -0.020968785104792446 0.0031712034920399843 -0.0065052268654108049 -0.024916594124088684 0.0013845477732164521 -0.013672789486745994 -0.009990707819039624 0.011507681281793686
leaf_weight=26 33 28 37 21 24 25 20 39 30 21 22 29 20 29 23 20
leaf_count=26 33 28 37 21 24 25 20 39 30 21 22 29 20 29 23 20
internal_value=1.83511e-05 0.0227295 -0.00664319 -0.00833875 -0.00163092 -0.00769065 0.0154236 -0.0113624 -0.0131965 -0.00611107 -0.0138371 -0.0153668 -0.0116315 -0.0197065 -0.0165705 0.00793377
internal_weight=447 101 346 309 97 71 73 212 173 42 46 131 73 58 53 40
internal_count=447 101 346 309 97 71 73 212 173 42 46 131 73 58 53 40
is_linear=0
shrinkage=0.05


Tree=22
num_leaves=17
num_cat=0
split_feature=14 7 14 19 2 7 3 16 14 22 22 22 9 14 2 10
split_gain=24.7692 4.6409 3.53044 3.42736 3.09493 2.78296 3.10228 2.032 1.70052 1.51881 2.34062 0.921319 0.734763 0.745563 0.450213 0.322803
threshold=15872.750000000002 -290.63667688097985 23139.750000000004 1.0000000180025095e-35 823.35542486500015 -4.8184115955356575 5984.6804922963356 0.36666666666666675 10070.750000000002 9615145.6759925466 3964446.863011722 960397.96499894827 2.2583281053444035 5142.7500000000009 92.419589375000015 0.20473516040352516
decision_type=2 2 2 2 2 2 2 2 2 2 2 2 2 2 2 2
left_child=3 -2 -3 5 -5 6 11 -4 9 10 12 -1 -7 14 -14 -16
right_child=1 2 7 4 -6 8 -8 -9 -10 -11 -12 -13 13 -15 15 -17
leaf_value=0 0.043955492180856787 0.00096979935765266435 0.036153381236574869 -0.0059079632746494 0.015721982219256463 -0.0060641184590224722 0.010781244353598191 0.013170595212697823 0.0023596011847257618 -0.022870211165864022 0.0043089978064855807 -0.013569136615260505 -0.024495758024383002 -0.0066554268777370452 -0.0081951030166376206 -0.017435726564573616
leaf_weight=20 21 24 21 33 31 34 35 22 20 31 22 31 21 24 20 37
leaf_count=20 21 24 21 33 31 34 35 22 20 31 22 31 21 24 20 37
internal_value=1.68796e-05 0.0236468 0.016655 -0.00581112 0.00457281 -0.00808863 -0.00044661 0.025075 -0.0111923 -0.0126575 -0.0104911 -0.0083073 -0.0129357 -0.0150966 -0.0175134 -0.0144768
internal_weight=447 88 67 359 64 295 86 43 209 189 158 51 136 102 78 57
internal_count=447 88 67 359 64 295 86 43 209 189 158 51 136 102 78 57
is_linear=0
shrinkage=0.05


Tree=23
num_leaves=17
num_cat=0
split_feature=13 7 17 17 13 2 13 13 13 4 16 7 9 7 6 8
split_gain=22.4712 4.20183 3.33694 3.77061 4.29559 4.13498 3.19988 2.56215 2.44759 2.38817 1.83838 0.899295 0.879285 0.535685 0.691158 0.488413
threshold=15872.750000000002 -290.63667688097985 0.27500000000000008 0.81666666666666676 1664.5000000000002 882.31208626000011 23139.750000000004 7009.0000000000009 7009.0000000000009 -31.523293892971864 0.36666666666666675 17.483368464464451 3.6754682172738002 -1.0000000180025095e-35 105.19553499713476 -0.016432850624850524
decision_type=2 2 2 2 2 2 2 2 2 2 2 2 2 2 2 2
left_child=2 -2 15 4 5 -4 -3 9 12 -6 -8 -11 -5 -14 -15 -1
right_child=1 6 3 8 7 -7 10 -9 -10 11 -12 -13 13 14 -16 -17
leaf_value=-0.020013823952819958 0.041857616691426798 0.00092324911355972305 0.00086804621101867782 -0.02106253011384979 0.0024915202893316746 0.029256723322298218 0.034427879059856586 0.0071023926158484676 0.0018066930187386318 -0.0089123098946043422 0.01254069720030479 -0.022788579604503784 -0.0028855219341459726 -0.0058050356042527018 -0.019408319788458556 -0.0093042053719577592
leaf_weight=37 21 24 30 31 31 22 21 37 32 34 22 21 20 20 22 22
leaf_count=37 21 24 30 31 31 22 21 37 32 34 22 21 20 20 22 22
internal_value=1.82076e-05 0.0225258 -0.00553234 -0.00334591 0.00137019 0.0132984 0.0158666 -0.00369887 -0.00994661 -0.00843162 0.0238829 -0.0146121 -0.0140201 -0.0101412 -0.0133325 -0.0163254
internal_weight=447 88 359 300 175 52 67 123 125 86 43 55 93 62 42 59
internal_count=447 88 359 300 175 52 67 123 125 86 43 55 93 62 42 59
is_linear=0
shrinkage=0.05


Tree=24
num_leaves=16
num_cat=0
split_feature=14 14 19 2 14 14 11 10 22 22 14 6 6 22 6
split_gain=20.5165 3.78796 2.9127 2.89584 2.09772 1.5821 1.57605 0.861027 1.57519 2.5306 0.824098 0.982643 0.62282 0.484342 0.16992
threshold=12610.500000000002 60704.500000000007 1.0000000180025095e-35 823.35542486500015 252.50000000000003 10137.000000000002 5.5000000000000009 0.14926429953593856 3791798.0933438861 9615145.6759925466 3883.5000000000005 74.987707713301887 66.599012208374134 1622543.1994149073 129.98767730911973
decision_type=2 2 2 2 2 2 2 2 2 2 2 2 2 2 2
left_child=2 6 4 -4 -1 7 -2 13 10 -10 11 -9 -12 -6 -8
right_child=1 -3 3 -5 5 -7 14 8 9 -11 12 -13 -14 -15 -16
leaf_value=0.0068889767584517942 0.021338372131919161 0.035283954251429127 -0.0064998022218545285 0.014575304430909456 -0.0098133561278002414 0.0033747126056772208 0.0024283074188445296 -0.007282318485708073 0.010624033740907909 -0.01058875933464151 -0.012549320789782898 -0.020132207561816488 -0.0012608733673890433 -0.019598306831386358 0.0094843346771917164
leaf_weight=21 33 28 32 31 30 22 20 28 24 31 22 41 29 35 20
leaf_count=21 33 28 32 31 30 22 20 28 24 31 22 41 29 35 20
internal_value=1.96515e-05 0.0197442 -0.00576398 0.00385807 -0.00792964 -0.00915808 0.0133199 -0.0103369 -0.00836045 -0.00121856 -0.0115554 -0.0151677 -0.00637424 -0.015375 0.00622355
internal_weight=447 101 346 63 283 262 73 240 175 55 120 69 51 65 40
internal_count=447 101 346 63 283 262 73 240 175 55 120 69 51 65 40
is_linear=0
shrinkage=0.05


Tree=25
num_leaves=17
num_cat=0
split_feature=13 13 19 2 7 3 11 8 7 3 4 22 2 16 11 17
split_gain=18.5936 3.42516 2.63714 2.62273 2.27136 2.1135 1.42568 1.62534 1.1737 1.63523 0.99989 0.7183 0.668711 0.644165 0.732515 0.145443
threshold=12610.500000000002 60704.500000000007 1.0000000180025095e-35 823.35542486500015 -4.8184115955356575 5984.6804922963356 8.5000000000000018 -0.043859175427396584 284.15054362642837 5634.2869347501255 8.3211393151832098 988066.52883441339 46.032479445000007 0.63392857142857151 6.5000000000000009 0.72077922077922085
decision_type=2 2 2 2 2 2 2 2 2 2 2 2 2 2 2 2
left_child=2 6 4 -4 5 11 7 -2 9 10 12 -1 -6 14 -14 -11
right_child=1 -3 3 -5 8 -7 -8 -9 -10 15 -12 -13 13 -15 -16 -17
leaf_value=6.1385638657070326e-05 0.0079973662584476787 0.033580590934845909 -0.006184660405710792 0.013869313863106074 -0.018881898792654589 0.0093844981999559856 0.0034263962327406323 0.027706386654273326 -0.00021800366678723584 -0.024723003648576283 -0.00064065165817737588 -0.012009113811213397 0.0011837732727112979 -0.016522099846264439 -0.0099403088837862023 -0.015435493119681877
leaf_weight=20 23 28 32 31 23 32 28 22 26 20 30 28 22 20 39 23
leaf_count=20 23 28 32 31 23 32 28 22 26 20 30 28 22 20 39 23
internal_value=1.99271e-05 0.0187979 -0.00548547 0.00366757 -0.00754642 -0.000336874 0.0126831 0.0181344 -0.0103475 -0.0117978 -0.00889167 -0.00697909 -0.0111954 -0.00874817 -0.00589332 -0.0203326
internal_weight=447 101 346 63 283 80 73 45 203 177 134 48 104 81 61 43
internal_count=447 101 346 63 283 80 73 45 203 177 134 48 104 81 61 43
is_linear=0
shrinkage=0.05


Tree=26
num_leaves=17
num_cat=0
split_feature=13 16 13 5 22 5 16 16 5 22 21 12 4 16 9 9
split_gain=17.0021 3.47372 3.71967 3.07516 3.01023 2.57119 2.88373 3.68618 1.99833 1.65963 1.16846 0.989596 0.851914 0.836255 0.637161 0.314716
threshold=18463.500000000004 0.77500000000000013 10137.000000000002 4619.8180473800012 238023923.98068216 3066.8322095000008 1.0000000180025095e-35 0.29705882352941182 909.56650914178056 816939.52472833265 185.2874424078328 0.0037494945784608143 -2.1113776284193926 0.44949494949494956 4.8463781785758915 2.5702598345505874
decision_type=2 2 2 2 2 2 2 2 2 2 2 2 2 2 2 2
left_child=1 2 3 5 8 6 11 -8 -2 13 -11 14 -4 -9 15 -1
right_child=4 -3 12 -5 -6 -7 7 9 -10 10 -12 -13 -14 -15 -16 -17
leaf_value=-0.013402810470156729 0.026981188817215819 -0.018512269402734743 0.0035027208285672326 0.0090178950969129808 0.037552445571530951 -0.022998661923814903 0.016043020295245309 -0.0029243980880583756 0.006787020145449788 0.0097495708048343666 -0.0045482755788235048 -0.0023920608194613899 0.018518174868964017 -0.016242978879561026 -0.01878521779790903 -0.0038788952057560288
leaf_weight=20 20 38 20 35 21 21 27 22 34 24 32 26 20 29 38 20
leaf_count=20 20 38 20 35 21 21 27 22 34 24 32 26 20 29 38 20
internal_value=1.69949e-05 -0.00436378 -0.00268869 -0.00465475 0.021583 -0.00654921 -0.00498671 -8.6665e-05 0.0147118 -0.00431393 0.0015552 -0.0111917 0.0114009 -0.0107606 -0.0139942 -0.00897356
internal_weight=447 372 334 294 75 259 238 134 54 107 56 104 40 51 78 40
internal_count=447 372 334 294 75 259 238 134 54 107 56 104 40 51 78 40
is_linear=0
shrinkage=0.05


Tree=27
num_leaves=17
num_cat=0
split_feature=14 7 7 22 2 6 2 14 6 14 4 20 10 2 14 22
split_gain=15.4215 3.14988 2.84529 2.7253 1.81124 1.56007 2.87315 1.48148 1.37027 0.935617 0.63265 0.508525 0.688497 0.674211 0.329204 0.397334
threshold=18463.500000000004 -152.15725574499908 284.15054362642837 238023923.98068216 913.25396110500003 1932.1250574227367 2110.0803955800006 7009.0000000000009 54.751493428429512 4162.0000000000009 -16.650052408458958 8.9493478900000021 0.39087089826424992 96.772067550000017 4055.7500000000005 236742.2801903412
decision_type=2 2 2 2 2 2 2 2 2 2 2 2 2 2 2 2
left_child=1 -1 5 4 -2 6 7 11 -9 -4 -10 12 14 -14 15 -3
right_child=3 2 9 -5 -6 -7 -8 8 10 -11 -12 -13 13 -15 -16 -17
leaf_value=0.0090828038220643077 0.025696370275247668 -0.0077480438156900082 0.0135478566180576 0.03576016905632886 0.0064573645346931059 -0.019325870350003244 0.0094912481648274354 -0.010592501110583546 -0.0018367383664562591 -0.0011340069309586571 0.010341298379713582 -0.015955986415760386 -0.010741069418964563 -0.00025873681578116541 -0.006265792815200984 -0.017669027541631036
leaf_weight=39 20 21 21 21 34 25 25 24 20 20 20 35 26 38 24 34
leaf_count=39 20 21 21 21 34 25 25 24 20 20 20 35 26 38 24 34
internal_value=1.77596e-05 -0.00415388 -0.00574165 0.0205573 0.0140115 -0.00748106 -0.00628536 -0.00796811 -0.00132641 0.00641045 0.00423404 -0.0103074 -0.00878901 -0.00469384 -0.011944 -0.0141763
internal_weight=447 372 333 75 54 292 267 242 64 41 40 178 143 64 79 55
internal_count=447 372 333 75 54 292 267 242 64 41 40 178 143 64 79 55
is_linear=0
shrinkage=0.05


Tree=28
num_leaves=18
num_cat=0
split_feature=13 17 13 8 13 10 6 21 13 17 11 2 2 16 13 10 2
split_gain=14.1514 3.0318 2.49653 4.48862 2.37396 2.2434 2.18298 2.81195 1.29667 1.2452 1.21797 0.688199 1.03273 0.619221 1.81012 0.489976 0.446481
threshold=12610.500000000002 0.40833333333333338 882.50000000000011 -0.048510143147105951 60704.500000000007 0.20473516040352516 866.76678496425313 2759.7086545864772 6120.0000000000009 0.27500000000000008 8.5000000000000018 1499.9877651950003 727.90004103000012 0.63392857142857151 4055.7500000000005 0.1549876604735799 159.86263096000002
decision_type=2 2 2 2 2 2 2 2 2 2 2 2 2 2 2 2 2
left_child=2 -2 3 -1 10 -5 8 -8 11 -10 -3 12 13 14 16 -11 -4
right_child=1 4 6 5 -6 -7 7 -9 9 15 -12 -13 -14 -15 -16 -17 -18
leaf_value=0.023157026799661775 0.0044158971057953059 0.022883542257432755 -0.00877073279209435 0.0065426768859227491 0.037147569003559297 -0.016253782236440618 0.012290362015727068 -0.010220048505067827 -0.013502842326733201 -0.0053386142468926584 0.0056835669350056425 -0.019353076214902107 -0.0002355691969394684 -0.019233254586532716 0.002454172576089268 0.0041146432742890388 -0.01851491275814272
leaf_weight=20 36 25 29 20 20 21 30 24 21 21 20 25 24 24 22 35 30
leaf_count=20 36 25 29 20 20 21 30 24 21 21 20 25 24 24 22 35 30
internal_value=1.67432e-05 0.0164001 -0.00478476 0.00429211 0.0227943 -0.0051235 -0.00675323 0.00219091 -0.00886605 -0.00341519 0.0156375 -0.0115196 -0.00982584 -0.0119478 -0.00951998 0.000450485 -0.0140347
internal_weight=447 101 346 61 65 41 285 54 231 77 45 154 129 105 81 56 59
internal_count=447 101 346 61 65 41 285 54 231 77 45 154 129 105 81 56 59
is_linear=0
shrinkage=0.05


Tree=29
num_leaves=18
num_cat=0
split_feature=13 7 7 17 13 13 16 20 13 10 13 6 1 3 16 21 17
split_gain=12.8555 3.12663 2.61053 2.57995 2.98391 2.95793 2.71412 1.98382 1.81978 1.26525 1.03289 1.01323 0.955779 0.994094 0.687751 0.415751 0.279008
threshold=15872.750000000002 -290.63667688097985 28.606803247785638 0.27500000000000008 882.50000000000011 7009.0000000000009 0.18333333333333338 1295.1366061300002 2078.7500000000005 0.1549876604735799 26544.250000000004 304.12800582713874 1.5000000000000002 745.96193635446582 0.15476190476190479 12.643501721050379 0.72077922077922085
decision_type=2 2 2 2 2 2 2 2 2 2 2 2 2 2 2 2 2
left_child=3 -2 10 15 6 7 -5 8 -6 -7 -3 -11 13 -10 -14 -1 -15
right_child=1 2 -4 4 5 9 -8 -9 12 11 -12 -13 14 16 -16 -17 -18
leaf_value=-0.019638443974439396 0.033652901400452143 -0.0037742342303196588 0.02607746296695301 -0.0049746171917234155 0.001270241552603341 -0.0053482317762530368 0.018444526756803196 0.0066360039583274301 -0.0075398262134142996 0.0013084330067038537 0.01082429919682909 0.016147307484255483 -0.012017139583055315 -0.025362502905455504 -0.00057964217607621795 -0.0098160717356950058 -0.015292068790256359
leaf_weight=21 21 20 20 20 30 22 29 20 28 24 27 23 28 21 26 38 29
leaf_count=21 21 20 20 20 30 22 29 20 28 24 27 23 28 21 26 38 29
internal_value=1.61591e-05 0.0170428 0.0113448 -0.00417937 -0.00225814 -0.00447845 0.00887738 -0.00781861 -0.00966357 0.00424624 0.00455878 0.0088593 -0.012177 -0.0157645 -0.00671177 -0.0136645 -0.0200341
internal_weight=447 88 67 359 300 251 49 182 162 69 47 47 132 78 54 59 50
internal_count=447 88 67 359 300 251 49 182 162 69 47 47 132 78 54 59 50
is_linear=0
shrinkage=0.05


Tree=30
num_leaves=17
num_cat=0
split_feature=13 16 13 5 5 16 16 22 2 22 21 12 9 16 9 6
split_gain=11.7046 2.76959 2.83646 2.544 2.36321 2.43214 3.15739 2.1841 1.65507 1.45076 1.06956 0.895798 0.728497 0.664478 0.524809 0.683897
threshold=18463.500000000004 0.77500000000000013 10137.000000000002 4619.8180473800012 3066.8322095000008 1.0000000180025095e-35 0.29705882352941182 238023923.98068216 913.25396110500003 816939.52472833265 185.2874424078328 0.0037494945784608143 6.1269921375898901 0.44949494949494956 4.8463781785758915 44.444589673703426
decision_type=2 2 2 2 2 2 2 2 2 2 2 2 2 2 2 2
left_child=1 2 3 4 5 11 -7 8 -2 13 -11 14 -4 -8 15 -1
right_child=7 -3 12 -5 -6 6 9 -9 -10 10 -12 -13 -14 -15 -16 -17
leaf_value=-0.014194011070898602 0.023188184728579864 -0.016250147237800636 0.0028795001309897218 0.0085890599598901149 -0.021321547944945368 0.015347334452505624 -0.0025149259682866218 0.031515486524863683 0.0048823213279247284 0.0098179714486002941 -0.0038514024149062056 -0.0014414543072106664 0.016753507364718687 -0.014413507810638599 -0.016780917300627782 -0.00093312865655337067
leaf_weight=20 20 38 20 35 21 27 22 21 34 24 32 26 20 29 38 20
leaf_count=20 20 38 20 35 21 27 22 21 34 24 32 26 20 29 38 20
internal_value=1.47951e-05 -0.00361808 -0.00212176 -0.00384096 -0.0055665 -0.00407203 0.000354295 0.0179102 0.0120515 -0.00348977 0.00198865 -0.00977186 0.0101779 -0.00952401 -0.012432 -0.00787
internal_weight=447 372 334 294 259 238 134 75 54 107 56 104 40 51 78 40
internal_count=447 372 334 294 259 238 134 75 54 107 56 104 40 51 78 40
is_linear=0
shrinkage=0.05


Tree=31
num_leaves=19
num_cat=0
split_feature=13 17 5 5 6 8 7 13 7 7 13 9 5 16 6 17 6 21
split_gain=10.6464 2.61026 2.05897 1.60293 2.60057 1.34614 1.75548 3.20963 1.30732 2.18116 1.28484 0.731942 1.0554 0.627261 0.623758 0.500583 0.456652 0.262967
threshold=12610.500000000002 0.20714285714285716 4619.8180473800012 3066.8322095000008 866.76678496425313 -0.22072481457310569 -4.0142674305356749 2078.7500000000005 -172.53727182053515 13.878332052928632 6324.7500000000009 4.9038281241839154 68.27528470617213 0.22500000000000003 44.444589673703426 0.52083333333333337 74.987707713301887 408.17339435229025
decision_type=2 2 2 2 2 2 2 2 2 2 2 2 2 2 2 2 2 2
left_child=2 -2 3 4 5 -1 7 -7 -3 -10 11 12 -8 -9 -12 -14 -13 -18
right_child=1 8 -4 -5 -6 6 10 13 9 -11 14 16 15 -15 -16 -17 17 -19
leaf_value=-0.017238218759497007 -0.0012046688502993098 0.02889439664781094 0.0068085947779840551 -0.018295798486341604 0.011662460150116166 0.018402370584413543 -0.015036165771030247 -0.010239742482439258 0.0062694588050437291 0.026837876881694513 -0.0061697681588323222 -0.0071446849915968343 -0.006773366445586796 0.00055428558753596417 0.0052332078620791443 0.0038597069267669449 -0.021762217797693755 -0.011604607980698348
leaf_weight=23 21 22 37 22 22 20 20 25 38 20 22 22 20 26 24 22 20 21
leaf_count=23 21 22 37 22 22 20 20 25 38 20 22 22 20 26 24 22 20 21
internal_value=1.53134e-05 0.0142272 -0.00414787 -0.00549367 -0.00443485 -0.00582884 -0.00465743 0.00187753 0.0183046 0.0137814 -0.00739498 -0.0100068 -0.00586074 -0.00473592 -0.000129244 -0.00112715 -0.0138537 -0.0170788
internal_weight=447 101 346 309 287 265 242 71 80 58 171 125 62 51 46 42 63 41
internal_count=447 101 346 309 287 265 242 71 80 58 171 125 62 51 46 42 63 41
is_linear=0
shrinkage=0.05


Tree=32
num_leaves=17
num_cat=0
split_feature=13 7 17 7 9 6 2 17 13 17 16 2 1 6 21 9
split_gain=9.73355 2.53414 2.33581 2.2311 1.5912 1.57546 2.38838 1.22226 1.76668 0.981046 0.798518 1.14411 0.91324 0.738023 0.291067 0.00940976
threshold=18463.500000000004 -152.15725574499908 0.40833333333333338 284.15054362642837 4.4421457208118804 1932.1250574227367 2110.0803955800006 0.27500000000000008 7009.0000000000009 0.57777777777777783 0.22500000000000003 233.35512274000004 1.5000000000000002 105.19553499713476 44.585530060374616 4.8463781785758915
decision_type=2 2 2 2 2 2 2 2 2 2 2 2 2 2 2 2
left_child=1 -1 -2 5 -4 6 7 14 10 -5 12 -12 15 -10 -3 -9
right_child=2 3 4 9 -6 -7 -8 8 13 -11 11 -13 -14 -15 -16 -17
leaf_value=0.0085684518907219176 0.0034238493815064428 -0.018587467903271319 0.01087144213135947 0.013345564100891353 0.03010337342446049 -0.018131222249223637 0.0092984889089488074 -0.012267154161430276 -0.0025172050426212639 -0.0016891567870264961 0.0024240773250532679 -0.010357186436303893 -0.0042797662065747911 0.0094420450769364846 -0.0092786218412220494 -0.018206870308064897
leaf_weight=39 25 21 21 21 29 25 25 23 25 20 37 31 33 24 26 22
leaf_count=39 25 21 21 21 29 25 25 23 25 20 37 31 33 24 26 22
internal_value=1.26564e-05 -0.00329926 0.0163328 -0.00472563 0.0224955 -0.00626789 -0.00507492 -0.00661251 -0.00478262 0.00602691 -0.00753739 -0.00339587 -0.010996 0.00331208 -0.0138426 -0.0156124
internal_weight=447 372 75 333 50 292 267 242 195 41 146 68 78 49 47 45
internal_count=447 372 75 333 50 292 267 242 195 41 146 68 78 49 47 45
is_linear=0
shrinkage=0.05


Tree=33
num_leaves=18
num_cat=0
split_feature=13 7 7 13 8 11 5 6 21 2 11 13 11 8 21 4 13
split_gain=8.89123 2.02031 2.21408 1.93407 3.72739 1.6083 1.71416 1.59952 2.34083 1.26656 1.06569 0.88843 0.711406 0.672839 1.19707 0.449655 1.07097
threshold=12610.500000000002 -352.27689458910692 108.54415431482174 882.50000000000011 -0.048510143147105951 4.5000000000000009 1173.8809576157762 866.76678496425313 2759.7086545864772 1499.9877651950003 9.5000000000000018 8509.0000000000018 16.500000000000004 -0.11490895164900453 22.751982449468432 -10.822696429454099 4055.7500000000005
decision_type=2 2 2 2 2 2 2 2 2 2 2 2 2 2 2 2 2
left_child=3 -2 5 4 -1 -3 -7 9 -9 11 -6 12 13 -5 -15 -16 -17
right_child=1 2 -4 7 10 6 -8 8 -10 -11 -12 -13 -14 14 15 16 -18
leaf_value=0.021379165461375603 0.027060838889862812 0.015066289726263761 0.023257171743150271 -0.012086919686107925 -0.012055487866428766 0.0083638293171922375 -0.011805510577701388 0.011334536239024133 -0.0091994038552045826 -0.016079583740275769 0.0036185988515526762 0.00236560824616202 -0.015650083644484933 0.0044149464390648065 -0.00027471907267516307 -0.016129016339265067 -0.0028206923389289943
leaf_weight=20 20 21 20 32 21 20 20 30 24 35 20 28 21 31 21 28 35
leaf_count=20 20 21 20 32 21 20 20 30 24 35 20 28 21 31 21 28 35
internal_value=1.00327e-05 0.0129986 0.00917785 -0.00379356 0.00418923 0.00418037 -0.00164086 -0.00552832 0.0021161 -0.0073383 -0.00438643 -0.00567827 -0.00705457 -0.00569541 -0.00378493 -0.00688624 -0.00897322
internal_weight=447 101 81 346 61 61 40 285 54 231 41 196 168 147 115 84 63
internal_count=447 101 81 346 61 61 40 285 54 231 41 196 168 147 115 84 63
is_linear=0
shrinkage=0.05


Tree=34
num_leaves=16
num_cat=0
split_feature=13 7 17 7 9 6 5 13 17 17 6 13 9 21 22
split_gain=8.135 2.25132 2.05871 1.95082 1.45021 1.44351 2.07937 0.960215 1.40352 0.878345 0.854368 0.65787 0.917746 0.393653 0.206603
threshold=18463.500000000004 -152.15725574499908 0.40833333333333338 284.15054362642837 4.4421457208118804 1932.1250574227367 2184.7124249571393 4247.2500000000009 1.0000000180025095e-35 0.57777777777777783 92.80871424356009 2078.7500000000005 8.0890582252782597 167.82649617500002 1340927.2794507518
decision_type=2 2 2 2 2 2 2 2 2 2 2 2 2 2 2
left_child=1 -1 -2 5 -4 6 7 11 -9 -5 14 12 -3 -13 -10
right_child=2 3 4 9 -6 -7 -8 8 10 -11 -12 13 -14 -15 -16
leaf_value=0.0081679328363388794 0.002821562055211801 -0.00035526863136328761 0.0096649735522541143 0.012616275161166084 0.027961877891172965 -0.017156643702720221 0.0082029074590120998 -0.013217295660823584 -0.0006568685236076515 -0.0015996712694565458 0.0056653537410311407 -0.017510660020955679 -0.012631680308841171 -0.0085474524761417099 -0.0072277410915837842
leaf_weight=39 25 39 21 21 29 25 27 24 26 20 39 28 25 34 25
leaf_count=39 25 39 21 21 29 25 27 24 26 20 39 28 25 34 25
internal_value=1.129e-05 -0.00301552 0.0149322 -0.0043608 0.0207154 -0.00580365 -0.00466193 -0.00615801 -0.00273456 0.00568964 0.000120411 -0.00917011 -0.00534822 -0.0128884 -0.00405109
internal_weight=447 372 75 333 50 292 267 240 114 41 90 126 64 62 51
internal_count=447 372 75 333 50 292 267 240 114 41 90 126 64 62 51
is_linear=0
shrinkage=0.05


Tree=35
num_leaves=18
num_cat=0
split_feature=13 17 5 5 7 3 7 7 13 16 16 3 17 4 12 13 11
split_gain=7.42672 2.03096 1.77423 1.57655 1.7554 1.41231 1.02907 1.72888 0.826158 0.502403 0.480171 1.11615 1.5351 0.708682 0.693841 0.28595 0.201545
threshold=12610.500000000002 0.20714285714285716 4619.8180473800012 3066.8322095000008 -211.78365667982126 10200.61485418496 -172.53727182053515 13.878332052928632 9023.0000000000018 0.77500000000000013 0.22500000000000003 3612.200604887445 0.52083333333333337 -2.2668725627588695 0.0037494945784608143 5165.2500000000009 9.5000000000000018
decision_type=2 2 2 2 2 2 2 2 2 2 2 2 2 2 2 2 2
left_child=2 -2 3 4 -1 8 -3 -8 9 10 14 12 13 -12 15 16 -6
right_child=1 6 -4 -5 5 -7 7 -9 -10 -11 11 -13 -14 -15 -16 -17 -18
leaf_value=0.010207586579379584 -0.001687456984072924 0.024856847309223985 0.0066998876111679963 -0.017393859009379928 -0.0091612537729519397 0.0060428394377231602 0.0048035385431602412 0.023089429446983906 0.002064425933307835 -0.013930311733577403 0.00079132729542574732 -0.013586463924120405 0.011002643534115383 -0.01028185272525097 -0.00095040748938918132 -0.0055269188239522602 -0.017125987423739088
leaf_weight=20 21 22 37 22 26 26 38 20 27 24 27 20 20 28 24 22 23
leaf_count=20 21 22 37 22 26 26 38 20 27 24 27 20 20 28 24 22 23
internal_value=8.62697e-06 0.0118804 -0.00346667 -0.00471784 -0.00367178 -0.00476429 0.0154805 0.0114782 -0.00597102 -0.00701298 -0.00604468 -0.0033883 -0.000460014 -0.00483958 -0.00858601 -0.0110486 -0.0132676
internal_weight=447 101 346 309 287 267 80 58 241 214 190 95 75 55 95 71 49
internal_count=447 101 346 309 287 267 80 58 241 214 190 95 75 55 95 71 49
is_linear=0
shrinkage=0.05


Tree=36
num_leaves=16
num_cat=0
split_feature=13 16 17 5 17 9 13 5 2 9 11 10 9 9 2
split_gain=6.75905 2.11233 1.99861 2.51964 1.7218 1.31122 1.22838 1.21964 1.62154 1.55845 0.922156 1.16538 0.877891 0.837074 0.465541
threshold=18463.500000000004 0.77500000000000013 0.81666666666666676 4181.6920847928432 0.40833333333333338 4.4421457208118804 5165.2500000000009 2245.2093752742057 823.35542486500015 8.3003716409217834 6.5000000000000009 0.78602165725437012 3.6754682172738002 6.1269921375898901 539.16203997000014
decision_type=2 2 2 2 2 2 2 2 2 2 2 2 2 2 2
left_child=1 2 3 7 -2 -6 12 8 9 10 11 -1 -4 -8 -14
right_child=4 -3 6 -5 5 -7 13 -9 -10 -11 -12 -13 14 -15 -16
leaf_value=-0.010179990592598916 0.0025174350578051345 -0.013778978340948623 -0.017972315170157415 0.015582339960549561 0.0084395730097524147 0.025772651507829626 -0.0060546375234280872 -0.011041847743714851 0.010549291566014292 -0.011346325913083651 0.0090037784340052784 0.0036847751117066335 -0.010101084140159431 0.0060975693266552234 -0.00019803149964321741
leaf_weight=24 25 38 25 27 21 29 30 23 34 30 28 37 30 25 21
leaf_count=24 25 38 25 27 21 29 30 23 34 30 28 37 30 25 21
internal_value=7.6281e-06 -0.00275036 -0.0014433 0.00164422 0.0136093 0.018899 -0.00624187 -0.000541717 0.00106572 -0.00166754 0.00162924 -0.00176578 -0.0103217 -0.000431374 -0.00620174
internal_weight=447 372 334 203 75 50 131 176 153 119 89 61 76 55 51
internal_count=447 372 334 203 75 50 131 176 153 119 89 61 76 55 51
is_linear=0
shrinkage=0.05


Tree=37
num_leaves=19
num_cat=0
split_feature=13 7 9 7 3 2 2 2 4 2 4 11 21 7 7 2 7 17
split_gain=6.2814 2.8204 1.7184 1.51897 1.15041 1.63469 1.35117 0.986125 1.08201 0.910403 0.8782 0.615721 0.522176 0.422249 1.13307 0.476236 0.642962 0.385087
threshold=30948.500000000004 -459.85987711571244 3.9462641174927771 284.15054362642837 32034.100194362214 1940.3411015200002 1160.6689884550003 709.91312517000017 8.3211393151832098 3062.1323875700004 -29.462889898110017 1.5000000000000002 862.24029238502601 -1.9744968091070294 -25.896952824642852 437.17421846000008 11.83476568549993 0.68627450980392168
decision_type=2 2 2 2 2 2 2 2 2 2 2 2 2 2 2 2 2 2
left_child=1 -1 -2 4 5 6 7 8 11 -7 -5 -3 -9 14 -13 16 17 -15
right_child=2 3 -4 10 -6 9 -8 12 -10 -11 -12 13 -14 15 -16 -17 -18 -19
leaf_value=0.015426695045422427 0.0061248422591459184 -0.014355856588353283 0.026582960500568156 0.013158864744362378 -0.013689497019453295 0.012330418176328144 -0.016039267604549726 0.0091162936620059459 0.0029458565813385781 -0.0018480656792720159 -0.00076391397664944335 -0.0078739273324608811 -0.0019354253421936718 -0.012307632769009582 0.0068443681753200042 -0.013889629803597928 0.0022922074989903543 -0.0035757505689417166
leaf_weight=21 20 22 24 20 28 23 23 20 35 20 23 29 20 26 22 21 20 30
leaf_count=21 20 22 24 20 28 23 23 20 35 20 23 29 20 26 22 21 20 30
internal_value=6.79733e-06 -0.00195582 0.0177377 -0.00296224 -0.00409571 -0.00317482 -0.00463816 -0.00348668 -0.00489573 0.00573001 0.00575005 -0.0065472 0.00355605 -0.00526434 -0.00141918 -0.0071999 -0.0051301 -0.00786236
internal_weight=447 403 44 382 339 311 268 245 205 43 43 170 40 148 51 97 76 56
internal_count=447 403 44 382 339 311 268 245 205 43 43 170 40 148 51 97 76 56
is_linear=0
shrinkage=0.05


Tree=38
num_leaves=17
num_cat=0
split_feature=13 19 1 17 13 4 5 13 10 17 5 3 4 1 9 2
split_gain=5.74072 1.64708 1.70623 1.64272 1.33281 1.16379 0.776368 0.770306 1.27916 0.802672 1.39333 1.46322 1.12575 0.601757 0.584113 0.285463
threshold=12610.500000000002 1.0000000180025095e-35 1.5000000000000002 0.20714285714285716 252.50000000000003 -0.89080341022172005 2819.1346630248777 1246.5000000000002 0.0020456578087909077 0.85416666666666685 656.08291772300151 13375.985409706234 -1.6722212057372732 1.5000000000000002 8.3003716409217834 768.56735361500012
decision_type=2 2 2 2 2 2 2 2 2 2 2 2 2 2 2 2
left_child=1 4 -3 -2 -1 6 -5 -6 -9 10 12 -12 -10 15 -15 -11
right_child=3 2 -4 5 7 -7 -8 8 9 13 11 -13 -14 14 -16 -17
leaf_value=0.0070946871675550936 -0.0017302022180096671 -0.0028402261959539878 0.013472387998897051 0.0037312894544447774 -0.013647098868553129 0.023508110305537351 0.015656768255534453 -0.015959509467382147 -0.010856725370511414 -0.006508160676208458 0.013001391461183285 -0.0034488351738080382 0.0017813293347435613 -0.0077200035721762114 0.0036270599470784267 -0.01508948756300885
leaf_weight=21 21 36 27 31 27 22 27 22 39 27 28 24 30 23 20 22
leaf_count=21 21 36 27 31 27 22 27 22 39 27 28 24 30 23 20 22
internal_value=6.2949e-06 -0.00304782 0.00417404 0.0104452 -0.00468215 0.0136849 0.00953883 -0.0056685 -0.00467668 -0.00341882 -0.000682199 0.00539282 -0.00534354 -0.00691826 -0.00236618 -0.0106857
internal_weight=447 346 63 101 283 80 58 262 235 213 121 52 69 92 43 49
internal_count=447 346 63 101 283 80 58 262 235 213 121 52 69 92 43 49
is_linear=0
shrinkage=0.05


Tree=39
num_leaves=18
num_cat=0
split_feature=13 5 3 4 3 8 17 17 13 8 4 13 13 3 8 6 8
split_gain=5.35154 1.57 3.19262 1.90469 1.43403 1.52741 1.46204 1.55002 1.77575 1.4265 1.51125 1.35219 1.30819 0.781429 0.708357 0.449545 0.245567
threshold=30948.500000000004 4951.6299165732435 70892.801605002212 8.3211393151832098 16453.382015727791 -8.6598194109698593e-13 0.27500000000000008 0.81666666666666676 882.50000000000011 -0.096304117371476775 -31.523293892971864 7340.7500000000009 5165.2500000000009 1897.2758765390699 -0.035626918594157557 28.644976977642223 -0.045687168815636399
decision_type=2 2 2 2 2 2 2 2 2 2 2 2 2 2 2 2 2
left_child=1 3 -3 4 5 6 16 8 -8 -10 -11 -5 15 -12 -2 -9 -1
right_child=14 2 -4 11 -6 -7 7 12 9 10 13 -13 -14 -15 -16 -17 -18
leaf_value=-0.012913666761255473 0.0090033180112748055 0.018215074646674718 -0.0068124247784726328 -0.00061018862086945243 -0.015479960195454105 -0.014793166210529982 0.016920173420082958 -0.015222407624435922 -0.010685210447935833 0.014980157603594391 0.006047797171687264 0.014619024206438791 0.0025413721510181755 -0.0070051685750484472 0.022811728346606962 -0.0053525705755718299 -0.0050118715251269551
leaf_weight=28 22 26 23 38 27 26 20 23 20 21 20 22 33 24 22 30 22
leaf_count=28 22 26 23 38 27 26 20 23 20 21 20 22 33 24 22 30 22
internal_value=5.3186e-06 -0.00180535 0.00646618 -0.00297936 -0.00464445 -0.00347639 -0.00217875 -0.00014317 0.0038903 0.000605216 0.00426421 0.00504 -0.00511334 -0.000958344 0.0163721 -0.00993088 -0.00970136
internal_weight=447 403 49 354 294 267 241 191 105 85 65 60 86 44 44 53 50
internal_count=447 403 49 354 294 267 241 191 105 85 65 60 86 44 44 53 50
is_linear=0
shrinkage=0.05


Tree=40
num_leaves=18
num_cat=0
split_feature=13 9 9 13 13 8 21 8 11 9 3 2 8 3 4 17 21
split_gain=4.85514 1.60406 1.46635 1.90532 1.66517 2.83124 1.46091 1.52103 0.886958 0.934094 0.854709 1.26065 1.25981 0.864983 0.936269 0.432894 0.167523
threshold=30948.500000000004 3.9462641174927771 14.928143964097075 10137.000000000002 882.50000000000011 -0.048510143147105951 92.63107453405236 -0.014644212302020737 16.500000000000004 11.513490309296644 16453.382015727791 2110.0803955800006 -0.11490895164900453 4499.0792632867533 -7.8047065163163873 0.72077922077922085 114.21904939001136
decision_type=2 2 2 2 2 2 2 2 2 2 2 2 2 2 2 2 2
left_child=2 -2 3 4 5 -1 -5 -8 9 10 11 12 -6 14 -14 16 -16
right_child=1 -3 -4 6 8 -7 7 -9 -10 -11 -12 -13 13 -15 15 -17 -18
leaf_value=0.019556674194034368 0.0044756020233035088 0.024110475677251816 -0.013997438873123864 -0.0024514245434153464 -0.012819997339031181 -0.0032790608135493181 0.0018227743093545239 0.019991197492182256 -0.013010433937555979 0.0060612337534194406 -0.012881736453208659 0.0082660655687297035 0.0078602911992412487 -0.011053055333481596 0.0028691230760887268 -0.008061648935631471 -0.0032458248295422114
leaf_weight=20 20 24 22 30 36 37 23 24 27 22 26 20 26 21 23 26 20
leaf_count=20 20 24 22 30 36 37 23 24 27 22 26 20 26 21 23 26 20
internal_value=4.63442e-06 0.0155944 -0.00171949 -0.00096265 -0.00275497 0.00484631 0.005994 0.0114276 -0.00454174 -0.0034256 -0.00452998 -0.00317144 -0.00475325 -0.00211887 0 -0.00309954 0
internal_weight=447 44 403 381 304 57 77 47 247 220 198 172 152 116 95 69 43
internal_count=447 44 403 381 304 57 77 47 247 220 198 172 152 116 95 69 43
is_linear=0
shrinkage=0.05


Tree=41
num_leaves=17
num_cat=0
split_feature=13 7 10 12 10 9 10 4 4 8 7 6 5 13 21 21
split_gain=4.40296 2.34381 1.60001 1.53267 2.32603 1.09837 1.0936 2.22847 1.913 1.76454 1.518 1.00868 0.976717 0.883654 0.479708 0.410871
threshold=30948.500000000004 -459.85987711571244 0.35637511315277765 0.56594172966470213 0.24371611758957637 13.54827310957678 0.29429267594031622 -37.657975039670113 8.3211393151832098 -0.076045074162136739 20.692596926607333 66.599012208374134 656.08291772300151 7340.7500000000009 97.828174288119968 75.274913040989347
decision_type=2 2 2 2 2 2 2 2 2 2 2 2 2 2 2 2
left_child=1 -1 -2 5 -5 6 7 -3 9 11 12 -8 15 -10 -11 -9
right_child=2 3 -4 4 -6 -7 8 10 13 14 -12 -13 -14 -15 -16 -17
leaf_value=0.014207735254683281 0.023343901607394218 0.010799645505796531 0.0037973240230764664 -0.0044405428568522138 0.018299228754781544 -0.013434743169971087 -0.0096414729185176629 0.0010898677119985224 -0.0027833240114462873 -0.021074507415846544 0.0045168561796442817 0.0026652871540775807 -0.016570691348646176 0.0098898518525741344 -0.010050801025846831 -0.0080594643826285995
leaf_weight=21 24 37 20 23 20 26 32 23 35 26 38 32 21 21 25 23
leaf_count=21 24 37 20 23 20 26 32 23 35 26 38 32 21 21 25 23
internal_value=5.43089e-06 -0.00163591 0.014852 -0.00255477 0.00619797 -0.00369467 -0.00282946 0.000382646 -0.00551261 -0.00918575 -0.00330819 -0.00346483 -0.00782096 0.00197153 -0.0160641 -0.00345256
internal_weight=447 403 44 382 43 339 313 142 171 115 105 64 67 56 51 46
internal_count=447 403 44 382 43 339 313 142 171 115 105 64 67 56 51 46
is_linear=0
shrinkage=0.05


Tree=42
num_leaves=19
num_cat=0
split_feature=13 13 7 5 7 17 21 3 10 20 22 13 3 10 21 2 5 3
split_gain=4.04033 1.4042 2.3949 1.77013 1.36782 1.84788 1.30243 0.869526 0.825014 1.54861 1.43634 1.29282 0.788884 0.714681 0.739259 1.02636 0.489271 0.0578292
threshold=12610.500000000002 2078.7500000000005 -4.8184115955356575 1063.2723126586322 -352.27689458910692 0.57777777777777783 540.18727401774368 804.6218044504958 0.14926429953593856 1027.1244298600002 1340927.2794507518 7009.0000000000009 2817.5439914876856 0.26381864218703016 92.63107453405236 575.43011017000015 1423.7411620723672 7570.3184552071607
decision_type=2 2 2 2 2 2 2 2 2 2 2 2 2 2 2 2 2 2
left_child=1 2 -1 7 -2 16 -7 -4 10 11 -3 13 -13 -10 -15 -16 -6 -12
right_child=4 8 3 -5 5 6 -8 -9 9 -11 17 12 -14 14 15 -17 -18 -19
leaf_value=0.014237432705859344 0.020284476134748687 0.00019065782260149717 -0.0018640044045945007 0.0083891777276992804 0.0033962501337130866 0.0032757071295331807 0.021445789513262838 -0.015354621862484652 -0.00025385005720730488 0.0095973919264294907 -0.01796318501300578 -0.0044508575807724682 0.0086298113718628888 -0.015810636637033897 0.0011905349128776127 -0.012407043319045833 -0.0073280367148774008 -0.011178255894261859
leaf_weight=29 20 24 29 24 20 20 21 21 28 21 20 20 24 31 26 27 20 22
leaf_count=29 20 24 29 24 20 20 21 21 28 21 20 20 24 31 26 27 20 22
internal_value=5.44439e-06 -0.00255494 0.00228972 -0.00245323 0.00876474 0.0056467 0.0129904 -0.00781807 -0.0046299 -0.00278166 -0.00939642 -0.00453043 0.00260616 -0.00737659 -0.0096611 -0.00574542 -0.00189189 -0.0148681
internal_weight=447 346 103 74 101 81 41 50 243 177 66 156 44 112 84 53 40 42
internal_count=447 346 103 74 101 81 41 50 243 177 66 156 44 112 84 53 40 42
is_linear=0
shrinkage=0.05


Tree=43
num_leaves=16
num_cat=0
split_feature=13 7 4 12 10 17 6 2 20 4 4 7 8 21 7
split_gain=3.71086 2.41424 2.25443 1.78953 1.9659 1.38156 1.35253 1.54129 1.04224 0.730427 0.965726 0.984756 0.356826 0.556996 0.449834
threshold=23139.750000000004 -152.15725574499908 -63.573178089847552 0.56594172966470213 0.24371611758957637 0.44155844155844159 1802.6584305911058 2401.8697405150006 264.35157948000011 -44.199144024091204 8.3211393151832098 26.11310682589291 -0.025158486591916444 84.555318609710994 -1.0000000180025095e-35
decision_type=2 2 2 2 2 2 2 2 2 2 2 2 2 2 2
left_child=1 2 -1 6 -5 -2 7 8 9 -3 11 12 14 -14 -11
right_child=5 3 -4 4 -6 -7 -8 -9 -10 10 -12 -13 13 -15 -16
leaf_value=-0.0017709124867211689 0.00080373062328858817 0.0037845066539011897 0.021122212959896955 -0.0039686901274729857 0.017369260074836867 0.016940938816813286 -0.013654495832096374 0.0085495078071951888 -0.012927104412810878 0 0.0028410590248736174 0.00067112913116430632 -0.006245804988575401 -0.01679712719111531 -0.0091600541755436898
leaf_weight=21 21 31 20 21 20 39 35 24 31 23 36 38 31 26 30
leaf_count=21 21 31 20 21 20 39 35 24 31 23 36 38 31 26 30
internal_value=5.6216e-06 -0.00178557 0.00951444 -0.00316256 0.00648674 0.0114806 -0.00449298 -0.00324092 -0.0044414 -0.00314055 -0.00434845 -0.00613814 -0.00852033 -0.0113515 -0.00522905
internal_weight=447 387 41 346 41 60 305 270 246 215 184 148 110 57 53
internal_count=447 387 41 346 41 60 305 270 246 215 184 148 110 57 53
is_linear=0
shrinkage=0.05


Tree=44
num_leaves=17
num_cat=0
split_feature=14 19 7 17 9 14 8 14 22 3 16 14 21 14 16 11
split_gain=3.41111 1.29812 1.61115 1.2043 1.09758 1.06372 0.906973 0.765517 0.640994 1.2224 0.829463 0.657383 0.812457 0.64781 0.360016 0.161598
threshold=12610.500000000002 1.0000000180025095e-35 20.692596926607333 0.27500000000000008 5.4549551911538261 252.50000000000003 -0.0093723478733817537 1246.5000000000002 11724195.52794116 6982.1024212695384 0.22500000000000003 8741.7500000000018 22.751982449468432 3762.0000000000005 0.44949494949494956 6.5000000000000009
decision_type=2 2 2 2 2 2 2 2 2 2 2 2 2 2 2 2
left_child=1 5 -3 -2 6 -1 -5 -7 9 11 -10 12 -9 15 -15 -14
right_child=3 2 -4 4 -6 7 -8 8 10 -11 -12 -13 13 14 -16 -17
leaf_value=0.0067118330469185658 -0.0017573552295410387 -0.0021280869930051269 0.014003979894518855 -0.0020545827332799408 0.017205664381433866 -0.012600815312138629 0.012392259091138842 0.0016784960795741745 -0.0025211350674982421 0.0081681768440951905 -0.016108709369701418 0.004336114151492005 -0.0078308813060047455 -0.00010063185721535133 -0.0077353294836036094 -0.015037314609179031
leaf_weight=21 23 39 24 21 37 27 20 33 26 23 21 20 26 36 28 22
leaf_count=21 23 39 24 21 37 27 20 33 26 23 21 20 26 36 28 22
internal_value=6.36194e-06 -0.00234532 0.00406213 0.00805564 0.0109981 -0.0037986 0.00500087 -0.00468236 -0.00370186 -0.00233427 -0.00890546 -0.00386875 -0.00505665 -0.00708265 -0.00358535 -0.0114753
internal_weight=447 346 63 101 78 283 41 262 235 188 47 165 145 112 64 48
internal_count=447 346 63 101 78 283 41 262 235 188 47 165 145 112 64 48
is_linear=0
shrinkage=0.05


Tree=45
num_leaves=18
num_cat=0
split_feature=13 7 10 12 10 16 3 3 5 16 13 10 6 22 16 21 8
split_gain=3.22605 1.85601 1.47917 1.20985 1.90884 0.811412 0.878273 1.85549 1.23588 0.88915 0.784519 0.90396 0.843885 0.78443 1.22548 0.953578 0.309008
threshold=30948.500000000004 -459.85987711571244 0.35637511315277765 0.56594172966470213 0.24371611758957637 0.77500000000000013 13375.985409706234 8285.9361019928401 5680.0097355194457 0.22500000000000003 7009.0000000000009 0.76141022992667751 42.532673108595453 816939.52472833265 0.44949494949494956 185.2874424078328 -0.02443753609118229
decision_type=2 2 2 2 2 2 2 2 2 2 2 2 2 2 2 2 2
left_child=1 -1 -2 5 -5 6 7 9 -8 10 11 12 -3 14 -11 -15 -7
right_child=2 3 -4 4 -6 16 8 -9 -10 13 -12 -13 -14 15 -16 -17 -18
leaf_value=0.012695613388310781 0.02085333837121725 -0.010740761438251608 0.0021795168798416855 -0.0040670724189840251 0.016521141149458431 -0.014030196217354388 -0.013774191531751837 0.011993367987871172 0.000421499390396531 0.003247307499737612 0.001654477552868999 -0.017018338829617612 0.0014624143012666277 0.011076211244638624 -0.011923848494142296 -0.0011206690569275193 -0.0046950156199322508
leaf_weight=21 24 27 20 23 20 21 34 24 26 27 25 21 27 28 24 34 21
leaf_count=21 24 27 20 23 20 21 34 24 26 27 25 21 27 28 24 34 21
internal_value=3.4346e-06 -0.00139991 0.0127134 -0.00221898 0.00555305 -0.00323295 -0.00227264 -0.000867779 -0.00763469 -0.00238956 -0.00580377 -0.0083447 -0.00463261 0.000612413 -0.00388792 0.00439661 -0.00969662
internal_weight=447 403 44 382 43 339 297 237 60 213 100 75 54 113 51 62 42
internal_count=447 403 44 382 43 339 297 237 60 213 100 75 54 113 51 62 42
is_linear=0
shrinkage=0.05


Tree=46
num_leaves=19
num_cat=0
split_feature=14 7 7 11 3 5 2 12 7 2 4 21 4 21 2 4 2 14
split_gain=2.92577 1.68309 1.14612 1.02364 1.00587 1.2447 1.24111 0.994389 0.996405 0.872016 0.746206 0.715917 0.703158 0.469166 0.391047 0.585951 0.327488 0.0362099
threshold=30948.500000000004 -459.85987711571244 284.15054362642837 6.5000000000000009 32034.100194362214 2184.7124249571393 1160.6689884550003 0.0037494945784608143 -4.0142674305356749 3062.1323875700004 8.3211393151832098 0.99658750619553771 -29.462889898110017 18.033530893751877 287.32521042000008 -9.69078210557144 84.147660585000011 6007.2500000000009
decision_type=2 2 2 2 2 2 2 2 2 2 2 2 2 2 2 2 2 2
left_child=1 -1 4 -2 5 6 7 10 -9 -7 11 -3 -4 -13 15 -15 -17 -16
right_child=3 2 12 -5 -6 9 -8 8 -10 -11 -12 13 -14 14 17 16 -18 -19
leaf_value=0.012089686437763952 0.0035584231671369213 0.002909355373121798 0.012075962573289873 0.019233937024740348 -0.012054163753215609 0.012992666549980643 -0.013691616309461772 0.012322165944746563 -0.0020153874092336209 -0.0013359330408275129 0.0039669936551497533 -0.012479995159363306 -0.00036351719095061225 0.004358398978048089 -0.0098339819748915983 -0.0015205643419176343 -0.0096640888894520098 -0.0054590027282635373
leaf_weight=21 21 23 20 23 28 20 26 20 27 20 25 26 23 21 30 30 23 20
leaf_count=21 21 23 20 23 28 20 26 20 27 20 25 26 23 21 30 30 23 20
internal_value=4.34933e-06 -0.00133156 -0.00211207 0.0121089 -0.0030994 -0.0022411 -0.00347065 -0.0023144 0.00411114 0.00584857 -0.00387777 -0.00505643 0.00545161 -0.00632214 -0.00490147 -0.00244254 -0.00526066 -0.00832338
internal_weight=447 403 382 44 339 311 271 245 47 40 198 173 43 150 124 74 53 50
internal_count=447 403 382 44 339 311 271 245 47 40 198 173 43 150 124 74 53 50
is_linear=0
shrinkage=0.05


Tree=47
num_leaves=18
num_cat=0
split_feature=13 4 22 13 7 5 17 7 4 20 13 3 9 4 4 22 9
split_gain=2.67766 1.25549 1.48521 1.23994 1.98126 1.39297 1.09369 0.953849 1.59668 1.07086 1.40112 0.79342 0.490209 0.832373 0.315005 0.292 0.101186
threshold=12610.500000000002 -0.89080341022172005 238023923.98068216 2078.7500000000005 -4.8184115955356575 1063.2723126586322 0.61250000000000016 -123.95063598624989 -124.44565372631747 264.35157948000011 3762.0000000000005 804.6218044504958 6.6989810108629051 -2.6432379138989675e-10 -7.2673087099570504 1340927.2794507518 5.9946329267570695
decision_type=2 2 2 2 2 2 2 2 2 2 2 2 2 2 2 2 2
left_child=3 2 6 4 -1 11 -2 -5 -9 10 16 -6 13 15 -14 -12 -10
right_child=1 -3 -4 7 5 -7 -8 8 9 -11 12 -13 14 -15 -16 -17 -18
leaf_value=0.01333654688221092 -0.007920468191732654 0.016006017575233147 0.014405456772920761 -0.012779351419636181 -0.000955696875229478 0.0077673970937728876 0.0062965068121691448 0.0087299523617212597 -0.012892616270110012 -0.013004821631456576 -0.0012015596854136044 -0.013790171859277923 0.0088550725188993283 0.0053722501103766265 5.4674206058616214e-05 -0.0092016040790697633 -0.0067717849595472215
leaf_weight=29 27 28 21 27 29 24 25 25 22 30 22 21 20 23 22 28 24
leaf_count=29 27 28 21 27 29 24 25 25 22 30 22 21 20 23 22 28 24
internal_value=4.69993e-06 0.00713756 0.00349806 -0.00207759 0.00247333 -0.00183826 -0.00100121 -0.00402931 -0.00285866 -0.00443911 -0.00274172 -0.00660892 0.000186773 -0.00223714 0.00447009 -0.0058722 -0.0100175
internal_weight=447 101 73 346 103 74 52 243 216 191 161 50 115 73 42 50 46
internal_count=447 101 73 346 103 74 52 243 216 191 161 50 115 73 42 50 46
is_linear=0
shrinkage=0.05


Tree=48
num_leaves=18
num_cat=0
split_feature=13 7 9 12 6 6 21 7 7 21 3 3 2 3 3 16 2
split_gain=2.47424 1.5464 1.39049 1.20229 1.50782 1.1964 1.49694 1.20167 0.906179 0.769276 1.73011 0.742733 0.584205 0.97248 0.534404 0.362097 0.276325
threshold=30948.500000000004 -211.78365667982126 3.9462641174927771 0.56594172966470213 280.32304105663957 3731.8786773896927 2424.3809439767688 -23.375076502678585 -2.5632984730356734 0.63903556970959963 9181.3636482689744 3681.7822061109978 96.772067550000017 804.6218044504958 1930.352953543354 0.36666666666666675 697.47041754500015
decision_type=2 2 2 2 2 2 2 2 2 2 2 2 2 2 2 2 2
left_child=1 -1 -2 5 -5 6 7 16 -9 -10 11 12 15 -14 -15 -11 -3
right_child=2 3 -4 4 -6 -7 -8 8 9 10 -12 -13 13 14 -16 -17 -18
leaf_value=0.0082188302908952418 0.0009922811406154542 -0.0068448090649420217 0.019012034289725126 -0.0036534810557284137 0.014797646640376614 -0.014887385628230516 0.0081123906057327996 0.0073533123654677818 -0.011964151795784183 -0.0020392236378834103 0.011498584938900812 -0.010098565599570673 0.0084260409998907059 -0.0081553670391440406 0.0024783723989856383 -0.010601709980679596 -0.015341201995809876
leaf_weight=38 20 30 24 21 21 20 29 22 21 32 20 35 27 25 20 22 20
leaf_count=38 20 30 24 21 21 20 29 22 21 32 20 35 27 25 20 22 20
internal_value=4.16421e-06 -0.00122345 0.0111364 -0.00223991 0.00558539 -0.00328697 -0.00245837 -0.00362078 -0.00200605 -0.00308122 -0.00196306 -0.00372683 -0.00185195 0.00104021 -0.00336943 -0.00574789 -0.0105756
internal_weight=447 403 44 365 42 323 303 274 224 202 181 161 126 72 45 54 50
internal_count=447 403 44 365 42 323 303 274 224 202 181 161 126 72 45 54 50
is_linear=0
shrinkage=0.05


Tree=49
num_leaves=17
num_cat=0
split_feature=18 13 4 16 22 22 9 8 12 6 13 13 22 11 9 8
split_gain=2.33677 2.98593 2.10108 1.37763 0.963977 1.24019 0.950909 0.912612 0.850688 1.11598 3.0575 2.566 1.01313 0.756873 0.602747 0.37532
threshold=1.0000000180025095e-35 10137.000000000002 -1.6722212057372732 0.73214285714285732 9615145.6759925466 20705814.231802601 4.4421457208118804 -0.035879022419830271 -0.083323568468889345 109.34003066086999 1664.5000000000002 1828.0000000000002 3791798.0933438861 14.500000000000002 3.5810023032949521 -0.037648180336495869
decision_type=2 2 2 2 2 2 2 2 2 2 2 2 2 2 2 2
left_child=1 4 3 6 8 -6 -3 -8 -1 10 -10 -11 15 14 -12 -13
right_child=-2 2 -4 -5 5 -7 7 -9 9 11 13 12 -14 -15 -16 -17
leaf_value=0.0060501868796667881 0.015537835272110029 -0.0038206888248567428 0.015734382212206067 -0.009729722230861498 -0.017466285987040746 -0.0021159673801933727 0.0021706667112616393 0.01668424225390135 0.011378338576294483 -0.019399436691465478 -0.0068958340211208238 -0.010699657697061249 0.0068555217187689704 -0.013084802704903746 0.0022008349721186929 -0.00088444510607847162
leaf_weight=27 22 20 36 20 25 29 25 20 39 29 36 21 22 22 34 20
leaf_count=27 22 20 36 20 25 29 25 20 39 29 36 21 22 22 34 20
internal_value=3.09698e-06 -0.000823903 0.00577393 0.00136335 -0.00347673 -0.00950186 0.00494806 0.00895231 -0.00212271 -0.00315717 -0.000143436 -0.00734701 -0.00150451 -0.00515126 -0.00243826 -0.00616585
internal_weight=447 425 121 85 304 54 65 45 250 223 131 92 63 92 70 41
internal_count=447 425 121 85 304 54 65 45 250 223 131 92 63 92 70 41
is_linear=0
shrinkage=0.05


Tree=50
num_leaves=17
num_cat=0
split_feature=13 7 9 12 10 9 6 6 13 20 16 17 13 6 10 11
split_gain=2.14475 1.41378 1.22655 1.11724 1.63494 1.12543 0.890426 1.33757 0.804731 1.68808 0.782421 0.820415 0.649677 0.603271 0.252106 0.199908
threshold=30948.500000000004 -211.78365667982126 3.9462641174927771 0.56594172966470213 0.24371611758957637 13.927707597068858 3381.7494588317572 866.76678496425313 583.25000000000011 264.35157948000011 0.18333333333333338 0.52083333333333337 5165.2500000000009 92.80871424356009 0.26628823565795651 8.5000000000000018
decision_type=2 2 2 2 2 2 2 2 2 2 2 2 2 2 2 2
left_child=1 -1 -2 5 -5 6 7 8 -3 10 12 13 15 14 -12 -10
right_child=2 3 -4 4 -6 -7 -8 -9 9 -11 11 -13 -14 -15 -16 -17
leaf_value=0.0078861243277788175 0.00082965544557997168 0.0045980538075673398 0.017762509512901307 -0.0037628283817321066 0.015474750069635258 -0.014096753260290083 -0.012272313622136911 0.0080640931345988074 -0.0055071550212977896 -0.013775821109819744 -0.0016178615048527717 0.0073888767956558511 -0.00033010106025771664 0.0030833547011784772 -0.0092584222450386739 -0.01354145182804628
leaf_weight=38 20 31 24 22 20 21 20 31 20 35 24 32 32 33 23 21
leaf_count=38 20 31 24 22 20 21 20 31 20 35 24 32 32 33 23 21
internal_value=9.90683e-07 -0.00114119 0.0103663 -0.00211366 0.00542848 -0.00312353 -0.00229999 -0.0015342 -0.00276678 -0.00384329 -0.00187332 0.000716976 -0.00587102 -0.00194833 -0.00557601 -0.00996577
internal_weight=447 403 44 365 42 323 302 282 251 220 185 112 73 80 47 41
internal_count=447 403 44 365 42 323 302 282 251 220 185 112 73 80 47 41
is_linear=0
shrinkage=0.05


Tree=51
num_leaves=18
num_cat=0
split_feature=18 13 4 16 19 5 11 7 11 11 13 13 21 5 11 13 11
split_gain=2.07797 2.59478 1.92388 1.23409 0.842575 0.909035 0.753535 0.536887 1.17642 0.435632 0.434676 0.970171 0.51109 0.897134 0.255904 0.201757 0.17401
threshold=1.0000000180025095e-35 10137.000000000002 -1.6722212057372732 0.73214285714285732 0.21111111111111114 1327.3330334322641 10.500000000000002 0.36987645642857686 4.5000000000000009 16.500000000000004 3883.5000000000005 1664.5000000000002 162.27060504394186 92.63107453405236 4.5000000000000009 27767.750000000004 3.5000000000000004
decision_type=2 2 2 2 2 2 2 2 2 2 2 2 2 2 2 2 2
left_child=1 4 3 6 5 9 15 8 -7 10 11 -1 13 -12 -13 -3 -14
right_child=-2 2 -4 -5 -6 7 -8 -9 -10 -11 12 14 16 -15 -16 -17 -18
leaf_value=0.0021958120553515468 0.014648749241200479 0.0041718364037249397 0.014898863795490281 -0.0093467393215923081 0.0046567445149024332 0.004058775526604482 0.012385360913439877 -0.013283327663731246 -0.011926008962281048 -0.0084482379026711001 -0.0019908950316973712 -0.011307822210811235 0.00051683553272769572 0.012208489694749006 -0.0035409558176710877 -0.0023332421965096728 -0.0057026385215365079
leaf_weight=38 22 22 36 20 29 20 20 35 24 24 21 29 20 21 22 23 21
leaf_count=38 22 22 36 20 29 20 20 35 24 24 21 29 20 21 22 23 21
internal_value=0 -0.000780407 0.00536904 0.00114844 -0.00325402 -0.00412021 0.00454617 -0.00863895 -0.00462035 -0.0022389 -0.00129975 -0.00372267 0.00125217 0.00511133 -0.00818609 0.000759879 -0.00260963
internal_weight=447 425 121 85 304 275 65 79 44 196 172 89 83 42 51 45 41
internal_count=447 425 121 85 304 275 65 79 44 196 172 89 83 42 51 45 41
is_linear=0
shrinkage=0.05


Tree=52
num_leaves=16
num_cat=0
split_feature=18 13 4 22 17 22 22 12 9 13 13 21 5 11 9
split_gain=1.88391 2.35009 1.7407 1.22909 1.32778 0.852114 1.13354 0.736544 0.793911 1.68296 0.630831 0.472291 0.476905 0.435045 0.347307
threshold=1.0000000180025095e-35 10137.000000000002 -1.6722212057372732 238023923.98068216 0.57777777777777783 9615145.6759925466 20705814.231802601 -0.083323568468889345 2.7855462835126668 2078.7500000000005 950.00000000000011 24.552328802397302 280.23459582669278 2.5000000000000004 8.3484235241995766
decision_type=2 2 2 2 2 2 2 2 2 2 2 2 2 2 2
left_child=1 5 3 4 -3 7 -7 -1 9 -9 -10 -12 -13 -11 -14
right_child=-2 2 -4 -5 -6 6 -8 8 10 13 11 12 14 -15 -16
leaf_value=0.0057776581056948224 0.013948157124180833 -0.0088131755853666834 0.014174053927606629 0.011334636760028927 0.0053911121928443516 -0.016370346068691179 -0.0017069988225897155 0.013525228649377824 -0.010417958047657619 0.00075926481573670003 0.0022815089013511168 -0.0090100803701697232 -0.0048837639956224345 -0.0086140572296624831 0.0032712100319225675
leaf_weight=27 22 35 36 21 29 25 29 20 37 26 31 37 30 21 21
leaf_count=27 22 35 36 21 29 25 29 20 37 26 31 37 30 21 21
internal_value=0 -0.000742887 0.0051087 0.00109094 -0.00231601 -0.00309748 -0.00876071 -0.00182427 -0.00278869 0.00169148 -0.00474323 -0.00286504 -0.00473947 -0.00341686 -0.00143135
internal_weight=447 425 121 85 64 304 54 250 223 67 156 119 88 47 51
internal_count=447 425 121 85 64 304 54 250 223 67 156 119 88 47 51
is_linear=0
shrinkage=0.05


Tree=53
num_leaves=17
num_cat=0
split_feature=7 7 13 17 16 16 13 3 3 3 22 17 21 13 2 4
split_gain=1.85044 2.17989 1.59318 0.899659 2.02067 2.09661 0.895134 0.623677 0.647576 0.504753 0.431182 0.658639 0.787129 0.245865 0.191742 0.161094
threshold=-459.85987711571244 284.15054362642837 8103.5000000000009 0.52083333333333337 1.0000000180025095e-35 0.29705882352941182 1828.0000000000002 16453.382015727791 5984.6804922963356 9450.494775608784 753614.83453766804 1.0000000180025095e-35 205.35209861875919 7009.0000000000009 159.86263096000002 -2.8357684915876242
decision_type=2 2 2 2 2 2 2 2 2 2 2 2 2 2 2 2
left_child=-1 3 -3 9 6 -6 -5 8 13 10 15 -12 -13 14 -8 -2
right_child=1 2 -4 4 5 -7 7 -9 -10 -11 11 12 -14 -15 -16 -17
leaf_value=0.011598569443740417 -0.0030892828682606869 0.00060453860389609497 0.01809108909335919 -0.012896983623081313 0.015486658544944866 -0.0016635593212494212 -7.1003133031938748e-05 -0.0096074291496049818 0.0074643609571185977 -0.010426917975613228 -0.0074940911477431654 0.0095273820378563648 -0.0031523627049669075 0.0017329240955412388 -0.006541815975285842 -0.0094851473002539339
leaf_weight=31 21 30 23 21 34 35 20 20 21 35 24 21 26 24 32 29
leaf_count=31 21 30 23 21 34 35 20 20 21 35 24 21 26 24 32 29
internal_value=3.41547e-07 -0.000877701 0.00848013 -0.00227727 -8.73879e-05 0.00681636 -0.00359944 -0.00179312 -4.93056e-05 -0.00513217 -0.00348674 -0.000873106 0.00248935 -0.00226036 -0.00419568 -0.00701017
internal_weight=447 416 53 363 207 69 138 117 97 156 121 71 47 76 52 50
internal_count=447 416 53 363 207 69 138 117 97 156 121 71 47 76 52 50
is_linear=0
shrinkage=0.05


Tree=54
num_leaves=16
num_cat=0
split_feature=7 7 21 17 16 16 3 14 21 14 11 3 6 22 8
split_gain=1.67602 1.9789 1.48424 0.815071 0.754922 3.33658 1.48487 0.815737 0.749672 1.3738 0.45321 0.966075 0.4597 0.299601 0.244214
threshold=-459.85987711571244 284.15054362642837 20.546849847289199 0.27500000000000008 1.0000000180025095e-35 0.29705882352941182 9450.494775608784 2930.5000000000005 8.7661417854165169 4247.2500000000009 8.5000000000000018 3175.1901681942009 49.143199064184927 462254.32260438416 -0.01723602684461566
decision_type=2 2 2 2 2 2 2 2 2 2 2 2 2 2 2
left_child=-1 3 -3 14 7 -6 8 13 -7 -10 11 -9 -12 -5 -2
right_child=1 2 -4 4 5 6 -8 10 9 -11 12 -13 -14 -15 -16
leaf_value=0.011036763811134734 -0.0096775720868168824 -0.0016457688703161218 0.014970873831189238 -0.0046039266591625548 0.014717269005114861 0.007015224928967655 -0.012470855354492008 -0.0038104412240375363 -0.010038942450919422 0.0041604715402354482 0.0001414657871992815 0.00887853276414367 -0.0099787215046260678 -0.014035693763622218 -0.002804842675291002
leaf_weight=31 40 22 31 20 35 29 28 34 31 35 20 25 22 20 24
leaf_count=31 40 22 31 20 35 29 28 34 31 35 20 25 22 20 24
internal_value=0 -0.000836996 0.00807806 -0.002171 -0.00104447 0.00130286 -0.00256183 -0.00370067 0.00040612 -0.00248461 -0.00121631 0.00154127 -0.00515209 -0.00966907 -0.00726002
internal_weight=447 416 53 363 299 158 123 141 95 66 101 59 42 40 64
internal_count=447 416 53 363 299 158 123 141 95 66 101 59 42 40 64
is_linear=0
shrinkage=0.05


Tree=55
num_leaves=19
num_cat=0
split_feature=18 13 4 22 6 13 21 9 21 6 21 7 7 17 7 6 11 11
split_gain=1.65727 1.98777 1.20844 1.16513 0.709076 2.37799 1.74839 1.53957 1.43272 2.18021 0.855491 0.764733 0.586429 0.582065 0.450309 0.380954 0.190002 0.0571839
threshold=1.0000000180025095e-35 12610.500000000002 -0.032492834679474968 238023923.98068216 97.08038753825231 1664.5000000000002 1.534258835273232 3.7795065491461872 2710.7563688350169 997.87999481973736 342.17535428965522 0.36987645642857686 9.7691189960715565 0.57777777777777783 -8.4209959364282412 31.932341994154111 6.5000000000000009 7.5000000000000009
decision_type=2 2 2 2 2 2 2 2 2 2 2 2 2 2 2 2 2 2
left_child=1 4 3 13 5 7 -6 -1 9 11 12 14 15 -3 -8 17 -13 -7
right_child=-2 2 -4 -5 6 10 8 -9 -10 -11 -12 16 -14 -15 -16 -17 -18 -19
leaf_value=0.019203723881563006 0.013079993948340416 -0.0067614083071904519 0.015092500549927355 0.012151984803023794 -0.016777862611298378 -0.0085189758462365719 -0.0037504982255885133 0 -0.011583071899983814 0.014273642193187367 -0.011615910759816569 -0.011077915119628114 0.0046138317820649324 0.0035761521056366084 0.0058969880297780036 0.0015081099020538941 -0.0038658011980030847 -0.0039259513022135133
leaf_weight=21 22 27 24 20 25 23 22 20 33 21 26 23 27 25 24 20 22 22
leaf_count=21 22 27 24 20 25 23 22 20 33 21 26 23 27 25 24 20 22 22
internal_value=0 -0.000699074 0.00557902 0.00217606 -0.00255749 -0.000120758 -0.00479327 0.0100763 -0.00259195 9.20352e-05 -0.00376071 -0.00324587 -0.00138596 -0.00172339 0.00119496 -0.00398609 -0.00782138 -0.00651635
internal_weight=447 425 96 72 329 159 170 41 145 112 118 91 92 52 46 65 45 45
internal_count=447 425 96 72 329 159 170 41 145 112 118 91 92 52 46 65 45 45
is_linear=0
shrinkage=0.05


Tree=56
num_leaves=18
num_cat=0
split_feature=18 13 3 22 20 22 10 13 6 7 22 13 17 10 21 21 17
split_gain=1.50222 1.83807 1.10123 1.31158 1.0576 1.00184 1.60645 0.867455 1.80263 1.14461 1.09225 0.699843 0.526447 0.48013 0.912162 0.613321 0.337348
threshold=1.0000000180025095e-35 18463.500000000004 59738.52383862975 25159109.870630752 1486.7633640600002 238023923.98068216 0.22518922265340516 2078.7500000000005 90.002531897129856 -114.3151353901783 56198.538758379611 6324.7500000000009 1.0000000180025095e-35 0.26381864218703016 92.63107453405236 254.47921965495286 0.85416666666666685
decision_type=2 2 2 2 2 2 2 2 2 2 2 2 2 2 2 2 2
left_child=1 2 3 4 7 6 -3 8 10 -9 -1 13 -13 15 -15 -11 -14
right_child=-2 5 -4 -5 -6 -7 -8 9 -10 11 -12 12 16 14 -16 -17 -18
leaf_value=0.0016064614656826728 0.012454428899547329 -0.006083427114555469 -0.013005479699508713 0.0098284765849530244 -0.012394178165122867 0.015893887323992596 0.011450260827192464 -0.013917172775519166 -0.0053543854286628115 0.004975178147881525 0.017721778224963191 -0.0048274278886277569 0.0071301592899033345 -0.01398727137063231 -0.0017842293368946563 -0.0063245468602880191 -0.00037077110823399077
leaf_weight=22 22 25 21 23 23 20 25 21 34 24 21 21 36 27 37 22 23
leaf_count=22 22 25 21 23 23 20 25 21 34 24 21 21 36 27 37 22 23
internal_value=0 -0.000664219 -0.00213839 -0.00140342 -0.00227894 0.00666633 0.00263799 -0.00141373 0.00306954 -0.00308016 0.00981427 -0.00178961 0.00171252 -0.00437414 -0.0071453 -0.000342237 0.00416529
internal_weight=447 425 355 334 311 70 50 288 77 211 43 190 80 110 64 46 59
internal_count=447 425 355 334 311 70 50 288 77 211 43 190 80 110 64 46 59
is_linear=0
shrinkage=0.05


Tree=57
num_leaves=19
num_cat=0
split_feature=18 14 4 8 1 3 20 6 14 6 14 10 10 9 10 14 21 3
split_gain=1.36214 1.66748 1.13036 0.977236 0.818127 1.88657 0.77307 0.724467 1.71515 0.875254 0.753918 1.07438 1.03141 0.459184 0.350917 0.307692 0.0510253 0.0505973
threshold=1.0000000180025095e-35 18463.500000000004 -224.55520621101087 -0.11490895164900453 2.5000000000000004 9013.1026809142422 35.426534880000006 109.34003066086999 1664.5000000000002 54.751493428429512 1828.0000000000002 0.22518922265340516 0.40543698782563414 3.4658231997390794 0.23025523536346273 5142.7500000000009 387.70323126487642 364.76565678725723
decision_type=2 2 2 2 2 2 2 2 2 2 2 2 2 2 2 2 2 2
left_child=1 2 3 -1 7 -6 14 8 -4 13 -9 -12 -13 17 -3 -15 -14 -10
right_child=-2 6 4 -5 5 -7 -8 10 9 -11 11 12 16 15 -16 -17 -18 -19
leaf_value=-0.0014073419819275539 0.011858782037768675 0.0042646627553871701 0.0093474487842697858 -0.017055211583660409 -0.0034746787337852376 0.016297843106800602 -0.00095364770696808895 -0.013599174965215342 -0.0062367043077945711 0.0046203433902313315 -0.012546601992269811 0.0085244246168682987 -0.0063952877842599447 -0.0060817538975211595 0.013715588779720879 0.001532807590905577 -0.0021896047297526493 -0.011266166795754718
leaf_weight=20 22 20 37 21 27 20 23 21 24 29 21 23 20 22 27 29 21 20
leaf_count=20 22 20 37 21 27 20 23 21 24 29 21 23 20 22 27 29 21 20
internal_value=0 -0.00063329 -0.00203789 -0.0097564 -0.000986411 0.00499924 0.00634798 -0.00207344 1.48774e-05 -0.00278234 -0.00526255 -0.0030106 0.000186367 -0.00511878 0.00997072 -0.00170954 -0.00446363 -0.00883349
internal_weight=447 425 355 41 314 47 70 267 161 124 106 85 64 95 47 51 41 44
internal_count=447 425 355 41 314 47 70 267 161 124 106 85 64 95 47 51 41 44
is_linear=0
shrinkage=0.05


Tree=58
num_leaves=18
num_cat=0
split_feature=5 17 14 4 4 6 6 20 17 16 10 10 10 6 4 4 5
split_gain=1.26083 3.40217 1.11564 1.78372 1.08491 0.767067 0.922087 2.09094 0.757858 1.99366 0.638276 0.932222 0.320314 0.307703 0.234422 0.177732 0.142186
threshold=4951.6299165732435 0.61250000000000016 10137.000000000002 -158.79306499277854 -1.6722212057372732 997.87999481973736 556.92374449386455 411.6272452550001 0.52083333333333337 0.18333333333333338 0.18034942793075939 0.38514221663487669 0.32189360540274753 23.274220665828711 -16.650052408458958 -6.3124022451528523 198.47841382865067
decision_type=2 2 2 2 2 2 2 2 2 2 2 2 2 2 2 2 2
left_child=2 -2 3 -1 10 6 7 8 12 13 -4 -12 15 -10 -15 -5 -14
right_child=1 -3 4 5 -6 -7 -8 -9 9 -11 11 -13 16 14 -16 -17 -18
leaf_value=-0.016030839433002732 0.022431079428642989 -0.0020164300380274653 -0.0073704736256463956 -0.0049824059976353533 0.010413346041976993 0.007438539556142959 -0.012072549555239016 0.012970029493064986 -0.0075790276931916581 0.010885966686531903 0.010489412849261004 -0.0035591997534036635 -0.0055440083846449856 -0.0052602541712777956 0.0017152110637053504 -0.012289643086349736 0
leaf_weight=22 21 39 21 20 35 21 21 22 36 29 21 24 24 20 26 25 20
leaf_count=22 21 39 21 20 35 21 21 22 36 29 21 24 24 20 26 25 20
internal_value=0 0.00668568 -0.00104718 -0.00265095 0.00342664 -0.00146081 -0.00227771 -0.00127877 -0.00292775 -0.000116068 -0.00030393 0.00297363 -0.00633864 -0.00415155 -0.00125861 -0.00932959 -0.00302925
internal_weight=447 60 387 286 101 264 243 222 200 111 66 45 89 82 46 45 44
internal_count=447 60 387 286 101 264 243 222 200 111 66 45 89 82 46 45 44
is_linear=0
shrinkage=0.05


Tree=59
num_leaves=18
num_cat=0
split_feature=7 9 7 10 3 5 5 3 12 13 22 13 21 13 9 8 9
split_gain=1.32047 2.30895 1.76403 1.24931 1.16704 1.59843 1.07677 0.879544 0.664255 0.717773 0.688194 0.373402 0.309532 0.443863 0.219156 0.1899 0.0910869
threshold=-152.15725574499908 6.1269921375898901 284.15054362642837 0.27201270435251407 40203.584564781617 2184.7124249571393 1327.3330334322641 17564.044669035011 0.0037494945784608143 4055.7500000000005 17784.095889468681 1626.5000000000002 12.494031106917671 4247.2500000000009 2.2583281053444035 -0.030495802799699382 3.9784270649604792
decision_type=2 2 2 2 2 2 2 2 2 2 2 2 2 2 2 2 2
left_child=1 -1 4 -4 5 6 8 -7 10 -10 -2 -12 -13 16 -15 -16 -14
right_child=2 -3 3 -5 -6 7 -8 -9 9 -11 11 12 13 14 15 -17 -18
leaf_value=-0.0009569646855816246 -0.012056092557807764 0.018145292993061817 0.013338220358797998 -0.0019944934377616103 -0.013935248521821842 0.013261731176823378 -0.013322170019770664 -0.00055181764284498061 -0.0020723118127248846 0.010082853841817098 0.0038293975396525293 -0.0080446519928019777 -0.008559670539742166 0.0045315966511233928 0.0011409352665000103 -0.0042017788657798399 -0.0033717703031232722
leaf_weight=39 20 25 32 21 20 24 23 20 27 20 20 27 21 20 33 30 25
leaf_count=39 20 25 32 21 20 24 23 20 27 20 20 27 21 20 33 30 25
internal_value=0 0.00659229 -0.00111383 0.00724597 -0.0024894 -0.00169245 -0.00316969 0.006999 -0.0021376 0.00309823 -0.00342787 -0.00235656 -0.00320082 -0.00209445 4.40498e-05 -0.00135099 -0.00597827
internal_weight=447 64 383 53 330 310 266 44 243 47 196 176 156 129 83 63 46
internal_count=447 64 383 53 330 310 266 44 243 47 196 176 156 129 83 63 46
is_linear=0
shrinkage=0.05


Tree=60
num_leaves=18
num_cat=0
split_feature=18 13 3 20 3 20 8 13 6 9 13 20 13 2 7 16 9
split_gain=1.22158 1.34948 0.970995 0.998486 1.36954 0.694465 0.541189 0.538991 1.56838 0.803733 0.666004 0.492101 0.469848 0.596354 0.427331 0.278349 0.147497
threshold=1.0000000180025095e-35 18463.500000000004 59738.52383862975 1486.7633640600002 22332.166510043702 35.426534880000006 -0.22072481457310569 2078.7500000000005 90.002531897129856 3.5810023032949521 3883.5000000000005 57.218037050000007 8741.7500000000018 249.78665488000004 -39.232208499464186 0.15476190476190479 6.3823093625623724
decision_type=2 2 2 2 2 2 2 2 2 2 2 2 2 2 2 2 2
left_child=1 2 3 4 6 14 -1 8 9 -8 15 12 13 -12 -3 -9 -15
right_child=-2 5 -4 -5 -6 -7 7 10 -10 -11 11 -13 -14 16 -16 -17 -18
leaf_value=-0.0084729960287222642 0.011222933851506401 0.014626625072920608 -0.012074013277888299 -0.0098905137081940972 0.011407524172378624 -0.0012331870570778849 0.01630184765195563 -0.0029303904053085716 -0.0060474137510000553 0.0018679117641988256 0.00086887268755489434 0.0061558484191146616 0.0034095343635143606 -0.010534670136934755 0.0044681005273014308 -0.010399729424657731 -0.003792614296544343
leaf_weight=23 22 20 21 29 22 23 20 31 26 20 38 25 33 22 27 25 20
leaf_count=23 22 20 21 29 22 23 20 31 26 20 38 25 33 22 27 25 20
internal_value=0 -0.000607075 -0.00187158 -0.00118106 -0.000306992 0.0056714 -0.00127223 -0.000586056 0.00325798 0.00942841 -0.00192946 -1.49644e-05 -0.00146607 -0.00355625 0.00910971 -0.00647659 -0.00760331
internal_weight=447 425 355 334 305 70 283 260 66 40 194 138 113 80 47 56 42
internal_count=447 425 355 334 305 70 283 260 66 40 194 138 113 80 47 56 42
is_linear=0
shrinkage=0.05


Tree=61
num_leaves=18
num_cat=0
split_feature=17 16 19 5 20 14 20 3 8 2 14 9 14 4 11 9 10
split_gain=1.21286 1.58486 1.12505 3.6941 1.26002 1.40621 1.00276 0.912153 0.77546 0.745495 0.618168 0.753287 0.480529 0.539032 0.331689 0.197486 0.193725
threshold=0.27500000000000008 0.52272727272727282 1.0000000180025095e-35 1971.2346747894762 17.657087395000005 9710.0000000000018 82.200303645000005 9833.8512221867113 -0.035626918594157557 727.90004103000012 882.50000000000011 9.1385130274811797 3692.0000000000005 -0.032492834679474968 4.5000000000000009 5.2615876555500574 0.5009288128801862
decision_type=2 2 2 2 2 2 2 2 2 2 2 2 2 2 2 2 2
left_child=6 2 4 -4 5 10 14 -6 -7 -3 -2 12 16 15 -1 -14 -12
right_child=1 9 3 -5 7 8 -8 -9 -10 -11 11 -13 13 -15 -16 -17 -18
leaf_value=0.0023637890710961076 0.00608300584767546 0.0025354653277567456 -0.0036060912773930743 0.023033446964053881 -0.0020200044926928563 0.00018126718467101455 -0.015035001617811978 -0.01452089071687725 0.012452165971044453 0.016103765790661178 -0.01215174167805041 0.0042043751132275374 -0.0014009044186345169 0.0039562623629656934 -0.0051478815786928566 -0.0087100418233735984 -0.0048994652658700946
leaf_weight=23 20 20 33 20 35 23 20 26 31 23 23 27 20 23 35 21 24
leaf_count=23 20 20 33 20 35 23 20 26 31 23 23 27 20 23 35 21 24
internal_value=0 0.00120031 0 0.00659436 -0.00130189 0.000507358 -0.0056244 -0.00757716 0.0074149 0.0101076 -0.00185379 -0.00307551 -0.00491266 -0.00193984 -0.00209479 -0.0053819 -0.00873184
internal_weight=447 369 326 53 273 212 78 61 54 43 158 138 111 64 58 41 47
internal_count=447 369 326 53 273 212 78 61 54 43 158 138 111 64 58 41 47
is_linear=0
shrinkage=0.05


Tree=62
num_leaves=15
num_cat=0
split_feature=7 7 13 17 16 16 13 9 5 9 9 17 2 11
