tree
version=v4
num_class=1
num_tree_per_iteration=1
label_index=0
max_feature_idx=21
objective=regression
feature_names=Archetype_Cluster count_pre_release_tracks max_single_peak_volume total_pre_release_auc terminal_velocity composite_peak_momentum expected_week1_carryover catalog_momentum_slope norm_terminal_velocity norm_total_auc hype_concentration peak_proximity_weeks cannibalization_ratio max_historical_song_sales median_historical_song_sales is_debut_album cluster_prob_0 cluster_prob_1 cluster_prob_3 historical_single_momentum momentum_growth_ratio momentum_baseline_interaction
feature_infos=-1:1:0:2:3 [1:7] [0.18079999999999999:75504.173984980007] [0.78020696234144538:586064.96816895751] [-4652.4197062240692:5950.1745318299018] [0.17351921073858842:73887.775385993606] [5.642606456447431e-28:18428.69349494268] [-7229.7353489150037:10545.015679008571] [-0.44725096000044551:0.5] [0.5:21.542368515238689] [1.7892170142777414e-23:1] [0:24] [-0.39174078339171159:80289055.449041322] [0.69999999999999996:1955.3] [0.69999999999999996:1955.3] none [0:1] [0:0.33333333333333331] [0:1] [0:31927.890982030003] [0.010238691196256903:81388.518390553829] [7.6955769962563965:52174107.094077475]
tree_sizes=1399 1460 1400 1398 1493 1482 1411 1493 1590 1480 1579 1572 1494 1415 1496 1508 1325 1412 1505 1407 1324 1380 1502 1318 1478 1411 1499 1384 1497 1413 1499 1416 1396 1507 1475 1416 1497 1325 1578 1481 1405 1502 1425 1478 1592 1502 1429

Tree=0
num_leaves=16
num_cat=0
split_feature=13 20 13 13 5 10 9 21 4 18 11 9 20 16 18
split_gain=98.465 27.7945 17.7552 10.2909 7.30657 5.07736 4.95381 3.40978 2.91318 2.62808 1.92728 1.29938 0.644918 0.655965 0.583653
threshold=268.42500000000007 1372.6067128759717 618.52500000000009 69.77500000000002 5823.2100467303308 0.32653046469562869 12.384021845457717 1038901.5413904319 -0.66197557274527374 0.162280701754386 14.500000000000002 3.0026676974574555 668.18228710955736 0.89181286549707617 0.10263157894736843
decision_type=2 2 2 2 2 2 2 2 2 2 2 2 2 2 2
left_child=1 3 7 6 5 14 10 -2 9 -5 11 -1 13 -13 -3
right_child=2 4 -4 8 -6 -7 -8 -9 -10 -11 -12 12 -14 -15 -16
leaf_value=5.8483658566078836 5.889535503602084 5.8557632441422252 5.9615430503562994 5.8830007720657056 5.9034797443028637 5.8874801234029066 5.8636971364028625 5.9201623482268673 5.8505190054653262 5.8618902900847152 5.8556628028925726 5.8278764258957869 5.8457764758828681 5.8431418106281878 5.8680135408437613
leaf_weight=31 21 20 23 27 27 34 28 20 21 30 21 51 20 20 21
leaf_count=31 21 20 23 27 27 34 28 20 21 30 21 51 20 20 21
internal_value=5.87023 5.85978 5.92677 5.85079 5.88166 5.8734 5.84395 5.90543 5.86599 5.87185 5.8402 5.83771 5.83442 5.83167 5.86172
internal_weight=415 351 64 249 102 75 171 41 78 57 143 122 91 71 41
internal_count=415 351 64 249 102 75 171 41 78 57 143 122 91 71 41
is_linear=0
shrinkage=1


Tree=1
num_leaves=16
num_cat=0
split_feature=13 21 13 21 3 6 7 7 13 21 18 13 21 21 4
split_gain=89.2905 20.8297 16.0738 6.87753 4.19289 4.18803 3.83687 4.60137 4.45071 3.08694 2.66169 3.1049 1.71534 1.46756 0.704704
threshold=268.42500000000007 74756.408659820358 618.52500000000009 578426.66535503778 12464.088063160407 453.75829561522295 265.38104433017895 -164.00989937910711 75.125000000000014 1038901.5413904319 0.11882352941176472 60.400000000000006 28622.417386595807 1627.6220035556378 0.58917158115894719
decision_type=2 2 2 2 2 2 2 2 2 2 2 2 2 2 2
left_child=1 6 9 4 5 -3 7 -1 12 -2 -6 -12 13 -9 -15
right_child=2 3 -4 -5 10 -7 -8 8 -10 -11 11 -13 -14 14 -16
leaf_value=0 0.018388391234488651 -0.00635638792877612 0.086941917041937516 0.025252242833375932 -0.023619030724194919 0.02220884206287306 -0.00080687885172665136 -0.019384282339597124 -0.0041881015556661976 0.04755890623444603 0.01211926924153453 -0.013284431227615905 -0.018458136604412607 -0.03954014405698042 -0.025157346757098464
leaf_weight=20 21 22 23 30 21 28 23 23 22 20 20 27 37 56 22
leaf_count=20 21 22 23 30 21 28 23 23 22 20 20 27 37 56 22
internal_value=0 -0.0099397 0.0538444 0.00428591 -0.0011699 0.00966391 -0.0203058 -0.0227514 -0.0255613 0.0335305 -0.00923302 -0.0023429 -0.028878 -0.0324277 -0.0359165
internal_weight=415 351 64 148 118 50 203 180 160 41 68 47 138 101 78
internal_count=415 351 64 148 118 50 203 180 160 41 68 47 138 101 78
is_linear=0
shrinkage=0.05


Tree=2
num_leaves=15
num_cat=0
split_feature=13 20 13 5 9 9 8 5 8 10 11 10 20 10
split_gain=81.226 28.3173 13.1392 7.5944 6.37932 4.30733 3.848 3.79844 2.25488 3.41375 1.77927 1.21833 0.454184 0.243226
threshold=450.50000000000006 1372.6067128759717 69.77500000000002 5823.2100467303308 8.8832693853512321 12.384021845457717 -0.0087504808974533579 2337.2438549287585 -0.13871626801114609 0.2446628625553888 14.500000000000002 0.64064179181617675 456.41457509996911 0.19439949109819957
decision_type=2 2 2 2 2 2 2 2 2 2 2 2 2 2
left_child=1 2 5 4 7 10 8 -3 -4 -10 11 12 13 -1
right_child=-2 3 6 -5 -6 -7 -8 -9 9 -11 -12 -13 -14 -15
leaf_value=-0.028122292945959738 0.07072752113277847 0.031319668767973784 -0.0074387366470435399 0.036337092274093423 -0.012643176139942531 -0.0055705301136035343 -0.01623955164040471 0.0046083524775211559 -1.4937465478266979e-05 0.026680141566764744 -0.012723810703239658 -0.02110456236358732 -0.025674729821582639 -0.041454106369188858
leaf_weight=20 36 23 22 28 28 28 28 32 27 20 21 39 29 34
leaf_count=20 36 23 22 28 28 28 28 32 27 20 21 39 29 34
internal_value=0 -0.00687805 -0.0156674 0.0142489 0.00639399 -0.0239672 -0.000889523 0.0162276 0.00541105 0.0115597 -0.0274709 -0.0298446 -0.0335917 -0.0372084
internal_weight=415 379 268 111 83 171 97 55 69 47 143 122 83 54
internal_count=415 379 268 111 83 171 97 55 69 47 143 122 83 54
is_linear=0
shrinkage=0.05


Tree=3
num_leaves=15
num_cat=0
split_feature=13 20 13 13 21 9 9 5 21 8 3 11 10 20
split_gain=74.7824 21.3403 13.2825 7.42648 5.87682 5.04489 3.98396 3.86166 2.58172 2.10865 1.84201 1.67368 1.22938 0.175414
threshold=268.42500000000007 1291.4223887532764 618.52500000000009 69.77500000000002 578426.66535503778 8.6298630867835566 12.384021845457717 2337.2438549287585 1038901.5413904319 -0.00058544188721456844 4648.6194445013543 14.500000000000002 0.64064179181617675 456.41457509996911
decision_type=2 2 2 2 2 2 2 2 2 2 2 2 2 2
left_child=1 3 8 6 5 7 11 -3 -2 10 -5 12 13 -1
right_child=2 4 -4 9 -6 -7 -8 -9 -10 -11 -12 -13 -14 -15
leaf_value=-0.035415774436159564 0.016891766622323882 0.027653815391659738 0.079386925312380008 -0.0095242849785996536 0.033409428262994409 -0.011286771016140633 -0.005301607959935891 0.00041659041564783147 0.04362723715958141 -0.016463672628936669 0.0088859068873253753 -0.012116538110104475 -0.020075715046375991 -0.025550383072612544
leaf_weight=54 21 24 23 22 20 33 28 28 20 23 32 21 39 27
leaf_count=54 21 24 23 22 20 33 28 28 20 23 32 21 39 27
internal_value=0 -0.00909459 0.0492781 -0.0171359 0.00968183 0.00371717 -0.0229801 0.0133665 0.0307807 -0.00411477 0.00125775 -0.0263935 -0.0287298 -0.03254
internal_weight=415 351 64 246 105 85 169 52 41 77 54 141 120 81
internal_count=415 351 64 246 105 85 169 52 41 77 54 141 120 81
is_linear=0
shrinkage=0.05


Tree=4
num_leaves=16
num_cat=0
split_feature=13 20 13 13 5 10 21 4 12 3 3 13 16 3 4
split_gain=67.8 19.3495 12.0229 6.80756 5.30212 3.84587 2.33654 2.15406 1.92391 1.63171 1.4441 2.04983 1.01306 0.690534 0.479541
threshold=268.42500000000007 1372.6067128759717 618.52500000000009 69.77500000000002 5823.2100467303308 0.32653046469562869 1038901.5413904319 -0.66197557274527374 0.052194338770587538 4648.6194445013543 989.14183834914422 41.850000000000009 0.82085561497326209 4044.1282067369375 -68.500993070539849
decision_type=2 2 2 2 2 2 2 2 2 2 2 2 2 2 2
left_child=1 3 6 8 5 14 -2 9 10 -5 12 13 -1 -12 -3
right_child=2 4 -4 7 -6 -7 -8 -9 -10 -11 11 -13 -14 -15 -16
leaf_value=-0.0068970220553733058 0.016085567819801246 -0.012743581140583214 0.075582967686156438 -0.0090687759333978532 0.028183909439248967 0.014814256957998234 0.041549750527455694 -0.017078195651146499 -0.010759665931046413 0.0079568778955015473 -0.041267215849033423 -0.017318607868892808 -0.023096084458132587 -0.026617070452775806 -0.0016215737944557556
leaf_weight=20 21 21 23 22 27 34 20 21 36 35 27 34 23 31 20
leaf_count=20 21 21 23 22 27 34 20 21 36 35 27 34 23 31 20
internal_value=4.08295e-07 -0.00865127 0.0469295 -0.0161539 0.00959453 0.00255378 0.0293197 -0.00377031 -0.0217188 0.00125631 -0.0245038 -0.0282084 -0.0160033 -0.0341056 -0.00760504
internal_weight=415 351 64 249 102 75 41 78 171 57 135 92 43 58 41
internal_count=415 351 64 249 102 75 41 78 171 57 135 92 43 58 41
is_linear=0
shrinkage=0.05


Tree=5
num_leaves=16
num_cat=0
split_feature=14 20 14 14 10 6 9 10 21 4 18 11 10 21 20
split_gain=61.4931 17.5307 10.8822 6.16413 4.90864 5.86171 3.48306 2.36086 2.11438 1.95224 2.39351 1.49798 1.00743 0.39732 0.757274
threshold=268.42500000000007 1372.6067128759717 618.52500000000009 69.77500000000002 0.26274147807141141 2094.0103412116482 12.384021845457717 0.17180691980591431 1038901.5413904319 -0.66197557274527374 0.162280701754386 14.500000000000002 0.64064179181617675 19452.948140971759 18.897170027389752
decision_type=2 2 2 2 2 2 2 2 2 2 2 2 2 2 2
left_child=1 3 8 6 7 -6 11 -3 -2 10 -5 12 13 -1 -15
right_child=2 4 -4 9 5 -7 -8 -9 -10 -11 -12 -13 -14 14 -16
leaf_value=-0.034050860073683513 0.01531784806569869 0.0089070340396406582 0.071961283236742016 0.011839854408920346 0.0046273579907914007 0.038841325436597282 -0.0041567682697646454 -0.012175838983169309 0.03957119104585477 -0.016263099610805513 -0.0083096471488956491 -0.010388314862820236 -0.018104529042728246 -0.030836620039266089 -0.015178485457741081
leaf_weight=41 21 25 23 27 29 22 28 26 20 21 30 21 39 22 20
leaf_count=41 21 25 23 27 29 22 28 26 20 21 30 21 39 22 20
internal_value=0 -0.00823938 0.0446932 -0.0153811 0.00912628 0.0199456 -0.0206767 -0.0017724 0.0279283 -0.00359331 0.00118822 -0.0238254 -0.0259944 -0.0293825 -0.024023
internal_weight=415 351 64 249 102 51 171 51 41 78 57 143 122 83 42
internal_count=415 351 64 249 102 51 171 51 41 78 57 143 122 83 42
is_linear=0
shrinkage=0.05


Tree=6
num_leaves=15
num_cat=0
split_feature=13 20 13 13 21 18 16 7 7 4 18 8 21 13
split_gain=55.7632 15.9381 9.90769 5.50827 4.92003 3.19409 6.62157 2.22616 2.5281 1.73681 2.25295 1.4566 1.14792 0.717041
threshold=268.42500000000007 1291.4223887532764 514.30000000000007 69.77500000000002 578426.66535503778 0.11437908496732027 0.69782608695652182 -148.52928230321331 265.38104433017895 -0.66197557274527374 0.162280701754386 0.032010126153926559 1627.6220035556378 36.425000000000004
decision_type=2 2 2 2 2 2 2 2 2 2 2 2 2 2
left_child=1 3 -2 7 5 -3 -7 -1 11 10 -5 12 -9 -14
right_child=2 4 -4 9 -6 6 -8 8 -10 -11 -12 -13 13 -15
leaf_value=-0.0036497436055824869 0.023388909577754222 -0.008174316008147357 0.063988241841395704 0.011269004855171912 0.0300862342864275 -0.007322265836247243 0.028730776135164962 -0.014912567699239369 -0.0056680920849675716 -0.015486906040459873 -0.0084352322878936941 -0.012667552241339135 -0.035400759681254966 -0.023460368022322653
leaf_weight=20 35 36 29 27 20 24 25 20 22 21 29 25 43 39
leaf_count=20 35 36 29 27 20 24 25 20 22 21 29 25 43 39
internal_value=2.73278e-06 -0.00784236 0.0425638 -0.0147928 0.00838023 0.00292435 0.0111789 -0.0198269 -0.0219262 -0.00356714 0.00100834 -0.0246373 -0.027371 -0.0301331
internal_weight=415 351 64 246 105 85 49 169 149 77 56 127 102 82
internal_count=415 351 64 246 105 85 49 169 149 77 56 127 102 82
is_linear=0
shrinkage=0.05


Tree=7
num_leaves=16
num_cat=0
split_feature=13 20 13 13 10 6 16 9 21 16 6 6 20 21 5
split_gain=50.5042 14.4575 9.10385 5.09306 4.43761 5.14777 4.26779 2.86423 1.87114 1.71583 1.40724 2.88237 1.36749 1.75748 0.68437
threshold=268.42500000000007 1372.6067128759717 618.52500000000009 77.425000000000011 0.26274147807141141 2094.0103412116482 0.75595238095238104 12.384021845457717 1038901.5413904319 0.57738095238095244 138.14831742617488 731.10803221729282 90.129386072974171 19452.948140971759 2710.0066409445203
decision_type=2 2 2 2 2 2 2 2 2 2 2 2 2 2 2
left_child=1 3 8 7 6 -6 -3 9 -2 -1 -5 -12 14 -14 -11
right_child=2 4 -4 10 5 -7 -8 -9 -10 12 11 -13 13 -15 -16
leaf_value=-0.031789669094141569 0.013378208379515194 -0.018297269890975694 0.065447034363945319 0.0074486818976700307 0.0042307592441017429 0.036301784163907815 0.010308242535839479 -0.0031665271045318967 0.036089764583323684 -0.027502869857338869 -0.019592489119133225 0.0059944455857787815 -0.018641876187874006 -0.0012370641876012088 -0.014348599809137259
leaf_weight=31 21 22 23 24 29 22 29 28 20 40 22 20 39 24 21
leaf_count=31 21 22 23 24 29 22 29 28 20 40 22 20 39 24 21
internal_value=1.66897e-06 -0.00746375 0.0405067 -0.0139501 0.00830363 0.0185935 -0.00204981 -0.0182282 0.0251716 -0.0208792 -0.00191831 -0.0074359 -0.0178791 -0.0122125 -0.0233595
internal_weight=415 351 64 249 102 51 51 183 41 155 66 42 124 63 61
internal_count=415 351 64 249 102 51 51 183 41 155 66 42 124 63 61
is_linear=0
shrinkage=0.05


Tree=8
num_leaves=17
num_cat=0
split_feature=13 20 13 7 4 20 13 8 7 8 10 18 5 7 18 4
split_gain=45.9015 17.0132 6.91704 4.80801 3.42618 2.81809 2.42295 3.02744 4.52151 1.8796 1.75366 1.49147 1.21303 0.859991 0.750018 0.122478
threshold=450.50000000000006 1839.9568852316081 42.600000000000001 -251.39183617421477 -57.403848866441358 642.22871228769066 69.77500000000002 -0.035530776974475375 5.1778166103573282 -0.059524673853653363 0.24725558331911496 0.057189542483660136 137.47439000171906 -1.0000000180025095e-35 0.30384615384615393 -7.9709592761821932
decision_type=2 2 2 2 2 2 2 2 2 2 2 2 2 2 2 2
left_child=1 2 11 -3 9 6 13 -8 -9 -5 -7 15 -13 -4 -14 -1
right_child=-2 3 5 4 -6 10 7 8 -10 -11 -12 12 14 -15 -16 -17
leaf_value=-0.021875530704855921 0.053180891508991662 0.034053809785453436 -0.0097509246584756883 0.0087080767324992595 0.020190524434478122 -0.0041234099456447766 0.0075104855423843543 -0.027771106712858786 0.0046990285263884641 -0.01194573405482199 0.015180064547061924 -0.0043572868322510096 -0.013648317424752017 -0.02504536362957548 -0.026175082270056011 -0.03309745939714568
leaf_weight=21 36 21 22 20 28 21 36 21 20 22 24 20 37 21 25 20
leaf_count=21 36 21 22 20 28 21 36 21 20 22 24 20 37 21 25 20
internal_value=6.34792e-06 -0.00515803 -0.0111172 0.0135633 0.00695272 -0.00434265 -0.00834435 -0.00287688 -0.0120782 -0.00202052 0.00616927 -0.0200564 -0.015671 -0.0177334 -0.0191141 -0.0281264
internal_weight=415 379 288 91 70 165 120 77 41 42 45 123 82 43 62 41
internal_count=415 379 288 91 70 165 120 77 41 42 45 123 82 43 62 41
is_linear=0
shrinkage=0.05


Tree=9
num_leaves=16
num_cat=0
split_feature=13 20 13 21 13 9 5 3 7 21 6 6 5 13 21
split_gain=42.1519 11.7712 7.57121 4.33836 4.15324 3.65105 4.06053 2.8498 1.76904 1.58546 1.35271 2.76366 1.17798 2.15965 0.254952
threshold=268.42500000000007 1291.4223887532764 618.52500000000009 578426.66535503778 77.425000000000011 8.6298630867835566 2337.2438549287585 19750.947228208799 -109.15856607321398 1038901.5413904319 138.14831742617488 731.10803221729282 163.55271866316369 41.850000000000009 7209.3416822432691
decision_type=2 2 2 2 2 2 2 2 2 2 2 2 2 2 2
left_child=1 4 9 5 7 6 -3 8 -1 -2 -6 -12 -10 14 -14
right_child=2 3 -4 -5 10 -7 -8 -9 12 -11 11 -13 13 -15 -16
leaf_value=-0.0047553131115538154 0.012129983334717426 0.024904644536972047 0.059762782168108965 0.027491722064358848 0.0073127857709303495 -0.010740659138845171 -0.0025951341358174023 0.00085522889381363289 -0.012556391678129634 0.033055048333037469 -0.019656484467400748 0.005666056012823468 -0.036712563981612524 -0.013775055027916098 -0.025478858212432398
leaf_weight=21 21 24 23 20 24 33 28 20 38 20 21 20 20 39 43
leaf_count=21 21 24 23 20 24 33 28 20 38 20 21 20 20 39 43
internal_value=0 -0.00681968 0.037005 0.00711793 -0.0127936 0.00200203 0.0102332 -0.0166725 -0.0188725 0.0230004 -0.00182782 -0.00734418 -0.0209059 -0.0238159 -0.0296412
internal_weight=415 351 64 105 246 85 52 181 161 41 65 41 140 102 63
internal_count=415 351 64 105 246 85 52 181 161 41 65 41 140 102 63
is_linear=0
shrinkage=0.05


Tree=10
num_leaves=17
num_cat=0
split_feature=13 20 13 5 13 9 5 9 21 6 6 11 12 11 6 18
split_gain=38.2221 10.6676 6.85097 4.12067 3.76311 3.34802 3.99522 2.61295 1.43412 1.2256 2.50761 0.97956 0.968153 1.07065 1.13576 1.51856
threshold=268.42500000000007 1291.4223887532764 618.52500000000009 5823.2100467303308 77.425000000000011 9.0432329570979046 2337.2438549287585 12.384021845457717 1038901.5413904319 138.14831742617488 731.10803221729282 16.500000000000004 -0.059715734063713229 1.5000000000000002 66.599012208374134 0.23973727422003285
decision_type=2 2 2 2 2 2 2 2 2 2 2 2 2 2 2 2
left_child=1 4 8 5 7 6 -3 11 -2 -6 -11 12 -1 -14 -15 -16
right_child=2 3 -4 -5 9 -7 -8 -9 -10 10 -12 -13 13 14 15 -17
leaf_value=-0.030835976956323504 0.011551052449080586 0.021110302731394769 0.05689914566775163 0.02323921146137374 0.0069617723125964398 -0.01388717924280522 -0.0058237336215528623 -0.0015627644178939277 0.031480997893072314 -0.018718334366990764 0.0053962436761884466 -0.0072197194024920461 -0.025867991793731393 -0.021850666400277989 -0.0013795252603789171 -0.019059231988662349
leaf_weight=20 21 27 23 27 24 25 26 28 20 21 20 20 32 31 29 21
leaf_count=20 21 27 23 27 24 25 26 28 20 21 20 20 32 31 29 21
internal_value=4.32908e-06 -0.00648864 0.0352431 0.0067781 -0.012176 0.000794696 0.00794162 -0.0158684 0.0219101 -0.00173391 -0.00698767 -0.0184268 -0.0200083 -0.0177943 -0.0142672 -0.00913115
internal_weight=415 351 64 105 246 78 53 181 41 65 41 153 133 113 81 50
internal_count=415 351 64 105 246 78 53 181 41 65 41 153 133 113 81 50
is_linear=0
shrinkage=0.05


Tree=11
num_leaves=17
num_cat=0
split_feature=13 20 13 5 13 16 9 13 18 9 6 4 4 20 7 7
split_gain=34.6711 9.78144 6.19879 4.8125 3.55672 3.82533 3.0964 2.60782 2.21688 2.15919 1.62944 1.76156 1.36155 1.30026 0.605431 0.415822
threshold=268.42500000000007 626.82942529851505 618.52500000000009 5823.2100467303308 44.425000000000004 0.70400500625782236 6.0766118033375189 69.77500000000002 0.11437908496732027 12.384021845457717 100.9153472469326 -62.095653649804014 6.9722191668219304 987.88533681522415 31.417411506250026 -47.815065960357039
decision_type=2 2 2 2 2 2 2 2 2 2 2 2 2 2 2 2
left_child=1 7 13 4 8 -6 -7 9 -3 12 -9 -12 14 -2 15 -1
right_child=2 3 -4 -5 5 6 -8 10 -10 -11 11 -13 -14 -15 -16 -17
leaf_value=-0.018218026380266317 0.01054818323236846 -0.022379884783016599 0.054172730433444186 0.02211875032367451 -0.0074403356692443303 0.0026496669929474592 0.02959935087178435 0.0062497133073735646 -0.001496138642391851 -0.003577605985248318 0.00016879183705896137 -0.019869409359019735 -0.0082177576459134399 0.029550120187076659 -0.015900029413169252 -0.030080033090825267
leaf_weight=21 20 22 23 27 29 23 20 21 30 25 20 22 22 21 31 38
leaf_count=21 20 22 23 27 29 23 20 21 30 25 20 22 22 21 31 38
internal_value=2.96299e-06 -0.00618048 0.0335655 0.00338931 -0.000793195 0.00632833 0.0156859 -0.0134115 -0.0106815 -0.0172808 -0.0047806 -0.0104291 -0.0202365 0.0208718 -0.0229969 -0.0263153
internal_weight=415 351 64 151 124 72 43 200 52 137 63 42 112 41 90 59
internal_count=415 351 64 151 124 72 43 200 52 137 63 42 112 41 90 59
is_linear=0
shrinkage=0.05


Tree=12
num_leaves=16
num_cat=0
split_feature=21 7 7 18 8 13 20 16 16 5 3 3 21 18 5
split_gain=31.5642 6.86462 8.44199 8.48205 4.31096 4.03735 3.08864 3.37579 2.05182 1.35679 1.24013 1.19338 0.907926 0.765861 0.310429
threshold=578426.66535503778 425.73251217517867 -148.52928230321331 0.11882352941176472 -0.035926205217172859 41.850000000000009 356.15196997618273 0.73798627002288331 0.90454545454545465 163.55271866316369 3982.888949923326 937.50854434287589 113501.62118288364 0.11437908496732027 5680.0097355194457
decision_type=2 2 2 2 2 2 2 2 2 2 2 2 2 2 2
left_child=1 2 3 -1 -2 9 11 -8 -9 -4 -11 -7 -13 -12 -6
right_child=4 -3 5 -5 14 6 7 8 -10 10 13 12 -14 -15 -16
leaf_value=-0.013694271762700131 0.015569173102386489 0.015394933896604927 -0.0096320316730247393 0.025617795448633841 0.03080771439841816 -0.0039921735977060798 -0.012841978199513895 0.019669043818569706 -0.0019360594220814251 -0.031236809680704025 -0.025080031293403846 -0.026332091413762262 -0.010874763199244627 -0.011959128280835493 0.046906967535614963
leaf_weight=23 38 31 30 31 20 21 27 22 20 31 22 22 23 34 20
leaf_count=23 38 31 30 31 20 21 27 22 20 31 22 22 23 34 20
internal_value=4.96375e-06 -0.00663355 -0.00892436 0.00883831 0.028471 -0.0127703 -0.00674489 0.00060222 0.00945885 -0.0195642 -0.022784 -0.0143949 -0.0189485 -0.0175511 0.039927
internal_weight=415 337 306 54 78 252 135 69 42 117 87 66 45 56 40
internal_count=415 337 306 54 78 252 135 69 42 117 87 66 45 56 40
is_linear=0
shrinkage=0.05


Tree=13
num_leaves=15
num_cat=0
split_feature=13 21 7 7 13 6 20 13 8 6 18 18 10 18
split_gain=29.5014 12.6026 5.05606 5.48434 3.76519 2.98136 2.5463 1.32907 2.45641 1.2729 1.26612 1.60867 1.71236 0.839501
threshold=450.50000000000006 578426.66535503778 425.73251217517867 -251.39183617421477 41.850000000000009 2816.3588414483252 356.15196997618273 142.30000000000004 -0.003410473477658701 100.9153472469326 0.095454545454545472 0.29893617021276603 0.22984275045285715 0.19139194139194141
decision_type=2 2 2 2 2 2 2 2 2 2 2 2 2 2
left_child=1 2 3 -1 10 -3 9 8 -8 -6 -5 12 -12 -11
right_child=-2 5 -4 4 6 -7 7 -9 -10 13 11 -13 -14 -15
leaf_value=0.0079707440018403127 0.042634531112538801 0.0062323763570748267 0.011637806478707541 -0.025222982785974943 -0.0044476579406684076 0.031842425662279128 0.014655991724908486 -0.010470989509707408 -0.0066439679279350324 -0.01001661198756968 0.0024633632329377261 -0.023450098285644219 -0.01629214776886834 -0.025463837173807881
leaf_weight=38 36 23 30 47 28 24 27 20 25 20 21 28 26 22
leaf_count=38 36 23 30 47 28 24 27 20 25 20 21 28 26 22
internal_value=2.47826e-06 -0.00413539 -0.00758884 -0.00954738 -0.0121084 0.019805 -0.00644941 0.000105943 0.00438914 -0.013169 -0.0185484 -0.014023 -0.00793112 -0.0186283
internal_weight=415 379 332 302 264 47 142 72 52 70 122 75 47 42
internal_count=415 379 332 302 264 47 142 72 52 70 122 75 47 42
is_linear=0
shrinkage=0.05


Tree=14
num_leaves=16
num_cat=0
split_feature=13 20 13 5 13 16 9 5 3 18 13 9 19 9 20
split_gain=26.8975 7.80303 5.03753 3.57704 2.66527 3.37582 2.56706 2.02864 2.30748 1.7604 1.70416 1.32295 1.22344 1.20486 0.673751
threshold=268.42500000000007 626.82942529851505 618.52500000000009 5823.2100467303308 44.425000000000004 0.70400500625782236 6.0766118033375189 5079.2565428409607 1516.2140855486325 0.11437908496732027 24.725000000000005 2.498253721348378 1504.7549924750001 4.3743543837550698 356.15196997618273
decision_type=2 2 2 2 2 2 2 2 2 2 2 2 2 2 2
left_child=1 7 13 4 9 -6 -7 8 10 -3 -1 -12 14 -2 -10
right_child=2 3 -4 -5 5 6 -8 -9 12 -11 11 -13 -14 -15 -16
leaf_value=-0.015791665828155898 0.0087661551684141154 -0.019488554661688598 0.048130775704048577 0.019246461205184459 -0.0072665646262466913 0.0025537295763691267 0.027126262575565354 0.0028736856790436876 -0.025439241818955863 -0.0008838382062892761 -0.0088826875505037609 0.0077061240936745897 -0.0087428607232868678 0.026840043335354759 -0.013859898965391849
leaf_weight=30 21 22 23 27 29 23 20 20 50 30 23 23 28 20 26
leaf_count=30 21 22 23 27 29 23 20 20 50 30 23 23 28 20 26
internal_value=6.03047e-07 -0.00544427 0.0295636 0.00310006 -0.000501533 0.00565677 0.0144532 -0.0119034 -0.0135798 -0.0090686 -0.0067244 -0.000494415 -0.0184301 0.0181309 -0.0217743
internal_weight=415 351 64 151 124 72 43 200 180 52 76 46 104 41 76
internal_count=415 351 64 151 124 72 43 200 180 52 76 46 104 41 76
is_linear=0
shrinkage=0.05


Tree=15
num_leaves=16
num_cat=0
split_feature=13 20 13 10 18 16 7 13 20 18 8 2 8 18 18
split_gain=24.391 7.14241 4.55707 3.53951 4.45783 3.78826 2.62207 2.42878 2.47961 1.16768 1.10293 1.01145 0.911769 0.764277 0.889783
threshold=268.42500000000007 1372.6067128759717 618.52500000000009 0.26274147807141141 0.11882352941176472 0.75595238095238104 345.98819888892825 41.850000000000009 356.15196997618273 0.11882352941176472 0.032010126153926559 445.03349106000007 -0.030931931915801406 0.22474747474747478 0.10818713450292398
decision_type=2 2 2 2 2 2 2 2 2 2 2 2 2 2 2
left_child=1 6 9 5 -5 -3 7 10 13 -2 11 12 -1 14 -9
right_child=2 3 -4 4 -6 -7 -8 8 -10 -11 -12 -13 -14 -15 -16
leaf_value=-0.0048110299113960494 0.0080942246228964503 -0.018606649496309136 0.045824509474138415 -0.0023648161136291244 0.027163196841945809 0.0083330479268236869 0.0059917792999961729 -0.013339780609219754 0.0044564277859958446 0.025827564675183524 -0.0055564252384716559 -0.025407272156600543 -0.0195107103443505 -0.017833612209892481 -0.00050451942163428091
leaf_weight=20 21 22 23 21 30 29 23 28 36 20 20 40 27 28 27
leaf_count=20 21 22 23 21 30 29 23 28 36 20 20 40 27 28 27
internal_value=5.1266e-06 -0.00517928 0.0281575 0.0058939 0.0150968 -0.00332618 -0.00974072 -0.0113832 -0.00631889 0.0172727 -0.0168585 -0.0193072 -0.0135902 -0.0110495 -0.00724965
internal_weight=415 351 64 102 51 51 249 226 119 41 107 87 47 83 55
internal_count=415 351 64 102 51 51 249 226 119 41 107 87 47 83 55
is_linear=0
shrinkage=0.05


Tree=16
num_leaves=14
num_cat=0
split_feature=13 21 7 7 13 9 11 6 16 18 20 16 16
split_gain=22.1995 9.67092 4.14998 4.70037 3.25045 2.3442 3.63259 2.33548 1.80102 3.00309 1.55799 2.1109 0.324392
threshold=462.70000000000005 578426.66535503778 425.73251217517867 -251.39183617421477 69.77500000000002 9.8726996228921742 3.5000000000000004 2310.8018002330027 0.57738095238095244 0.087121212121212141 626.82942529851505 0.72570532915360519 0.92582417582417598
decision_type=2 2 2 2 2 2 2 2 2 2 2 2 2
left_child=1 2 3 -1 8 6 -6 -3 -5 12 11 -11 -10
right_child=-2 7 -4 4 5 -7 -8 -9 9 10 -12 -13 -14
leaf_value=0.0079202202526040578 0.038129948735968873 0.0041472028974782332 0.01089205559313057 -0.02568797966465354 -0.0083648266272858662 -0.014982812036094924 0.015170085983661314 0.0267588889785111 -0.025318550031494216 0.0023841535308886143 0.0043744235033928245 -0.017671511623742326 -0.015866359325223848
leaf_weight=38 34 21 30 31 35 27 29 27 26 20 26 34 37
leaf_count=38 34 21 30 31 35 27 29 27 26 20 26 34 37
internal_value=5.20158e-06 -0.00347483 -0.00652057 -0.0082912 -0.0106557 -0.00288641 0.00229183 0.0172548 -0.0146507 -0.0120614 -0.00543613 -0.0102443 -0.02018
internal_weight=415 381 333 303 265 91 64 48 174 143 80 54 63
internal_count=415 381 333 303 265 91 64 48 174 143 80 54 63
is_linear=0
shrinkage=0.05


Tree=17
num_leaves=15
num_cat=0
split_feature=13 5 18 13 19 2 6 16 3 18 16 9 6 16
split_gain=20.2574 5.25839 4.36504 3.05576 2.28097 2.06707 4.10949 3.88671 1.93661 1.62732 2.21856 1.11476 0.859478 0.738465
threshold=268.42500000000007 5823.2100467303308 0.10818713450292398 42.600000000000001 49.889886695000008 793.41206648500008 158.98899928830542 0.71008403361344552 81552.538319483618 0.095454545454545472 0.57738095238095244 5.1576916162637962 576.72888196523024 0.92582417582417598
decision_type=2 2 2 2 2 2 2 2 2 2 2 2 2 2
left_child=1 3 -2 9 5 6 -5 -7 -3 13 -11 -12 -6 -1
right_child=2 8 -4 4 12 7 -8 -9 -10 10 11 -13 -14 -15
leaf_value=-0.026627843927430075 0.0096125803448792041 0.022431941622247303 0.036682799257043944 0.004629720014494818 -0.0041322305557938916 -0.0066034067964314356 -0.022625834498215806 0.01806342474486981 0.0011332195748885473 -0.019196274933758483 -0.0096567130123299608 0.0040014542774720625 -0.01811409276276827 -0.0134149372380446
leaf_weight=22 27 20 37 36 23 27 21 36 23 28 26 32 24 33
leaf_count=22 27 20 37 36 23 27 21 36 23 28 26 32 24 33
internal_value=5.76901e-06 -0.00471789 0.0256631 -0.00701931 -0.00238121 0.00125605 -0.00554256 0.0074758 0.0114379 -0.012422 -0.00787788 -0.00209633 -0.0116047 -0.0191705
internal_weight=415 351 64 308 167 120 57 63 43 141 86 58 47 55
internal_count=415 351 64 308 167 120 57 63 43 141 86 58 47 55
is_linear=0
shrinkage=0.05


Tree=18
num_leaves=16
num_cat=0
split_feature=13 21 7 7 16 13 6 16 20 11 10 6 6 10 10
split_gain=18.7887 8.13079 3.66693 4.20487 2.68147 2.51229 2.10035 1.34019 1.88152 1.22781 2.94098 1.13526 0.656734 0.638731 0.580716
threshold=462.70000000000005 578426.66535503778 425.73251217517867 -336.27007070153508 0.57738095238095244 69.77500000000002 2310.8018002330027 0.70400500625782236 626.82942529851505 2.5000000000000004 0.1801420675778381 931.8444139086713 731.10803221729282 0.64064179181617675 0.20447760631636477
decision_type=2 2 2 2 2 2 2 2 2 2 2 2 2 2 2
left_child=1 2 3 -1 12 7 -3 -6 13 -7 -11 -10 -5 14 -9
right_child=-2 6 -4 4 5 9 -8 8 11 10 -12 -13 -14 -15 -16
leaf_value=0.0094835726800374699 0.035076263063454204 0.0033973741971633654 0.010370290684363535 -0.014117595194017186 0.00035010378767290844 -0.0083493849585764123 0.024812597908395611 -0.014873219376696009 0.0026082689830890069 -0.0071840696145469944 0.017278480100631717 -0.012954325959795999 -0.026985717517408459 -0.0090632661237664853 -0.026738512869179248
leaf_weight=31 34 21 30 33 22 24 27 34 25 23 24 20 21 22 24
leaf_count=31 34 21 30 33 22 24 27 34 25 23 24 20 21 22 24
internal_value=1.41615e-06 -0.00319916 -0.00599274 -0.00765807 -0.00965761 -0.00709061 0.015806 -0.0108017 -0.0127913 0.000566801 0.00530301 -0.004331 -0.0196124 -0.0173763 -0.0202377
internal_weight=415 381 333 303 272 218 48 147 125 71 47 45 54 80 58
internal_count=415 381 333 303 272 218 48 147 125 71 47 45 54 80 58
is_linear=0
shrinkage=0.05


Tree=19
num_leaves=15
num_cat=0
split_feature=13 20 18 16 13 9 5 6 11 9 11 6 9 16
split_gain=17.0099 7.60021 3.61823 4.24253 2.50841 2.10038 1.53871 1.47992 1.36645 1.32143 1.18755 1.36484 1.16538 0.978633
threshold=462.70000000000005 1839.9568852316081 0.11437908496732027 0.72570532915360519 75.125000000000014 12.384021845457717 1076.0064288299379 1189.9235498727423 4.5000000000000009 9.5269127310730877 3.5000000000000004 17.417538949462678 3.3180131212394017 0.81534090909090928
decision_type=2 2 2 2 2 2 2 2 2 2 2 2 2 2
left_child=1 4 -3 -4 5 9 8 -8 -6 10 12 -12 -1 -13
right_child=-2 2 3 -5 6 -7 7 -9 -10 -11 11 13 -14 -15
leaf_value=-0.0075850194968559133 0.033372558733315343 -0.00206092272605747 0.0048645184068910538 0.033497774623489622 -0.0031689931367240524 0.001766915252432227 -0.013326887107687072 0.0034673583071509542 0.013356238977586921 -0.022214351128185952 -0.014104753086163152 -0.0067905502813799248 -0.022991977242817138 0.0075883459667896933
leaf_weight=26 34 39 30 23 22 29 31 21 26 30 30 26 28 20
leaf_count=26 34 39 30 23 22 29 31 21 26 30 30 26 28 20
internal_value=0 -0.00304601 0.00937967 0.0177731 -0.00703753 -0.0104128 -0.000568781 -0.0065128 0.00577003 -0.0126487 -0.0102504 -0.00599009 -0.0159375 -0.000404034
internal_weight=415 381 92 53 289 189 100 52 48 160 130 76 54 46
internal_count=415 381 92 53 289 189 100 52 48 160 130 76 54 46
is_linear=0
shrinkage=0.05


Tree=20
num_leaves=14
num_cat=0
split_feature=13 20 10 7 13 16 7 19 5 13 13 9 16
split_gain=15.4676 4.92861 3.68074 3.49344 2.26215 1.73292 1.4609 1.36183 2.01377 1.19572 1.1666 0.832959 0.781203
threshold=268.42500000000007 626.82942529851505 0.39087089826424992 -251.39183617421477 16.450000000000003 0.70400500625782236 237.82289513053703 1504.7549924750001 422.4370168934708 64.550000000000026 30.550000000000004 3.9518155232966712 0.77350427350427364
decision_type=2 2 2 2 2 2 2 2 2 2 2 2 2
left_child=1 6 -2 -3 -5 -6 7 8 10 -7 -1 -12 -10
right_child=2 3 -4 4 5 9 -8 -9 12 -11 11 -13 -14
leaf_value=-0.015133361567554352 0.03319421397315131 0.018617833654529285 0.0085759924966841948 -0.015099185643636662 -0.0064096801204455867 0.00030375418066978452 0.0013479647045356357 -0.0015769705855671096 -0.027046910735911558 0.01382920196449215 0.0034389048192650078 -0.0089499086632939245 -0.013343991902484387
leaf_weight=35 35 27 29 22 36 34 27 33 27 32 24 28 26
leaf_count=35 35 27 29 22 36 34 27 33 27 32 24 28 26
internal_value=0 -0.00412783 0.0224196 0.00265694 -0.000899555 0.00223143 -0.00926294 -0.0109459 -0.013092 0.0070447 -0.00816336 -0.00318066 -0.0207889
internal_weight=415 351 64 151 124 102 200 173 140 66 87 52 53
internal_count=415 351 64 151 124 102 200 173 140 66 87 52 53
is_linear=0
shrinkage=0.05


Tree=21
num_leaves=15
num_cat=0
split_feature=21 7 7 18 8 20 16 18 21 2 20 10 5 20
split_gain=14.0208 4.15609 5.07074 6.62629 3.76925 2.93044 1.75441 2.13206 1.32451 1.84599 1.79052 0.979437 0.892733 0.340963
threshold=578426.66535503778 425.73251217517867 -148.52928230321331 0.11882352941176472 -0.089700826938963016 668.18228710955736 0.57738095238095244 0.06458333333333334 28622.417386595807 149.59068983 383.17615359269058 0.36026229863386688 936.1082706624195 696.58025364849789
decision_type=2 2 2 2 2 2 2 2 2 2 2 2 2 2
left_child=1 2 3 -1 -2 -6 12 11 9 -9 -10 13 -4 -8
right_child=4 -3 6 -5 5 -7 7 8 10 -11 -12 -13 -14 -15
leaf_value=-0.012354031029778223 0 0.012701963938307019 -0.010733642333733112 0.022381492651184092 0.009993684319374356 0.034046802510683601 -0.020804632118705549 0.0023901845607906579 -0.0067455358897734984 -0.016919636895724881 0.0087182102417573334 -0.0048281422395397115 -0.025262260359266531 -0.010974027669138235
leaf_weight=23 20 31 28 31 22 36 32 20 34 29 39 26 22 22
leaf_count=23 20 31 28 31 22 36 32 20 34 29 39 26 22 22
internal_value=0 -0.0044237 -0.00621066 0.0075402 0.0189729 0.025332 -0.00919519 -0.00701515 -0.00276228 -0.0090479 0.00145452 -0.0133249 -0.0175943 -0.0171628
internal_weight=415 337 306 54 78 58 252 202 122 49 73 80 50 54
internal_count=415 337 306 54 78 58 252 202 122 49 73 80 50 54
is_linear=0
shrinkage=0.05


Tree=22
num_leaves=16
num_cat=0
split_feature=13 21 6 7 7 16 13 16 13 16 8 7 7 10 6
split_gain=13.6779 6.40189 2.95348 2.91363 3.23231 2.01482 1.78489 1.22351 1.07302 0.971492 0.869035 1.44681 0.708061 0.594794 0.250635
threshold=514.30000000000007 578426.66535503778 1923.9062954174462 425.73251217517867 -336.27007070153508 0.57738095238095244 69.77500000000002 0.70400500625782236 83.65000000000002 0.88117647058823534 -0.084614619275741265 -8.0031199944642584 5.1778166103573282 0.20447760631636477 549.12726454091421
decision_type=2 2 2 2 2 2 2 2 2 2 2 2 2 2 2
left_child=1 3 -3 4 -1 12 7 -7 -8 -10 -9 -12 -6 -13 -15
right_child=-2 2 -4 -5 5 6 8 10 9 -11 11 13 -14 14 -16
leaf_value=0.0084292159497272225 0.032529625111259522 -0.0009459528936581179 0.022776989511242421 0.0094743531281428969 -0.022661626281313088 0.001378790482716716 0.0099273079088223852 -0.0026430203227533235 0.0019737611315213143 -0.011801742198211807 -0.0025158483545797377 -0.010883344095748138 -0.010062158952156704 -0.025706905265423387 -0.014865821956080341
leaf_weight=31 29 21 32 30 28 22 20 26 31 20 25 33 26 21 20
leaf_count=31 29 21 32 30 28 22 20 26 31 20 25 33 26 21 20
internal_value=0 -0.00251583 0.0134413 -0.00510317 -0.00658935 -0.00834395 -0.0061143 -0.00924209 0.000330517 -0.00345531 -0.0111472 -0.0132818 -0.0169794 -0.0167702 -0.0210175
internal_weight=415 386 53 333 303 272 218 147 71 51 125 99 54 74 41
internal_count=415 386 53 333 303 272 218 147 71 51 125 99 54 74 41
is_linear=0
shrinkage=0.05


Tree=23
num_leaves=14
num_cat=0
split_feature=14 6 9 7 7 14 3 11 3 14 20 20 21
split_gain=12.4033 5.39537 4.45079 4.003 2.08483 2.21183 2.47298 2.7746 0.843374 1.2906 1.3698 0.856643 0.570326
threshold=462.70000000000005 2218.9843331421357 8.705182260969794 425.73251217517867 -251.39183617421477 69.77500000000002 14158.620953143598 3.5000000000000004 989.14183834914422 19.550000000000004 356.15196997618273 78.547588698941254 34731.948590434404
decision_type=2 2 2 2 2 2 2 2 2 2 2 2 2
left_child=1 3 -3 4 -1 8 7 -7 11 -10 -11 -6 -12
right_child=-2 2 -4 -5 5 6 -8 -9 9 10 12 -13 -14
leaf_value=0.0043151457588343576 0.028490437862064157 0.024337731720278824 -0.0026924362151573102 0.012206716229518256 -0.011839699201787322 -0.0076145043129076237 -0.016662634329303452 0.011598198448650933 -0.022288840273961524 -0.018472643866288392 0.00082709933145214696 0.0016605334037116599 -0.0096232076092815869
leaf_weight=35 34 30 29 29 25 36 22 37 36 32 22 20 28
leaf_count=35 34 30 29 29 25 36 22 37 36 32 22 20 28
internal_value=0 -0.00260811 0.0111449 -0.00517026 -0.00694284 -0.00850016 -0.00233589 0.00208101 -0.0120262 -0.0142801 -0.0104777 -0.00582524 -0.00500098
internal_weight=415 381 59 322 293 258 95 73 163 118 82 45 50
internal_count=415 381 59 322 293 258 95 73 163 118 82 45 50
is_linear=0
shrinkage=0.05


Tree=24
num_leaves=16
num_cat=0
split_feature=13 20 18 9 12 5 20 4 10 8 21 10 13 9 13
split_gain=11.3129 5.6819 3.46486 3.92762 1.8743 1.83378 1.84381 2.02188 1.91448 2.04868 1.25767 0.855221 1.28723 0.760351 0.610943
threshold=514.30000000000007 1839.9568852316081 0.11437908496732027 8.6298630867835566 -0.059715734063713229 5227.5260287695264 68.440255318764244 -0.75014555406458705 0.1801420675778381 -0.11401253900397154 253138.55324862103 0.55637041127690523 42.600000000000001 9.6354446742961226 44.425000000000004
decision_type=2 2 2 2 2 2 2 2 2 2 2 2 2 2 2
left_child=1 4 10 -4 13 6 11 8 -8 -10 -3 12 -6 -1 -9
right_child=-2 2 3 -5 5 -7 7 14 9 -11 -12 -13 -14 -15 -16
leaf_value=-0.007989727264608849 0.029580321590726572 -0.011496988625398705 0.028634515830936531 0.0017913314093042304 -0.014019176719702956 0.0096734858257696045 -0.0057969176091931087 -0.015170540229106945 -0.0017642412791875279 0.018619212625614768 0.0057513350168509145 -0.016784807960244102 0 -0.02259005791463313 -0.0034821060201368076
leaf_weight=21 29 20 29 26 31 21 32 23 21 27 20 35 35 20 25
leaf_count=21 29 20 29 26 31 21 32 23 21 27 20 35 35 20 25
internal_value=0 -0.00229166 0.00824732 0.0162929 -0.00576581 -0.00407749 -0.00539681 -0.0013442 0.00347193 0.0097454 -0.00282094 -0.0104203 -0.00677034 -0.0155992 -0.00938016
internal_weight=415 386 95 55 291 250 229 128 80 48 40 101 66 41 48
internal_count=415 386 95 55 291 250 229 128 80 48 40 101 66 41 48
is_linear=0
shrinkage=0.05


Tree=25
num_leaves=15
num_cat=0
split_feature=13 18 20 7 13 16 18 3 5 7 13 19 20 8
split_gain=10.2505 3.85104 3.40524 2.624 1.6465 1.60367 2.9741 1.13799 1.53387 1.46656 1.66651 0.68818 0.603563 0.209239
threshold=268.42500000000007 0.10818713450292398 626.82942529851505 -251.39183617421477 16.450000000000003 0.70400500625782236 0.11437908496732027 1516.2140855486325 5079.2565428409607 13.791427124285773 30.550000000000004 1504.7549924750001 356.15196997618273 -0.024523054629773468
decision_type=2 2 2 2 2 2 2 2 2 2 2 2 2 2
left_child=2 -2 7 -4 -5 -6 -7 9 11 10 -1 12 13 -9
right_child=1 -3 3 4 5 6 -8 8 -10 -11 -12 -13 -14 -15
leaf_value=-0.017333170612869056 0.0034529045999183183 0.02852575206638951 0.016099123585403767 -0.012929807261401869 -0.0064560523176112692 -0.0022687896452844142 0.018945355363456269 -0.014683149742383151 0.0017983357457532771 0.0081948007617823112 4.9116893342750911e-05 -0.0057382462074145159 -0.0084774190035683157 -0.02386749029469987
leaf_weight=22 27 37 27 22 36 39 27 30 20 21 33 28 26 20
leaf_count=22 27 37 27 22 36 39 27 30 20 21 33 28 26 20
internal_value=0 0.0182409 -0.00337046 0.0022647 -0.000812329 0.00185286 0.00648833 -0.00763998 -0.0105914 -0.00268451 -0.00699987 -0.0130161 -0.0155232 -0.0188509
internal_weight=415 64 351 151 124 102 66 200 124 76 55 104 76 50
internal_count=415 64 351 151 124 102 66 200 124 76 55 104 76 50
is_linear=0
shrinkage=0.05


Tree=26
num_leaves=16
num_cat=0
split_feature=13 20 18 16 12 16 13 21 20 18 21 16 2 9 5
split_gain=9.65031 4.81543 3.00032 3.70655 1.64384 2.10702 1.90809 1.96003 2.49839 1.32511 1.09986 1.06059 0.936628 0.664431 0.635894
threshold=514.30000000000007 1839.9568852316081 0.11437908496732027 0.72902097902097907 -0.059715734063713229 0.49000000000000005 41.850000000000009 123282.29315142643 383.17615359269058 0.10818713450292398 253138.55324862103 0.70400500625782236 469.56355018000005 9.6354446742961226 267.83551477172665
decision_type=2 2 2 2 2 2 2 2 2 2 2 2 2 2 2
left_child=1 4 10 -4 13 -6 11 8 14 -9 -3 -7 -13 -1 -8
right_child=-2 2 3 -5 5 6 7 9 -10 -11 -12 12 -14 -15 -16
leaf_value=-0.0073992512688379397 0.027315106866260371 -0.010828754548870383 0.0047840952738705611 0.031739607563331017 -0.014778247101333096 0.0010218603780063301 0.0063645525250051703 -0.012430697456002237 0.019738717285088369 0.002202961702885873 0.0052950650422523421 -0.0041551045496617594 -0.016826745884097889 -0.021072358313415734 -0.0057961859350854697
leaf_weight=21 29 20 35 20 36 25 20 27 26 33 20 30 32 20 21
leaf_count=21 29 20 35 20 36 25 20 27 26 33 20 30 32 20 21
internal_value=0 -0.00212182 0.00757866 0.0150671 -0.00532087 -0.00373861 -0.00179812 0.00207755 0.00792772 -0.00439605 -0.00271238 -0.00747185 -0.010938 -0.014531 2.71312e-05
internal_weight=415 386 95 55 291 250 214 127 67 60 40 87 62 41 41
internal_count=415 386 95 55 291 250 214 127 67 60 40 87 62 41 41
is_linear=0
shrinkage=0.05


Tree=27
num_leaves=15
num_cat=0
split_feature=13 21 6 7 7 16 18 16 21 9 3 3 3 18
split_gain=8.73956 4.45605 2.41449 2.25357 2.52453 1.51454 2.45094 2.23739 1.8284 1.04273 1.15847 0.765749 1.04739 0.724742
threshold=514.30000000000007 578426.66535503778 1923.9062954174462 345.98819888892825 -429.4206827400011 0.57738095238095244 0.06458333333333334 0.79128856624319432 89849.63690096511 6.4728828415125657 1842.652916806195 3982.888949923326 1308.8577477183965 0.42261904761904767
decision_type=2 2 2 2 2 2 2 2 2 2 2 2 2 2
left_child=1 3 -3 4 -1 13 11 9 -9 10 -8 12 -7 -6
right_child=-2 2 -4 -5 5 6 7 8 -10 -11 -12 -13 -14 -15
leaf_value=0.0099730933232543388 0.025994876489043237 -0.00166943302116124 0.019739435129996503 0.0079938167070641251 -0.021807527482795363 -0.0088302416174576206 -0.002301487410441041 -0.00099774423760898181 0.016885415638983253 0 -0.018815233142425617 -0.0058060383380966665 -0.024576421883844197 -0.00901637254367498
leaf_weight=23 29 21 32 33 21 28 21 32 24 39 23 37 20 32
leaf_count=23 29 21 32 33 21 28 21 32 24 39 23 37 20 32
internal_value=0 -0.00201859 0.0112903 -0.00417924 -0.005557 -0.00689572 -0.00502091 -0.000870667 0.00674052 -0.00608456 -0.0112711 -0.0116606 -0.0158609 -0.0144871
internal_weight=415 386 53 333 300 277 224 139 56 83 44 85 48 53
internal_count=415 386 53 333 300 277 224 139 56 83 44 85 48 53
is_linear=0
shrinkage=0.05


Tree=28
num_leaves=16
num_cat=0
split_feature=13 11 20 7 13 10 18 3 7 13 5 10 10 6 3
split_gain=7.95092 3.57949 2.69943 2.22276 1.35532 1.42431 1.81415 0.99544 1.32894 1.42717 1.23818 0.943031 0.574529 0.496923 1.0189
threshold=268.42500000000007 5.5000000000000009 626.82942529851505 -251.39183617421477 16.450000000000003 0.23848467221817665 0.10818713450292398 1516.2140855486325 13.791427124285773 30.550000000000004 5079.2565428409607 0.13404325776394047 0.16040209154555155 461.79095226898761 3982.888949923326
decision_type=2 2 2 2 2 2 2 2 2 2 2 2 2 2 2
left_child=2 -2 7 -4 -5 11 -7 8 9 -1 12 -6 -9 14 -14
right_child=1 -3 3 4 5 6 -8 10 -10 -11 -12 -13 13 -15 -16
leaf_value=-0.015828045501333217 0.0026943322241616743 0.026611467499492898 0.014774224111544235 -0.011783975530137391 0.0024899154043068056 -0.0047828028280110582 0.013573762522255249 -0.0052045341419676948 0.0082036976524713368 0.00024547714356552153 0.0015760085714005289 -0.011464428856223823 -0.016558170583513051 -0.019478460522523774 -0.0013043658843352682
leaf_weight=22 29 35 27 22 22 20 36 29 21 33 20 24 26 29 20
leaf_count=22 29 35 27 22 22 20 36 29 21 33 20 24 26 29 20
internal_value=0 0.0160591 -0.00297437 0.0020401 -0.00078867 0.00162571 0.00696123 -0.00677648 -0.00214568 -0.00626248 -0.00953485 -0.00477325 -0.0117138 -0.0140634 -0.0102013
internal_weight=415 64 351 151 124 102 56 200 76 55 124 46 104 75 46
internal_count=415 64 351 151 124 102 56 200 76 55 124 46 104 75 46
is_linear=0
shrinkage=0.05


Tree=29
num_leaves=15
num_cat=0
split_feature=14 21 7 7 16 18 20 3 12 3 9 10 14 3
split_gain=7.43513 3.77987 2.24121 1.78875 1.40266 2.92279 1.90881 1.75206 1.31284 1.01486 0.916357 1.10448 1.14519 0.839455
threshold=514.30000000000007 949886.96288852196 -429.4206827400011 345.98819888892825 0.79128856624319432 0.06458333333333334 356.15196997618273 4942.2966660728071 0.32051061505164807 1464.9456257091531 6.1670114208245446 0.19873985362161647 56.000000000000007 1308.8577477183965
decision_type=2 2 2 2 2 2 2 2 2 2 2 2 2 2
left_child=1 2 -1 4 8 7 -7 13 9 -4 -11 -12 -13 -6
right_child=-2 -3 3 -5 5 6 -8 -9 -10 10 11 12 -14 -15
leaf_value=0.011076043940335513 0.0239704412650317 0.014857802132760445 -0.0031091032078599231 0.0057667998028428941 -0.007301331852321272 -0.00098233308447034733 0.016762458103895189 0.00024963728514396485 0.0021982975930652836 -0.020024898539523824 -0.018772934544831518 -0.01246290239195029 0.0039790864226718747 -0.021144146940981351
leaf_weight=24 29 30 33 37 26 37 24 35 21 36 20 20 20 23
leaf_count=24 29 30 33 37 26 37 24 35 21 36 20 20 20 23
internal_value=0 -0.00186797 -0.00332912 -0.00441561 -0.00572478 -0.00214983 0.00607634 -0.00818363 -0.00911033 -0.0109925 -0.0135909 -0.00938347 -0.00422342 -0.0141919
internal_weight=415 386 356 332 295 145 61 84 150 129 96 60 40 49
internal_count=415 386 356 332 295 145 61 84 150 129 96 60 40 49
is_linear=0
shrinkage=0.05


Tree=30
num_leaves=16
num_cat=0
split_feature=13 20 18 16 16 12 16 11 16 13 3 7 11 18 10
split_gain=6.73622 4.06177 3.00483 3.812 1.4457 1.29191 1.68937 1.49454 1.89297 2.1563 3.33798 1.38843 1.03886 0.839529 0.502769
threshold=618.52500000000009 1839.9568852316081 0.11437908496732027 0.73798627002288331 0.93095238095238109 -0.059715734063713229 0.49000000000000005 3.5000000000000004 0.90454545454545465 63.125000000000007 11280.247453533304 -3.9642836469636862 1.0000000180025095e-35 0.162280701754386 0.25235540430620135
decision_type=2 2 2 2 2 2 2 2 2 2 2 2 2 2 2
left_child=1 5 4 -4 -3 14 -7 12 9 11 -11 -9 -8 -14 -1
right_child=-2 2 3 -5 -6 6 7 8 -10 10 -12 -13 13 -15 -16
leaf_value=-0.018149652284654705 0.025707191806286573 -0.01251684165737104 0.004620988468329112 0.031515762177961218 0.0057694008099761877 -0.013043519391527252 0.00041151347824118365 0.00921476419837702 -0.00733089984036409 0.028292094910783428 -1.6251525708607134e-06 -0.0071187662201769213 -0.0045850849021226167 -0.017625563818216325 -0.006183153789135672
leaf_weight=21 23 20 38 20 21 36 32 20 38 20 20 33 29 24 20
leaf_count=21 23 20 38 20 21 36 32 20 38 20 20 33 29 24 20
internal_value=0 -0.00157906 0.00711123 0.0143568 -0.00311731 -0.00454658 -0.00315239 -0.00142832 0.00189141 0.00575076 0.0143683 -0.000806074 -0.00656525 -0.0107998 -0.0127176
internal_weight=415 392 99 58 41 293 252 216 131 93 40 53 85 53 41
internal_count=415 392 99 58 41 293 252 216 131 93 40 53 85 53 41
is_linear=0
shrinkage=0.05


Tree=31
num_leaves=15
num_cat=0
split_feature=13 6 9 7 7 13 7 8 16 6 20 8 7 6
split_gain=6.14166 3.32 3.71712 2.81274 1.37757 1.49716 2.13991 1.60485 1.4591 1.28147 0.803886 0.783013 0.728338 0.857349
threshold=514.30000000000007 2218.9843331421357 8.705182260969794 425.73251217517867 -251.39183617421477 77.425000000000011 -7.0559875692856915 -0.0087504808974533579 0.83974358974358987 931.8444139086713 626.82942529851505 1.0000000180025095e-35 31.417411506250026 80.784030804310476
decision_type=2 2 2 2 2 2 2 2 2 2 2 2 2 2
left_child=1 3 -3 4 -1 9 -7 8 -8 10 11 12 13 -6
right_child=-2 2 -4 -5 5 6 7 -9 -10 -11 -12 -13 -14 -15
leaf_value=0.0037984376148371074 0.021787003855628428 0.020777964678709397 -0.0037079251830776532 0.01060284473722981 -0.019617671529348527 -0.014883070265253387 0.00028670873922797348 -0.0079702660931451688 0.018385834179463843 -0.018895842522896569 -0.0003155973294956817 -0.0019497895336920215 -0.0036184806019688648 -0.0066096005693078042
leaf_weight=36 29 31 29 30 35 20 25 20 20 28 35 30 23 24
leaf_count=36 29 31 29 30 35 20 25 20 20 28 35 30 23 24
internal_value=0 -0.00169659 0.00899438 -0.00370103 -0.0051984 -0.00647305 -0.000946083 0.00342699 0.00866428 -0.00910855 -0.00709544 -0.00914835 -0.0116665 -0.0146079
internal_weight=415 386 60 326 296 260 85 65 45 175 147 112 82 59
internal_count=415 386 60 326 296 260 85 65 45 175 147 112 82 59
is_linear=0
shrinkage=0.05


Tree=32
num_leaves=15
num_cat=0
split_feature=14 21 7 7 7 21 16 7 18 4 2 4 3 3
split_gain=5.59679 3.63164 1.90142 1.47924 1.28835 1.71748 2.55945 1.81104 1.60813 1.74728 0.817207 0.603945 0.643855 0.335709
threshold=618.52500000000009 949886.96288852196 -429.4206827400011 345.98819888892825 145.44953153160697 28622.417386595807 0.73798627002288331 -22.062486378035594 0.06458333333333334 -63.573178089847552 469.56355018000005 -0.05569610273015372 621.28757213318977 7402.3552612792282
decision_type=2 2 2 2 2 2 2 2 2 2 2 2 2 2
left_child=1 2 -1 4 5 10 7 -7 13 -10 11 12 -4 -8
right_child=-2 -3 3 -5 -6 6 8 -9 9 -11 -12 -13 -14 -15
leaf_value=0.010295002220384777 0.023431428354233508 0.013678219326668318 -0.015719027719037101 0.005285964770928811 -0.015884276446528161 -0.018854315343499184 -0.0069115235594411689 -0.0013292064061627175 0.00080081247091293335 0.019772744038357187 -0.015467015074735338 0 -0.0042558016492985186 0.0016527707874774934
leaf_weight=24 23 35 21 37 25 24 20 38 24 25 32 30 34 23
leaf_count=24 23 35 21 37 25 24 20 38 24 25 32 30 34 23
internal_value=0 -0.00144026 -0.0029705 -0.0039695 -0.00515717 -0.00409444 -0.000577811 -0.00838408 0.00466275 0.0107822 -0.00863667 -0.00585716 -0.00892449 -0.00228353
internal_weight=415 392 357 333 296 271 154 62 92 49 117 85 55 43
internal_count=415 392 357 333 296 271 154 62 92 49 117 85 55 43
is_linear=0
shrinkage=0.05


Tree=33
num_leaves=16
num_cat=0
split_feature=13 7 8 13 7 12 20 18 16 13 16 9 8 4 11
split_gain=5.07368 3.35605 4.6557 2.17025 3.30546 1.53564 1.38929 1.3005 1.46625 1.27273 1.09757 0.845828 0.806302 0.700558 0.624544
threshold=618.52500000000009 -251.39183617421477 -0.041975691586777934 77.425000000000011 -22.062486378035594 0.11432789228372549 1.7356192185592934 0.087121212121212141 0.57738095238095244 28.450000000000003 0.77350427350427364 10.924528380482295 -0.066984756792068903 -68.500993070539849 5.5000000000000009
decision_type=2 2 2 2 2 2 2 2 2 2 2 2 2 2 2
left_child=1 2 -1 5 -5 7 -6 14 -9 -10 -7 12 -8 -11 -3
right_child=-2 3 -4 4 6 10 11 8 9 13 -12 -13 -14 -15 -16
leaf_value=-0.0022385375015437602 0.022308673231552046 -0.0071247877828452891 0.027255352826627055 -0.014837224590592089 -0.0045952531576156615 0.010431969515269713 0.0034965521943840111 -0.013886648536495428 0.0069765077993787575 -0.012874445796690205 -0.0054979762434959412 0.00019272027010826961 0.016204946690047971 -0.00097581383539363748 -0.01880095236512716
leaf_weight=31 23 22 22 23 24 20 21 33 28 21 21 22 38 31 35
leaf_count=31 23 22 22 23 24 20 21 33 28 21 21 22 38 31 35
internal_value=0 -0.00137218 0.0101896 -0.00321913 0.00187888 -0.00632962 0.0056931 -0.00842103 -0.00516922 -0.00138451 0.00221704 0.00882134 0.0118986 -0.00602762 -0.0145811
internal_weight=415 392 53 339 128 211 105 170 113 80 41 81 59 52 57
internal_count=415 392 53 339 128 211 105 170 113 80 41 81 59 52 57
is_linear=0
shrinkage=0.05


Tree=34
num_leaves=16
num_cat=0
split_feature=13 11 20 16 13 9 4 2 6 5 13 6 8 3 20
split_gain=4.65629 3.09601 1.85681 1.97898 2.54552 3.42065 2.11002 0.951502 1.12092 0.758308 0.680608 0.78538 0.604366 0.317863 0.208928
threshold=268.42500000000007 5.5000000000000009 626.82942529851505 0.70106382978723414 44.425000000000004 6.0766118033375189 -73.683417017980005 167.20175404500003 52.284716898650331 5079.2565428409607 41.850000000000009 158.98899928830542 -0.023408406430499514 3982.888949923326 2.5025756664014254
decision_type=2 2 2 2 2 2 2 2 2 2 2 2 2 2 2
left_child=2 -2 7 6 12 -6 -4 8 -1 10 13 -12 -5 -9 -13
right_child=1 -3 3 4 5 -7 -8 9 -10 -11 11 14 -14 -15 -16
leaf_value=-0.0051885378593578939 0 0.022080292466820944 -0.017708936115456958 0.0027700789305179015 0.00083440569935944577 0.02600050649226264 0.0021174604389542604 -0.018002724702656271 0.009343973264719049 0.0012237684570607687 0.00091351415961980818 -0.00576487339757107 -0.0087435466525229554 -0.0087653738879426221 -0.013293035145363084
leaf_weight=35 29 35 21 22 28 26 33 24 20 20 27 26 21 26 22
leaf_count=35 29 35 21 22 28 26 33 24 20 20 27 26 21 26 22
internal_value=0 0.0122859 -0.00227968 0.00187475 0.00614862 0.0132948 -0.00568369 -0.00543488 7.92156e-05 -0.0075469 -0.00898846 -0.00573438 -0.00281014 -0.0135634 -0.00951819
internal_weight=415 64 351 151 97 54 54 200 55 145 125 75 43 50 48
internal_count=415 64 351 151 97 54 54 200 55 145 125 75 43 50 48
is_linear=0
shrinkage=0.05


Tree=35
num_leaves=15
num_cat=0
split_feature=14 7 9 2 7 3 14 11 10 6 20 21 7 20
split_gain=4.30543 3.02747 2.64439 1.98202 1.63245 1.01281 2.46501 1.8823 1.32479 0.601196 1.33246 0.84136 0.920112 0.224131
threshold=618.52500000000009 -251.39183617421477 5.7251670011669402 5570.7193321900004 345.98819888892825 14158.620953143598 77.425000000000011 4.5000000000000009 0.22290591949440663 795.84845211033473 626.82942529851505 1627.6220035556378 -8.0031199944642584 328.40324422739189
decision_type=2 2 2 2 2 2 2 2 2 2 2 2 2 2
left_child=1 2 -1 4 5 6 9 13 -7 10 11 -3 -13 -8
right_child=-2 3 -4 -5 -6 8 7 -9 -10 -11 -12 12 -14 -15
leaf_value=-0.0019462539341587285 0.02054970592260361 -0.00059429458270852389 0.020008265396644329 0.0077157002648240644 0.0064657041166097905 -0.019973994708405093 -0.0068964356237224168 0.013165001328995764 -0.0030450483446475118 -0.015138147370889785 0.0030917616888570289 -0.0042561613599536941 -0.015757122343444889 0.0002631763652676628
leaf_weight=25 23 25 28 37 30 25 20 29 23 23 29 31 47 20
leaf_count=25 23 25 28 37 30 25 20 29 23 23 29 31 47 20
internal_value=0 -0.00126472 0.0097155 -0.00301963 -0.00437251 -0.00560552 -0.00412401 0.00365217 -0.0121919 -0.00761893 -0.0061672 -0.00882683 -0.0113613 -0.00327557
internal_weight=415 392 53 339 302 272 224 69 48 155 132 103 78 40
internal_count=415 392 53 339 302 272 224 69 48 155 132 103 78 40
is_linear=0
shrinkage=0.05


Tree=36
num_leaves=16
num_cat=0
split_feature=13 20 18 16 16 11 6 11 4 13 4 20 20 6 6
split_gain=3.90277 2.90329 2.73937 3.1149 1.17212 1.04097 2.33089 0.904964 1.43079 1.63319 1.44487 0.992219 0.835759 0.72754 0.581261
threshold=618.52500000000009 1839.9568852316081 0.11437908496732027 0.73798627002288331 0.93095238095238109 15.500000000000002 22.259981932872801 10.500000000000002 114.72239546586503 75.125000000000014 -98.66575343494948 626.82942529851505 266.90499494342799 352.29493899313849 66.599012208374134
decision_type=2 2 2 2 2 2 2 2 2 2 2 2 2 2 2
left_child=1 5 4 -4 -3 7 -7 8 9 11 -11 13 -9 14 -1
right_child=-2 2 3 -5 -6 6 -8 12 -10 10 -12 -13 -14 -15 -16
leaf_value=-0.0090074159566200154 0.019565033085333805 -0.012062170408843531 0.0042461562658158633 0.028580719750551955 0.0043872017320245506 -0.0085464873697076518 0.01444879971039684 -0.0050716838079194228 -0.01437781165067393 -0.0024404055613183205 0.013032535687731259 0.0037252820797264575 -0.018764627426862718 -0.013967198036611082 0.00016385172307491303
leaf_weight=32 23 20 38 20 21 20 22 29 25 30 28 24 20 29 34
leaf_count=32 23 20 38 20 21 20 22 29 25 30 28 24 20 29 34
internal_value=0 -0.00120427 0.00614008 0.0130643 -0.00361398 -0.00371526 0.00343828 -0.00494101 -0.00339372 -0.00174215 0.00503883 -0.00510328 -0.0110242 -0.00740131 -0.00427627
internal_weight=415 392 99 58 41 293 42 251 202 177 58 119 49 95 66
internal_count=415 392 99 58 41 293 42 251 202 177 58 119 49 95 66
is_linear=0
shrinkage=0.05


Tree=37
num_leaves=14
num_cat=0
split_feature=13 18 18 18 4 6 4 7 2 9 3 10 5
split_gain=3.61842 3.46721 1.25029 1.99406 1.7669 1.87157 2.20269 1.68413 1.72163 2.83024 1.57288 1.23892 0.883268
threshold=268.42500000000007 0.10818713450292398 0.11882352941176472 0.19139194139194141 -1.7512165896002345 829.80536026564414 -49.71095043934799 49.191694595178596 939.24884862500005 5.7251670011669402 5809.4521836911654 0.25235540430620135 451.13723726444124
decision_type=2 2 2 2 2 2 2 2 2 2 2 2 2
left_child=2 -2 7 10 5 6 -5 8 12 -10 -4 -6 -1
right_child=1 -3 3 4 11 -7 -8 -9 9 -11 -12 -13 -14
leaf_value=-0.0034567150748089741 -0.0026148100543235027 0.020584411215233175 -0.0003949110962163944 0.0099779032109878398 0.014091269336197349 -0.015269869828939832 -0.0094675407344193187 -0.015728312605060638 -0.005153126859771354 0.017695539634336125 0.016381872242937488 -0.00091238991870807532 -0.016298902985518393
leaf_weight=37 27 37 25 25 20 37 32 31 34 21 29 38 22
leaf_count=37 27 37 25 25 20 37 32 31 34 21 29 38 22
internal_value=0 0.0108307 -0.00200946 0.000474703 -0.00243742 -0.00666588 -0.000827644 -0.00555201 -0.00262859 0.00364183 0.00865797 0.00432769 -0.0085205
internal_weight=415 64 351 206 152 94 57 145 114 55 54 58 59
internal_count=415 64 351 206 152 94 57 145 114 55 54 58 59
is_linear=0
shrinkage=0.05


Tree=38
num_leaves=17
num_cat=0
split_feature=13 7 8 7 6 3 13 11 4 19 6 7 6 13 13 13
split_gain=3.36734 2.59485 3.97703 1.70892 1.31991 1.66661 1.94577 1.72571 1.48371 1.16733 0.542675 0.824905 1.13625 0.5096 0.841819 0.757469
threshold=618.52500000000009 -251.39183617421477 -0.041975691586777934 319.61264392750257 2060.0016291604875 14158.620953143598 77.425000000000011 4.5000000000000009 20.089799894702885 49.889886695000008 712.10688136929764 -11.86006396053563 90.92617336435363 53.625000000000007 30.550000000000004 14.000000000000002
decision_type=2 2 2 2 2 2 2 2 2 2 2 2 2 2 2 2
left_child=1 2 -1 4 5 6 10 -8 -6 -5 11 12 -3 14 15 -13
right_child=-2 3 -4 9 8 -7 7 -9 -10 -11 -12 13 -14 -15 -16 -17
leaf_value=-0.0024223431153222921 0.018172854190149034 -0.0080562327075971371 0.024823254269102348 0.013218930968298362 -0.0052073637988757004 -0.015387097121392555 -0.0037545169208590919 0.012246264727786185 0.01309669151055542 -0.0025664785823651722 -0.014630945819829192 -0.0022191286654699416 0.00819804204797203 -0.01536364185124902 0.0013806746240705254 -0.015624106721236156
leaf_weight=31 23 20 22 25 21 36 37 29 21 20 20 20 21 20 24 25
leaf_count=31 23 20 22 25 21 36 37 29 21 20 20 20 21 20 24 25
internal_value=0 -0.0011192 0.00904481 -0.0027449 -0.00414598 -0.00552027 -0.00378943 0.00327935 0.00392012 0.00619122 -0.00693392 -0.00560895 0.000147049 -0.00828831 -0.00597588 -0.00995279
internal_weight=415 392 53 339 294 252 216 66 42 45 150 130 41 89 69 45
internal_count=415 392 53 339 294 252 216 66 42 45 150 130 41 89 69 45
is_linear=0
shrinkage=0.05


Tree=39
num_leaves=16
num_cat=0
split_feature=13 2 18 16 7 13 9 19 16 2 5 3 3 16 5
split_gain=3.05635 2.29321 1.65838 1.42114 1.68625 1.40328 3.1712 1.72033 1.46161 1.67962 1.38203 2.55089 1.0379 0.897726 0.392982
threshold=514.30000000000007 9106.586776715003 0.06458333333333334 0.44949494949494956 -232.19482822267778 64.550000000000026 9.8726996228921742 1785.0062841000001 0.72902097902097907 1385.2374141400003 2865.8268902750001 3982.888949923326 1308.8577477183965 0.62019230769230782 1389.9129143651455
decision_type=2 2 2 2 2 2 2 2 2 2 2 2 2 2 2
left_child=1 2 10 -4 -5 8 7 14 13 -10 11 12 -1 -6 -7
right_child=-2 -3 3 4 5 6 -8 -9 9 -11 -12 -13 -14 -15 -16
leaf_value=-0.0052011812037477886 0.015364842069645723 0.01311872164790447 -0.0092250960130089276 0.012302686889325419 -0.0035525467153638603 0.009820434915877526 -0.011370417356450599 -0.0011249426955526527 -0.0011507494281977415 -0.018271767211013607 -0.019031860079793704 0.0050903650163075867 -0.020182537206194617 0.010174775907681103 0.021210773055526346
leaf_weight=29 29 25 35 30 26 20 22 21 31 27 20 38 21 20 21
leaf_count=29 29 25 35 30 26 20 22 21 31 27 20 38 21 20 21
internal_value=0 -0.00120133 -0.00224033 0 0.00149452 -0.000259704 0.00448939 0.0102876 -0.00414935 -0.00938023 -0.00739629 -0.00451154 -0.0118638 0.00239897 0.0161397
internal_weight=415 386 361 253 218 188 84 62 104 58 108 88 50 46 41
internal_count=415 386 361 253 218 188 84 62 104 58 108 88 50 46 41
is_linear=0
shrinkage=0.05


Tree=40
num_leaves=15
num_cat=0
split_feature=13 18 20 10 9 16 2 12 3 7 13 3 7 18
split_gain=2.80321 3.02511 1.26855 1.6925 2.86162 2.08379 1.75204 1.09877 0.842865 1.14857 1.01612 0.739352 0.684364 0.978047
threshold=268.42500000000007 0.10818713450292398 626.82942529851505 0.26274147807141141 5.7251670011669402 0.70106382978723414 1936.4796134400001 1.0000000180025095e-35 1516.2140855486325 13.791427124285773 30.550000000000004 3856.5693238971553 49.191694595178596 0.23466833541927412
decision_type=2 2 2 2 2 2 2 2 2 2 2 2 2 2
left_child=2 -2 8 5 6 -4 -5 -7 9 10 -1 -10 13 -13
right_child=1 -3 3 4 -6 7 -8 -9 11 -11 -12 12 -14 -15
leaf_value=-0.012118610775341159 -0.0030056994501501321 0.01864658666382495 -0.015521830762922765 0.0086560373673481607 0.017177265967345902 0.0090725155988777128 -0.011085827116233609 -0.0055858279813158634 -0.012602173613384365 0.0094554518806663438 0.0014242534890003943 0.0060624705920261993 -0.009017159915887394 -0.0082115402081537805
leaf_weight=22 27 37 24 20 35 26 23 23 39 21 33 27 38 20
leaf_count=22 27 37 24 20 35 26 23 23 39 21 33 27 38 20
internal_value=0 0.0095294 -0.00177211 0.00165757 0.00676074 -0.00374524 -0.00180189 0.00211796 -0.00438176 -0.000159526 -0.00402328 -0.00690759 -0.00412049 0
internal_weight=415 64 351 151 78 73 43 49 200 76 55 124 85 47
internal_count=415 64 351 151 78 73 43 49 200 76 55 124 85 47
is_linear=0
shrinkage=0.05


Tree=41
num_leaves=16
num_cat=0
split_feature=13 20 18 16 16 11 6 11 4 13 4 20 20 6 6
split_gain=2.66668 2.28057 2.1352 2.62311 1.06092 0.865645 2.04501 0.774865 1.35913 1.21372 1.28363 0.786606 0.693852 0.572673 0.479514
threshold=618.52500000000009 1839.9568852316081 0.11437908496732027 0.73798627002288331 0.93095238095238109 15.500000000000002 22.259981932872801 10.500000000000002 114.72239546586503 75.125000000000014 -98.66575343494948 626.82942529851505 266.90499494342799 352.29493899313849 66.599012208374134
decision_type=2 2 2 2 2 2 2 2 2 2 2 2 2 2 2
left_child=1 5 4 -4 -3 7 -7 8 9 11 -11 13 -9 14 -1
right_child=-2 2 3 -5 -6 6 -8 12 -10 10 -12 -13 -14 -15 -16
leaf_value=-0.0077892357047477908 0.016168555441933376 -0.011144056622648524 0.0035307882587688093 0.025857799805345989 0.0045040333762087605 -0.0079264045063228827 0.013607724528435781 -0.0045329967072854438 -0.013611693753896712 -0.0025047234373707927 0.012073400338212479 0.0036356785085052256 -0.017030628880574591 -0.012082888595138988 0.00053178202041557858
leaf_weight=32 23 20 38 20 21 20 22 29 25 30 28 24 20 29 34
leaf_count=32 23 20 38 20 21 20 22 29 25 30 28 24 20 29 34
internal_value=0 -0.000999442 0.00550778 0.0116223 -0.00309373 -0.00322639 0.00329124 -0.00434556 -0.00291354 -0.00130643 0.0045336 -0.00420856 -0.00997266 -0.00625957 -0.00348407
internal_weight=415 392 99 58 41 293 42 251 202 177 58 119 49 95 66
internal_count=415 392 99 58 41 293 42 251 202 177 58 119 49 95 66
is_linear=0
shrinkage=0.05


Tree=42
num_leaves=15
num_cat=0
split_feature=13 20 7 4 8 12 16 18 7 11 7 4 11 18
split_gain=2.41711 2.06914 2.00841 1.56792 1.13257 0.863711 1.24912 1.07506 2.30244 1.71773 2.19734 1.62934 1.23412 0.683725
threshold=618.52500000000009 1839.9568852316081 -251.39183617421477 -57.403848866441358 -0.059524673853653363 -0.071368837566583132 0.49000000000000005 0.095454545454545472 -56.913424275964083 2.5000000000000004 -47.815065960357039 -7.9709592761821932 1.0000000180025095e-35 0.2324058919803601
decision_type=2 2 2 2 2 2 2 2 2 2 2 2 2 2
left_child=1 5 -3 4 -4 -1 -7 8 -8 12 -11 -10 -9 -12
right_child=-2 2 3 -5 -6 6 7 9 11 10 13 -13 -14 -15
leaf_value=-0.01025542957544629 0.015393812782907239 0.017213707412951269 0.0032169572407887738 0.0096569346408209508 -0.012419492296564083 -0.010522443881208028 -0.018900663476775995 0.0033927476794823352 0.0084784912529091063 0.020565093800070742 -0.0024041798020689154 -0.0071989973750267488 -0.012174992778205447 0.0076880781182312773
leaf_weight=36 23 25 21 30 23 36 21 22 29 20 38 36 27 28
leaf_count=36 23 25 21 30 23 36 21 22 29 20 38 36 27 28
internal_value=0 -0.000951109 0.00524627 0.000960936 -0.00493988 -0.00307283 -0.00201148 -0.000561402 -0.0049175 0.00219259 0.00644895 -0.000106184 -0.00515733 0.0018536
internal_weight=415 392 99 74 44 293 257 221 86 135 86 65 49 66
internal_count=415 392 99 74 44 293 257 221 86 135 86 65 49 66
is_linear=0
shrinkage=0.05


Tree=43
num_leaves=16
num_cat=0
split_feature=7 8 7 9 13 8 4 20 6 20 5 7 12 16 18
split_gain=2.30969 2.39281 3.38615 2.19638 1.85354 1.69034 2.17541 1.62534 1.4006 0.999293 0.651018 0.823693 0.971911 0.493803 0.562065
threshold=425.73251217517867 -0.17203225343345371 -251.39183617421477 5.7251670011669402 69.77500000000002 -0.039807413192284306 -37.484606327909695 668.18228710955736 1126.6306546641174 668.18228710955736 163.55271866316369 106.43000991089318 0.26296029546152438 0.84807692307692317 0.21583850931677021
decision_type=2 2 2 2 2 2 2 2 2 2 2 2 2 2 2
left_child=1 9 3 -3 10 -6 -7 -8 -2 -1 -4 12 13 14 -12
right_child=8 2 4 -5 5 6 7 -9 -10 -11 11 -13 -14 -15 -16
leaf_value=-0.0048471835538468977 0.018543561968207358 0 0.00053334532337935851 0.021084511154170697 0.013126188876107336 -0.013835150079558725 -0.00311299360521576 0.013105609097651075 0.00094583940550522962 -0.02011099165394193 -0.016360736343928654 -0.01574759786239947 0.0045818911767786458 -0.0020000483136391268 -0.0055401398685267743
leaf_weight=26 24 21 35 28 29 22 33 27 22 20 22 22 20 31 33
leaf_count=26 24 21 35 28 29 22 33 27 22 20 22 22 20 31 33
internal_value=0 -0.00133412 0.00018389 0.0121665 -0.00197726 0.00296154 -0.00068787 0.00419861 0.0104328 -0.0118767 -0.00536852 -0.0070127 -0.00502284 -0.00734096 -0.0101725
internal_weight=415 369 323 49 274 111 82 60 46 46 163 128 106 86 55
internal_count=415 369 323 49 274 111 82 60 46 46 163 128 106 86 55
is_linear=0
shrinkage=0.05


Tree=44
num_leaves=17
num_cat=0
split_feature=14 21 20 18 21 20 20 20 11 9 6 18 6 6 10 11
split_gain=2.15464 1.87982 1.73744 1.12721 1.87874 2.30455 1.54007 1.66471 1.39564 1.06191 0.845862 0.836786 0.781623 0.941711 0.705418 1.23425
threshold=618.52500000000009 578426.66535503778 1930.3777994440684 0.11882352941176472 318116.04391802131 1839.9568852316081 1930.3777994440684 987.88533681522415 15.500000000000002 10.924528380482295 129.98400295308753 0.23973727422003285 27.813949338829616 205.53203813145828 0.42570848453429239 7.5000000000000009
decision_type=2 2 2 2 2 2 2 2 2 2 2 2 2 2 2 2
left_child=1 3 -3 6 5 8 7 9 10 12 11 -5 -1 -14 15 -12
right_child=-2 2 -4 4 -6 -7 -8 -9 -10 -11 14 -13 13 -15 -16 -17
leaf_value=-0.009717662274837495 0.014534229645214511 -0.0038812396912412208 0.013734827296682756 0.0085052596260276111 -0.012927634396279853 0.015718474918976429 -0.017326447168986004 0.0078766310616181466 0.01112729354507544 -0.016373462889875685 0.0047344268259725403 -0.0042690152672973155 0.0085768703717206199 -0.0055237370191348924 -0.012424801265199979 -0.01125803363997312
leaf_weight=29 23 21 37 26 23 25 23 25 21 20 27 23 20 26 26 20
leaf_count=29 23 21 37 26 23 25 23 25 21 20 27 23 20 26 26 20
internal_value=0 -0.000897777 0.00731417 -0.00235631 0.000135827 0.00201978 -0.00569751 -0.00330254 -0.000432905 -0.00634791 -0.00253771 0.00244371 -0.00342837 0.000552625 -0.00593682 -0.00205947
internal_weight=415 392 58 334 191 168 143 120 143 95 122 49 75 46 73 47
internal_count=415 392 58 334 191 168 143 120 143 95 122 49 75 46 73 47
is_linear=0
shrinkage=0.05


Tree=45
num_leaves=16
num_cat=0
split_feature=7 8 7 16 13 8 4 3 6 16 21 13 9 9 7
split_gain=2.04602 2.17795 2.94614 2.23877 1.58388 1.51954 1.95545 1.30759 1.22471 0.962789 0.63559 1.1382 0.868769 1.03587 0.423815
threshold=425.73251217517867 -0.17203225343345371 -251.39183617421477 0.72570532915360519 69.77500000000002 -0.039807413192284306 -37.484606327909695 5612.3455029819161 1126.6306546641174 0.79128856624319432 2026.4032040455882 16.450000000000003 5.9009201210209019 3.1686856140454922 -5.9658597773212882
decision_type=2 2 2 2 2 2 2 2 2 2 2 2 2 2 2
left_child=1 9 3 -3 10 -6 -7 -8 -2 -1 -4 -12 13 -13 -14
right_child=8 2 4 -5 5 6 7 -9 -10 -11 11 12 14 -15 -16
leaf_value=-0.019043771841309287 0.017401817473769187 0.00055715035074032271 0.0017049180584204995 0.021953069868683818 0.01237580800172873 -0.013185740840499817 -0.0030770429666154087 0.011399926564345759 0.00092613048689520888 -0.004152044928990877 -0.014880322925746443 -0.00034408225720240315 0.0059886000465069504 -0.015543295848899736 -0.0027748693439643831
leaf_weight=21 24 25 28 24 29 22 31 29 22 25 30 21 20 25 39
leaf_count=21 24 25 28 24 29 22 31 29 22 25 30 21 20 25 39
internal_value=0 -0.00125904 0.000188488 0.0113663 -0.00182634 0.00273692 -0.000719754 0.00391037 0.00981588 -0.0113174 -0.00496206 -0.00638397 -0.00379179 -0.00886586 0.000162764
internal_weight=415 369 323 49 274 111 82 60 46 46 163 135 105 46 59
internal_count=415 369 323 49 274 111 82 60 46 46 163 135 105 46 59
is_linear=0
shrinkage=0.05


Tree=46
num_leaves=15
num_cat=0
split_feature=13 20 20 5 12 16 13 13 11 20 11 6 10 5
split_gain=1.86691 1.69512 1.87788 2.69901 0.750613 1.09675 0.938755 2.37178 0.695064 0.864964 0.713234 0.459533 0.400329 0.355686
threshold=618.52500000000009 1839.9568852316081 3034.4552602104191 5823.2100467303308 -0.059715734063713229 0.49000000000000005 158.80000000000004 77.425000000000011 3.5000000000000004 102.71020898921394 1.0000000180025095e-35 329.23868850446183 0.25235540430620135 460.16840169166898
decision_type=2 2 2 2 2 2 2 2 2 2 2 2 2 2
left_child=1 4 -3 -4 12 -6 7 8 10 11 -7 -10 -1 -11
right_child=-2 2 3 -5 5 6 -8 -9 9 13 -12 -13 -14 -15
leaf_value=-0.01374397977509282 0.013527585326616343 0.014994409887060044 -0.0086573367778402886 0.010933396109030583 -0.0096540238854248787 0.00053251693335672234 -0.007245704533532263 0.012707087316860755 -0.0077633465150440187 0.011051441129474414 -0.010719126740357642 0.0018757822060301394 -0.0033233048429801349 0.0013291450075450398
leaf_weight=21 23 30 38 31 36 23 39 35 26 20 32 21 20 20
leaf_count=21 23 30 38 31 36 23 39 35 26 20 32 21 20 20
internal_value=0 -0.000837077 0.00477059 0.000103322 -0.00275861 -0.00169515 -0.000307256 0.00122558 -0.00163847 0.00109829 -0.00599912 -0.00340298 -0.00897993 0.00646323
internal_weight=415 392 99 69 293 252 216 177 142 87 55 47 41 40
internal_count=415 392 99 69 293 252 216 177 142 87 55 47 41 40
is_linear=0
shrinkage=0.05


end of trees

feature_importances:
max_historical_song_sales=106
catalog_momentum_slope=67
momentum_growth_ratio=65
cluster_prob_0=55
cluster_prob_3=52
expected_week1_carryover=48
momentum_baseline_interaction=40
norm_total_auc=39
total_pre_release_auc=33
composite_peak_momentum=31
hype_concentration=31
peak_proximity_weeks=28
terminal_velocity=26
norm_terminal_velocity=25
median_historical_song_sales=12
max_single_peak_volume=11
cannibalization_ratio=11
historical_single_momentum=6

parameters:
[boosting: gbdt]
[objective: regression]
[metric: rmse]
[tree_learner: serial]
[device_type: cpu]
[data_sample_strategy: bagging]
[data: ]
[valid: ]
[num_iterations: 47]
[learning_rate: 0.05]
[num_leaves: 31]
[num_threads: 8]
[seed: 42]
[deterministic: 0]
[force_col_wise: 0]
[force_row_wise: 0]
[histogram_pool_size: -1]
[max_depth: -1]
[min_data_in_leaf: 20]
[min_sum_hessian_in_leaf: 0.001]
[bagging_fraction: 0.8]
[pos_bagging_fraction: 1]
[neg_bagging_fraction: 1]
[bagging_freq: 0]
[bagging_seed: 400]
[bagging_by_query: 0]
[feature_fraction: 0.8]
[feature_fraction_bynode: 1]
[feature_fraction_seed: 30056]
[extra_trees: 0]
[extra_seed: 12879]
[early_stopping_round: 0]
[early_stopping_min_delta: 0]
[first_metric_only: 0]
[max_delta_step: 0]
[lambda_l1: 0.1]
[lambda_l2: 1]
[linear_lambda: 0]
[min_gain_to_split: 0]
[drop_rate: 0.1]
[max_drop: 50]
[skip_drop: 0.5]
[xgboost_dart_mode: 0]
[uniform_drop: 0]
[drop_seed: 17869]
[top_rate: 0.2]
[other_rate: 0.1]
[min_data_per_group: 100]
[max_cat_threshold: 32]
[cat_l2: 10]
[cat_smooth: 10]
[max_cat_to_onehot: 4]
[top_k: 20]
[monotone_constraints: ]
[monotone_constraints_method: basic]
[monotone_penalty: 0]
[feature_contri: ]
[forcedsplits_filename: ]
[refit_decay_rate: 0.9]
[cegb_tradeoff: 1]
[cegb_penalty_split: 0]
[cegb_penalty_feature_lazy: ]
[cegb_penalty_feature_coupled: ]
[path_smooth: 0]
[interaction_constraints: ]
[verbosity: -1]
[saved_feature_importance_type: 0]
[use_quantized_grad: 0]
[num_grad_quant_bins: 4]
[quant_train_renew_leaf: 0]
[stochastic_rounding: 1]
[linear_tree: 0]
[max_bin: 255]
[max_bin_by_feature: ]
[min_data_in_bin: 3]
[bin_construct_sample_cnt: 200000]
[data_random_seed: 175]
[is_enable_sparse: 1]
[enable_bundle: 1]
[use_missing: 1]
[zero_as_missing: 0]
[feature_pre_filter: 1]
[pre_partition: 0]
[two_round: 0]
[header: 0]
[label_column: ]
[weight_column: ]
[group_column: ]
[ignore_column: ]
[categorical_feature: 0]
[forcedbins_filename: ]
[precise_float_parser: 0]
[parser_config_file: ]
[objective_seed: 16083]
[num_class: 1]
[is_unbalance: 0]
[scale_pos_weight: 1]
[sigmoid: 1]
[boost_from_average: 1]
[reg_sqrt: 0]
[alpha: 0.9]
[fair_c: 1]
[poisson_max_delta_step: 0.7]
[tweedie_variance_power: 1.5]
[lambdarank_truncation_level: 30]
[lambdarank_norm: 1]
[label_gain: ]
[lambdarank_position_bias_regularization: 0]
[eval_at: ]
[multi_error_top_k: 1]
[auc_mu_weights: ]
[num_machines: 1]
[local_listen_port: 12400]
[time_out: 120]
[machine_list_filename: ]
[machines: ]
[gpu_platform_id: -1]
[gpu_device_id: -1]
[gpu_use_dp: 0]
[num_gpu: 1]

end of parameters

pandas_categorical:[[0, 1, 2, 3]]
